svm_type c_svc
kernel_type linear
nr_class 2
total_sv 12
rho 0.02004539660859091
label 0 1
probA -3.0686816539757173
probB 0.2780792102417885
nr_sv 7 5
SV
0.05065803284546588 1:0.019180430099368095 2:0.0 3:0.0 4:0.0 5:0.0013750451616942883 6:0.0 7:0.0 8:0.0 9:0.019180430099368095 10:0.08172085881233215 11:0.016062237322330475 12:0.017293887212872505 13:0.0 14:0.00865926779806614 15:0.0 16:0.0 17:0.0 18:0.04107029363512993 19:0.06904824823141098 20:0.05875737592577934 21:0.051881663501262665 22:0.0 23:0.019604435190558434 24:0.0 25:0.0 26:0.0 27:0.019464051350951195 28:0.025036929175257683 29:0.021472742781043053 30:0.003496424062177539 31:0.0 32:0.004208704922348261 33:0.0 34:0.0 35:0.0 36:0.020829658955335617 37:0.07606852799654007 38:0.02655586414039135 39:0.0 40:0.0 41:0.0 42:0.0 43:0.0 44:0.0 45:0.05139954760670662 46:0.26455408334732056 47:0.258157342672348 48:0.03175222501158714 49:0.0 50:0.0 51:0.0 52:0.0 53:0.0 54:0.03932095691561699 55:0.273669570684433 56:0.19662530720233917 57:0.025956420227885246 58:0.0 59:0.0 60:0.0 61:0.0 62:0.06418468803167343 63:0.13819721341133118 64:0.05919415131211281 65:0.06738145649433136 66:0.010489273816347122 67:0.0 68:0.0 69:0.0 70:0.0 71:0.053297970443964005 72:0.1189785897731781 73:0.04885432496666908 74:0.062150709331035614 75:0.026274295523762703 76:0.0030850465409457684 77:0.0 78:0.0 79:0.0 80:0.0 81:0.017289796844124794 82:0.13197298347949982 83:0.37289512157440186 84:0.05274094641208649 85:0.009255141019821167 86:0.0 87:0.0 88:0.0 89:0.0 90:0.0015997930895537138 91:0.25276684761047363 92:0.3268623948097229 93:0.004872065503150225 94:0.0 95:0.0 96:0.0 97:0.0 98:0.021394893527030945 99:0.1476089209318161 100:0.2437441647052765 101:0.07660304754972458 102:0.0 103:0.0 104:0.0 105:0.0 106:0.0 107:0.017765989527106285 108:0.1370440572500229 109:0.02760307490825653 110:0.03520017862319946 111:0.014970273710787296 112:0.009255141019821167 113:0.0 114:0.0 115:0.0 116:0.0 117:0.0063749453984200954 118:0.025948338210582733 119:0.2106345295906067 120:0.10990726947784424 121:0.03905460983514786 122:0.0 123:0.0 124:0.0 125:0.0 126:0.0 127:0.20472031831741333 128:0.2710793912410736 129:0.02618749998509884 130:0.0037630631122738123 131:0.0 132:0.0 133:0.0 134:0.0 135:0.04116630554199219 136:0.1716168075799942 137:0.09574133157730103 138:0.0 139:0.0 140:0.0 141:0.0 142:0.0 143:0.0 144:0.013722101226449013 145:0.030627980828285217 146:0.007322881370782852 147:0.0 148:0.0 149:0.003419415792450309 150:0.0 151:0.0 152:0.0 153:0.011503811925649643 154:0.06478122621774673 155:0.02773391455411911 156:0.02354133315384388 157:0.0 158:0.011900351382791996 159:0.0 160:0.0 161:0.0 162:0.023390542715787888 163:0.051457613706588745 164:0.08667615056037903 165:0.014488226734101772 166:0.0 167:0.011157983914017677 168:0.0 169:0.0 170:0.0 171:0.01523201446980238 172:0.051002684980630875 173:0.027045924216508865 174:0.01161629892885685 175:0.0 176:0.007270305883139372 177:0.0 178:0.0 179:0.0 180:0.004964911378920078 181:0.13491953909397125 182:0.0530177503824234 183:0.0010381609899923205 184:0.0 185:0.0 186:0.0 187:0.0 188:0.0 189:0.02541188895702362 190:0.3888365924358368 191:0.08990142494440079 192:0.007847110740840435 193:0.0 194:0.0 195:0.0 196:0.0 197:0.0 198:0.11491682380437851 199:0.3888365924358368 200:0.22052323818206787 201:0.0048294090665876865 202:0.0 203:0.0 204:0.0 205:0.0 206:0.0 207:0.12876781821250916 208:0.2295650988817215 209:0.12626086175441742 210:0.0038720990996807814 211:0.0 212:0.0 213:0.0 214:0.0 215:0.0 216:0.005405624862760305 217:0.07371287792921066 218:0.09974632412195206 219:0.06350976228713989 220:0.004848537966609001 221:0.0 222:0.002127633895725012 223:0.001040165196172893 224:0.0 225:0.0 226:0.34038177132606506 227:0.14410579204559326 228:0.09449828416109085 229:0.01720546931028366 230:0.0 231:0.006382902152836323 232:0.003120495704934001 233:0.01363413967192173 234:0.19028353691101074 235:0.30443015694618225 236:0.1677813082933426 237:0.04565560445189476 238:0.024277376011013985 239:0.0 240:0.04053783789277077 241:0.01981823705136776 242:0.0271759070456028 243:0.26797276735305786 244:0.11404918134212494 245:0.15361157059669495 246:0.06550648808479309 247:0.005432602018117905 248:0.0 249:0.013512613251805305 250:0.006606079172343016 251:0.0 252:0.01125196274369955 253:0.011515629477798939 254:0.04298064857721329 255:0.02336002141237259 256:0.008199614472687244 257:0.013755097053945065 258:0.006382902152836323 259:0.003120495704934001 260:0.0 261:0.0 262:0.010528081096708775 263:0.042930711060762405 264:0.046863917261362076 265:0.03257841244339943 266:0.012041468173265457 267:0.019148705527186394 268:0.00936148688197136 269:0.03666383773088455 270:0.07791657745838165 271:0.0079281534999609 272:0.02169005759060383 273:0.12601742148399353 274:0.0728321298956871 275:0.002451350213959813 276:0.042462121695280075 277:0.01142877247184515 278:0.02137667126953602 279:0.06079506874084473 280:0.005479466635733843 281:0.05533181503415108 282:0.07946750521659851 283:0.016297806054353714 284:8.171168155968189E-4 285:0.0141540402546525 286:0.0166701041162014 287:0.0048349779099226 288:0.005479466635733843 289:0.0016309685306623578 290:0.002189032733440399 291:0.0 292:0.0 293:0.0 294:0.0 295:3.2180387643165886E-4 296:1.0754119284683838E-4 297:0.001177377300336957 298:0.005220670253038406 299:0.0055311210453510284 300:0.0016673612408339977 301:0.0 302:0.0 303:0.0 304:1.0726794425863773E-4 305:3.584706428227946E-5 306:0.0041900211945176125 307:0.006166314706206322 308:0.0038464688695967197 309:0.0026694093830883503 310:0.0 311:0.0 312:0.0 313:0.0 314:0.0 315:0.00555413169786334 316:0.004104383755475283 317:8.400668739341199E-4 318:0.0 319:0.0 320:0.0 321:0.0 322:0.0 323:0.0 324:0.00393031258136034 325:0.012177420780062675 326:0.0057399277575314045 327:0.0 328:0.0 329:0.0 330:0.0 331:0.0 332:0.0 333:0.010988045483827591 334:0.06982498615980148 335:0.008513125590980053 336:2.6420276844874024E-4 337:0.0 338:0.0 339:0.0 340:0.0 341:0.0 342:0.021644508466124535 343:0.11477316915988922 344:0.004594794008880854 345:7.926084217615426E-4 346:0.0 347:0.0 348:0.0 349:0.0 350:0.0 351:0.04512528330087662 352:0.07285377383232117 353:0.002774997381493449 354:0.0 355:0.0 356:0.0 357:0.0 358:0.0 359:0.0 360:0.028441423550248146 361:0.00930555909872055 362:0.015153764747083187 363:4.1269356734119356E-4 364:0.00942226406186819 365:0.001942310482263565 366:0.0 367:0.0 368:0.0 369:0.00758359394967556 370:0.16434736549854279 371:0.1140366643667221 372:0.02538376860320568 373:0.009395538829267025 374:6.474368274211884E-4 375:0.0 376:0.0 377:0.0 378:0.017415691167116165 379:0.3349822759628296 380:0.27219024300575256 381:0.027149740606546402 382:0.0 383:0.0 384:0.0 385:0.0 386:0.0 387:0.07552767544984818 388:0.3349822759628296 389:0.1445034295320511 390:0.057303536683321 391:0.0 392:0.0 393:0.0 394:0.0 395:0.0 396:0.07860514521598816 397:0.0011601169826462865 398:0.002281182911247015 399:0.0013873211573809385 400:0.015063499100506306 401:0.02008862793445587 402:0.00259915878996253 403:0.0 404:0.0 405:0.0011601169826462865 406:0.21380221843719482 407:0.16246260702610016 408:0.034465864300727844 409:0.2205790877342224 410:0.04929732903838158 411:0.007797477301210165 412:0.0 413:0.0 414:0.0 415:0.3349822759628296 416:0.3349822759628296 417:0.13530798256397247 418:0.06559786200523376 419:3.648603451438248E-4 420:0.0 421:0.0 422:0.011671865358948708 423:0.018903043121099472 424:0.27321213483810425 425:0.3349822759628296 426:0.1719105988740921 427:0.0 428:0.0 429:8.293483406305313E-4 430:0.0017965070437639952 431:0.03501559793949127 432:0.047884777188301086 433:0.008074047975242138 434:0.0 435:2.874864439945668E-4 436:1.3271694479044527E-4 437:0.009434856474399567 438:0.0059181866236031055 439:0.028841610997915268 440:0.04766036197543144 441:0.07254776358604431 442:0.06709542870521545 443:0.0 444:0.0 445:0.0 446:0.0 447:0.001525689265690744 448:0.02894902043044567 449:0.2752113342285156 450:0.1798069030046463 451:0.016756616532802582 452:0.0 453:0.0 454:0.0 455:0.04518019035458565 456:0.006365096662193537 457:0.03999587893486023 458:0.2752113342285156 459:0.2752113342285156 460:4.550431913230568E-4 461:0.0 462:0.0 463:0.0 464:0.03922497481107712 465:0.01909528858959675 466:0.03680582717061043 467:0.14602087438106537 468:0.121779665350914 469:0.013165260665118694 470:0.001185743953101337 471:8.624593028798699E-4 472:3.981508198194206E-4 473:5.74097444768995E-4 474:0.0011413382599130273 475:0.0031216072384268045 476:0.019592050462961197 477:0.03834134712815285 478:0.09948249906301498 479:0.0020103948190808296 480:0.0018399074906483293 481:0.005143257323652506 482:0.001839125412516296 483:0.0034240144304931164 484:0.008973537012934685 485:0.1357259601354599 486:0.22756505012512207 487:0.10976098477840424 488:0.0010010969126597047 489:0.00684784259647131 490:0.01542977336794138 491:3.5049996222369373E-4 492:0.0 493:0.1025884822010994 494:0.2752113342285156 495:0.2752113342285156 496:0.09280510246753693 497:1.4794454909861088E-4 498:4.427065432537347E-4 499:0.0 500:0.0 501:0.0 502:0.07255470752716064 503:0.2752113342285156 504:0.2752113342285156 505:0.02401290461421013 506:0.0024757871869951487 507:0.0 508:0.0 509:0.0017222921596840024 510:0.010997196659445763 511:0.014146392233669758 512:0.06345580518245697 513:0.2364833652973175 514:0.045459844172000885 515:0.005128237418830395 516:6.133025162853301E-4 517:0.005393770057708025 518:0.05551464110612869 519:0.04658878594636917 520:0.039448343217372894 521:0.011305698193609715 522:0.21064721047878265 523:0.030419278889894485 524:0.003003290854394436 525:0.005824266467243433 526:0.01618131250143051 527:0.02169029414653778 528:0.019013311713933945 529:0.006495942827314138 530:0.001210676389746368 531:0.04477931931614876 532:0.03316434845328331 533:4.438336763996631E-4 534:0.0013281196588650346 535:8.150701178237796E-4 536:0.0015689728315919638 537:0.005953124724328518 538:0.0017374864546582103 539:0.013035198673605919 540:0.1165279746055603 541:0.023617390543222427 542:0.010374280624091625 543:0.025939330458641052 544:0.0 545:0.0 546:0.03185025230050087 547:0.04306484013795853 548:0.09255754202604294 549:0.10388483852148056 550:0.01643010601401329 551:0.012397991493344307 552:0.07781799137592316 553:0.013989383354783058 554:0.22014948725700378 555:0.13265348970890045 556:0.11421787738800049 557:0.02420913614332676 558:0.07915239781141281 559:3.1362927984446287E-4 560:0.0 561:0.0 562:0.004663127940148115 563:0.08802547305822372 564:0.032688241451978683 565:0.006443633232265711 566:0.004147710278630257 567:0.0029460424557328224 568:0.001208893139846623 569:0.0 570:0.0 571:0.0024452107027173042 572:7.070388528518379E-4 573:0.004013421945273876 574:0.0033176059368997812 575:0.0028706889133900404 576:0.0027420767582952976 577:0.04026681184768677 578:0.014024773612618446 579:0.005876366514712572 580:0.0 581:0.0 582:0.0 583:0.0 584:0.0036792263854295015 585:0.010855467058718204 586:0.14609122276306152 587:0.042492836713790894 588:0.04690292105078697 589:0.0 590:0.0 591:0.0 592:0.0 593:0.00122640875633806 594:0.06323369592428207 595:0.1447426825761795 596:0.2293616682291031 597:0.04588961973786354 598:0.004592821933329105 599:0.0 600:0.0 601:0.0 602:0.0 603:0.047025714069604874 604:0.10891828685998917 605:0.13795433938503265 606:0.008822883479297161 607:0.0015309406444430351 608:0.0 609:0.0 610:0.0 611:0.0 612:0.02051522210240364 613:0.037532053887844086 614:0.041400231420993805 615:0.017629100009799004 616:0.0 617:0.004033107776194811 618:0.0 619:0.0 620:8.171311928890646E-4 621:0.038720276206731796 622:0.065620057284832 623:0.08940108865499496 624:0.14337104558944702 625:0.0 626:0.012099322862923145 627:0.0 628:0.0 629:0.014926460571587086 630:0.13786663115024567 631:0.047174666076898575 632:0.16258949041366577 633:0.10160261392593384 634:0.018219714984297752 635:3.7607047124765813E-4 636:0.0 637:0.007048339582979679 638:0.05065871775150299 639:0.2937651574611664 640:0.0521690770983696 641:0.04515610262751579 642:0.017818531021475792 643:0.020702244713902473 644:0.001128211384639144 645:0.0 646:0.002349446527659893 647:0.05398913472890854 648:0.20638738572597504 649:0.0488012433052063 650:0.0 651:0.0 652:0.0 653:0.0013443691423162818 654:0.0 655:0.0 656:0.002451393287628889 657:0.1579728126525879 658:0.07320921123027802 659:0.0026690582744777203 660:0.007986809127032757 661:0.0 662:0.004033107776194811 663:0.0 664:0.0 665:0.05251733213663101 666:0.34038496017456055 667:0.054948367178440094 668:0.008007174357771873 669:0.023960428312420845 670:0.01332374382764101 671:0.001128211384639144 672:0.0 673:0.021145017817616463 674:0.054135724902153015 675:0.34038496017456055 676:0.03776806220412254 677:0.0 678:0.018102696165442467 679:0.04832826927304268 680:0.0033846343867480755 681:0.0 682:0.007048339582979679 683:0.040175098925828934 684:0.1577267199754715 685:0.040391091257333755 686:0.0 687:0.0 688:0.0 689:0.0 690:0.0 691:0.0 692:0.014691715128719807 693:0.14428523182868958 694:0.06494036316871643 695:0.0 696:0.0 697:0.0 698:0.0 699:0.0 700:0.0 701:0.03778066113591194 702:0.34038496017456055 703:0.0758771225810051 704:0.0 705:0.0 706:0.0 707:0.0 708:0.0 709:0.0 710:0.05190667510032654 711:0.34038496017456055 712:0.021407775580883026 713:0.0 714:0.0 715:0.0 716:0.0 717:0.0 718:0.0 719:0.05207202956080437 720:0.20677508413791656 721:0.012163802050054073 722:0.0 723:0.0 724:0.0 725:0.0 726:0.0 727:0.0 728:0.010311074554920197 729:0.04544224590063095 730:0.03528779000043869 731:0.0 732:0.0 733:0.0 734:0.0 735:0.0 736:0.0 737:0.027248820289969444 738:0.1520262211561203 739:0.04935784265398979 740:0.0 741:0.0 742:0.0 743:0.0 744:0.0 745:0.0 746:0.038706570863723755 747:0.2651185393333435 748:0.019141018390655518 749:0.0 750:0.0 751:0.0 752:0.0 753:0.0 754:0.0 755:0.01584392972290516 756:0.21899192035198212 757:0.01060725748538971 758:0.0 759:0.0 760:0.0 761:0.0 762:0.0 763:0.0011398629285395145 764:0.06295877695083618 765:0.07660310715436935 766:0.036472730338573456 767:0.0 768:0.0 769:0.0 770:0.0 771:0.0 772:3.799542901106179E-4 773:0.1400524079799652 774:0.22039705514907837 775:0.12301775068044662 776:0.0 777:0.0 778:0.0 779:0.0 780:0.0 781:0.0 782:0.062023013830184937 783:0.25474071502685547 784:0.05395388603210449 785:0.0 786:0.0 787:0.0 788:0.0 789:0.0 790:0.0 791:0.0033038444817066193 792:0.1872868835926056 793:0.022951962426304817 794:9.305470739491284E-4 795:0.0012317219516262412 796:0.0 797:0.0 798:0.0 799:3.799542901106179E-4 800:0.0472007654607296 801:0.1782904863357544 802:0.030867887660861015 803:0.0012348579475656152 804:0.003695165738463402 805:0.0 806:0.0 807:0.0 808:0.0094220582395792 809:0.30211979150772095 810:0.30211979150772095 811:0.11576305329799652 812:0.0 813:0.0 814:0.0 815:0.0 816:0.0 817:0.0030984687618911266 818:0.20643988251686096 819:0.30211979150772095 820:0.06672961264848709 821:0.0 822:0.0 823:0.0 824:0.0 825:0.0 826:0.0 827:0.006905681453645229 828:0.30211979150772095 829:0.005255475640296936 830:0.0027916415128856897 831:0.003695165738463402 832:0.0 833:0.0 834:0.0 835:8.80287610925734E-4 836:0.03230177238583565 837:0.028783490881323814 838:0.014980695210397243 839:0.00370457349345088 840:0.01108549814671278 841:0.0 842:0.0 843:0.0 844:0.005739331711083651 845:0.13455146551132202 846:0.15003742277622223 847:0.031561944633722305 848:0.0 849:0.0 850:0.0 851:0.0 852:0.0 853:0.0010328228818252683 854:0.06766200065612793 855:0.30211979150772095 856:0.016850730404257774 857:0.0 858:0.0 859:0.0 860:0.0 861:0.0 862:0.0 863:0.011707601137459278 864:0.20973482728004456 865:0.030627980828285217 866:0.007322881370782852 867:0.0 868:0.0 869:0.003419415792450309 870:0.0 871:0.0 872:0.0 873:0.011503811925649643 874:0.06478122621774673 875:0.02773391455411911 876:0.02354133315384388 877:0.0 878:0.011900351382791996 879:0.0 880:0.0 881:0.0 882:0.023390542715787888 883:0.051457613706588745 884:0.08667615056037903 885:0.014488226734101772 886:0.0 887:0.011157983914017677 888:0.0 889:0.0 890:0.0 891:0.01523201446980238 892:0.051002684980630875 893:0.027045924216508865 894:0.01161629892885685 895:0.0 896:0.007270305883139372 897:0.0 898:0.0 899:0.0 900:0.004964911378920078 901:0.13491953909397125 902:0.0530177503824234 903:0.0010381609899923205 904:0.0 905:0.0 906:0.0 907:0.0 908:0.0 909:0.02541188895702362 910:0.3888365924358368 911:0.08990142494440079 912:0.007847110740840435 913:0.0 914:0.0 915:0.0 916:0.0 917:0.0 918:0.11491682380437851 919:0.3888365924358368 920:0.22052323818206787 921:0.0048294090665876865 922:0.0 923:0.0 924:0.0 925:0.0 926:0.0 927:0.12876781821250916 928:0.2295650988817215 929:0.12626086175441742 930:0.0038720990996807814 931:0.0 932:0.0 933:0.0 934:0.0 935:0.0 936:0.005405624862760305 937:0.07371287792921066 938:0.09974632412195206 939:0.06350976228713989 940:0.004848537966609001 941:0.0 942:0.002127633895725012 943:0.001040165196172893 944:0.0 945:0.0 946:0.34038177132606506 947:0.14410579204559326 948:0.09449828416109085 949:0.01720546931028366 950:0.0 951:0.006382902152836323 952:0.003120495704934001 953:0.01363413967192173 954:0.19028353691101074 955:0.30443015694618225 956:0.1677813082933426 957:0.04565560445189476 958:0.024277376011013985 959:0.0 960:0.04053783789277077 961:0.01981823705136776 962:0.0271759070456028 963:0.26797276735305786 964:0.11404918134212494 965:0.15361157059669495 966:0.06550648808479309 967:0.005432602018117905 968:0.0 969:0.013512613251805305 970:0.006606079172343016 971:0.0 972:0.01125196274369955 973:0.011515629477798939 974:0.04298064857721329 975:0.02336002141237259 976:0.008199614472687244 977:0.013755097053945065 978:0.006382902152836323 979:0.003120495704934001 980:0.0 981:0.0 982:0.010528081096708775 983:0.042930711060762405 984:0.046863917261362076 985:0.03257841244339943 986:0.012041468173265457 987:0.019148705527186394 988:0.00936148688197136 989:0.03666383773088455 990:0.07791657745838165 991:0.0079281534999609 992:0.02169005759060383 993:0.12601742148399353 994:0.0728321298956871 995:0.002451350213959813 996:0.042462121695280075 997:0.01142877247184515 998:0.02137667126953602 999:0.06079506874084473 1000:0.005479466635733843 1001:0.05533181503415108 1002:0.07946750521659851 1003:0.016297806054353714 1004:8.171168155968189E-4 1005:0.0141540402546525 1006:0.0166701041162014 1007:0.0048349779099226 1008:0.005479466635733843 1009:0.002807860728353262 1010:0.006097887642681599 1011:0.0024384651333093643 1012:0.0 1013:0.001204426633194089 1014:0.0 1015:0.0 1016:0.0 1017:2.2891696426086128E-4 1018:0.0097682299092412 1019:0.003996109124273062 1020:0.0018753341864794493 1021:0.0 1022:0.0062652695924043655 1023:0.0 1024:0.0 1025:0.0 1026:0.003708592616021633 1027:0.002980375662446022 1028:0.0060602156445384026 1029:0.004201004281640053 1030:0.0 1031:0.00453442195430398 1032:0.0 1033:0.0 1034:0.0 1035:0.002980375662446022 1036:0.0029527272563427687 1037:1.7840352666098624E-4 1038:5.338514456525445E-4 1039:0.0 1040:6.733629270456731E-4 1041:0.0 1042:0.0 1043:0.0 1044:0.0029527272563427687 1045:0.0029170687776058912 1046:0.005548716988414526 1047:0.002458876697346568 1048:0.0 1049:0.0 1050:0.0 1051:3.7894281558692455E-4 1052:0.001678742584772408 1053:8.473118068650365E-4 1054:0.008010486140847206 1055:0.023360803723335266 1056:0.007904238998889923 1057:0.0 1058:0.0041071088053286076 1059:0.0 1060:1.2631426216103137E-4 1061:5.595808615908027E-4 1062:0.0028355075046420097 1063:0.032771360129117966 1064:0.056475795805454254 1065:0.015166910365223885 1066:0.0 1067:0.0013690362684428692 1068:0.0 1069:0.0 1070:0.0 1071:0.009095683693885803 1072:0.05606459453701973 1073:0.019079307094216347 1074:1.779504818841815E-4 1075:0.0 1076:0.0 1077:0.0 1078:0.0 1079:0.0 1080:0.01663897931575775 1081:0.02800394780933857 1082:0.008097573183476925 1083:2.2254239593166858E-4 1084:0.0 1085:0.0 1086:0.0 1087:0.0011368284467607737 1088:0.0050362274050712585 1089:0.0025602474343031645 1090:0.12685838341712952 1091:0.124148428440094 1092:0.001096250955015421 1093:0.0 1094:0.0013690362684428692 1095:0.0 1096:3.7894281558692455E-4 1097:0.001678742584772408 1098:0.004880338441580534 1099:0.317415326833725 1100:0.28967785835266113 1101:0.0032887528650462627 1102:0.0 1103:4.5634544221684337E-4 1104:0.0 1105:0.0 1106:0.0 1107:0.002018083818256855 1108:0.317415326833725 1109:0.18106558918952942 1110:0.013709647580981255 1111:0.0 1112:0.0 1113:0.0 1114:0.0 1115:0.0 1116:0.006054251920431852 1117:0.093522809445858 1118:0.026498885825276375 1119:0.0 1120:0.0 1121:0.0 1122:0.0 1123:0.0 1124:0.0 1125:0.002767960075289011 1126:0.317415326833725 1127:0.28924235701560974 1128:0.043531909584999084 1129:0.0 1130:0.0 1131:0.0 1132:0.0 1133:0.0 1134:0.008084122091531754 1135:0.317415326833725 1136:0.317415326833725 1137:0.18266841769218445 1138:0.0 1139:0.0 1140:0.0 1141:0.0 1142:0.0 1143:2.5450618704780936E-4 1144:0.317415326833725 1145:0.317415326833725 1146:0.05848649889230728 1147:0.0 1148:0.0 1149:0.0 1150:0.0 1151:0.0020423925016075373 1152:0.029897572472691536 1153:0.008074047975242138 1154:0.0 1155:2.874864439945668E-4 1156:1.3271694479044527E-4 1157:0.009434856474399567 1158:0.0059181866236031055 1159:0.028841610997915268 1160:0.04766036197543144 1161:0.07254776358604431 1162:0.06709542870521545 1163:0.0 1164:0.0 1165:0.0 1166:0.0 1167:0.001525689265690744 1168:0.02894902043044567 1169:0.2752113342285156 1170:0.1798069030046463 1171:0.016756616532802582 1172:0.0 1173:0.0 1174:0.0 1175:0.04518019035458565 1176:0.006365096662193537 1177:0.03999587893486023 1178:0.2752113342285156 1179:0.2752113342285156 1180:4.550431913230568E-4 1181:0.0 1182:0.0 1183:0.0 1184:0.03922497481107712 1185:0.01909528858959675 1186:0.03680582717061043 1187:0.14602087438106537 1188:0.121779665350914 1189:0.013165260665118694 1190:0.001185743953101337 1191:8.624593028798699E-4 1192:3.981508198194206E-4 1193:5.74097444768995E-4 1194:0.0011413382599130273 1195:0.0031216072384268045 1196:0.019592050462961197 1197:0.03834134712815285 1198:0.09948249906301498 1199:0.0020103948190808296 1200:0.0018399074906483293 1201:0.005143257323652506 1202:0.001839125412516296 1203:0.0034240144304931164 1204:0.008973537012934685 1205:0.1357259601354599 1206:0.22756505012512207 1207:0.10976098477840424 1208:0.0010010969126597047 1209:0.00684784259647131 1210:0.01542977336794138 1211:3.5049996222369373E-4 1212:0.0 1213:0.1025884822010994 1214:0.2752113342285156 1215:0.2752113342285156 1216:0.09280510246753693 1217:1.4794454909861088E-4 1218:4.427065432537347E-4 1219:0.0 1220:0.0 1221:0.0 1222:0.07255470752716064 1223:0.2752113342285156 1224:0.2752113342285156 1225:0.02401290461421013 1226:0.0024757871869951487 1227:0.0 1228:0.0 1229:0.0017222921596840024 1230:0.010997196659445763 1231:0.014146392233669758 1232:0.06345580518245697 1233:0.2364833652973175 1234:0.045459844172000885 1235:0.005128237418830395 1236:6.133025162853301E-4 1237:0.005393770057708025 1238:0.05551464110612869 1239:0.04658878594636917 1240:0.039448343217372894 1241:0.011305698193609715 1242:0.21064721047878265 1243:0.030419278889894485 1244:0.003003290854394436 1245:0.005824266467243433 1246:0.01618131250143051 1247:0.02169029414653778 1248:0.019013311713933945 1249:0.006495942827314138 1250:0.001210676389746368 1251:0.04477931931614876 1252:0.03316434845328331 1253:4.438336763996631E-4 1254:0.0013281196588650346 1255:8.150701178237796E-4 1256:0.0015689728315919638 1257:0.005953124724328518 1258:0.0017374864546582103 1259:0.013035198673605919 1260:0.1165279746055603 1261:0.023617390543222427 1262:0.010374280624091625 1263:0.025939330458641052 1264:0.0 1265:0.0 1266:0.03185025230050087 1267:0.04306484013795853 1268:0.09255754202604294 1269:0.10388483852148056 1270:0.01643010601401329 1271:0.012397991493344307 1272:0.07781799137592316 1273:0.013989383354783058 1274:0.22014948725700378 1275:0.13265348970890045 1276:0.11421787738800049 1277:0.02420913614332676 1278:0.07915239781141281 1279:3.1362927984446287E-4 1280:0.0 1281:0.0 1282:0.004663127940148115 1283:0.08802547305822372 1284:0.032688241451978683 1285:0.006443633232265711 1286:0.004147710278630257 1287:0.0029460424557328224 1288:0.001208893139846623 1289:0.0 1290:0.0 1291:0.0024452107027173042 1292:7.070388528518379E-4 1293:0.004013421945273876 1294:0.0033176059368997812 1295:0.0028706889133900404 1296:0.0027420767582952976 1297:0.00268191727809608 1298:3.383490548003465E-5 1299:0.0 1300:0.0013043541694059968 1301:0.002961490536108613 1302:0.0015258087078109384 1303:8.456204668618739E-4 1304:7.979744113981724E-4 1305:0.0074365451000630856 1306:0.005168785806745291 1307:0.0 1308:4.964454565197229E-4 1309:8.442563703283668E-4 1310:0.005538224708288908 1311:0.0037464017514139414 1312:0.024170326068997383 1313:0.009942554868757725 1314:0.008459051139652729 1315:0.010522543452680111 1316:0.010518940165638924 1317:0.0014893364859744906 1318:0.0023115379735827446 1319:0.003595565678551793 1320:0.0296307560056448 1321:0.02510961890220642 1322:0.0227905735373497 1323:0.0 1324:0.013938436284661293 1325:0.004622356966137886 1326:0.0 1327:0.0032493702601641417 1328:0.008651775307953358 1329:0.01735202968120575 1330:0.003100518137216568 1331:0.0 1332:0.007265875581651926 1333:0.03231027349829674 1334:1.1278302736172918E-5 1335:0.0 1336:0.003913062624633312 1337:0.008884470909833908 1338:0.0032932073809206486 1339:5.558052216656506E-4 1340:0.0452689453959465 1341:0.0717516541481018 1342:0.04754975065588951 1343:0.08798284828662872 1344:0.008007562719285488 1345:0.002532769227400422 1346:0.016614671796560287 1347:0.01086562778800726 1348:0.0030058990232646465 1349:0.018651150166988373 1350:0.16599701344966888 1351:0.12124179303646088 1352:0.27001169323921204 1353:0.08186743408441544 1354:0.006934614386409521 1355:0.007161418441683054 1356:0.010852858424186707 1357:0.0045755826868116856 1358:0.0042703598737716675 1359:0.13418513536453247 1360:0.04908876121044159 1361:0.14842498302459717 1362:0.2441987842321396 1363:0.009748109616339207 1364:0.015079488977789879 1365:0.005603277124464512 1366:0.0010335060069337487 1367:0.0 1368:0.021797629073262215 1369:0.02147454395890236 1370:0.0 1371:0.0019170313607901335 1372:0.0023178032133728266 1373:0.0 1374:0.0 1375:0.0 1376:0.18080173432826996 1377:0.14944688975811005 1378:0.1885080337524414 1379:0.30339542031288147 1380:0.09509822726249695 1381:0.006953409407287836 1382:0.0 1383:0.0 1384:0.0 1385:0.05414939299225807 1386:0.25047656893730164 1387:0.1905708760023117 1388:0.30339542031288147 1389:0.16881735622882843 1390:0.0 1391:0.0 1392:0.0 1393:0.0 1394:0.0 1395:0.061836838722229004 1396:0.11378887295722961 1397:0.30339542031288147 1398:0.13262058794498444 1399:0.0 1400:3.735535574378446E-5 1401:4.411524278111756E-4 1402:0.0 1403:0.0 1404:0.0041422354988753796 1405:0.04082644730806351 1406:0.0 1407:6.390104535967112E-4 1408:7.72600993514061E-4 1409:0.0 1410:0.0 1411:0.0 1412:0.034216683357954025 1413:0.09126878529787064 1414:0.25884950160980225 1415:0.10693299770355225 1416:0.025181183591485023 1417:0.0023178032133728266 1418:0.0 1419:0.0 1420:0.0 1421:0.013947566971182823 1422:0.07022055238485336 1423:0.2403700202703476 1424:0.19398590922355652 1425:0.030290573835372925 1426:0.0 1427:0.0 1428:0.0 1429:0.0 1430:0.0013338621938601136 1431:0.05886700376868248 1432:0.0635487511754036 1433:0.08933353424072266 1434:0.012432156130671501 1435:0.0 1436:1.1206606723135337E-4 1437:0.0013234573416411877 1438:0.0 1439:0.00153096963185817 1440:0.021407943218946457 1441:0.012163802050054073 1442:0.0 1443:0.0 1444:0.0 1445:0.0 1446:0.0 1447:0.0 1448:0.010311074554920197 1449:0.04544224590063095 1450:0.03528779000043869 1451:0.0 1452:0.0 1453:0.0 1454:0.0 1455:0.0 1456:0.0 1457:0.027248820289969444 1458:0.1520262211561203 1459:0.04935784265398979 1460:0.0 1461:0.0 1462:0.0 1463:0.0 1464:0.0 1465:0.0 1466:0.038706570863723755 1467:0.2651185393333435 1468:0.019141018390655518 1469:0.0 1470:0.0 1471:0.0 1472:0.0 1473:0.0 1474:0.0 1475:0.01584392972290516 1476:0.21899192035198212 1477:0.01060725748538971 1478:0.0 1479:0.0 1480:0.0 1481:0.0 1482:0.0 1483:0.0011398629285395145 1484:0.06295877695083618 1485:0.07660310715436935 1486:0.036472730338573456 1487:0.0 1488:0.0 1489:0.0 1490:0.0 1491:0.0 1492:3.799542901106179E-4 1493:0.1400524079799652 1494:0.22039705514907837 1495:0.12301775068044662 1496:0.0 1497:0.0 1498:0.0 1499:0.0 1500:0.0 1501:0.0 1502:0.062023013830184937 1503:0.25474071502685547 1504:0.05395388603210449 1505:0.0 1506:0.0 1507:0.0 1508:0.0 1509:0.0 1510:0.0 1511:0.0033038444817066193 1512:0.1872868835926056 1513:0.022951962426304817 1514:9.305470739491284E-4 1515:0.0012317219516262412 1516:0.0 1517:0.0 1518:0.0 1519:3.799542901106179E-4 1520:0.0472007654607296 1521:0.1782904863357544 1522:0.030867887660861015 1523:0.0012348579475656152 1524:0.003695165738463402 1525:0.0 1526:0.0 1527:0.0 1528:0.0094220582395792 1529:0.30211979150772095 1530:0.30211979150772095 1531:0.11576305329799652 1532:0.0 1533:0.0 1534:0.0 1535:0.0 1536:0.0 1537:0.0030984687618911266 1538:0.20643988251686096 1539:0.30211979150772095 1540:0.06672961264848709 1541:0.0 1542:0.0 1543:0.0 1544:0.0 1545:0.0 1546:0.0 1547:0.006905681453645229 1548:0.30211979150772095 1549:0.005255475640296936 1550:0.0027916415128856897 1551:0.003695165738463402 1552:0.0 1553:0.0 1554:0.0 1555:8.80287610925734E-4 1556:0.03230177238583565 1557:0.028783490881323814 1558:0.014980695210397243 1559:0.00370457349345088 1560:0.01108549814671278 1561:0.0 1562:0.0 1563:0.0 1564:0.005739331711083651 1565:0.13455146551132202 1566:0.15003742277622223 1567:0.031561944633722305 1568:0.0 1569:0.0 1570:0.0 1571:0.0 1572:0.0 1573:0.0010328228818252683 1574:0.06766200065612793 1575:0.30211979150772095 1576:0.016850730404257774 1577:0.0 1578:0.0 1579:0.0 1580:0.0 1581:0.0 1582:0.0 1583:0.011707601137459278 1584:0.20973482728004456 1585:0.001646649674512446 1586:0.0 1587:0.0 1588:0.0 1589:0.0 1590:0.0 1591:6.869150092825294E-5 1592:0.03803948312997818 1593:0.08958136290311813 1594:0.002079788828268647 1595:0.0 1596:0.0 1597:0.0060098120011389256 1598:3.808063183896593E-6 1599:0.0 1600:0.010976815596222878 1601:0.13292689621448517 1602:0.1530245840549469 1603:0.0 1604:0.0 1605:0.0 1606:0.018029434606432915 1607:1.1424189324316103E-5 1608:0.0 1609:0.00834712479263544 1610:0.16060148179531097 1611:0.1780865490436554 1612:0.007349872495979071 1613:2.445647260174155E-4 1614:0.0 1615:0.0 1616:0.0 1617:0.0 1618:0.014270633459091187 1619:0.10738474875688553 1620:0.06412851810455322 1621:0.0033218616154044867 1622:0.0 1623:0.0 1624:0.0 1625:0.0 1626:0.0 1627:0.0 1628:0.07537873089313507 1629:0.17582203447818756 1630:0.04120022803544998 1631:0.0 1632:0.0 1633:0.0020032706670463085 1634:1.269354356736585E-6 1635:0.0 1636:0.0035902471281588078 1637:0.25909528136253357 1638:0.3152439296245575 1639:0.012889804318547249 1640:0.0 1641:0.0 1642:0.0060098120011389256 1643:3.808063183896593E-6 1644:0.0 1645:0.0024494060780853033 1646:0.3152439296245575 1647:0.3152439296245575 1648:0.010289383120834827 1649:0.0 1650:0.0 1651:0.0 1652:0.0 1653:0.0 1654:0.003757971338927746 1655:0.25046980381011963 1656:0.3152439296245575 1657:0.0012170184636488557 1658:0.0 1659:0.0 1660:0.0 1661:0.0 1662:0.0 1663:0.0 1664:0.02585582248866558 1665:0.06539025902748108 1666:0.013502322137355804 1667:0.0 1668:0.0 1669:0.0 1670:0.0 1671:0.0 1672:0.0 1673:0.13811644911766052 1674:0.1960732340812683 1675:0.005754272919148207 1676:0.0 1677:0.0 1678:0.0 1679:0.0 1680:0.0 1681:0.0 1682:0.1455863118171692 1683:0.3152439296245575 1684:0.016713866963982582 1685:0.0 1686:0.0 1687:0.0 1688:0.0 1689:0.0 1690:0.0 1691:0.07208624482154846 1692:0.30972522497177124 1693:7.764132460579276E-4 1694:0.0 1695:0.0 1696:0.0 1697:0.0 1698:0.0 1699:0.0 1700:0.015172166749835014 1701:0.03057044930756092 1702:0.0013894421281293035 1703:0.0 1704:0.0 1705:0.0 1706:0.0 1707:0.0 1708:0.0 1709:0.07414302974939346 1710:0.05500025302171707 1711:0.005524966400116682 1712:0.0 1713:0.0 1714:0.0 1715:0.0 1716:0.0 1717:0.0 1718:0.06545479595661163 1719:0.07095887511968613 1720:0.021577099338173866 1721:0.0 1722:0.0 1723:0.0 1724:0.0 1725:0.0 1726:0.0 1727:0.006047865841537714 1728:0.04573468118906021 
0.06014628125566465 1:0.0 2:0.0 3:0.0 4:0.0 5:0.008397618308663368 6:0.0 7:0.042932040989398956 8:0.014347134158015251 9:0.0 10:0.0 11:0.0 12:0.0 13:0.0 14:0.0027992059476673603 15:0.0 16:0.036393675953149796 17:0.01216212660074234 18:0.0 19:0.0 20:0.0 21:0.0 22:0.0 23:0.0 24:0.0 25:0.0 26:0.0 27:0.0 28:0.0 29:0.0 30:0.0 31:0.0 32:0.0 33:0.0 34:0.0 35:0.0 36:0.0 37:0.04741537943482399 38:0.0 39:0.0 40:0.0 41:0.012880614958703518 42:0.0 43:0.12992526590824127 44:0.04341874271631241 45:0.04741537943482399 46:0.07596838474273682 47:0.0 48:0.0 49:0.0 50:0.03864184767007828 51:0.0 52:0.3637292981147766 53:0.12155193090438843 54:0.07596838474273682 55:0.25158917903900146 56:0.0 57:0.0 58:0.0 59:0.0 60:0.0 61:0.0525934100151062 62:0.017575791105628014 63:0.25158917903900146 64:0.1423734724521637 65:0.0 66:0.0 67:0.0 68:0.0 69:0.0 70:0.0 71:0.0 72:0.1423734724521637 73:0.050211101770401 74:0.0 75:0.0 76:0.0 77:0.18226183950901031 78:0.018840879201889038 79:0.0953136458992958 80:0.028773995116353035 81:0.050211101770401 82:0.15209390223026276 83:0.0 84:0.0 85:0.0 86:0.25473570823669434 87:0.006280293222516775 88:0.13857817649841309 89:0.045284342020750046 90:0.15209390223026276 91:0.3318977355957031 92:0.0 93:0.0 94:0.0 95:0.0 96:0.0 97:0.0175311341881752 98:0.005858596879988909 99:0.3318977355957031 100:0.17522138357162476 101:0.0 102:0.0 103:0.0 104:0.0 105:0.0 106:0.0 107:0.0 108:0.17522138357162476 109:0.003804515115916729 110:0.0 111:0.0 112:0.0 113:0.04787334054708481 114:0.056522633880376816 115:0.0871272161602974 116:0.019881945103406906 117:0.003804515115916729 118:0.10819429904222488 119:0.0 120:0.0 121:0.0 122:0.04627005383372307 123:0.018840879201889038 124:0.13075189292430878 125:0.04061684012413025 126:0.10819429904222488 127:0.21168819069862366 128:0.0 129:0.0 130:0.0 131:0.0 132:0.0 133:0.0 134:0.0 135:0.21168819069862366 136:0.09896892309188843 137:0.0 138:0.0 139:0.0 140:0.0 141:0.0 142:0.021353228017687798 143:0.007135874126106501 144:0.09896892309188843 145:0.0 146:0.0 147:0.0 148:0.0 149:0.0 150:0.0 151:0.0 152:0.0 153:0.0 154:0.0 155:0.0 156:0.0 157:0.0 158:0.013073299080133438 159:0.0 160:0.0 161:0.0 162:0.0 163:0.0 164:0.03645824268460274 165:0.10909653455018997 166:0.0 167:0.04452773183584213 168:0.0 169:0.0 170:0.0 171:0.0 172:0.0 173:0.024180324748158455 174:0.07235646992921829 175:0.0 176:0.036369696259498596 177:0.0 178:0.0 179:0.0 180:0.0 181:0.0 182:0.0 183:0.0 184:0.0 185:0.0 186:0.0 187:0.0 188:0.0 189:0.0 190:0.0 191:0.0 192:0.0 193:0.0 194:0.11783874779939651 195:0.0 196:0.0 197:0.0 198:0.0 199:0.0 200:0.04484708979725838 201:0.1341990828514099 202:0.0 203:0.5616588592529297 204:0.0 205:0.0 206:0.0 207:0.0 208:0.0 209:0.01895822212100029 210:0.056730013340711594 211:0.0 212:0.07619627565145493 213:0.0 214:0.0 215:0.0 216:0.0 217:0.06966426968574524 218:0.0 219:0.0 220:0.0 221:0.0 222:0.0 223:0.0 224:0.0 225:0.06966426968574524 226:0.17457780241966248 227:0.02021394670009613 228:0.06048760563135147 229:0.0 230:0.08368421345949173 231:0.0 232:0.0 233:0.0 234:0.17457780241966248 235:0.050558194518089294 236:0.06064184010028839 237:0.18146280944347382 238:0.0 239:0.6236838698387146 240:0.0 241:0.0 242:0.0 243:0.050558194518089294 244:0.0 245:0.0 246:0.0 247:0.0 248:0.1242104098200798 249:0.0 250:0.0 251:0.0 252:0.0 253:0.05784812942147255 254:0.0 255:0.0 256:0.0 257:0.0 258:0.0 259:0.0 260:0.0 261:0.05784812942147255 262:0.15914872288703918 263:0.006737981457263231 264:0.020162533968687057 265:0.0 266:0.0 267:0.0 268:0.0 269:0.0 270:0.15914872288703918 271:0.08452878892421722 272:0.02021394670009613 273:0.06048760563135147 274:0.0 275:0.050359345972537994 276:0.0 277:0.0 278:0.0 279:0.08452878892421722 280:0.0 281:0.0 282:0.0 283:0.0 284:0.016786448657512665 285:0.0 286:0.0 287:0.0 288:0.0 289:0.034853529185056686 290:0.0 291:0.0 292:0.0 293:0.0 294:0.0 295:0.0 296:0.0 297:0.034853529185056686 298:0.10161744058132172 299:0.0 300:0.0 301:0.0 302:0.0 303:0.0 304:0.0 305:0.0 306:0.10161744058132172 307:0.12521199882030487 308:0.0 309:0.0 310:0.0 311:0.0 312:0.0 313:0.0 314:0.0 315:0.12521199882030487 316:0.047408826649188995 317:0.0 318:0.0 319:0.0 320:0.13304190337657928 321:0.0 322:0.03622674569487572 323:0.012106341309845448 324:0.047408826649188995 325:0.0 326:0.0 327:0.0 328:0.0 329:0.0 330:0.0 331:0.0 332:0.0 333:0.0 334:0.0 335:0.0 336:0.0 337:0.0 338:0.0 339:0.0 340:0.0 341:0.0 342:0.0 343:0.0 344:0.0 345:0.0 346:0.0 347:0.0 348:0.0 349:0.0 350:0.0 351:0.0 352:0.0 353:0.0 354:0.0 355:0.0 356:0.48753514885902405 357:0.0 358:0.0 359:0.0 360:0.0 361:0.0 362:0.0 363:0.0 364:0.0 365:0.0 366:0.0 367:0.0 368:0.0 369:0.0 370:0.0 371:0.0 372:0.0 373:0.0 374:0.0 375:0.0 376:0.0 377:0.0 378:0.0 379:0.0 380:0.0 381:0.0 382:0.0 383:0.0 384:0.0 385:0.0 386:0.0 387:0.0 388:0.0 389:0.0 390:0.0 391:0.0 392:0.6007359027862549 393:0.0 394:0.0 395:0.0 396:0.0 397:0.08360927551984787 398:0.0 399:0.0 400:0.0 401:0.0 402:0.0 403:0.0 404:0.0 405:0.08360927551984787 406:0.24376757442951202 407:0.0 408:0.0 409:0.0 410:0.0 411:0.0 412:0.0 413:0.0 414:0.24376757442951202 415:0.16340988874435425 416:0.0 417:0.0 418:0.0 419:0.0 420:0.0 421:0.0 422:0.0 423:0.16340988874435425 424:0.0 425:0.0 426:0.0 427:0.0 428:0.3094412386417389 429:0.0 430:0.0 431:0.0 432:0.0 433:0.0 434:0.0 435:0.0 436:0.0 437:0.0 438:0.0 439:0.0 440:0.0 441:0.0 442:0.0 443:0.0 444:0.0 445:0.0 446:0.0 447:0.0 448:0.0 449:0.0 450:0.0 451:0.0 452:0.0 453:0.0 454:0.0 455:0.034981705248355865 456:0.0 457:0.0 458:0.0 459:0.0 460:0.0 461:0.004066843539476395 462:0.012169498950242996 463:0.0 464:0.1496373564004898 465:0.0 466:0.0 467:0.0 468:0.0 469:0.0 470:0.0 471:0.0 472:0.0 473:0.0 474:0.0 475:0.0 476:0.0 477:0.0 478:0.0 479:0.0 480:0.0 481:0.0 482:0.0 483:0.0 484:0.0 485:0.0 486:0.0 487:0.0 488:0.0062378933653235435 489:0.018666082993149757 490:0.0 491:0.0843813568353653 492:0.0 493:0.0 494:0.0 495:0.0 496:0.0 497:0.018713679164648056 498:0.05599824711680412 499:0.0 500:0.4169198274612427 501:0.0 502:0.0 503:0.0 504:0.0 505:0.0 506:0.0 507:0.0 508:0.0 509:0.0 510:0.0 511:0.0 512:0.0 513:0.0 514:0.0 515:0.0 516:0.0 517:0.0 518:0.017609771341085434 519:0.0 520:0.0 521:0.0 522:0.0 523:0.0 524:0.12382973730564117 525:0.37054434418678284 526:0.0 527:0.07905074208974838 528:0.0 529:0.0 530:0.0 531:0.0 532:0.0 533:0.16781368851661682 534:0.5021606683731079 535:0.0 536:0.1884515881538391 537:0.0 538:0.0 539:0.0 540:0.0 541:0.028086533769965172 542:0.0 543:0.0 544:0.0 545:0.0 546:0.0 547:0.0 548:0.0 549:0.028086533769965172 550:0.06774913519620895 551:0.0 552:0.0 553:0.0 554:0.08110681176185608 555:0.0 556:0.0 557:0.0 558:0.06774913519620895 559:0.012477399781346321 560:0.0790780559182167 561:0.23663078248500824 562:0.0 563:0.3673785924911499 564:0.0 565:0.0 566:0.0 567:0.012477399781346321 568:0.0 569:0.06810518354177475 570:0.2037959098815918 571:0.0 572:0.20007717609405518 573:0.0 574:0.0 575:0.0 576:0.0 577:0.1322864592075348 578:0.0 579:0.0 580:0.0 581:0.0 582:0.0 583:0.0 584:0.0 585:0.1322864592075348 586:0.3856886327266693 587:0.0 588:0.0 589:0.0 590:0.0 591:0.0 592:0.0 593:0.0 594:0.3856886327266693 595:0.4752417206764221 596:0.0 597:0.0 598:0.0 599:0.0 600:0.0 601:0.0 602:0.0 603:0.4752417206764221 604:0.2447986900806427 605:0.0 606:0.0 607:0.0 608:0.0 609:0.0 610:0.0 611:0.0 612:0.2447986900806427 613:0.031121933832764626 614:0.0 615:0.0 616:0.0 617:0.0 618:0.0 619:0.0 620:0.0 621:0.031121933832764626 622:0.09073774516582489 623:0.0 624:0.0 625:0.0 626:0.0 627:0.0 628:0.0 629:0.0 630:0.09073774516582489 631:0.11180615425109863 632:0.0 633:0.0 634:0.0 635:0.0 636:0.0 637:0.0 638:0.0 639:0.11180615425109863 640:0.0575917549431324 641:0.0 642:0.0 643:0.0 644:0.0 645:0.0 646:0.0 647:0.0 648:0.0575917549431324 649:0.0 650:0.0 651:0.0 652:0.0 653:0.0 654:0.0 655:0.0 656:0.0 657:0.0 658:0.0 659:0.0 660:0.0 661:0.0 662:0.0 663:0.0 664:0.0 665:0.0 666:0.0 667:0.0 668:0.0 669:0.0 670:0.0 671:0.0 672:0.0 673:0.0 674:0.0 675:0.0 676:0.0 677:0.0 678:0.0 679:0.0 680:0.0 681:0.0 682:0.0 683:0.0 684:0.0 685:0.0 686:0.0 687:0.0 688:0.0 689:0.0 690:0.0 691:0.0 692:0.0 693:0.0 694:0.0 695:0.0 696:0.0 697:0.0 698:0.0 699:0.0 700:0.0 701:0.0 702:0.0 703:0.0 704:0.0 705:0.0 706:0.0 707:0.0 708:0.0 709:0.0 710:0.0 711:0.0 712:0.0 713:0.0 714:0.0 715:0.0 716:0.0 717:0.0 718:0.0 719:0.0 720:0.0 721:0.04102387651801109 722:0.0 723:0.0 724:0.0 725:0.0 726:0.0 727:0.0 728:0.0 729:0.04102387651801109 730:0.04428164288401604 731:0.0 732:0.0 733:0.0 734:0.066215381026268 735:0.0 736:0.15968842804431915 737:0.053365059196949005 738:0.04428164288401604 739:0.06720008701086044 740:0.0 741:0.0 742:0.0 743:0.07048159837722778 744:0.0 745:0.169977068901062 746:0.056803345680236816 747:0.06720008701086044 748:0.06999778002500534 749:0.0 750:0.0 751:0.0 752:0.0 753:0.0 754:0.0 755:0.021922284737229347 756:0.07454032450914383 757:0.009651345200836658 758:0.0 759:0.0 760:0.0 761:0.0 762:0.0 763:0.0 764:0.0 765:0.009651345200836658 766:0.025382952764630318 767:0.0 768:0.0 769:0.0 770:0.4084342122077942 771:0.0 772:0.12156215310096741 773:0.04062393307685852 774:0.025382952764630318 775:0.2383270561695099 776:0.0 777:0.0 778:0.0 779:0.28137415647506714 780:0.0 781:0.29196983575820923 782:0.09757118672132492 783:0.2383270561695099 784:0.21851828694343567 785:0.0 786:0.0 787:0.0 788:0.0 789:0.0 790:0.0 791:0.0 792:0.21851828694343567 793:0.0 794:0.0 795:0.0 796:0.0 797:0.0 798:0.0 799:0.0 800:0.0 801:0.0 802:0.044895537197589874 803:0.0 804:0.0 805:0.0 806:0.06992936134338379 807:0.0 808:0.027997862547636032 809:0.009356393478810787 810:0.044895537197589874 811:0.32375261187553406 812:0.0 813:0.0 814:0.0 815:0.02330978587269783 816:0.0 817:0.0839935913681984 818:0.028069181367754936 819:0.32375261187553406 820:0.21358658373355865 821:0.0 822:0.0 823:0.0 824:0.0 825:0.0 826:0.0 827:0.0 828:0.21358658373355865 829:0.0 830:0.0 831:0.0 832:0.0 833:0.0 834:0.0 835:0.0 836:0.0 837:0.0 838:0.0 839:0.0 840:0.0 841:0.0 842:0.0 843:0.0 844:0.0 845:0.0 846:0.0 847:0.0 848:0.0 849:0.0 850:0.0 851:0.0 852:0.0 853:0.0 854:0.0 855:0.0 856:0.014195864088833332 857:0.0 858:0.0 859:0.0 860:0.0 861:0.0 862:0.0 863:0.0 864:0.014195864088833332 865:0.0 866:0.0 867:0.0 868:0.0 869:0.0 870:0.0 871:0.0 872:0.0 873:0.0 874:0.0 875:0.0 876:0.0 877:0.0 878:0.013073299080133438 879:0.0 880:0.0 881:0.0 882:0.0 883:0.0 884:0.03645824268460274 885:0.10909653455018997 886:0.0 887:0.04452773183584213 888:0.0 889:0.0 890:0.0 891:0.0 892:0.0 893:0.024180324748158455 894:0.07235646992921829 895:0.0 896:0.036369696259498596 897:0.0 898:0.0 899:0.0 900:0.0 901:0.0 902:0.0 903:0.0 904:0.0 905:0.0 906:0.0 907:0.0 908:0.0 909:0.0 910:0.0 911:0.0 912:0.0 913:0.0 914:0.11783874779939651 915:0.0 916:0.0 917:0.0 918:0.0 919:0.0 920:0.04484708979725838 921:0.1341990828514099 922:0.0 923:0.5616588592529297 924:0.0 925:0.0 926:0.0 927:0.0 928:0.0 929:0.01895822212100029 930:0.056730013340711594 931:0.0 932:0.07619627565145493 933:0.0 934:0.0 935:0.0 936:0.0 937:0.06966426968574524 938:0.0 939:0.0 940:0.0 941:0.0 942:0.0 943:0.0 944:0.0 945:0.06966426968574524 946:0.17457780241966248 947:0.02021394670009613 948:0.06048760563135147 949:0.0 950:0.08368421345949173 951:0.0 952:0.0 953:0.0 954:0.17457780241966248 955:0.050558194518089294 956:0.06064184010028839 957:0.18146280944347382 958:0.0 959:0.6236838698387146 960:0.0 961:0.0 962:0.0 963:0.050558194518089294 964:0.0 965:0.0 966:0.0 967:0.0 968:0.1242104098200798 969:0.0 970:0.0 971:0.0 972:0.0 973:0.05784812942147255 974:0.0 975:0.0 976:0.0 977:0.0 978:0.0 979:0.0 980:0.0 981:0.05784812942147255 982:0.15914872288703918 983:0.006737981457263231 984:0.020162533968687057 985:0.0 986:0.0 987:0.0 988:0.0 989:0.0 990:0.15914872288703918 991:0.08452878892421722 992:0.02021394670009613 993:0.06048760563135147 994:0.0 995:0.050359345972537994 996:0.0 997:0.0 998:0.0 999:0.08452878892421722 1000:0.0 1001:0.0 1002:0.0 1003:0.0 1004:0.016786448657512665 1005:0.0 1006:0.0 1007:0.0 1008:0.0 1009:0.004901633132249117 1010:0.0 1011:0.0 1012:0.0 1013:0.0 1014:0.0 1015:0.0 1016:0.0 1017:0.004901633132249117 1018:0.04418183118104935 1019:0.0 1020:0.0 1021:0.0 1022:0.0 1023:0.0 1024:0.0 1025:0.0 1026:0.04418183118104935 1027:0.05767325311899185 1028:0.0 1029:0.0 1030:0.0 1031:0.0 1032:0.0 1033:0.0 1034:0.0 1035:0.05767325311899185 1036:0.02970769815146923 1037:0.0 1038:0.0 1039:0.0 1040:0.0 1041:0.0 1042:0.0 1043:0.0 1044:0.02970769815146923 1045:0.047413505613803864 1046:0.03949800506234169 1047:0.1181926354765892 1048:0.0 1049:0.0 1050:0.0 1051:0.0 1052:0.0 1053:0.047413505613803864 1054:0.26553720235824585 1055:0.05358685553073883 1056:0.1603516787290573 1057:0.0 1058:0.0 1059:0.0 1060:0.0 1061:0.0 1062:0.26553720235824585 1063:0.4247620105743408 1064:0.0 1065:0.0 1066:0.0 1067:0.0 1068:0.0 1069:0.0 1070:0.0 1071:0.4247620105743408 1072:0.21879644691944122 1073:0.0 1074:0.0 1075:0.0 1076:0.0 1077:0.0 1078:0.0 1079:0.0 1080:0.21879644691944122 1081:0.10861246287822723 1082:0.013166002929210663 1083:0.03939754515886307 1084:0.0 1085:0.02554519660770893 1086:0.0 1087:0.0 1088:0.0 1089:0.10861246287822723 1090:0.09679482132196426 1091:0.017862284556031227 1092:0.0534505620598793 1093:0.0 1094:0.03465711325407028 1095:0.0 1096:0.0 1097:0.0 1098:0.09679482132196426 1099:0.14158734679222107 1100:0.0 1101:0.0 1102:0.0 1103:0.0 1104:0.0 1105:0.0 1106:0.0 1107:0.14158734679222107 1108:0.0729321539402008 1109:0.0 1110:0.0 1111:0.0 1112:0.0 1113:0.0 1114:0.0 1115:0.0 1116:0.0729321539402008 1117:0.03413398936390877 1118:0.005576249677687883 1119:0.016686201095581055 1120:0.0 1121:0.07663559913635254 1122:0.0 1123:0.0 1124:0.0 1125:0.03413398936390877 1126:0.10943824797868729 1127:0.04106893390417099 1128:0.12289344519376755 1129:0.0 1130:0.10397132486104965 1131:0.0 1132:0.0 1133:0.0 1134:0.10943824797868729 1135:0.25417834520339966 1136:0.008113396354019642 1137:0.02427828125655651 1138:0.0 1139:0.0 1140:0.0 1141:0.0 1142:0.0 1143:0.25417834520339966 1144:0.1368272453546524 1145:0.0 1146:0.0 1147:0.0 1148:0.0 1149:0.0 1150:0.0 1151:0.0 1152:0.1368272453546524 1153:0.0 1154:0.0 1155:0.0 1156:0.0 1157:0.0 1158:0.0 1159:0.0 1160:0.0 1161:0.0 1162:0.0 1163:0.0 1164:0.0 1165:0.0 1166:0.0 1167:0.0 1168:0.0 1169:0.0 1170:0.0 1171:0.0 1172:0.0 1173:0.0 1174:0.0 1175:0.034981705248355865 1176:0.0 1177:0.0 1178:0.0 1179:0.0 1180:0.0 1181:0.004066843539476395 1182:0.012169498950242996 1183:0.0 1184:0.1496373564004898 1185:0.0 1186:0.0 1187:0.0 1188:0.0 1189:0.0 1190:0.0 1191:0.0 1192:0.0 1193:0.0 1194:0.0 1195:0.0 1196:0.0 1197:0.0 1198:0.0 1199:0.0 1200:0.0 1201:0.0 1202:0.0 1203:0.0 1204:0.0 1205:0.0 1206:0.0 1207:0.0 1208:0.0062378933653235435 1209:0.018666082993149757 1210:0.0 1211:0.0843813568353653 1212:0.0 1213:0.0 1214:0.0 1215:0.0 1216:0.0 1217:0.018713679164648056 1218:0.05599824711680412 1219:0.0 1220:0.4169198274612427 1221:0.0 1222:0.0 1223:0.0 1224:0.0 1225:0.0 1226:0.0 1227:0.0 1228:0.0 1229:0.0 1230:0.0 1231:0.0 1232:0.0 1233:0.0 1234:0.0 1235:0.0 1236:0.0 1237:0.0 1238:0.017609771341085434 1239:0.0 1240:0.0 1241:0.0 1242:0.0 1243:0.0 1244:0.12382973730564117 1245:0.37054434418678284 1246:0.0 1247:0.07905074208974838 1248:0.0 1249:0.0 1250:0.0 1251:0.0 1252:0.0 1253:0.16781368851661682 1254:0.5021606683731079 1255:0.0 1256:0.1884515881538391 1257:0.0 1258:0.0 1259:0.0 1260:0.0 1261:0.028086533769965172 1262:0.0 1263:0.0 1264:0.0 1265:0.0 1266:0.0 1267:0.0 1268:0.0 1269:0.028086533769965172 1270:0.06774913519620895 1271:0.0 1272:0.0 1273:0.0 1274:0.08110681176185608 1275:0.0 1276:0.0 1277:0.0 1278:0.06774913519620895 1279:0.012477399781346321 1280:0.0790780559182167 1281:0.23663078248500824 1282:0.0 1283:0.3673785924911499 1284:0.0 1285:0.0 1286:0.0 1287:0.012477399781346321 1288:0.0 1289:0.06810518354177475 1290:0.2037959098815918 1291:0.0 1292:0.20007717609405518 1293:0.0 1294:0.0 1295:0.0 1296:0.0 1297:0.009647402912378311 1298:0.0 1299:0.0 1300:0.0 1301:0.0 1302:0.0 1303:0.0 1304:0.0 1305:0.009647402912378311 1306:0.028127551078796387 1307:0.0 1308:0.0 1309:0.0 1310:0.0 1311:0.0 1312:0.0 1313:0.0 1314:0.028127551078796387 1315:0.034658484160900116 1316:0.0 1317:0.0 1318:0.0 1319:0.0 1320:0.0 1321:0.0 1322:0.0 1323:0.034658484160900116 1324:0.01785271055996418 1325:0.0 1326:0.0 1327:0.0 1328:0.0 1329:0.0 1330:0.0 1331:0.0 1332:0.01785271055996418 1333:0.02376173436641693 1334:0.0 1335:0.0 1336:0.0 1337:0.0 1338:0.0 1339:0.0 1340:0.0 1341:0.02376173436641693 1342:0.06927867978811264 1343:0.0 1344:0.0 1345:0.0 1346:0.0 1347:0.0 1348:0.0 1349:0.0 1350:0.06927867978811264 1351:0.08536449819803238 1352:0.0 1353:0.0 1354:0.0 1355:0.0 1356:0.0 1357:0.0 1358:0.0 1359:0.08536449819803238 1360:0.04397156089544296 1361:0.0 1362:0.0 1363:0.0 1364:0.0 1365:0.0 1366:0.0 1367:0.0 1368:0.04397156089544296 1369:0.13419418036937714 1370:0.0 1371:0.0 1372:0.0 1373:0.0 1374:0.0 1375:0.0 1376:0.0 1377:0.13419418036937714 1378:0.39125069975852966 1379:0.0 1380:0.0 1381:0.0 1382:0.0 1383:0.0 1384:0.0 1385:0.0 1386:0.39125069975852966 1387:0.48209521174430847 1388:0.0 1389:0.0 1390:0.0 1391:0.0 1392:0.0 1393:0.0 1394:0.0 1395:0.48209521174430847 1396:0.24832898378372192 1397:0.0 1398:0.0 1399:0.0 1400:0.0 1401:0.0 1402:0.0 1403:0.0 1404:0.24832898378372192 1405:0.020969657227396965 1406:0.0 1407:0.0 1408:0.0 1409:0.0 1410:0.0 1411:0.0 1412:0.0 1413:0.020969657227396965 1414:0.061138223856687546 1415:0.0 1416:0.0 1417:0.0 1418:0.0 1419:0.0 1420:0.0 1421:0.0 1422:0.061138223856687546 1423:0.07533390820026398 1424:0.0 1425:0.0 1426:0.0 1427:0.0 1428:0.0 1429:0.0 1430:0.0 1431:0.07533390820026398 1432:0.03880476951599121 1433:0.0 1434:0.0 1435:0.0 1436:0.0 1437:0.0 1438:0.0 1439:0.0 1440:0.03880476951599121 1441:0.04102387651801109 1442:0.0 1443:0.0 1444:0.0 1445:0.0 1446:0.0 1447:0.0 1448:0.0 1449:0.04102387651801109 1450:0.04428164288401604 1451:0.0 1452:0.0 1453:0.0 1454:0.066215381026268 1455:0.0 1456:0.15968842804431915 1457:0.053365059196949005 1458:0.04428164288401604 1459:0.06720008701086044 1460:0.0 1461:0.0 1462:0.0 1463:0.07048159837722778 1464:0.0 1465:0.169977068901062 1466:0.056803345680236816 1467:0.06720008701086044 1468:0.06999778002500534 1469:0.0 1470:0.0 1471:0.0 1472:0.0 1473:0.0 1474:0.0 1475:0.021922284737229347 1476:0.07454032450914383 1477:0.009651345200836658 1478:0.0 1479:0.0 1480:0.0 1481:0.0 1482:0.0 1483:0.0 1484:0.0 1485:0.009651345200836658 1486:0.025382952764630318 1487:0.0 1488:0.0 1489:0.0 1490:0.4084342122077942 1491:0.0 1492:0.12156215310096741 1493:0.04062393307685852 1494:0.025382952764630318 1495:0.2383270561695099 1496:0.0 1497:0.0 1498:0.0 1499:0.28137415647506714 1500:0.0 1501:0.29196983575820923 1502:0.09757118672132492 1503:0.2383270561695099 1504:0.21851828694343567 1505:0.0 1506:0.0 1507:0.0 1508:0.0 1509:0.0 1510:0.0 1511:0.0 1512:0.21851828694343567 1513:0.0 1514:0.0 1515:0.0 1516:0.0 1517:0.0 1518:0.0 1519:0.0 1520:0.0 1521:0.0 1522:0.044895537197589874 1523:0.0 1524:0.0 1525:0.0 1526:0.06992936134338379 1527:0.0 1528:0.027997862547636032 1529:0.009356393478810787 1530:0.044895537197589874 1531:0.32375261187553406 1532:0.0 1533:0.0 1534:0.0 1535:0.02330978587269783 1536:0.0 1537:0.0839935913681984 1538:0.028069181367754936 1539:0.32375261187553406 1540:0.21358658373355865 1541:0.0 1542:0.0 1543:0.0 1544:0.0 1545:0.0 1546:0.0 1547:0.0 1548:0.21358658373355865 1549:0.0 1550:0.0 1551:0.0 1552:0.0 1553:0.0 1554:0.0 1555:0.0 1556:0.0 1557:0.0 1558:0.0 1559:0.0 1560:0.0 1561:0.0 1562:0.0 1563:0.0 1564:0.0 1565:0.0 1566:0.0 1567:0.0 1568:0.0 1569:0.0 1570:0.0 1571:0.0 1572:0.0 1573:0.0 1574:0.0 1575:0.0 1576:0.014195864088833332 1577:0.0 1578:0.0 1579:0.0 1580:0.0 1581:0.0 1582:0.0 1583:0.0 1584:0.014195864088833332 1585:0.016324063763022423 1586:0.003030847292393446 1587:0.009069415740668774 1588:0.0 1589:0.005328348372131586 1590:0.0 1591:0.0 1592:0.0 1593:0.016324063763022423 1594:0.0034208674915134907 1595:0.0010102824307978153 1596:0.00302313850261271 1597:0.0 1598:0.015985045582056046 1599:0.0 1600:0.0 1601:0.0 1602:0.0034208674915134907 1603:0.0 1604:0.0 1605:0.0 1606:0.0 1607:0.0 1608:0.0 1609:0.0 1610:0.0 1611:0.0 1612:0.0 1613:0.0 1614:0.0 1615:0.0 1616:0.0 1617:0.0 1618:0.0 1619:0.0 1620:0.0 1621:0.08323659747838974 1622:0.0 1623:0.0 1624:0.0 1625:0.0 1626:0.0 1627:0.0 1628:0.0 1629:0.08323659747838974 1630:0.22968989610671997 1631:0.0 1632:0.0 1633:0.0 1634:0.0 1635:0.0 1636:0.0 1637:0.0 1638:0.22968989610671997 1639:0.28161656856536865 1640:0.0 1641:0.0 1642:0.0 1643:0.0 1644:0.0 1645:0.0 1646:0.0 1647:0.28161656856536865 1648:0.1450617015361786 1649:0.0 1650:0.0 1651:0.0 1652:0.0 1653:0.0 1654:0.0 1655:0.0 1656:0.1450617015361786 1657:0.0964755117893219 1658:0.0 1659:0.0 1660:0.0 1661:0.0 1662:0.0 1663:0.0 1664:0.0 1665:0.0964755117893219 1666:0.2812798023223877 1667:0.0 1668:0.0 1669:0.0 1670:0.0 1671:0.0 1672:0.0 1673:0.0 1674:0.2812798023223877 1675:0.34659016132354736 1676:0.0 1677:0.0 1678:0.0 1679:0.0 1680:0.0 1681:0.0 1682:0.0 1683:0.34659016132354736 1684:0.17852984368801117 1685:0.0 1686:0.0 1687:0.0 1688:0.0 1689:0.0 1690:0.0 1691:0.0 1692:0.17852984368801117 1693:0.06003729999065399 1694:0.0 1695:0.0 1696:0.0 1697:0.0 1698:0.0 1699:0.0 1700:0.0 1701:0.06003729999065399 1702:0.17504213750362396 1703:0.0 1704:0.0 1705:0.0 1706:0.0 1707:0.0 1708:0.0 1709:0.0 1710:0.17504213750362396 1711:0.21568520367145538 1712:0.0 1713:0.0 1714:0.0 1715:0.0 1716:0.0 1717:0.0 1718:0.0 1719:0.21568520367145538 1720:0.1111002117395401 1721:0.0 1722:0.0 1723:0.0 1724:0.0 1725:0.0 1726:0.0 1727:0.0 1728:0.1111002117395401 
0.02197346493329905 1:0.0 2:0.0 3:0.0 4:0.0 5:0.0 6:0.0 7:0.0 8:0.0 9:0.0 10:0.0 11:0.0 12:0.0 13:0.0 14:0.0 15:0.0 16:0.0 17:0.0 18:0.0 19:0.0 20:0.0 21:0.0 22:0.0 23:0.0 24:0.0 25:0.0 26:0.0 27:0.0 28:0.0 29:0.0 30:0.0 31:0.0 32:0.0 33:0.0 34:0.0 35:0.0 36:0.0 37:0.09188168495893478 38:0.0 39:0.0 40:0.0 41:0.0 42:0.0 43:0.0 44:0.0 45:0.09188168495893478 46:0.1880606859922409 47:0.0 48:0.0 49:0.0 50:0.0 51:0.0 52:0.0980553925037384 53:0.03276839107275009 54:0.1880606859922409 55:0.02962750941514969 56:0.0 57:0.0 58:0.0 59:0.0 60:0.0 61:0.10437305271625519 62:0.034879639744758606 63:0.02962750941514969 64:0.0 65:0.0 66:0.0 67:0.0 68:0.0 69:0.0 70:0.0 71:0.0 72:0.0 73:0.097801573574543 74:0.0 75:0.0 76:0.0 77:0.0 78:0.0 79:0.0 80:0.0 81:0.097801573574543 82:0.13519565761089325 83:0.0 84:0.0 85:0.0 86:0.0 87:0.0 88:0.36533859372138977 89:0.12208973616361618 90:0.13519565761089325 91:0.05526619404554367 92:0.0 93:0.0 94:0.0 95:0.0 96:0.0 97:0.7150647044181824 98:0.2389620840549469 99:0.05526619404554367 100:0.122059665620327 101:0.0 102:0.0 103:0.0 104:0.0 105:0.0 106:0.06280944496393204 107:0.020989811047911644 108:0.122059665620327 109:0.0 110:0.0 111:0.0 112:0.0 113:0.0 114:0.0 115:0.0 116:0.0 117:0.0 118:0.0 119:0.0 120:0.0 121:0.0 122:0.0 123:0.0 124:0.023724140599370003 125:0.007928190752863884 126:0.0 127:0.08187061548233032 128:0.0 129:0.0 130:0.0 131:0.0 132:0.0 133:0.1339818686246872 134:0.044774383306503296 135:0.08187061548233032 136:0.11608284711837769 137:0.0 138:0.0 139:0.0 140:0.0 141:0.0 142:0.020936479791998863 143:0.006996603216975927 144:0.11608284711837769 145:0.009406761266291142 146:0.0 147:0.0 148:0.0 149:0.011111943982541561 150:0.0 151:0.012418887577950954 152:0.004150174092501402 153:0.009406761266291142 154:0.00313558685593307 155:0.0 156:0.0 157:0.0 158:0.014643586240708828 159:0.0 160:0.1252228170633316 161:0.04184726998209953 162:0.00313558685593307 163:0.0 164:0.0 165:0.0 166:0.0 167:0.05998438596725464 168:0.0 169:0.029322054237127304 170:0.009798916056752205 171:0.0 172:0.0 173:0.0 174:0.0 175:0.0 176:0.11006108671426773 177:0.0 178:0.0 179:0.0 180:0.0 181:0.00313558685593307 182:0.0 183:0.0 184:0.0 185:0.0 186:0.0 187:0.004139629192650318 188:0.0013833913253620267 189:0.00313558685593307 190:0.0010451956186443567 191:0.0 192:0.0 193:0.0 194:0.2999511659145355 195:0.0 196:0.13176238536834717 197:0.04403267055749893 198:0.0010451956186443567 199:0.0 200:0.0042611537501215935 201:0.01275094784796238 202:0.0 203:0.4467695951461792 204:0.0 205:0.03978116810321808 206:0.013294166885316372 207:0.0 208:0.0 209:0.01278346125036478 210:0.03825284168124199 211:0.0 212:0.284801185131073 213:0.0 214:0.0 215:0.0 216:0.0 217:0.0 218:0.0 219:0.0 220:0.0 221:0.0 222:0.0 223:0.0 224:0.0 225:0.0 226:0.006014686077833176 227:0.0 228:0.0 229:0.0 230:0.4198777973651886 231:0.0 232:0.05565759539604187 233:0.01859978958964348 234:0.006014686077833176 235:0.03396788612008095 236:0.07330769300460815 237:0.2193637192249298 238:0.0 239:0.36320969462394714 240:0.0 241:0.16697277128696442 242:0.05579936504364014 243:0.03396788612008095 244:0.03087816946208477 245:0.09275894612073898 246:0.27756908535957336 247:0.0 248:0.12873275578022003 249:0.0 250:0.0 251:0.0 252:0.03087816946208477 253:0.0 254:0.0 255:0.0 256:0.0 257:0.0 258:0.0 259:0.0 260:0.0 261:0.0 262:0.018044058233499527 263:0.0 264:0.0 265:0.0 266:0.04633805900812149 267:0.0 268:0.01855253241956234 269:0.006199929863214493 270:0.018044058233499527 271:0.10190365463495255 272:0.020174745470285416 273:0.06037028878927231 274:0.0 275:0.04905066266655922 276:0.0 277:0.05565759539604187 278:0.01859978958964348 279:0.10190365463495255 280:0.024447236210107803 281:0.029203340411186218 282:0.08738719671964645 283:0.0 284:0.1196274533867836 285:0.0 286:0.0 287:0.0 288:0.024447236210107803 289:0.12876366078853607 290:0.0 291:0.0 292:0.0 293:0.0 294:0.0 295:0.0 296:0.0 297:0.12876366078853607 298:0.37541770935058594 299:0.0 300:0.0 301:0.0 302:0.0 303:0.0 304:0.0 305:0.0 306:0.37541770935058594 307:0.4625859558582306 308:0.0 309:0.0 310:0.0 311:0.0 312:0.0 313:0.0 314:0.0 315:0.4625859558582306 316:0.23827968537807465 317:0.0 318:0.0 319:0.0 320:0.0 321:0.0 322:0.0 323:0.0 324:0.23827968537807465 325:0.0 326:0.0 327:0.0 328:0.0 329:0.0 330:0.0 331:0.0 332:0.0 333:0.0 334:0.0 335:0.0 336:0.0 337:0.0 338:0.0 339:0.0 340:0.0 341:0.0 342:0.0 343:0.0 344:0.0 345:0.0 346:0.0 347:0.0 348:0.0 349:0.0 350:0.0 351:0.0 352:0.0 353:0.0 354:0.0 355:0.0 356:0.0 357:0.0 358:0.0 359:0.0 360:0.0 361:0.0 362:0.0 363:0.0 364:0.0 365:0.0 366:0.0 367:0.0 368:0.0 369:0.0 370:0.0 371:0.0 372:0.0 373:0.0 374:0.0 375:0.0 376:0.0 377:0.0 378:0.0 379:0.0 380:0.0 381:0.0 382:0.0 383:0.0 384:0.0 385:0.0 386:0.0 387:0.0 388:0.0 389:0.0 390:0.0 391:0.0 392:0.0 393:0.0 394:0.0 395:0.0 396:0.0 397:0.0 398:0.0 399:0.0 400:0.0 401:0.0 402:0.0 403:0.0 404:0.0 405:0.0 406:0.0 407:0.0 408:0.0 409:0.0 410:0.0 411:0.0 412:0.0 413:0.0 414:0.0 415:0.0 416:0.0 417:0.0 418:0.0 419:0.0 420:0.0 421:0.0 422:0.0 423:0.0 424:0.0 425:0.0 426:0.0 427:0.0 428:0.0 429:0.0 430:0.0 431:0.0 432:0.0 433:0.02261107601225376 434:0.0 435:0.0 436:0.0 437:0.0 438:0.0 439:0.0 440:0.0 441:0.02261107601225376 442:0.06592386960983276 443:0.0 444:0.0 445:0.0 446:0.0 447:0.0 448:0.0 449:0.0 450:0.06592386960983276 451:0.08123072981834412 452:0.0 453:0.0 454:0.0 455:0.0 456:0.0 457:0.0 458:0.0 459:0.08123072981834412 460:0.04184224456548691 461:0.0 462:0.0 463:0.0 464:0.0 465:0.0 466:0.0 467:0.0 468:0.04184224456548691 469:0.0 470:0.0 471:0.0 472:0.0 473:0.0 474:0.0 475:0.0 476:0.0 477:0.0 478:0.0 479:0.0 480:0.0 481:0.0 482:0.0 483:0.0 484:0.0 485:0.0 486:0.0 487:0.0 488:0.0 489:0.0 490:0.0 491:0.0 492:0.0 493:0.0 494:0.0 495:0.0 496:0.027304967865347862 497:0.0 498:0.0 499:0.0 500:0.0 501:0.0 502:0.0 503:0.0 504:0.027304967865347862 505:0.0 506:0.0 507:0.0 508:0.0 509:0.0 510:0.0 511:0.0 512:0.0 513:0.0 514:0.0 515:0.0 516:0.0 517:0.0 518:0.0 519:0.0 520:0.0 521:0.0 522:0.0 523:0.0 524:0.0 525:0.0 526:0.0 527:0.13129067420959473 528:0.0 529:0.0 530:0.0 531:0.0 532:0.1374056041240692 533:0.26779842376708984 534:0.024319468066096306 535:0.04974491521716118 536:0.39387205243110657 537:0.0 538:0.0 539:0.0 540:0.08191490173339844 541:0.0 542:0.0 543:0.0 544:0.0 545:0.0 546:0.0 547:0.0 548:0.0 549:0.0 550:0.0 551:0.0 552:0.0 553:0.0 554:0.0 555:0.0 556:0.0 557:0.0 558:0.0 559:0.0 560:0.0 561:0.0 562:0.0 563:0.22001971304416656 564:0.0 565:0.0 566:0.0 567:0.0 568:0.018496902659535408 569:0.08926614373922348 570:0.07295840978622437 571:0.14923474192619324 572:0.7664346694946289 573:0.0 574:0.0 575:0.0 576:0.0 577:0.05950796976685524 578:0.0 579:0.0 580:0.0 581:0.0 582:0.0 583:0.0 584:0.0 585:0.05950796976685524 586:0.17349883913993835 587:0.0 588:0.0 589:0.0 590:0.0 591:0.0 592:0.0 593:0.0 594:0.17349883913993835 595:0.21378356218338013 596:0.0 597:0.0 598:0.0 599:0.0 600:0.0 601:0.0 602:0.0 603:0.21378356218338013 604:0.11012066155672073 605:0.0 606:0.0 607:0.0 608:0.0 609:0.0 610:0.0 611:0.0 612:0.11012066155672073 613:0.013999943621456623 614:0.0 615:0.0 616:0.0 617:0.0 618:0.0 619:0.0 620:0.0 621:0.013999943621456623 622:0.04081762582063675 623:0.0 624:0.0 625:0.0 626:0.0 627:0.0 628:0.0 629:0.0 630:0.04081762582063675 631:0.05029507353901863 632:0.0 633:0.0 634:0.0 635:0.0 636:0.0 637:0.0 638:0.0 639:0.05029507353901863 640:0.02590717375278473 641:0.0 642:0.0 643:0.0 644:0.0 645:0.0 646:0.0 647:0.0 648:0.02590717375278473 649:0.026155337691307068 650:0.0 651:0.0 652:0.0 653:0.0 654:0.0 655:0.0 656:0.0 657:0.026155337691307068 658:0.0762573704123497 659:0.0 660:0.0 661:0.0 662:0.0 663:0.0 664:0.0 665:0.0 666:0.0762573704123497 667:0.09396357089281082 668:0.0 669:0.0 670:0.0 671:0.0 672:0.0 673:0.0 674:0.0 675:0.09396357089281082 676:0.04840097203850746 677:0.0 678:0.0 679:0.0 680:0.0 681:0.0 682:0.0 683:0.0 684:0.04840097203850746 685:0.12046584486961365 686:0.0 687:0.0 688:0.0 689:0.0 690:0.0 691:0.0 692:0.0 693:0.12046584486961365 694:0.35122498869895935 695:0.0 696:0.0 697:0.0 698:0.0 699:0.0 700:0.0 701:0.0 702:0.35122498869895935 703:0.43277594447135925 704:0.0 705:0.0 706:0.0 707:0.0 708:0.0 709:0.0 710:0.0 711:0.43277594447135925 712:0.22292442619800568 713:0.0 714:0.0 715:0.0 716:0.0 717:0.0 718:0.0 719:0.0 720:0.22292442619800568 721:0.05950796976685524 722:0.0 723:0.0 724:0.0 725:0.0 726:0.0 727:0.0 728:0.0 729:0.05950796976685524 730:0.17349883913993835 731:0.0 732:0.0 733:0.0 734:0.0 735:0.0 736:0.0 737:0.0 738:0.17349883913993835 739:0.21378356218338013 740:0.0 741:0.0 742:0.0 743:0.0 744:0.0 745:0.0 746:0.0 747:0.21378356218338013 748:0.11012066155672073 749:0.0 750:0.0 751:0.0 752:0.0 753:0.0 754:0.0 755:0.0 756:0.11012066155672073 757:0.013999943621456623 758:0.0 759:0.0 760:0.0 761:0.0 762:0.0 763:0.0 764:0.0 765:0.013999943621456623 766:0.04081762582063675 767:0.0 768:0.0 769:0.0 770:0.0 771:0.0 772:0.0 773:0.0 774:0.04081762582063675 775:0.05029507353901863 776:0.0 777:0.0 778:0.0 779:0.0 780:0.0 781:0.0 782:0.0 783:0.05029507353901863 784:0.02590717375278473 785:0.0 786:0.0 787:0.0 788:0.0 789:0.0 790:0.0 791:0.0 792:0.02590717375278473 793:0.026155337691307068 794:0.0 795:0.0 796:0.0 797:0.0 798:0.0 799:0.0 800:0.0 801:0.026155337691307068 802:0.0762573704123497 803:0.0 804:0.0 805:0.0 806:0.0 807:0.0 808:0.0 809:0.0 810:0.0762573704123497 811:0.09396357089281082 812:0.0 813:0.0 814:0.0 815:0.0 816:0.0 817:0.0 818:0.0 819:0.09396357089281082 820:0.04840097203850746 821:0.0 822:0.0 823:0.0 824:0.0 825:0.0 826:0.0 827:0.0 828:0.04840097203850746 829:0.12046584486961365 830:0.0 831:0.0 832:0.0 833:0.0 834:0.0 835:0.0 836:0.0 837:0.12046584486961365 838:0.35122498869895935 839:0.0 840:0.0 841:0.0 842:0.0 843:0.0 844:0.0 845:0.0 846:0.35122498869895935 847:0.43277594447135925 848:0.0 849:0.0 850:0.0 851:0.0 852:0.0 853:0.0 854:0.0 855:0.43277594447135925 856:0.22292442619800568 857:0.0 858:0.0 859:0.0 860:0.0 861:0.0 862:0.0 863:0.0 864:0.22292442619800568 865:0.009406761266291142 866:0.0 867:0.0 868:0.0 869:0.011111943982541561 870:0.0 871:0.012418887577950954 872:0.004150174092501402 873:0.009406761266291142 874:0.00313558685593307 875:0.0 876:0.0 877:0.0 878:0.014643586240708828 879:0.0 880:0.1252228170633316 881:0.04184726998209953 882:0.00313558685593307 883:0.0 884:0.0 885:0.0 886:0.0 887:0.05998438596725464 888:0.0 889:0.029322054237127304 890:0.009798916056752205 891:0.0 892:0.0 893:0.0 894:0.0 895:0.0 896:0.11006108671426773 897:0.0 898:0.0 899:0.0 900:0.0 901:0.00313558685593307 902:0.0 903:0.0 904:0.0 905:0.0 906:0.0 907:0.004139629192650318 908:0.0013833913253620267 909:0.00313558685593307 910:0.0010451956186443567 911:0.0 912:0.0 913:0.0 914:0.2999511659145355 915:0.0 916:0.13176238536834717 917:0.04403267055749893 918:0.0010451956186443567 919:0.0 920:0.0042611537501215935 921:0.01275094784796238 922:0.0 923:0.4467695951461792 924:0.0 925:0.03978116810321808 926:0.013294166885316372 927:0.0 928:0.0 929:0.01278346125036478 930:0.03825284168124199 931:0.0 932:0.284801185131073 933:0.0 934:0.0 935:0.0 936:0.0 937:0.0 938:0.0 939:0.0 940:0.0 941:0.0 942:0.0 943:0.0 944:0.0 945:0.0 946:0.006014686077833176 947:0.0 948:0.0 949:0.0 950:0.4198777973651886 951:0.0 952:0.05565759539604187 953:0.01859978958964348 954:0.006014686077833176 955:0.03396788612008095 956:0.07330769300460815 957:0.2193637192249298 958:0.0 959:0.36320969462394714 960:0.0 961:0.16697277128696442 962:0.05579936504364014 963:0.03396788612008095 964:0.03087816946208477 965:0.09275894612073898 966:0.27756908535957336 967:0.0 968:0.12873275578022003 969:0.0 970:0.0 971:0.0 972:0.03087816946208477 973:0.0 974:0.0 975:0.0 976:0.0 977:0.0 978:0.0 979:0.0 980:0.0 981:0.0 982:0.018044058233499527 983:0.0 984:0.0 985:0.0 986:0.04633805900812149 987:0.0 988:0.01855253241956234 989:0.006199929863214493 990:0.018044058233499527 991:0.10190365463495255 992:0.020174745470285416 993:0.06037028878927231 994:0.0 995:0.04905066266655922 996:0.0 997:0.05565759539604187 998:0.01859978958964348 999:0.10190365463495255 1000:0.024447236210107803 1001:0.029203340411186218 1002:0.08738719671964645 1003:0.0 1004:0.1196274533867836 1005:0.0 1006:0.0 1007:0.0 1008:0.024447236210107803 1009:0.0 1010:0.0 1011:0.0 1012:0.0 1013:0.0 1014:0.0 1015:0.0 1016:0.0 1017:0.0 1018:0.0 1019:0.0 1020:0.0 1021:0.0 1022:0.0 1023:0.0 1024:0.0 1025:0.0 1026:0.0 1027:0.0 1028:0.0 1029:0.0 1030:0.0 1031:0.0 1032:0.0 1033:0.0 1034:0.0 1035:0.0 1036:0.0 1037:0.0 1038:0.0 1039:0.0 1040:0.0 1041:0.0 1042:0.0 1043:0.0 1044:0.0 1045:0.0 1046:0.0 1047:0.0 1048:0.0 1049:0.0 1050:0.0 1051:0.0 1052:0.0 1053:0.0 1054:0.0 1055:0.0 1056:0.0 1057:0.0 1058:0.0 1059:0.0 1060:0.0 1061:0.0 1062:0.0 1063:0.0 1064:0.0 1065:0.0 1066:0.0 1067:0.0 1068:0.0 1069:0.0 1070:0.0 1071:0.0 1072:0.0 1073:0.0 1074:0.0 1075:0.0 1076:0.0 1077:0.0 1078:0.0 1079:0.0 1080:0.0 1081:0.10612008720636368 1082:0.0 1083:0.0 1084:0.0 1085:0.0 1086:0.0 1087:0.0 1088:0.0 1089:0.10612008720636368 1090:0.3093991279602051 1091:0.0 1092:0.0 1093:0.0 1094:0.0 1095:0.0 1096:0.0 1097:0.0 1098:0.3093991279602051 1099:0.38123852014541626 1100:0.0 1101:0.0 1102:0.0 1103:0.0 1104:0.0 1105:0.0 1106:0.0 1107:0.38123852014541626 1108:0.19637732207775116 1109:0.0 1110:0.0 1111:0.0 1112:0.0 1113:0.0 1114:0.0 1115:0.0 1116:0.19637732207775116 1117:0.0881204754114151 1118:0.0 1119:0.0 1120:0.0 1121:0.0 1122:0.0 1123:0.0 1124:0.0 1125:0.0881204754114151 1126:0.2569202184677124 1127:0.0 1128:0.0 1129:0.0 1130:0.0 1131:0.0 1132:0.0 1133:0.0 1134:0.2569202184677124 1135:0.3165745437145233 1136:0.0 1137:0.0 1138:0.0 1139:0.0 1140:0.0 1141:0.0 1142:0.0 1143:0.3165745437145233 1144:0.16306868195533752 1145:0.0 1146:0.0 1147:0.0 1148:0.0 1149:0.0 1150:0.0 1151:0.0 1152:0.16306868195533752 1153:0.02261107601225376 1154:0.0 1155:0.0 1156:0.0 1157:0.0 1158:0.0 1159:0.0 1160:0.0 1161:0.02261107601225376 1162:0.06592386960983276 1163:0.0 1164:0.0 1165:0.0 1166:0.0 1167:0.0 1168:0.0 1169:0.0 1170:0.06592386960983276 1171:0.08123072981834412 1172:0.0 1173:0.0 1174:0.0 1175:0.0 1176:0.0 1177:0.0 1178:0.0 1179:0.08123072981834412 1180:0.04184224456548691 1181:0.0 1182:0.0 1183:0.0 1184:0.0 1185:0.0 1186:0.0 1187:0.0 1188:0.04184224456548691 1189:0.0 1190:0.0 1191:0.0 1192:0.0 1193:0.0 1194:0.0 1195:0.0 1196:0.0 1197:0.0 1198:0.0 1199:0.0 1200:0.0 1201:0.0 1202:0.0 1203:0.0 1204:0.0 1205:0.0 1206:0.0 1207:0.0 1208:0.0 1209:0.0 1210:0.0 1211:0.0 1212:0.0 1213:0.0 1214:0.0 1215:0.0 1216:0.027304967865347862 1217:0.0 1218:0.0 1219:0.0 1220:0.0 1221:0.0 1222:0.0 1223:0.0 1224:0.027304967865347862 1225:0.0 1226:0.0 1227:0.0 1228:0.0 1229:0.0 1230:0.0 1231:0.0 1232:0.0 1233:0.0 1234:0.0 1235:0.0 1236:0.0 1237:0.0 1238:0.0 1239:0.0 1240:0.0 1241:0.0 1242:0.0 1243:0.0 1244:0.0 1245:0.0 1246:0.0 1247:0.13129067420959473 1248:0.0 1249:0.0 1250:0.0 1251:0.0 1252:0.1374056041240692 1253:0.26779842376708984 1254:0.024319468066096306 1255:0.04974491521716118 1256:0.39387205243110657 1257:0.0 1258:0.0 1259:0.0 1260:0.08191490173339844 1261:0.0 1262:0.0 1263:0.0 1264:0.0 1265:0.0 1266:0.0 1267:0.0 1268:0.0 1269:0.0 1270:0.0 1271:0.0 1272:0.0 1273:0.0 1274:0.0 1275:0.0 1276:0.0 1277:0.0 1278:0.0 1279:0.0 1280:0.0 1281:0.0 1282:0.0 1283:0.22001971304416656 1284:0.0 1285:0.0 1286:0.0 1287:0.0 1288:0.018496902659535408 1289:0.08926614373922348 1290:0.07295840978622437 1291:0.14923474192619324 1292:0.7664346694946289 1293:0.0 1294:0.0 1295:0.0 1296:0.0 1297:0.005824216641485691 1298:0.0 1299:0.0 1300:0.0 1301:0.0 1302:0.0 1303:0.0 1304:0.0 1305:0.005824216641485691 1306:0.01698083057999611 1307:0.0 1308:0.0 1309:0.0 1310:0.0 1311:0.0 1312:0.0 1313:0.0 1314:0.01698083057999611 1315:0.020923610776662827 1316:0.0 1317:0.0 1318:0.0 1319:0.0 1320:0.0 1321:0.0 1322:0.0 1323:0.020923610776662827 1324:0.010777827352285385 1325:0.0 1326:0.0 1327:0.0 1328:0.0 1329:0.0 1330:0.0 1331:0.0 1332:0.010777827352285385 1333:0.014345155097544193 1334:0.0 1335:0.0 1336:0.0 1337:0.0 1338:0.0 1339:0.0 1340:0.0 1341:0.014345155097544193 1342:0.0418241061270237 1343:0.0 1344:0.0 1345:0.0 1346:0.0 1347:0.0 1348:0.0 1349:0.0 1350:0.0418241061270237 1351:0.05153524503111839 1352:0.0 1353:0.0 1354:0.0 1355:0.0 1356:0.0 1357:0.0 1358:0.0 1359:0.05153524503111839 1360:0.026545992121100426 1361:0.0 1362:0.0 1363:0.0 1364:0.0 1365:0.0 1366:0.0 1367:0.0 1368:0.026545992121100426 1369:0.1276935636997223 1370:0.0 1371:0.0 1372:0.0 1373:0.0 1374:0.0 1375:0.0 1376:0.0 1377:0.1276935636997223 1378:0.37229782342910767 1379:0.0 1380:0.0 1381:0.0 1382:0.0 1383:0.0 1384:0.0 1385:0.0 1386:0.37229782342910767 1387:0.4587416648864746 1388:0.0 1389:0.0 1390:0.0 1391:0.0 1392:0.0 1393:0.0 1394:0.0 1395:0.4587416648864746 1396:0.23629947006702423 1397:0.0 1398:0.0 1399:0.0 1400:0.0 1401:0.0 1402:0.0 1403:0.0 1404:0.23629947006702423 1405:0.05142143741250038 1406:0.0 1407:0.0 1408:0.0 1409:0.0 1410:0.0 1411:0.0 1412:0.0 1413:0.05142143741250038 1414:0.14992210268974304 1415:0.0 1416:0.0 1417:0.0 1418:0.0 1419:0.0 1420:0.0 1421:0.0 1422:0.14992210268974304 1423:0.18473251163959503 1424:0.0 1425:0.0 1426:0.0 1427:0.0 1428:0.0 1429:0.0 1430:0.0 1431:0.18473251163959503 1432:0.09515638649463654 1433:0.0 1434:0.0 1435:0.0 1436:0.0 1437:0.0 1438:0.0 1439:0.0 1440:0.09515638649463654 1441:0.05950796976685524 1442:0.0 1443:0.0 1444:0.0 1445:0.0 1446:0.0 1447:0.0 1448:0.0 1449:0.05950796976685524 1450:0.17349883913993835 1451:0.0 1452:0.0 1453:0.0 1454:0.0 1455:0.0 1456:0.0 1457:0.0 1458:0.17349883913993835 1459:0.21378356218338013 1460:0.0 1461:0.0 1462:0.0 1463:0.0 1464:0.0 1465:0.0 1466:0.0 1467:0.21378356218338013 1468:0.11012066155672073 1469:0.0 1470:0.0 1471:0.0 1472:0.0 1473:0.0 1474:0.0 1475:0.0 1476:0.11012066155672073 1477:0.013999943621456623 1478:0.0 1479:0.0 1480:0.0 1481:0.0 1482:0.0 1483:0.0 1484:0.0 1485:0.013999943621456623 1486:0.04081762582063675 1487:0.0 1488:0.0 1489:0.0 1490:0.0 1491:0.0 1492:0.0 1493:0.0 1494:0.04081762582063675 1495:0.05029507353901863 1496:0.0 1497:0.0 1498:0.0 1499:0.0 1500:0.0 1501:0.0 1502:0.0 1503:0.05029507353901863 1504:0.02590717375278473 1505:0.0 1506:0.0 1507:0.0 1508:0.0 1509:0.0 1510:0.0 1511:0.0 1512:0.02590717375278473 1513:0.026155337691307068 1514:0.0 1515:0.0 1516:0.0 1517:0.0 1518:0.0 1519:0.0 1520:0.0 1521:0.026155337691307068 1522:0.0762573704123497 1523:0.0 1524:0.0 1525:0.0 1526:0.0 1527:0.0 1528:0.0 1529:0.0 1530:0.0762573704123497 1531:0.09396357089281082 1532:0.0 1533:0.0 1534:0.0 1535:0.0 1536:0.0 1537:0.0 1538:0.0 1539:0.09396357089281082 1540:0.04840097203850746 1541:0.0 1542:0.0 1543:0.0 1544:0.0 1545:0.0 1546:0.0 1547:0.0 1548:0.04840097203850746 1549:0.12046584486961365 1550:0.0 1551:0.0 1552:0.0 1553:0.0 1554:0.0 1555:0.0 1556:0.0 1557:0.12046584486961365 1558:0.35122498869895935 1559:0.0 1560:0.0 1561:0.0 1562:0.0 1563:0.0 1564:0.0 1565:0.0 1566:0.35122498869895935 1567:0.43277594447135925 1568:0.0 1569:0.0 1570:0.0 1571:0.0 1572:0.0 1573:0.0 1574:0.0 1575:0.43277594447135925 1576:0.22292442619800568 1577:0.0 1578:0.0 1579:0.0 1580:0.0 1581:0.0 1582:0.0 1583:0.0 1584:0.22292442619800568 1585:0.0364270880818367 1586:0.006763325072824955 1587:0.020238367840647697 1588:0.0 1589:0.011890189722180367 1590:0.0 1591:0.0 1592:0.0 1593:0.0364270880818367 1594:0.007633652538061142 1595:0.002254441613331437 1596:0.0067461226135492325 1597:0.0 1598:0.03567056730389595 1599:0.0 1600:0.0 1601:0.0 1602:0.007633652538061142 1603:0.0 1604:0.0 1605:0.0 1606:0.0 1607:0.0 1608:0.0 1609:0.0 1610:0.0 1611:0.0 1612:0.0 1613:0.0 1614:0.0 1615:0.0 1616:0.0 1617:0.0 1618:0.0 1619:0.0 1620:0.0 1621:0.010815833695232868 1622:0.0 1623:0.0 1624:0.0 1625:0.0 1626:0.0 1627:0.0 1628:0.0 1629:0.010815833695232868 1630:0.002544550923630595 1631:0.0 1632:0.0 1633:0.0 1634:0.0 1635:0.0 1636:0.0 1637:0.0 1638:0.002544550923630595 1639:0.0 1640:0.0 1641:0.0 1642:0.0 1643:0.0 1644:0.0 1645:0.0 1646:0.0 1647:0.0 1648:0.0 1649:0.0 1650:0.0 1651:0.0 1652:0.0 1653:0.0 1654:0.0 1655:0.0 1656:0.0 1657:0.029087992385029793 1658:0.0 1659:0.0 1660:0.0 1661:0.0 1662:0.0 1663:0.0 1664:0.0 1665:0.029087992385029793 1666:0.08480768650770187 1667:0.0 1668:0.0 1669:0.0 1670:0.0 1671:0.0 1672:0.0 1673:0.0 1674:0.08480768650770187 1675:0.10449918359518051 1676:0.0 1677:0.0 1678:0.0 1679:0.0 1680:0.0 1681:0.0 1682:0.0 1683:0.10449918359518051 1684:0.05382790416479111 1685:0.0 1686:0.0 1687:0.0 1688:0.0 1689:0.0 1690:0.0 1691:0.0 1692:0.05382790416479111 1693:0.13397301733493805 1694:0.0 1695:0.0 1696:0.0 1697:0.0 1698:0.0 1699:0.0 1700:0.0 1701:0.13397301733493805 1702:0.3906058967113495 1703:0.0 1704:0.0 1705:0.0 1706:0.0 1707:0.0 1708:0.0 1709:0.0 1710:0.3906058967113495 1711:0.4813007116317749 1712:0.0 1713:0.0 1714:0.0 1715:0.0 1716:0.0 1717:0.0 1718:0.0 1719:0.4813007116317749 1720:0.2479196935892105 1721:0.0 1722:0.0 1723:0.0 1724:0.0 1725:0.0 1726:0.0 1727:0.0 1728:0.2479196935892105 
0.03859308528024446 1:0.0 2:0.0 3:0.0 4:0.0 5:0.0 6:0.0 7:0.0 8:0.0 9:0.0 10:0.011471733450889587 11:0.0 12:0.0 13:0.0 14:0.0 15:0.0 16:0.0 17:0.0 18:0.011471733450889587 19:0.07174446433782578 20:0.0 21:0.0 22:0.0 23:0.0 24:0.0 25:0.0 26:0.0 27:0.07174446433782578 28:0.04217061772942543 29:0.0 30:0.0 31:0.0 32:0.0 33:0.0 34:0.0 35:0.0 36:0.04217061772942543 37:0.0 38:0.0 39:0.0 40:0.0 41:0.0 42:0.0 43:0.0 44:0.0 45:0.0 46:0.05332888662815094 47:0.0 48:0.0 49:0.0 50:0.3652876019477844 51:0.0 52:0.0 53:0.0 54:0.05332888662815094 55:0.33351999521255493 56:0.0 57:0.0 58:0.0 59:0.38882288336753845 60:0.0 61:0.0 62:0.0 63:0.33351999521255493 64:0.19603945314884186 65:0.0 66:0.0 67:0.0 68:0.0 69:0.0 70:0.0 71:0.0 72:0.19603945314884186 73:0.0 74:0.0 75:0.0 76:0.0 77:0.0 78:0.0 79:0.0 80:0.0 81:0.0 82:0.05674107000231743 83:0.0 84:0.0 85:0.0 86:0.12176252156496048 87:0.0 88:0.0 89:0.0 90:0.05674107000231743 91:0.3548598289489746 92:0.0 93:0.0 94:0.0 95:0.12960761785507202 96:0.0 97:0.0 98:0.0 99:0.3548598289489746 100:0.208582803606987 101:0.0 102:0.0 103:0.0 104:0.0 105:0.0 106:0.0 107:0.0 108:0.208582803606987 109:0.0 110:0.0 111:0.0 112:0.0 113:0.0 114:0.0 115:0.0 116:0.0 117:0.0 118:0.0 119:0.0 120:0.0 121:0.0 122:0.0 123:0.0 124:0.0 125:0.0 126:0.0 127:0.0 128:0.0 129:0.0 130:0.0 131:0.0 132:0.0 133:0.0 134:0.0 135:0.0 136:0.0 137:0.0 138:0.0 139:0.0 140:0.0 141:0.0 142:0.0 143:0.0 144:0.0 145:0.009406761266291142 146:0.0 147:0.0 148:0.0 149:0.011111943982541561 150:0.0 151:0.012418887577950954 152:0.004150174092501402 153:0.009406761266291142 154:0.00313558685593307 155:0.0 156:0.0 157:0.0 158:0.014643586240708828 159:0.0 160:0.1252228170633316 161:0.04184726998209953 162:0.00313558685593307 163:0.0 164:0.0 165:0.0 166:0.0 167:0.05998438596725464 168:0.0 169:0.029322054237127304 170:0.009798916056752205 171:0.0 172:0.0 173:0.0 174:0.0 175:0.0 176:0.11006108671426773 177:0.0 178:0.0 179:0.0 180:0.0 181:0.00313558685593307 182:0.0 183:0.0 184:0.0 185:0.0 186:0.0 187:0.004139629192650318 188:0.0013833913253620267 189:0.00313558685593307 190:0.0010451956186443567 191:0.0 192:0.0 193:0.0 194:0.2999511659145355 195:0.0 196:0.13176238536834717 197:0.04403267055749893 198:0.0010451956186443567 199:0.0 200:0.0042611537501215935 201:0.01275094784796238 202:0.0 203:0.4467695951461792 204:0.0 205:0.03978116810321808 206:0.013294166885316372 207:0.0 208:0.0 209:0.01278346125036478 210:0.03825284168124199 211:0.0 212:0.284801185131073 213:0.0 214:0.0 215:0.0 216:0.0 217:0.0 218:0.0 219:0.0 220:0.0 221:0.0 222:0.0 223:0.0 224:0.0 225:0.0 226:0.006014686077833176 227:0.0 228:0.0 229:0.0 230:0.4198777973651886 231:0.0 232:0.05565759539604187 233:0.01859978958964348 234:0.006014686077833176 235:0.03396788612008095 236:0.07330769300460815 237:0.2193637192249298 238:0.0 239:0.36320969462394714 240:0.0 241:0.16697277128696442 242:0.05579936504364014 243:0.03396788612008095 244:0.03087816946208477 245:0.09275894612073898 246:0.27756908535957336 247:0.0 248:0.12873275578022003 249:0.0 250:0.0 251:0.0 252:0.03087816946208477 253:0.0 254:0.0 255:0.0 256:0.0 257:0.0 258:0.0 259:0.0 260:0.0 261:0.0 262:0.018044058233499527 263:0.0 264:0.0 265:0.0 266:0.04633805900812149 267:0.0 268:0.01855253241956234 269:0.006199929863214493 270:0.018044058233499527 271:0.10190365463495255 272:0.020174745470285416 273:0.06037028878927231 274:0.0 275:0.04905066266655922 276:0.0 277:0.05565759539604187 278:0.01859978958964348 279:0.10190365463495255 280:0.024447236210107803 281:0.029203340411186218 282:0.08738719671964645 283:0.0 284:0.1196274533867836 285:0.0 286:0.0 287:0.0 288:0.024447236210107803 289:0.12876366078853607 290:0.0 291:0.0 292:0.0 293:0.0 294:0.0 295:0.0 296:0.0 297:0.12876366078853607 298:0.37541770935058594 299:0.0 300:0.0 301:0.0 302:0.0 303:0.0 304:0.0 305:0.0 306:0.37541770935058594 307:0.4625859558582306 308:0.0 309:0.0 310:0.0 311:0.0 312:0.0 313:0.0 314:0.0 315:0.4625859558582306 316:0.23827968537807465 317:0.0 318:0.0 319:0.0 320:0.0 321:0.0 322:0.0 323:0.0 324:0.23827968537807465 325:0.0 326:0.0 327:0.0 328:0.0 329:0.0 330:0.0 331:0.0 332:0.0 333:0.0 334:0.0 335:0.0 336:0.0 337:0.0 338:0.0 339:0.0 340:0.0 341:0.0 342:0.0 343:0.0 344:0.0 345:0.0 346:0.0 347:0.0 348:0.0 349:0.0 350:0.0 351:0.0 352:0.0 353:0.0 354:0.0 355:0.0 356:0.0 357:0.0 358:0.0 359:0.0 360:0.0 361:0.0 362:0.0 363:0.0 364:0.0 365:0.0 366:0.0 367:0.0 368:0.0 369:0.0 370:0.0 371:0.0 372:0.0 373:0.0 374:0.0 375:0.0 376:0.0 377:0.0 378:0.0 379:0.0 380:0.0 381:0.0 382:0.0 383:0.0 384:0.0 385:0.0 386:0.0 387:0.0 388:0.0 389:0.0 390:0.0 391:0.0 392:0.0 393:0.0 394:0.0 395:0.0 396:0.0 397:0.0 398:0.0 399:0.0 400:0.0 401:0.0 402:0.0 403:0.0 404:0.0 405:0.0 406:0.0 407:0.0 408:0.0 409:0.0 410:0.0 411:0.0 412:0.0 413:0.0 414:0.0 415:0.0 416:0.0 417:0.0 418:0.0 419:0.0 420:0.0 421:0.0 422:0.0 423:0.0 424:0.0 425:0.0 426:0.0 427:0.0 428:0.0 429:0.0 430:0.0 431:0.0 432:0.0 433:0.013371028937399387 434:0.0 435:0.0 436:0.0 437:0.0 438:0.0 439:0.0 440:0.0 441:0.013371028937399387 442:0.038983989506959915 443:0.0 444:0.0 445:0.0 446:0.0 447:0.0 448:0.0 449:0.0 450:0.038983989506959915 451:0.043953146785497665 452:0.0028923084028065205 453:0.008654856123030186 454:0.0 455:0.031784787774086 456:0.0 457:0.0 458:0.0 459:0.043953146785497665 460:0.005940059199929237 461:0.0133213484659791 462:0.03986240550875664 463:0.0 464:0.14639386534690857 465:0.0 466:0.0 467:0.0 468:0.005940059199929237 469:0.0 470:0.0 471:0.0 472:0.0 473:0.0 474:0.0 475:0.0 476:0.0 477:0.0 478:0.0 479:0.0 480:0.0 481:0.0 482:0.0 483:0.0 484:0.0 485:0.0 486:0.0 487:0.0 488:0.0 489:0.0 490:0.0 491:0.11647609621286392 492:0.0 493:0.0 494:0.0 495:0.0 496:0.0 497:0.0 498:0.0 499:0.0 500:0.536463737487793 501:0.0 502:0.0 503:0.0 504:0.0 505:0.0 506:0.0 507:0.0 508:0.0 509:0.0 510:0.0 511:0.0 512:0.0 513:0.0 514:0.0 515:0.0 516:0.0 517:0.0 518:0.0 519:0.0 520:0.0 521:0.0 522:0.0 523:0.0 524:0.0 525:0.0 526:0.0 527:0.15571846067905426 528:0.0 529:0.0 530:0.0 531:0.0 532:0.0 533:0.0 534:0.0771552249789238 535:0.1578192561864853 536:0.5925348401069641 537:0.0 538:0.0 539:0.0 540:0.0 541:0.0 542:0.0 543:0.0 544:0.0 545:0.0 546:0.0 547:0.0 548:0.0 549:0.0 550:0.0 551:0.0 552:0.0 553:0.0 554:0.0 555:0.0 556:0.0 557:0.0 558:0.0 559:0.0 560:0.0 561:0.0 562:0.0 563:0.13010837137699127 564:0.0 565:0.0 566:0.0 567:0.0 568:0.0 569:0.0 570:0.064068503677845 571:0.13105066120624542 572:0.4532301127910614 573:0.0 574:0.0 575:0.0 576:0.0 577:0.05950796976685524 578:0.0 579:0.0 580:0.0 581:0.0 582:0.0 583:0.0 584:0.0 585:0.05950796976685524 586:0.17349883913993835 587:0.0 588:0.0 589:0.0 590:0.0 591:0.0 592:0.0 593:0.0 594:0.17349883913993835 595:0.21378356218338013 596:0.0 597:0.0 598:0.0 599:0.0 600:0.0 601:0.0 602:0.0 603:0.21378356218338013 604:0.11012066155672073 605:0.0 606:0.0 607:0.0 608:0.0 609:0.0 610:0.0 611:0.0 612:0.11012066155672073 613:0.013999943621456623 614:0.0 615:0.0 616:0.0 617:0.0 618:0.0 619:0.0 620:0.0 621:0.013999943621456623 622:0.04081762582063675 623:0.0 624:0.0 625:0.0 626:0.0 627:0.0 628:0.0 629:0.0 630:0.04081762582063675 631:0.05029507353901863 632:0.0 633:0.0 634:0.0 635:0.0 636:0.0 637:0.0 638:0.0 639:0.05029507353901863 640:0.02590717375278473 641:0.0 642:0.0 643:0.0 644:0.0 645:0.0 646:0.0 647:0.0 648:0.02590717375278473 649:0.026155337691307068 650:0.0 651:0.0 652:0.0 653:0.0 654:0.0 655:0.0 656:0.0 657:0.026155337691307068 658:0.0762573704123497 659:0.0 660:0.0 661:0.0 662:0.0 663:0.0 664:0.0 665:0.0 666:0.0762573704123497 667:0.09396357089281082 668:0.0 669:0.0 670:0.0 671:0.0 672:0.0 673:0.0 674:0.0 675:0.09396357089281082 676:0.04840097203850746 677:0.0 678:0.0 679:0.0 680:0.0 681:0.0 682:0.0 683:0.0 684:0.04840097203850746 685:0.12046584486961365 686:0.0 687:0.0 688:0.0 689:0.0 690:0.0 691:0.0 692:0.0 693:0.12046584486961365 694:0.35122498869895935 695:0.0 696:0.0 697:0.0 698:0.0 699:0.0 700:0.0 701:0.0 702:0.35122498869895935 703:0.43277594447135925 704:0.0 705:0.0 706:0.0 707:0.0 708:0.0 709:0.0 710:0.0 711:0.43277594447135925 712:0.22292442619800568 713:0.0 714:0.0 715:0.0 716:0.0 717:0.0 718:0.0 719:0.0 720:0.22292442619800568 721:0.057174310088157654 722:0.0 723:0.0 724:0.0 725:0.0 726:0.0 727:0.0 728:0.0 729:0.057174310088157654 730:0.15822698175907135 731:0.0 732:0.0 733:0.0 734:0.0 735:0.0 736:0.0 737:0.031369682401418686 738:0.164727121591568 739:0.2550012171268463 740:0.019026683643460274 741:0.0 742:0.0 743:0.0 744:0.0 745:0.0 746:0.09410905092954636 747:0.2705591917037964 748:0.12762115895748138 749:0.05708004906773567 750:0.0 751:0.0 752:0.0 753:0.0 754:0.0 755:0.0 756:0.11579356342554092 757:0.01345092337578535 758:0.0 759:0.0 760:0.0 761:0.0 762:0.0 763:0.0 764:0.0 765:0.01345092337578535 766:0.03921692445874214 767:0.0 768:0.0 769:0.0 770:0.0 771:0.0 772:0.0 773:0.0 774:0.03921692445874214 775:0.06624936312437057 776:0.0 777:0.0 778:0.0 779:0.0 780:0.0 781:0.0 782:0.0 783:0.06624936312437057 784:0.030866753309965134 785:0.0 786:0.0 787:0.0 788:0.0 789:0.0 790:0.0 791:0.0 792:0.030866753309965134 793:0.025129633024334908 794:0.0 795:0.0 796:0.0 797:0.0 798:0.0 799:0.0 800:0.0 801:0.025129633024334908 802:0.07326686382293701 803:0.0 804:0.0 805:0.0 806:0.0 807:0.0 808:0.0 809:0.0 810:0.07326686382293701 811:0.09027870744466782 812:0.0 813:0.0 814:0.0 815:0.0 816:0.0 817:0.0 818:0.0 819:0.09027870744466782 820:0.04650288075208664 821:0.0 822:0.0 823:0.0 824:0.0 825:0.0 826:0.0 827:0.0 828:0.04650288075208664 829:0.11574167758226395 830:0.0 831:0.0 832:0.0 833:0.0 834:0.0 835:0.0 836:0.0 837:0.11574167758226395 838:0.33745139837265015 839:0.0 840:0.0 841:0.0 842:0.0 843:0.0 844:0.0 845:0.0 846:0.33745139837265015 847:0.41580426692962646 848:0.0 849:0.0 850:0.0 851:0.0 852:0.0 853:0.0 854:0.0 855:0.41580426692962646 856:0.21418224275112152 857:0.0 858:0.0 859:0.0 860:0.0 861:0.0 862:0.0 863:0.0 864:0.21418224275112152 865:0.009406761266291142 866:0.0 867:0.0 868:0.0 869:0.011111943982541561 870:0.0 871:0.012418887577950954 872:0.004150174092501402 873:0.009406761266291142 874:0.00313558685593307 875:0.0 876:0.0 877:0.0 878:0.014643586240708828 879:0.0 880:0.1252228170633316 881:0.04184726998209953 882:0.00313558685593307 883:0.0 884:0.0 885:0.0 886:0.0 887:0.05998438596725464 888:0.0 889:0.029322054237127304 890:0.009798916056752205 891:0.0 892:0.0 893:0.0 894:0.0 895:0.0 896:0.11006108671426773 897:0.0 898:0.0 899:0.0 900:0.0 901:0.00313558685593307 902:0.0 903:0.0 904:0.0 905:0.0 906:0.0 907:0.004139629192650318 908:0.0013833913253620267 909:0.00313558685593307 910:0.0010451956186443567 911:0.0 912:0.0 913:0.0 914:0.2999511659145355 915:0.0 916:0.13176238536834717 917:0.04403267055749893 918:0.0010451956186443567 919:0.0 920:0.0042611537501215935 921:0.01275094784796238 922:0.0 923:0.4467695951461792 924:0.0 925:0.03978116810321808 926:0.013294166885316372 927:0.0 928:0.0 929:0.01278346125036478 930:0.03825284168124199 931:0.0 932:0.284801185131073 933:0.0 934:0.0 935:0.0 936:0.0 937:0.0 938:0.0 939:0.0 940:0.0 941:0.0 942:0.0 943:0.0 944:0.0 945:0.0 946:0.006014686077833176 947:0.0 948:0.0 949:0.0 950:0.4198777973651886 951:0.0 952:0.05565759539604187 953:0.01859978958964348 954:0.006014686077833176 955:0.03396788612008095 956:0.07330769300460815 957:0.2193637192249298 958:0.0 959:0.36320969462394714 960:0.0 961:0.16697277128696442 962:0.05579936504364014 963:0.03396788612008095 964:0.03087816946208477 965:0.09275894612073898 966:0.27756908535957336 967:0.0 968:0.12873275578022003 969:0.0 970:0.0 971:0.0 972:0.03087816946208477 973:0.0 974:0.0 975:0.0 976:0.0 977:0.0 978:0.0 979:0.0 980:0.0 981:0.0 982:0.018044058233499527 983:0.0 984:0.0 985:0.0 986:0.04633805900812149 987:0.0 988:0.01855253241956234 989:0.006199929863214493 990:0.018044058233499527 991:0.10190365463495255 992:0.020174745470285416 993:0.06037028878927231 994:0.0 995:0.04905066266655922 996:0.0 997:0.05565759539604187 998:0.01859978958964348 999:0.10190365463495255 1000:0.024447236210107803 1001:0.029203340411186218 1002:0.08738719671964645 1003:0.0 1004:0.1196274533867836 1005:0.0 1006:0.0 1007:0.0 1008:0.024447236210107803 1009:0.005905536003410816 1010:0.0 1011:0.0 1012:0.0 1013:0.0 1014:0.0 1015:0.0 1016:0.0 1017:0.005905536003410816 1018:0.053230706602334976 1019:0.0 1020:0.0 1021:0.0 1022:0.0 1023:0.0 1024:0.0 1025:0.0 1026:0.053230706602334976 1027:0.06948530673980713 1028:0.0 1029:0.0 1030:0.0 1031:0.0 1032:0.0 1033:0.0 1034:0.0 1035:0.06948530673980713 1036:0.03579213097691536 1037:0.0 1038:0.0 1039:0.0 1040:0.0 1041:0.0 1042:0.0 1043:0.0 1044:0.03579213097691536 1045:0.027453191578388214 1046:0.0 1047:0.0 1048:0.0 1049:0.1343412697315216 1050:0.0 1051:0.0 1052:0.0 1053:0.027453191578388214 1054:0.2474546879529953 1055:0.0 1056:0.0 1057:0.0 1058:0.18226048350334167 1059:0.0 1060:0.0 1061:0.0 1062:0.2474546879529953 1063:0.32301783561706543 1064:0.0 1065:0.0 1066:0.0 1067:0.0 1068:0.0 1069:0.0 1070:0.0 1071:0.32301783561706543 1072:0.1663876175880432 1073:0.0 1074:0.0 1075:0.0 1076:0.0 1077:0.0 1078:0.0 1079:0.0 1080:0.1663876175880432 1081:0.09181120246648788 1082:0.0 1083:0.0 1084:0.0 1085:0.056591495871543884 1086:0.0 1087:0.020103713497519493 1088:0.006718307733535767 1089:0.09181120246648788 1090:0.27708548307418823 1091:0.0 1092:0.0 1093:0.0 1094:0.09618671238422394 1095:0.0 1096:0.006701237987726927 1097:0.002239435911178589 1098:0.27708548307418823 1099:0.3436856269836426 1100:0.0 1101:0.0 1102:0.0 1103:0.0 1104:0.0 1105:0.0 1106:0.0 1107:0.3436856269836426 1108:0.17703373730182648 1109:0.0 1110:0.0 1111:0.0 1112:0.0 1113:0.0 1114:0.0 1115:0.0 1116:0.17703373730182648 1117:0.031408775597810745 1118:0.0 1119:0.0 1120:0.0 1121:0.0848546102643013 1122:0.0 1123:0.06031114235520363 1124:0.02015492506325245 1125:0.031408775597810745 1126:0.0045992364175617695 1127:0.0 1128:0.0 1129:0.0 1130:0.173349529504776 1131:0.0 1132:0.020103713497519493 1133:0.006718307733535767 1134:0.0045992364175617695 1135:0.0 1136:0.0 1137:0.0 1138:0.0 1139:0.0 1140:0.0 1141:0.0 1142:0.0 1143:0.0 1144:0.0 1145:0.0 1146:0.0 1147:0.0 1148:0.0 1149:0.0 1150:0.0 1151:0.0 1152:0.0 1153:0.013371028937399387 1154:0.0 1155:0.0 1156:0.0 1157:0.0 1158:0.0 1159:0.0 1160:0.0 1161:0.013371028937399387 1162:0.038983989506959915 1163:0.0 1164:0.0 1165:0.0 1166:0.0 1167:0.0 1168:0.0 1169:0.0 1170:0.038983989506959915 1171:0.043953146785497665 1172:0.0028923084028065205 1173:0.008654856123030186 1174:0.0 1175:0.031784787774086 1176:0.0 1177:0.0 1178:0.0 1179:0.043953146785497665 1180:0.005940059199929237 1181:0.0133213484659791 1182:0.03986240550875664 1183:0.0 1184:0.14639386534690857 1185:0.0 1186:0.0 1187:0.0 1188:0.005940059199929237 1189:0.0 1190:0.0 1191:0.0 1192:0.0 1193:0.0 1194:0.0 1195:0.0 1196:0.0 1197:0.0 1198:0.0 1199:0.0 1200:0.0 1201:0.0 1202:0.0 1203:0.0 1204:0.0 1205:0.0 1206:0.0 1207:0.0 1208:0.0 1209:0.0 1210:0.0 1211:0.11647609621286392 1212:0.0 1213:0.0 1214:0.0 1215:0.0 1216:0.0 1217:0.0 1218:0.0 1219:0.0 1220:0.536463737487793 1221:0.0 1222:0.0 1223:0.0 1224:0.0 1225:0.0 1226:0.0 1227:0.0 1228:0.0 1229:0.0 1230:0.0 1231:0.0 1232:0.0 1233:0.0 1234:0.0 1235:0.0 1236:0.0 1237:0.0 1238:0.0 1239:0.0 1240:0.0 1241:0.0 1242:0.0 1243:0.0 1244:0.0 1245:0.0 1246:0.0 1247:0.15571846067905426 1248:0.0 1249:0.0 1250:0.0 1251:0.0 1252:0.0 1253:0.0 1254:0.0771552249789238 1255:0.1578192561864853 1256:0.5925348401069641 1257:0.0 1258:0.0 1259:0.0 1260:0.0 1261:0.0 1262:0.0 1263:0.0 1264:0.0 1265:0.0 1266:0.0 1267:0.0 1268:0.0 1269:0.0 1270:0.0 1271:0.0 1272:0.0 1273:0.0 1274:0.0 1275:0.0 1276:0.0 1277:0.0 1278:0.0 1279:0.0 1280:0.0 1281:0.0 1282:0.0 1283:0.13010837137699127 1284:0.0 1285:0.0 1286:0.0 1287:0.0 1288:0.0 1289:0.0 1290:0.064068503677845 1291:0.13105066120624542 1292:0.4532301127910614 1293:0.0 1294:0.0 1295:0.0 1296:0.0 1297:0.02908938191831112 1298:0.0 1299:0.0 1300:0.0 1301:0.0 1302:0.0 1303:0.0 1304:0.0 1305:0.02908938191831112 1306:0.084811732172966 1307:0.0 1308:0.0 1309:0.0 1310:0.0 1311:0.0 1312:0.0 1313:0.0 1314:0.084811732172966 1315:0.10450416803359985 1316:0.0 1317:0.0 1318:0.0 1319:0.0 1320:0.0 1321:0.0 1322:0.0 1323:0.10450416803359985 1324:0.039568252861499786 1325:0.0 1326:0.0 1327:0.0 1328:0.11103915423154831 1329:0.0 1330:0.030235489830374718 1331:0.010104168206453323 1332:0.039568252861499786 1333:0.04977170005440712 1334:0.0 1335:0.0 1336:0.0 1337:0.0 1338:0.0 1339:0.0 1340:0.0 1341:0.04977170005440712 1342:0.011709373444318771 1343:0.0 1344:0.0 1345:0.0 1346:0.0 1347:0.0 1348:0.0 1349:0.0 1350:0.011709373444318771 1351:0.0 1352:0.0 1353:0.0 1354:0.0 1355:0.0 1356:0.0 1357:0.0 1358:0.0 1359:0.0 1360:0.0 1361:0.0 1362:0.0 1363:0.0 1364:0.3366492986679077 1365:0.0 1366:0.0 1367:0.0 1368:0.0 1369:0.18808384239673615 1370:0.0 1371:0.0 1372:0.0 1373:0.18498243391513824 1374:0.0 1375:0.19716015458106995 1376:0.0658874586224556 1377:0.18808384239673615 1378:0.035128120332956314 1379:0.0 1380:0.0 1381:0.0 1382:0.44131386280059814 1383:0.0 1384:0.06572005152702332 1385:0.02196248434484005 1386:0.035128120332956314 1387:0.0 1388:0.0 1389:0.0 1390:0.0 1391:0.0 1392:0.0 1393:0.0 1394:0.0 1395:0.0 1396:0.0 1397:0.0 1398:0.0 1399:0.0 1400:0.06200091540813446 1401:0.0 1402:0.0 1403:0.0 1404:0.0 1405:0.012922912836074829 1406:0.0 1407:0.0 1408:0.0 1409:0.3570985496044159 1410:0.0 1411:0.06572005152702332 1412:0.02196248434484005 1413:0.012922912836074829 1414:0.0 1415:0.0 1416:0.0 1417:0.0 1418:0.5479243397712708 1419:0.0 1420:0.021906685084104538 1421:0.0073208287358284 1422:0.0 1423:0.0 1424:0.0 1425:0.0 1426:0.0 1427:0.0 1428:0.0 1429:0.0 1430:0.0 1431:0.0 1432:0.0 1433:0.0 1434:0.0 1435:0.0 1436:0.06842658668756485 1437:0.0 1438:0.0 1439:0.0 1440:0.0 1441:0.057174310088157654 1442:0.0 1443:0.0 1444:0.0 1445:0.0 1446:0.0 1447:0.0 1448:0.0 1449:0.057174310088157654 1450:0.15822698175907135 1451:0.0 1452:0.0 1453:0.0 1454:0.0 1455:0.0 1456:0.0 1457:0.031369682401418686 1458:0.164727121591568 1459:0.2550012171268463 1460:0.019026683643460274 1461:0.0 1462:0.0 1463:0.0 1464:0.0 1465:0.0 1466:0.09410905092954636 1467:0.2705591917037964 1468:0.12762115895748138 1469:0.05708004906773567 1470:0.0 1471:0.0 1472:0.0 1473:0.0 1474:0.0 1475:0.0 1476:0.11579356342554092 1477:0.01345092337578535 1478:0.0 1479:0.0 1480:0.0 1481:0.0 1482:0.0 1483:0.0 1484:0.0 1485:0.01345092337578535 1486:0.03921692445874214 1487:0.0 1488:0.0 1489:0.0 1490:0.0 1491:0.0 1492:0.0 1493:0.0 1494:0.03921692445874214 1495:0.06624936312437057 1496:0.0 1497:0.0 1498:0.0 1499:0.0 1500:0.0 1501:0.0 1502:0.0 1503:0.06624936312437057 1504:0.030866753309965134 1505:0.0 1506:0.0 1507:0.0 1508:0.0 1509:0.0 1510:0.0 1511:0.0 1512:0.030866753309965134 1513:0.025129633024334908 1514:0.0 1515:0.0 1516:0.0 1517:0.0 1518:0.0 1519:0.0 1520:0.0 1521:0.025129633024334908 1522:0.07326686382293701 1523:0.0 1524:0.0 1525:0.0 1526:0.0 1527:0.0 1528:0.0 1529:0.0 1530:0.07326686382293701 1531:0.09027870744466782 1532:0.0 1533:0.0 1534:0.0 1535:0.0 1536:0.0 1537:0.0 1538:0.0 1539:0.09027870744466782 1540:0.04650288075208664 1541:0.0 1542:0.0 1543:0.0 1544:0.0 1545:0.0 1546:0.0 1547:0.0 1548:0.04650288075208664 1549:0.11574167758226395 1550:0.0 1551:0.0 1552:0.0 1553:0.0 1554:0.0 1555:0.0 1556:0.0 1557:0.11574167758226395 1558:0.33745139837265015 1559:0.0 1560:0.0 1561:0.0 1562:0.0 1563:0.0 1564:0.0 1565:0.0 1566:0.33745139837265015 1567:0.41580426692962646 1568:0.0 1569:0.0 1570:0.0 1571:0.0 1572:0.0 1573:0.0 1574:0.0 1575:0.41580426692962646 1576:0.21418224275112152 1577:0.0 1578:0.0 1579:0.0 1580:0.0 1581:0.0 1582:0.0 1583:0.0 1584:0.21418224275112152 1585:0.0364270880818367 1586:0.006763325072824955 1587:0.020238367840647697 1588:0.0 1589:0.011890189722180367 1590:0.0 1591:0.0 1592:0.0 1593:0.0364270880818367 1594:0.007633652538061142 1595:0.002254441613331437 1596:0.0067461226135492325 1597:0.0 1598:0.03567056730389595 1599:0.0 1600:0.0 1601:0.0 1602:0.007633652538061142 1603:0.0 1604:0.0 1605:0.0 1606:0.0 1607:0.0 1608:0.0 1609:0.0 1610:0.0 1611:0.0 1612:0.0 1613:0.0 1614:0.0 1615:0.0 1616:0.0 1617:0.0 1618:0.0 1619:0.0 1620:0.0 1621:0.010815833695232868 1622:0.0 1623:0.0 1624:0.0 1625:0.0 1626:0.0 1627:0.0 1628:0.0 1629:0.010815833695232868 1630:0.002544550923630595 1631:0.0 1632:0.0 1633:0.0 1634:0.0 1635:0.0 1636:0.0 1637:0.0 1638:0.002544550923630595 1639:0.0 1640:0.0 1641:0.0 1642:0.0 1643:0.0 1644:0.0 1645:0.0 1646:0.0 1647:0.0 1648:0.0 1649:0.0 1650:0.0 1651:0.0 1652:0.0 1653:0.0 1654:0.0 1655:0.0 1656:0.0 1657:0.029087992385029793 1658:0.0 1659:0.0 1660:0.0 1661:0.0 1662:0.0 1663:0.0 1664:0.0 1665:0.029087992385029793 1666:0.08480768650770187 1667:0.0 1668:0.0 1669:0.0 1670:0.0 1671:0.0 1672:0.0 1673:0.0 1674:0.08480768650770187 1675:0.10449918359518051 1676:0.0 1677:0.0 1678:0.0 1679:0.0 1680:0.0 1681:0.0 1682:0.0 1683:0.10449918359518051 1684:0.05382790416479111 1685:0.0 1686:0.0 1687:0.0 1688:0.0 1689:0.0 1690:0.0 1691:0.0 1692:0.05382790416479111 1693:0.13397301733493805 1694:0.0 1695:0.0 1696:0.0 1697:0.0 1698:0.0 1699:0.0 1700:0.0 1701:0.13397301733493805 1702:0.3906058967113495 1703:0.0 1704:0.0 1705:0.0 1706:0.0 1707:0.0 1708:0.0 1709:0.0 1710:0.3906058967113495 1711:0.4813007116317749 1712:0.0 1713:0.0 1714:0.0 1715:0.0 1716:0.0 1717:0.0 1718:0.0 1719:0.4813007116317749 1720:0.2479196935892105 1721:0.0 1722:0.0 1723:0.0 1724:0.0 1725:0.0 1726:0.0 1727:0.0 1728:0.2479196935892105 
