svm_type c_svc
kernel_type linear
nr_class 2
total_sv 14
rho 0.10158910378238988
label 0 1
probA -3.6608989072756954
probB 0.9816179210342544
nr_sv 7 7
SV
0.06686482987665442 1:0.0 2:0.0 3:0.0 4:0.0 5:0.0 6:0.0 7:0.0 8:0.0 9:0.0 10:0.0 11:0.0 12:0.0 13:0.0 14:0.0 15:0.0 16:0.0 17:0.0 18:0.0 19:0.0 20:0.0 21:0.0 22:0.0 23:0.0 24:0.0 25:0.0 26:0.0 27:0.0 28:0.0 29:0.0 30:0.0 31:0.0 32:0.0 33:0.0 34:0.0 35:0.0 36:0.0 37:0.09188168495893478 38:0.0 39:0.0 40:0.0 41:0.0 42:0.0 43:0.0 44:0.0 45:0.09188168495893478 46:0.1880606859922409 47:0.0 48:0.0 49:0.0 50:0.0 51:0.0 52:0.0980553925037384 53:0.03276839107275009 54:0.1880606859922409 55:0.02962750941514969 56:0.0 57:0.0 58:0.0 59:0.0 60:0.0 61:0.10437305271625519 62:0.034879639744758606 63:0.02962750941514969 64:0.0 65:0.0 66:0.0 67:0.0 68:0.0 69:0.0 70:0.0 71:0.0 72:0.0 73:0.097801573574543 74:0.0 75:0.0 76:0.0 77:0.0 78:0.0 79:0.0 80:0.0 81:0.097801573574543 82:0.13519565761089325 83:0.0 84:0.0 85:0.0 86:0.0 87:0.0 88:0.36533859372138977 89:0.12208973616361618 90:0.13519565761089325 91:0.05526619404554367 92:0.0 93:0.0 94:0.0 95:0.0 96:0.0 97:0.7150647044181824 98:0.2389620840549469 99:0.05526619404554367 100:0.122059665620327 101:0.0 102:0.0 103:0.0 104:0.0 105:0.0 106:0.06280944496393204 107:0.020989811047911644 108:0.122059665620327 109:0.0 110:0.0 111:0.0 112:0.0 113:0.0 114:0.0 115:0.0 116:0.0 117:0.0 118:0.0 119:0.0 120:0.0 121:0.0 122:0.0 123:0.0 124:0.023724140599370003 125:0.007928190752863884 126:0.0 127:0.08187061548233032 128:0.0 129:0.0 130:0.0 131:0.0 132:0.0 133:0.1339818686246872 134:0.044774383306503296 135:0.08187061548233032 136:0.11608284711837769 137:0.0 138:0.0 139:0.0 140:0.0 141:0.0 142:0.020936479791998863 143:0.006996603216975927 144:0.11608284711837769 145:0.009406761266291142 146:0.0 147:0.0 148:0.0 149:0.011111943982541561 150:0.0 151:0.012418887577950954 152:0.004150174092501402 153:0.009406761266291142 154:0.00313558685593307 155:0.0 156:0.0 157:0.0 158:0.014643586240708828 159:0.0 160:0.1252228170633316 161:0.04184726998209953 162:0.00313558685593307 163:0.0 164:0.0 165:0.0 166:0.0 167:0.05998438596725464 168:0.0 169:0.029322054237127304 170:0.009798916056752205 171:0.0 172:0.0 173:0.0 174:0.0 175:0.0 176:0.11006108671426773 177:0.0 178:0.0 179:0.0 180:0.0 181:0.00313558685593307 182:0.0 183:0.0 184:0.0 185:0.0 186:0.0 187:0.004139629192650318 188:0.0013833913253620267 189:0.00313558685593307 190:0.0010451956186443567 191:0.0 192:0.0 193:0.0 194:0.2999511659145355 195:0.0 196:0.13176238536834717 197:0.04403267055749893 198:0.0010451956186443567 199:0.0 200:0.0042611537501215935 201:0.01275094784796238 202:0.0 203:0.4467695951461792 204:0.0 205:0.03978116810321808 206:0.013294166885316372 207:0.0 208:0.0 209:0.01278346125036478 210:0.03825284168124199 211:0.0 212:0.284801185131073 213:0.0 214:0.0 215:0.0 216:0.0 217:0.0 218:0.0 219:0.0 220:0.0 221:0.0 222:0.0 223:0.0 224:0.0 225:0.0 226:0.006014686077833176 227:0.0 228:0.0 229:0.0 230:0.4198777973651886 231:0.0 232:0.05565759539604187 233:0.01859978958964348 234:0.006014686077833176 235:0.03396788612008095 236:0.07330769300460815 237:0.2193637192249298 238:0.0 239:0.36320969462394714 240:0.0 241:0.16697277128696442 242:0.05579936504364014 243:0.03396788612008095 244:0.03087816946208477 245:0.09275894612073898 246:0.27756908535957336 247:0.0 248:0.12873275578022003 249:0.0 250:0.0 251:0.0 252:0.03087816946208477 253:0.0 254:0.0 255:0.0 256:0.0 257:0.0 258:0.0 259:0.0 260:0.0 261:0.0 262:0.018044058233499527 263:0.0 264:0.0 265:0.0 266:0.04633805900812149 267:0.0 268:0.01855253241956234 269:0.006199929863214493 270:0.018044058233499527 271:0.10190365463495255 272:0.020174745470285416 273:0.06037028878927231 274:0.0 275:0.04905066266655922 276:0.0 277:0.05565759539604187 278:0.01859978958964348 279:0.10190365463495255 280:0.024447236210107803 281:0.029203340411186218 282:0.08738719671964645 283:0.0 284:0.1196274533867836 285:0.0 286:0.0 287:0.0 288:0.024447236210107803 289:0.12876366078853607 290:0.0 291:0.0 292:0.0 293:0.0 294:0.0 295:0.0 296:0.0 297:0.12876366078853607 298:0.37541770935058594 299:0.0 300:0.0 301:0.0 302:0.0 303:0.0 304:0.0 305:0.0 306:0.37541770935058594 307:0.4625859558582306 308:0.0 309:0.0 310:0.0 311:0.0 312:0.0 313:0.0 314:0.0 315:0.4625859558582306 316:0.23827968537807465 317:0.0 318:0.0 319:0.0 320:0.0 321:0.0 322:0.0 323:0.0 324:0.23827968537807465 325:0.0 326:0.0 327:0.0 328:0.0 329:0.0 330:0.0 331:0.0 332:0.0 333:0.0 334:0.0 335:0.0 336:0.0 337:0.0 338:0.0 339:0.0 340:0.0 341:0.0 342:0.0 343:0.0 344:0.0 345:0.0 346:0.0 347:0.0 348:0.0 349:0.0 350:0.0 351:0.0 352:0.0 353:0.0 354:0.0 355:0.0 356:0.0 357:0.0 358:0.0 359:0.0 360:0.0 361:0.0 362:0.0 363:0.0 364:0.0 365:0.0 366:0.0 367:0.0 368:0.0 369:0.0 370:0.0 371:0.0 372:0.0 373:0.0 374:0.0 375:0.0 376:0.0 377:0.0 378:0.0 379:0.0 380:0.0 381:0.0 382:0.0 383:0.0 384:0.0 385:0.0 386:0.0 387:0.0 388:0.0 389:0.0 390:0.0 391:0.0 392:0.0 393:0.0 394:0.0 395:0.0 396:0.0 397:0.0 398:0.0 399:0.0 400:0.0 401:0.0 402:0.0 403:0.0 404:0.0 405:0.0 406:0.0 407:0.0 408:0.0 409:0.0 410:0.0 411:0.0 412:0.0 413:0.0 414:0.0 415:0.0 416:0.0 417:0.0 418:0.0 419:0.0 420:0.0 421:0.0 422:0.0 423:0.0 424:0.0 425:0.0 426:0.0 427:0.0 428:0.0 429:0.0 430:0.0 431:0.0 432:0.0 433:0.02261107601225376 434:0.0 435:0.0 436:0.0 437:0.0 438:0.0 439:0.0 440:0.0 441:0.02261107601225376 442:0.06592386960983276 443:0.0 444:0.0 445:0.0 446:0.0 447:0.0 448:0.0 449:0.0 450:0.06592386960983276 451:0.08123072981834412 452:0.0 453:0.0 454:0.0 455:0.0 456:0.0 457:0.0 458:0.0 459:0.08123072981834412 460:0.04184224456548691 461:0.0 462:0.0 463:0.0 464:0.0 465:0.0 466:0.0 467:0.0 468:0.04184224456548691 469:0.0 470:0.0 471:0.0 472:0.0 473:0.0 474:0.0 475:0.0 476:0.0 477:0.0 478:0.0 479:0.0 480:0.0 481:0.0 482:0.0 483:0.0 484:0.0 485:0.0 486:0.0 487:0.0 488:0.0 489:0.0 490:0.0 491:0.0 492:0.0 493:0.0 494:0.0 495:0.0 496:0.027304967865347862 497:0.0 498:0.0 499:0.0 500:0.0 501:0.0 502:0.0 503:0.0 504:0.027304967865347862 505:0.0 506:0.0 507:0.0 508:0.0 509:0.0 510:0.0 511:0.0 512:0.0 513:0.0 514:0.0 515:0.0 516:0.0 517:0.0 518:0.0 519:0.0 520:0.0 521:0.0 522:0.0 523:0.0 524:0.0 525:0.0 526:0.0 527:0.13129067420959473 528:0.0 529:0.0 530:0.0 531:0.0 532:0.1374056041240692 533:0.26779842376708984 534:0.024319468066096306 535:0.04974491521716118 536:0.39387205243110657 537:0.0 538:0.0 539:0.0 540:0.08191490173339844 541:0.0 542:0.0 543:0.0 544:0.0 545:0.0 546:0.0 547:0.0 548:0.0 549:0.0 550:0.0 551:0.0 552:0.0 553:0.0 554:0.0 555:0.0 556:0.0 557:0.0 558:0.0 559:0.0 560:0.0 561:0.0 562:0.0 563:0.22001971304416656 564:0.0 565:0.0 566:0.0 567:0.0 568:0.018496902659535408 569:0.08926614373922348 570:0.07295840978622437 571:0.14923474192619324 572:0.7664346694946289 573:0.0 574:0.0 575:0.0 576:0.0 577:0.05950796976685524 578:0.0 579:0.0 580:0.0 581:0.0 582:0.0 583:0.0 584:0.0 585:0.05950796976685524 586:0.17349883913993835 587:0.0 588:0.0 589:0.0 590:0.0 591:0.0 592:0.0 593:0.0 594:0.17349883913993835 595:0.21378356218338013 596:0.0 597:0.0 598:0.0 599:0.0 600:0.0 601:0.0 602:0.0 603:0.21378356218338013 604:0.11012066155672073 605:0.0 606:0.0 607:0.0 608:0.0 609:0.0 610:0.0 611:0.0 612:0.11012066155672073 613:0.013999943621456623 614:0.0 615:0.0 616:0.0 617:0.0 618:0.0 619:0.0 620:0.0 621:0.013999943621456623 622:0.04081762582063675 623:0.0 624:0.0 625:0.0 626:0.0 627:0.0 628:0.0 629:0.0 630:0.04081762582063675 631:0.05029507353901863 632:0.0 633:0.0 634:0.0 635:0.0 636:0.0 637:0.0 638:0.0 639:0.05029507353901863 640:0.02590717375278473 641:0.0 642:0.0 643:0.0 644:0.0 645:0.0 646:0.0 647:0.0 648:0.02590717375278473 649:0.026155337691307068 650:0.0 651:0.0 652:0.0 653:0.0 654:0.0 655:0.0 656:0.0 657:0.026155337691307068 658:0.0762573704123497 659:0.0 660:0.0 661:0.0 662:0.0 663:0.0 664:0.0 665:0.0 666:0.0762573704123497 667:0.09396357089281082 668:0.0 669:0.0 670:0.0 671:0.0 672:0.0 673:0.0 674:0.0 675:0.09396357089281082 676:0.04840097203850746 677:0.0 678:0.0 679:0.0 680:0.0 681:0.0 682:0.0 683:0.0 684:0.04840097203850746 685:0.12046584486961365 686:0.0 687:0.0 688:0.0 689:0.0 690:0.0 691:0.0 692:0.0 693:0.12046584486961365 694:0.35122498869895935 695:0.0 696:0.0 697:0.0 698:0.0 699:0.0 700:0.0 701:0.0 702:0.35122498869895935 703:0.43277594447135925 704:0.0 705:0.0 706:0.0 707:0.0 708:0.0 709:0.0 710:0.0 711:0.43277594447135925 712:0.22292442619800568 713:0.0 714:0.0 715:0.0 716:0.0 717:0.0 718:0.0 719:0.0 720:0.22292442619800568 721:0.05950796976685524 722:0.0 723:0.0 724:0.0 725:0.0 726:0.0 727:0.0 728:0.0 729:0.05950796976685524 730:0.17349883913993835 731:0.0 732:0.0 733:0.0 734:0.0 735:0.0 736:0.0 737:0.0 738:0.17349883913993835 739:0.21378356218338013 740:0.0 741:0.0 742:0.0 743:0.0 744:0.0 745:0.0 746:0.0 747:0.21378356218338013 748:0.11012066155672073 749:0.0 750:0.0 751:0.0 752:0.0 753:0.0 754:0.0 755:0.0 756:0.11012066155672073 757:0.013999943621456623 758:0.0 759:0.0 760:0.0 761:0.0 762:0.0 763:0.0 764:0.0 765:0.013999943621456623 766:0.04081762582063675 767:0.0 768:0.0 769:0.0 770:0.0 771:0.0 772:0.0 773:0.0 774:0.04081762582063675 775:0.05029507353901863 776:0.0 777:0.0 778:0.0 779:0.0 780:0.0 781:0.0 782:0.0 783:0.05029507353901863 784:0.02590717375278473 785:0.0 786:0.0 787:0.0 788:0.0 789:0.0 790:0.0 791:0.0 792:0.02590717375278473 793:0.026155337691307068 794:0.0 795:0.0 796:0.0 797:0.0 798:0.0 799:0.0 800:0.0 801:0.026155337691307068 802:0.0762573704123497 803:0.0 804:0.0 805:0.0 806:0.0 807:0.0 808:0.0 809:0.0 810:0.0762573704123497 811:0.09396357089281082 812:0.0 813:0.0 814:0.0 815:0.0 816:0.0 817:0.0 818:0.0 819:0.09396357089281082 820:0.04840097203850746 821:0.0 822:0.0 823:0.0 824:0.0 825:0.0 826:0.0 827:0.0 828:0.04840097203850746 829:0.12046584486961365 830:0.0 831:0.0 832:0.0 833:0.0 834:0.0 835:0.0 836:0.0 837:0.12046584486961365 838:0.35122498869895935 839:0.0 840:0.0 841:0.0 842:0.0 843:0.0 844:0.0 845:0.0 846:0.35122498869895935 847:0.43277594447135925 848:0.0 849:0.0 850:0.0 851:0.0 852:0.0 853:0.0 854:0.0 855:0.43277594447135925 856:0.22292442619800568 857:0.0 858:0.0 859:0.0 860:0.0 861:0.0 862:0.0 863:0.0 864:0.22292442619800568 865:0.009406761266291142 866:0.0 867:0.0 868:0.0 869:0.011111943982541561 870:0.0 871:0.012418887577950954 872:0.004150174092501402 873:0.009406761266291142 874:0.00313558685593307 875:0.0 876:0.0 877:0.0 878:0.014643586240708828 879:0.0 880:0.1252228170633316 881:0.04184726998209953 882:0.00313558685593307 883:0.0 884:0.0 885:0.0 886:0.0 887:0.05998438596725464 888:0.0 889:0.029322054237127304 890:0.009798916056752205 891:0.0 892:0.0 893:0.0 894:0.0 895:0.0 896:0.11006108671426773 897:0.0 898:0.0 899:0.0 900:0.0 901:0.00313558685593307 902:0.0 903:0.0 904:0.0 905:0.0 906:0.0 907:0.004139629192650318 908:0.0013833913253620267 909:0.00313558685593307 910:0.0010451956186443567 911:0.0 912:0.0 913:0.0 914:0.2999511659145355 915:0.0 916:0.13176238536834717 917:0.04403267055749893 918:0.0010451956186443567 919:0.0 920:0.0042611537501215935 921:0.01275094784796238 922:0.0 923:0.4467695951461792 924:0.0 925:0.03978116810321808 926:0.013294166885316372 927:0.0 928:0.0 929:0.01278346125036478 930:0.03825284168124199 931:0.0 932:0.284801185131073 933:0.0 934:0.0 935:0.0 936:0.0 937:0.0 938:0.0 939:0.0 940:0.0 941:0.0 942:0.0 943:0.0 944:0.0 945:0.0 946:0.006014686077833176 947:0.0 948:0.0 949:0.0 950:0.4198777973651886 951:0.0 952:0.05565759539604187 953:0.01859978958964348 954:0.006014686077833176 955:0.03396788612008095 956:0.07330769300460815 957:0.2193637192249298 958:0.0 959:0.36320969462394714 960:0.0 961:0.16697277128696442 962:0.05579936504364014 963:0.03396788612008095 964:0.03087816946208477 965:0.09275894612073898 966:0.27756908535957336 967:0.0 968:0.12873275578022003 969:0.0 970:0.0 971:0.0 972:0.03087816946208477 973:0.0 974:0.0 975:0.0 976:0.0 977:0.0 978:0.0 979:0.0 980:0.0 981:0.0 982:0.018044058233499527 983:0.0 984:0.0 985:0.0 986:0.04633805900812149 987:0.0 988:0.01855253241956234 989:0.006199929863214493 990:0.018044058233499527 991:0.10190365463495255 992:0.020174745470285416 993:0.06037028878927231 994:0.0 995:0.04905066266655922 996:0.0 997:0.05565759539604187 998:0.01859978958964348 999:0.10190365463495255 1000:0.024447236210107803 1001:0.029203340411186218 1002:0.08738719671964645 1003:0.0 1004:0.1196274533867836 1005:0.0 1006:0.0 1007:0.0 1008:0.024447236210107803 1009:0.0 1010:0.0 1011:0.0 1012:0.0 1013:0.0 1014:0.0 1015:0.0 1016:0.0 1017:0.0 1018:0.0 1019:0.0 1020:0.0 1021:0.0 1022:0.0 1023:0.0 1024:0.0 1025:0.0 1026:0.0 1027:0.0 1028:0.0 1029:0.0 1030:0.0 1031:0.0 1032:0.0 1033:0.0 1034:0.0 1035:0.0 1036:0.0 1037:0.0 1038:0.0 1039:0.0 1040:0.0 1041:0.0 1042:0.0 1043:0.0 1044:0.0 1045:0.0 1046:0.0 1047:0.0 1048:0.0 1049:0.0 1050:0.0 1051:0.0 1052:0.0 1053:0.0 1054:0.0 1055:0.0 1056:0.0 1057:0.0 1058:0.0 1059:0.0 1060:0.0 1061:0.0 1062:0.0 1063:0.0 1064:0.0 1065:0.0 1066:0.0 1067:0.0 1068:0.0 1069:0.0 1070:0.0 1071:0.0 1072:0.0 1073:0.0 1074:0.0 1075:0.0 1076:0.0 1077:0.0 1078:0.0 1079:0.0 1080:0.0 1081:0.10612008720636368 1082:0.0 1083:0.0 1084:0.0 1085:0.0 1086:0.0 1087:0.0 1088:0.0 1089:0.10612008720636368 1090:0.3093991279602051 1091:0.0 1092:0.0 1093:0.0 1094:0.0 1095:0.0 1096:0.0 1097:0.0 1098:0.3093991279602051 1099:0.38123852014541626 1100:0.0 1101:0.0 1102:0.0 1103:0.0 1104:0.0 1105:0.0 1106:0.0 1107:0.38123852014541626 1108:0.19637732207775116 1109:0.0 1110:0.0 1111:0.0 1112:0.0 1113:0.0 1114:0.0 1115:0.0 1116:0.19637732207775116 1117:0.0881204754114151 1118:0.0 1119:0.0 1120:0.0 1121:0.0 1122:0.0 1123:0.0 1124:0.0 1125:0.0881204754114151 1126:0.2569202184677124 1127:0.0 1128:0.0 1129:0.0 1130:0.0 1131:0.0 1132:0.0 1133:0.0 1134:0.2569202184677124 1135:0.3165745437145233 1136:0.0 1137:0.0 1138:0.0 1139:0.0 1140:0.0 1141:0.0 1142:0.0 1143:0.3165745437145233 1144:0.16306868195533752 1145:0.0 1146:0.0 1147:0.0 1148:0.0 1149:0.0 1150:0.0 1151:0.0 1152:0.16306868195533752 1153:0.02261107601225376 1154:0.0 1155:0.0 1156:0.0 1157:0.0 1158:0.0 1159:0.0 1160:0.0 1161:0.02261107601225376 1162:0.06592386960983276 1163:0.0 1164:0.0 1165:0.0 1166:0.0 1167:0.0 1168:0.0 1169:0.0 1170:0.06592386960983276 1171:0.08123072981834412 1172:0.0 1173:0.0 1174:0.0 1175:0.0 1176:0.0 1177:0.0 1178:0.0 1179:0.08123072981834412 1180:0.04184224456548691 1181:0.0 1182:0.0 1183:0.0 1184:0.0 1185:0.0 1186:0.0 1187:0.0 1188:0.04184224456548691 1189:0.0 1190:0.0 1191:0.0 1192:0.0 1193:0.0 1194:0.0 1195:0.0 1196:0.0 1197:0.0 1198:0.0 1199:0.0 1200:0.0 1201:0.0 1202:0.0 1203:0.0 1204:0.0 1205:0.0 1206:0.0 1207:0.0 1208:0.0 1209:0.0 1210:0.0 1211:0.0 1212:0.0 1213:0.0 1214:0.0 1215:0.0 1216:0.027304967865347862 1217:0.0 1218:0.0 1219:0.0 1220:0.0 1221:0.0 1222:0.0 1223:0.0 1224:0.027304967865347862 1225:0.0 1226:0.0 1227:0.0 1228:0.0 1229:0.0 1230:0.0 1231:0.0 1232:0.0 1233:0.0 1234:0.0 1235:0.0 1236:0.0 1237:0.0 1238:0.0 1239:0.0 1240:0.0 1241:0.0 1242:0.0 1243:0.0 1244:0.0 1245:0.0 1246:0.0 1247:0.13129067420959473 1248:0.0 1249:0.0 1250:0.0 1251:0.0 1252:0.1374056041240692 1253:0.26779842376708984 1254:0.024319468066096306 1255:0.04974491521716118 1256:0.39387205243110657 1257:0.0 1258:0.0 1259:0.0 1260:0.08191490173339844 1261:0.0 1262:0.0 1263:0.0 1264:0.0 1265:0.0 1266:0.0 1267:0.0 1268:0.0 1269:0.0 1270:0.0 1271:0.0 1272:0.0 1273:0.0 1274:0.0 1275:0.0 1276:0.0 1277:0.0 1278:0.0 1279:0.0 1280:0.0 1281:0.0 1282:0.0 1283:0.22001971304416656 1284:0.0 1285:0.0 1286:0.0 1287:0.0 1288:0.018496902659535408 1289:0.08926614373922348 1290:0.07295840978622437 1291:0.14923474192619324 1292:0.7664346694946289 1293:0.0 1294:0.0 1295:0.0 1296:0.0 1297:0.005824216641485691 1298:0.0 1299:0.0 1300:0.0 1301:0.0 1302:0.0 1303:0.0 1304:0.0 1305:0.005824216641485691 1306:0.01698083057999611 1307:0.0 1308:0.0 1309:0.0 1310:0.0 1311:0.0 1312:0.0 1313:0.0 1314:0.01698083057999611 1315:0.020923610776662827 1316:0.0 1317:0.0 1318:0.0 1319:0.0 1320:0.0 1321:0.0 1322:0.0 1323:0.020923610776662827 1324:0.010777827352285385 1325:0.0 1326:0.0 1327:0.0 1328:0.0 1329:0.0 1330:0.0 1331:0.0 1332:0.010777827352285385 1333:0.014345155097544193 1334:0.0 1335:0.0 1336:0.0 1337:0.0 1338:0.0 1339:0.0 1340:0.0 1341:0.014345155097544193 1342:0.0418241061270237 1343:0.0 1344:0.0 1345:0.0 1346:0.0 1347:0.0 1348:0.0 1349:0.0 1350:0.0418241061270237 1351:0.05153524503111839 1352:0.0 1353:0.0 1354:0.0 1355:0.0 1356:0.0 1357:0.0 1358:0.0 1359:0.05153524503111839 1360:0.026545992121100426 1361:0.0 1362:0.0 1363:0.0 1364:0.0 1365:0.0 1366:0.0 1367:0.0 1368:0.026545992121100426 1369:0.1276935636997223 1370:0.0 1371:0.0 1372:0.0 1373:0.0 1374:0.0 1375:0.0 1376:0.0 1377:0.1276935636997223 1378:0.37229782342910767 1379:0.0 1380:0.0 1381:0.0 1382:0.0 1383:0.0 1384:0.0 1385:0.0 1386:0.37229782342910767 1387:0.4587416648864746 1388:0.0 1389:0.0 1390:0.0 1391:0.0 1392:0.0 1393:0.0 1394:0.0 1395:0.4587416648864746 1396:0.23629947006702423 1397:0.0 1398:0.0 1399:0.0 1400:0.0 1401:0.0 1402:0.0 1403:0.0 1404:0.23629947006702423 1405:0.05142143741250038 1406:0.0 1407:0.0 1408:0.0 1409:0.0 1410:0.0 1411:0.0 1412:0.0 1413:0.05142143741250038 1414:0.14992210268974304 1415:0.0 1416:0.0 1417:0.0 1418:0.0 1419:0.0 1420:0.0 1421:0.0 1422:0.14992210268974304 1423:0.18473251163959503 1424:0.0 1425:0.0 1426:0.0 1427:0.0 1428:0.0 1429:0.0 1430:0.0 1431:0.18473251163959503 1432:0.09515638649463654 1433:0.0 1434:0.0 1435:0.0 1436:0.0 1437:0.0 1438:0.0 1439:0.0 1440:0.09515638649463654 1441:0.05950796976685524 1442:0.0 1443:0.0 1444:0.0 1445:0.0 1446:0.0 1447:0.0 1448:0.0 1449:0.05950796976685524 1450:0.17349883913993835 1451:0.0 1452:0.0 1453:0.0 1454:0.0 1455:0.0 1456:0.0 1457:0.0 1458:0.17349883913993835 1459:0.21378356218338013 1460:0.0 1461:0.0 1462:0.0 1463:0.0 1464:0.0 1465:0.0 1466:0.0 1467:0.21378356218338013 1468:0.11012066155672073 1469:0.0 1470:0.0 1471:0.0 1472:0.0 1473:0.0 1474:0.0 1475:0.0 1476:0.11012066155672073 1477:0.013999943621456623 1478:0.0 1479:0.0 1480:0.0 1481:0.0 1482:0.0 1483:0.0 1484:0.0 1485:0.013999943621456623 1486:0.04081762582063675 1487:0.0 1488:0.0 1489:0.0 1490:0.0 1491:0.0 1492:0.0 1493:0.0 1494:0.04081762582063675 1495:0.05029507353901863 1496:0.0 1497:0.0 1498:0.0 1499:0.0 1500:0.0 1501:0.0 1502:0.0 1503:0.05029507353901863 1504:0.02590717375278473 1505:0.0 1506:0.0 1507:0.0 1508:0.0 1509:0.0 1510:0.0 1511:0.0 1512:0.02590717375278473 1513:0.026155337691307068 1514:0.0 1515:0.0 1516:0.0 1517:0.0 1518:0.0 1519:0.0 1520:0.0 1521:0.026155337691307068 1522:0.0762573704123497 1523:0.0 1524:0.0 1525:0.0 1526:0.0 1527:0.0 1528:0.0 1529:0.0 1530:0.0762573704123497 1531:0.09396357089281082 1532:0.0 1533:0.0 1534:0.0 1535:0.0 1536:0.0 1537:0.0 1538:0.0 1539:0.09396357089281082 1540:0.04840097203850746 1541:0.0 1542:0.0 1543:0.0 1544:0.0 1545:0.0 1546:0.0 1547:0.0 1548:0.04840097203850746 1549:0.12046584486961365 1550:0.0 1551:0.0 1552:0.0 1553:0.0 1554:0.0 1555:0.0 1556:0.0 1557:0.12046584486961365 1558:0.35122498869895935 1559:0.0 1560:0.0 1561:0.0 1562:0.0 1563:0.0 1564:0.0 1565:0.0 1566:0.35122498869895935 1567:0.43277594447135925 1568:0.0 1569:0.0 1570:0.0 1571:0.0 1572:0.0 1573:0.0 1574:0.0 1575:0.43277594447135925 1576:0.22292442619800568 1577:0.0 1578:0.0 1579:0.0 1580:0.0 1581:0.0 1582:0.0 1583:0.0 1584:0.22292442619800568 1585:0.0364270880818367 1586:0.006763325072824955 1587:0.020238367840647697 1588:0.0 1589:0.011890189722180367 1590:0.0 1591:0.0 1592:0.0 1593:0.0364270880818367 1594:0.007633652538061142 1595:0.002254441613331437 1596:0.0067461226135492325 1597:0.0 1598:0.03567056730389595 1599:0.0 1600:0.0 1601:0.0 1602:0.007633652538061142 1603:0.0 1604:0.0 1605:0.0 1606:0.0 1607:0.0 1608:0.0 1609:0.0 1610:0.0 1611:0.0 1612:0.0 1613:0.0 1614:0.0 1615:0.0 1616:0.0 1617:0.0 1618:0.0 1619:0.0 1620:0.0 1621:0.010815833695232868 1622:0.0 1623:0.0 1624:0.0 1625:0.0 1626:0.0 1627:0.0 1628:0.0 1629:0.010815833695232868 1630:0.002544550923630595 1631:0.0 1632:0.0 1633:0.0 1634:0.0 1635:0.0 1636:0.0 1637:0.0 1638:0.002544550923630595 1639:0.0 1640:0.0 1641:0.0 1642:0.0 1643:0.0 1644:0.0 1645:0.0 1646:0.0 1647:0.0 1648:0.0 1649:0.0 1650:0.0 1651:0.0 1652:0.0 1653:0.0 1654:0.0 1655:0.0 1656:0.0 1657:0.029087992385029793 1658:0.0 1659:0.0 1660:0.0 1661:0.0 1662:0.0 1663:0.0 1664:0.0 1665:0.029087992385029793 1666:0.08480768650770187 1667:0.0 1668:0.0 1669:0.0 1670:0.0 1671:0.0 1672:0.0 1673:0.0 1674:0.08480768650770187 1675:0.10449918359518051 1676:0.0 1677:0.0 1678:0.0 1679:0.0 1680:0.0 1681:0.0 1682:0.0 1683:0.10449918359518051 1684:0.05382790416479111 1685:0.0 1686:0.0 1687:0.0 1688:0.0 1689:0.0 1690:0.0 1691:0.0 1692:0.05382790416479111 1693:0.13397301733493805 1694:0.0 1695:0.0 1696:0.0 1697:0.0 1698:0.0 1699:0.0 1700:0.0 1701:0.13397301733493805 1702:0.3906058967113495 1703:0.0 1704:0.0 1705:0.0 1706:0.0 1707:0.0 1708:0.0 1709:0.0 1710:0.3906058967113495 1711:0.4813007116317749 1712:0.0 1713:0.0 1714:0.0 1715:0.0 1716:0.0 1717:0.0 1718:0.0 1719:0.4813007116317749 1720:0.2479196935892105 1721:0.0 1722:0.0 1723:0.0 1724:0.0 1725:0.0 1726:0.0 1727:0.0 1728:0.2479196935892105 
0.03505667128586674 1:0.013968463987112045 2:0.01925906352698803 3:0.0 4:0.0 5:0.0026710028760135174 6:0.0 7:0.0 8:0.0 9:0.009977777488529682 10:0.05969475954771042 11:0.006419687997549772 12:0.0 13:0.0 14:8.903342531993985E-4 15:0.0 16:0.0 17:0.0 18:0.05836452916264534 19:0.07618680596351624 20:0.0 21:0.0 22:0.0 23:0.0 24:0.0 25:0.0 26:0.0 27:0.07618680596351624 28:0.03529590740799904 29:0.011868175119161606 30:0.0 31:0.0 32:0.0026710028760135174 33:0.0 34:0.0 35:0.0 36:0.03283669054508209 37:0.04779801890254021 38:0.05065355449914932 39:0.036923766136169434 40:0.0 41:0.0 42:0.0 43:0.0 44:0.0 45:0.039858896285295486 46:0.21652454137802124 47:0.016884518787264824 48:0.01230792235583067 49:0.0 50:0.0 51:0.0 52:0.0 53:0.0 54:0.21387816965579987 55:0.27918827533721924 56:0.0 57:0.0 58:0.0 59:0.0 60:0.0 61:0.0 62:0.0 63:0.27918827533721924 64:0.14794206619262695 65:0.012733878567814827 66:0.0 67:0.0 68:0.0 69:0.0 70:0.0 71:0.0 72:0.13509635627269745 73:0.08964870125055313 74:0.04066965728998184 75:0.01230792235583067 76:0.0 77:0.0 78:0.0 79:0.0 80:0.0 81:0.08207378536462784 82:0.27319926023483276 83:0.01355655025690794 84:0.00410264078527689 85:0.0 86:0.0 87:0.0 88:0.0 89:0.0 90:0.27067428827285767 91:0.3594900369644165 92:0.03625380992889404 93:0.0016499581979587674 94:0.0 95:0.0 96:0.0 97:0.0 98:0.0 99:0.3198351263999939 100:0.22111870348453522 101:0.16434597969055176 102:0.004949874710291624 103:0.0 104:0.0 105:0.0 106:0.0 107:0.0 108:0.09244918078184128 109:0.05253056064248085 110:0.0 111:0.0 112:0.0 113:0.0 114:0.0 115:0.0 116:0.0 117:0.05253056064248085 118:0.16395197808742523 119:0.008777820505201817 120:0.0 121:0.0 122:0.0 123:0.0 124:0.0 125:0.0 126:0.15192602574825287 127:0.2548358142375946 128:0.12273800373077393 129:0.007599350996315479 130:0.0 131:0.0 132:0.0 133:0.0 134:0.0 135:0.09535202383995056 136:0.11278682202100754 137:0.18998250365257263 138:0.022798052057623863 139:0.0 140:0.0 141:0.0 142:0.0 143:0.0 144:0.005260517355054617 145:0.027774563059210777 146:0.042326875030994415 147:0.008935406804084778 148:0.0 149:0.0037872260436415672 150:0.0 151:0.0 152:0.0 153:0.0 154:0.03709561750292778 155:0.1170964315533638 156:0.03486318141222 157:0.0 158:0.012948358431458473 159:0.0 160:0.0 161:0.0 162:0.0014240473974496126 163:0.09486604481935501 164:0.04692569375038147 165:0.004940929356962442 166:0.0 167:0.030576305463910103 168:0.0 169:0.0 170:0.0 171:0.026595180854201317 172:0.03125360980629921 173:0.02360093779861927 174:0.00344107230193913 175:0.0 176:0.013842305168509483 177:0.0 178:0.0 179:0.0 180:0.025218188762664795 181:0.10646049678325653 182:0.06469805538654327 183:0.002978468779474497 184:0.0 185:0.0 186:0.0 187:0.0 188:0.0 189:0.014400443993508816 190:0.1899777054786682 191:0.1688566952943802 192:0.0592898353934288 193:0.0 194:0.0 195:0.0 196:0.0 197:0.0 198:0.02917977049946785 199:0.1669636070728302 200:0.30478957295417786 201:0.146604984998703 202:0.0 203:0.0 204:0.0 205:0.0 206:0.0 207:0.020257437601685524 208:0.14272208511829376 209:0.1651366502046585 210:0.0498376227915287 211:0.0 212:0.0 213:0.0 214:0.0 215:0.0 216:0.008406062610447407 217:0.18382126092910767 218:0.04312638193368912 219:0.013592338189482689 220:0.0 221:0.0 222:0.0 223:0.0 224:0.0 225:0.0533641092479229 226:0.429216593503952 227:0.2663433849811554 228:0.025224313139915466 229:0.0032433432061225176 230:0.030161220580339432 231:0.0 232:0.0 233:0.0 234:0.024490531533956528 235:0.2666647434234619 236:0.34140878915786743 237:0.2636626958847046 238:0.01823653094470501 239:0.07588020712137222 240:0.0 241:0.0 242:0.0 243:0.0 244:0.06087026372551918 245:0.07742959260940552 246:0.20160555839538574 247:0.02551950514316559 248:0.021942157298326492 249:0.0 250:0.0029403171502053738 251:9.82602359727025E-4 252:0.0 253:0.04790901765227318 254:0.03874523192644119 255:0.040777016431093216 256:0.012844245880842209 257:0.009868429973721504 258:0.0 259:0.0 260:0.0 261:0.011018505319952965 262:0.09580531716346741 263:0.11565069109201431 264:0.04931778088212013 265:0.01401144452393055 266:0.09834656119346619 267:0.0 268:0.0 269:0.0 270:0.0033633618149906397 271:0.03234321251511574 272:0.05171424150466919 273:0.12558765709400177 274:0.03894390910863876 275:0.07793175429105759 276:0.0 277:0.0029403171502053738 278:9.82602359727025E-4 279:0.0 280:0.01405937597155571 281:0.010727142915129662 282:0.05918969213962555 283:0.02926146425306797 284:0.011350086890161037 285:0.0 286:0.017641903832554817 287:0.00589561415836215 288:0.006681482773274183 289:0.0016018626047298312 290:0.0 291:1.1896640353370458E-4 292:2.4334301997441798E-4 293:2.601847518235445E-4 294:3.635295433923602E-4 295:1.7772321007214487E-4 296:7.199527462944388E-4 297:0.0017510451143607497 298:0.0017434176988899708 299:4.775339039042592E-4 300:0.0017858600476756692 301:7.300290744751692E-4 302:0.0011432947358116508 303:0.0010905886301770806 304:8.163360180333257E-4 305:3.3461349084973335E-4 306:0.001793145202100277 307:0.0012117819860577583 308:0.0031822090968489647 309:0.002699740696698427 310:0.0 311:0.0020488062873482704 312:0.0 313:0.0015991793479770422 314:5.344176315702498E-4 315:3.6378446384333074E-4 316:0.0018357463413849473 317:0.0022553971502929926 318:0.00189760304056108 319:0.0 320:5.655392305925488E-4 321:0.0 322:2.4989343364723027E-4 323:6.021272274665534E-4 324:0.0010836623841896653 325:0.005370115861296654 326:8.550552884116769E-4 327:0.0 328:0.0 329:0.0 330:0.0010905886301770806 331:0.0012347270967438817 332:0.005267804954200983 333:0.004646204877644777 334:0.030049828812479973 335:9.425794705748558E-4 336:2.2642700059805065E-4 337:0.0 338:0.003169699339196086 339:0.00327176577411592 340:0.003704181406646967 341:0.013882772997021675 342:0.022903136909008026 343:0.07819859683513641 344:0.026877600699663162 345:8.166158222593367E-4 346:0.0 347:0.0016221055993810296 348:0.0 349:0.0 350:0.0012796594528481364 351:0.01636212319135666 352:0.0486757792532444 353:0.02003784105181694 354:6.325343274511397E-4 355:0.0 356:1.8851309141609818E-4 357:0.0 358:0.0 359:0.0015558517770841718 360:0.014793883077800274 361:0.029456263408064842 362:0.013527818955481052 363:0.0010773490648716688 364:0.0 365:0.0 366:0.0 367:2.338524500373751E-4 368:0.0010359822772443295 369:0.0064552100375294685 370:0.28121107816696167 371:0.05445504188537598 372:3.5911635495722294E-4 373:0.0 374:0.0 375:0.0 376:7.015573792159557E-4 377:0.004387606866657734 378:0.024540184065699577 379:0.3269985318183899 380:0.16228705644607544 381:0.04658719524741173 382:0.0 383:0.0 384:0.0 385:0.0 386:4.2655313154682517E-4 387:0.044173236936330795 388:0.3269985318183899 389:0.11613566428422928 390:0.06541119515895844 391:0.0 392:0.0 393:0.0 394:0.0 395:0.0 396:0.04730105772614479 397:0.02911318838596344 398:0.01815236359834671 399:0.030836336314678192 400:0.0 401:0.013097371906042099 402:0.008969688788056374 403:0.0 404:0.0 405:0.001087685115635395 406:0.3269985318183899 407:0.3269985318183899 408:0.0896594375371933 409:0.0 410:0.004365790635347366 411:0.0029898963402956724 412:0.0 413:0.0 414:0.0 415:0.3269985318183899 416:0.3269985318183899 417:0.1416846513748169 418:0.0 419:0.0 420:0.0 421:0.0012494898401200771 422:0.008886280469596386 423:0.050025176256895065 424:0.2544921040534973 425:0.26711347699165344 426:0.1962335854768753 427:0.0 428:0.0 429:0.00798435602337122 430:0.00527089461684227 431:0.026658840477466583 432:0.022565623745322227 433:0.0224834606051445 434:0.0 435:0.0 436:0.0 437:0.0 438:0.006170373875647783 439:0.002265161368995905 440:0.11309152841567993 441:0.047909777611494064 442:0.011347159743309021 443:0.0 444:0.0 445:0.015507330186665058 446:0.023983009159564972 447:0.0024832296185195446 448:0.04337754473090172 449:0.22699503600597382 450:0.20778509974479675 451:0.0 452:0.0 453:0.0 454:0.010679366067051888 455:0.09435264766216278 456:0.01236016396433115 457:0.04107847809791565 458:0.2443392276763916 459:0.17393279075622559 460:0.0049175783060491085 461:0.0021574904676526785 462:0.0 463:0.0016949065029621124 464:0.013545757159590721 465:0.0016368250362575054 466:0.008336910046637058 467:0.19088605046272278 468:0.07514265924692154 469:0.03842097520828247 470:0.0023372762370854616 471:0.0015789647586643696 472:7.289257482625544E-4 473:0.0 474:0.0 475:0.0 476:0.042651042342185974 477:0.08684789389371872 478:0.07485472410917282 479:0.0019732993096113205 480:0.004736894275993109 481:0.002186777535825968 482:0.0014539534458890557 483:8.277430897578597E-4 484:0.12886999547481537 485:0.3020309507846832 486:0.3020309507846832 487:0.137624129652977 488:0.0 489:0.0 490:0.0 491:0.0015476308763027191 492:0.0024832296185195446 493:0.12654143571853638 494:0.3020309507846832 495:0.3020309507846832 496:0.033221758902072906 497:0.006472471170127392 498:0.0 499:0.0 500:0.0 501:0.0 502:0.1312742382287979 503:0.3020309507846832 504:0.3020309507846832 505:0.021631095558404922 506:0.003354668151587248 507:5.263215280137956E-4 508:2.429752639727667E-4 509:0.0010853635612875223 510:8.434260962530971E-4 511:0.030444396659731865 512:0.008147156797349453 513:0.030878975987434387 514:0.02758217416703701 515:0.0047008441761136055 516:0.0015789647586643696 517:7.289257482625544E-4 518:0.011625297367572784 519:0.004396413918584585 520:0.006719473749399185 521:0.0013959708157926798 522:0.039228081703186035 523:0.058484453707933426 524:0.0 525:0.0 526:0.0 527:0.008792904205620289 528:6.220451323315501E-4 529:0.00313346809707582 530:0.03579726815223694 531:0.20032110810279846 532:0.05940278246998787 533:0.0 534:0.0 535:0.0 536:0.0 537:0.0 538:0.04392126575112343 539:0.1241854801774025 540:0.13580642640590668 541:0.00950835645198822 542:0.003104262286797166 543:0.0 544:0.007586569990962744 545:0.052747104316949844 546:0.0025302781723439693 547:0.09133319556713104 548:0.024441473186016083 549:0.010026426985859871 550:0.0014395343605428934 551:0.0 552:0.0 553:0.0025288567412644625 554:0.07009437680244446 555:0.014732914045453072 556:0.0217361431568861 557:0.004462961573153734 558:0.0014395343605428934 559:1.1773864389397204E-4 560:0.0 561:0.0 562:0.0 563:0.0015237977495416999 564:0.002380693331360817 565:0.00611670408397913 566:0.001960028661414981 567:1.1773864389397204E-4 568:3.532159316819161E-4 569:0.0 570:0.0 571:0.0 572:0.0 573:0.0 574:0.0011271461844444275 575:3.7667277501896024E-4 576:3.532159316819161E-4 577:0.027874918654561043 578:0.007869100198149681 579:0.01092724408954382 580:0.00754777155816555 581:0.0 582:0.0 583:0.0 584:7.978673093020916E-4 585:0.026039307937026024 586:0.16897784173488617 587:0.046089690178632736 588:0.008379182778298855 589:0.002515923697501421 590:0.0 591:0.0 592:0.0 593:0.014016921631991863 594:0.08431121706962585 595:0.1937481313943863 596:0.20253337919712067 597:0.05877814069390297 598:0.0 599:0.0 600:0.0 601:0.001890410901978612 602:0.019798340275883675 603:0.030518464744091034 604:0.09313241392374039 605:0.13491210341453552 606:0.033335354179143906 607:0.0 608:0.0 609:0.0 610:0.005671233404427767 611:0.007199747953563929 612:0.018196329474449158 613:0.024182943627238274 614:0.023607302457094193 615:0.032781731337308884 616:0.04086527228355408 617:0.0030131784733384848 618:0.0 619:0.0010894553270190954 620:0.02597930282354355 621:0.023425795137882233 622:0.19584177434444427 623:0.0933770015835762 624:0.03193984180688858 625:0.013621757738292217 626:0.004924904555082321 627:0.0 628:0.0032683659810572863 629:0.12229900062084198 630:0.12891781330108643 631:0.264010488986969 632:0.13256235420703888 633:0.0222716573625803 634:0.0 635:0.0 636:0.0 637:0.005671233404427767 638:0.12873230874538422 639:0.27652597427368164 640:0.04639062657952309 641:0.07813049852848053 642:0.012346322648227215 643:0.0 644:0.0 645:0.0 646:0.01701369881629944 647:0.07926565408706665 648:0.22380566596984863 649:0.036777276545763016 650:0.0 651:0.0 652:0.006073986645787954 653:0.004924904555082321 654:0.0 655:3.631517756730318E-4 656:0.022408481687307358 657:0.07749772071838379 658:0.08769725263118744 659:0.016522187739610672 660:0.02040689066052437 661:0.0020246622152626514 662:0.013403168879449368 663:0.0 664:0.0010894553270190954 665:0.04779684543609619 666:0.2525790333747864 667:0.21621482074260712 668:0.08722700923681259 669:0.008036836050450802 670:0.0 671:0.0 672:0.0 673:5.92097348999232E-4 674:0.0639318972826004 675:0.2531379163265228 676:0.06626052409410477 677:0.0839041918516159 678:0.0037036172579973936 679:0.0 680:0.0 681:0.0 682:0.001776292221620679 683:0.05304364487528801 684:0.18041512370109558 685:0.06482527405023575 686:0.0 687:0.0 688:0.0 689:0.0 690:0.0 691:0.0 692:6.959429010748863E-4 693:0.10762220621109009 694:0.10211217403411865 695:0.0 696:0.0 697:0.0 698:0.0 699:0.0 700:0.0 701:0.007574793417006731 702:0.31821805238723755 703:0.05861962214112282 704:0.001891769003123045 705:0.0 706:0.0 707:0.0 708:0.0 709:0.001776292221620679 710:0.09933790564537048 711:0.31821805238723755 712:0.015098498202860355 713:6.305896095000207E-4 714:0.0 715:0.0 716:0.0 717:0.0 718:0.005328875966370106 719:0.07958032935857773 720:0.117219939827919 721:0.013453594408929348 722:0.0 723:0.0 724:0.0 725:0.0 726:0.0 727:0.0 728:0.0016649325843900442 729:0.06335921585559845 730:0.04819079861044884 731:0.0 732:0.0 733:0.0 734:0.0 735:0.0 736:0.0 737:0.0010125595144927502 738:0.2688872814178467 739:0.05549861490726471 740:0.0 741:0.0 742:0.0 743:0.0 744:0.0 745:0.0 746:0.047113582491874695 747:0.2952720820903778 748:0.06125535070896149 749:0.0 750:0.0 751:0.0 752:0.0 753:0.0 754:0.0 755:0.04485055431723595 756:0.27253127098083496 757:0.018766136839985847 758:0.0 759:0.0 760:0.0 761:0.0 762:0.0 763:0.0 764:0.024354973807930946 765:0.08212672919034958 766:0.10910218954086304 767:0.0 768:0.0 769:0.0 770:0.0 771:0.0 772:0.0 773:0.017132926732301712 774:0.21519313752651215 775:0.05152672901749611 776:0.0 777:0.0 778:0.0 779:0.0 780:0.0 781:0.002906244480982423 782:0.10846487432718277 783:0.2952720820903778 784:0.02306215837597847 785:0.0 786:0.0 787:0.0 788:0.0 789:0.0 790:9.687481797300279E-4 791:0.06444532424211502 792:0.1934753954410553 793:0.010401410050690174 794:0.0 795:0.0 796:0.0 797:0.0 798:0.0 799:0.0 800:0.0464705266058445 801:0.15714065730571747 802:0.09153841435909271 803:0.0 804:0.0 805:0.0 806:0.0 807:0.0 808:0.0 809:0.06214360147714615 810:0.2952720820903778 811:0.16184689104557037 812:0.0 813:0.0 814:0.0 815:0.0 816:0.0 817:9.687481797300279E-4 818:0.09631648659706116 819:0.2952720820903778 820:0.05223008990287781 821:0.0 822:0.0 823:0.0 824:0.0 825:0.0 826:3.229160502087325E-4 827:0.037696268409490585 828:0.2559311091899872 829:0.014181096106767654 830:0.0 831:0.0 832:0.0 833:0.0 834:0.0 835:5.810604779981077E-4 836:0.013306140899658203 837:0.0796060785651207 838:0.027724456042051315 839:0.0 840:0.0010593292536213994 841:0.0021668407134711742 842:0.0 843:0.0 844:0.009840969927608967 845:0.04312492161989212 846:0.26681849360466003 847:0.0698588490486145 848:0.01019321195781231 849:0.0031779876444488764 850:0.006500521209090948 851:0.0 852:0.0 853:0.002699263161048293 854:0.06664503365755081 855:0.2952720820903778 856:0.03420808166265488 857:0.003397737629711628 858:0.0 859:0.0 860:0.0 861:0.0 862:0.0 863:0.037431750446558 864:0.1928461641073227 865:0.027774563059210777 866:0.042326875030994415 867:0.008935406804084778 868:0.0 869:0.0037872260436415672 870:0.0 871:0.0 872:0.0 873:0.0 874:0.03709561750292778 875:0.1170964315533638 876:0.03486318141222 877:0.0 878:0.012948358431458473 879:0.0 880:0.0 881:0.0 882:0.0014240473974496126 883:0.09486604481935501 884:0.04692569375038147 885:0.004940929356962442 886:0.0 887:0.030576305463910103 888:0.0 889:0.0 890:0.0 891:0.026595180854201317 892:0.03125360980629921 893:0.02360093779861927 894:0.00344107230193913 895:0.0 896:0.013842305168509483 897:0.0 898:0.0 899:0.0 900:0.025218188762664795 901:0.10646049678325653 902:0.06469805538654327 903:0.002978468779474497 904:0.0 905:0.0 906:0.0 907:0.0 908:0.0 909:0.014400443993508816 910:0.1899777054786682 911:0.1688566952943802 912:0.0592898353934288 913:0.0 914:0.0 915:0.0 916:0.0 917:0.0 918:0.02917977049946785 919:0.1669636070728302 920:0.30478957295417786 921:0.146604984998703 922:0.0 923:0.0 924:0.0 925:0.0 926:0.0 927:0.020257437601685524 928:0.14272208511829376 929:0.1651366502046585 930:0.0498376227915287 931:0.0 932:0.0 933:0.0 934:0.0 935:0.0 936:0.008406062610447407 937:0.18382126092910767 938:0.04312638193368912 939:0.013592338189482689 940:0.0 941:0.0 942:0.0 943:0.0 944:0.0 945:0.0533641092479229 946:0.429216593503952 947:0.2663433849811554 948:0.025224313139915466 949:0.0032433432061225176 950:0.030161220580339432 951:0.0 952:0.0 953:0.0 954:0.024490531533956528 955:0.2666647434234619 956:0.34140878915786743 957:0.2636626958847046 958:0.01823653094470501 959:0.07588020712137222 960:0.0 961:0.0 962:0.0 963:0.0 964:0.06087026372551918 965:0.07742959260940552 966:0.20160555839538574 967:0.02551950514316559 968:0.021942157298326492 969:0.0 970:0.0029403171502053738 971:9.82602359727025E-4 972:0.0 973:0.04790901765227318 974:0.03874523192644119 975:0.040777016431093216 976:0.012844245880842209 977:0.009868429973721504 978:0.0 979:0.0 980:0.0 981:0.011018505319952965 982:0.09580531716346741 983:0.11565069109201431 984:0.04931778088212013 985:0.01401144452393055 986:0.09834656119346619 987:0.0 988:0.0 989:0.0 990:0.0033633618149906397 991:0.03234321251511574 992:0.05171424150466919 993:0.12558765709400177 994:0.03894390910863876 995:0.07793175429105759 996:0.0 997:0.0029403171502053738 998:9.82602359727025E-4 999:0.0 1000:0.01405937597155571 1001:0.010727142915129662 1002:0.05918969213962555 1003:0.02926146425306797 1004:0.011350086890161037 1005:0.0 1006:0.017641903832554817 1007:0.00589561415836215 1008:0.006681482773274183 1009:0.004996501374989748 1010:0.003059652866795659 1011:0.0016218839446082711 1012:0.0 1013:0.0022553035523742437 1014:0.0 1015:0.0 1016:0.0 1017:5.458678933791816E-4 1018:0.008451009169220924 1019:0.006940614897757769 1020:0.0014421012019738555 1021:4.7167815500870347E-4 1022:0.006011383142322302 1023:0.0 1024:8.813643362373114E-4 1025:2.94537196168676E-4 1026:0.0010637961095198989 1027:0.0020056699868291616 1028:0.004451154265552759 1029:6.917870487086475E-4 1030:0.0014150344068184495 1031:0.0021149395033717155 1032:0.0 1033:0.0010218588868156075 1034:3.4148781560361385E-4 1035:0.001083339098840952 1036:6.670003058388829E-4 1037:0.0 1038:0.0 1039:0.0 1040:1.8553002155385911E-4 1041:0.0 1042:0.0021842126734554768 1043:0.0013853064738214016 1044:0.0015648961998522282 1045:0.002908801194280386 1046:0.0013797628926113248 1047:0.0016175218624994159 1048:0.0 1049:0.004505703691393137 1050:0.0012487645726650953 1051:0.0011450739111751318 1052:1.7864551045931876E-4 1053:0.001425256603397429 1054:0.018200477585196495 1055:0.010601419024169445 1056:0.005779427941888571 1057:0.0014150344068184495 1058:0.0015019014244899154 1059:0.0037462934851646423 1060:0.004653781186789274 1061:9.431600919924676E-4 1062:0.00348804728128016 1063:0.026741236448287964 1064:0.020861951634287834 1065:0.010281864553689957 1066:0.004245103802531958 1067:0.0 1068:0.0 1069:0.002200947841629386 1070:7.355191046372056E-4 1071:0.0027992890682071447 1072:0.035290107131004333 1073:0.026413453742861748 1074:0.001282377284951508 1075:0.0 1076:0.0 1077:0.0 1078:0.003958750981837511 1079:0.001541405450552702 1080:0.0017068817978724837 1081:0.022861018776893616 1082:0.008282813243567944 1083:0.0 1084:0.0 1085:8.901268010959029E-4 1086:4.162548284512013E-4 1087:0.0018072240054607391 1088:9.992474224418402E-4 1089:0.004249791149049997 1090:0.18276703357696533 1091:0.053844232112169266 1092:4.8437464283779263E-4 1093:0.0 1094:2.967089239973575E-4 1095:0.0012487645726650953 1096:0.0011450739111751318 1097:1.7864551045931876E-4 1098:0.009473169222474098 1099:0.3241179883480072 1100:0.21197159588336945 1101:0.0027355013880878687 1102:0.0 1103:0.0 1104:0.0 1105:0.0 1106:0.0 1107:0.004793691914528608 1108:0.3241179883480072 1109:0.25353655219078064 1110:0.006231535226106644 1111:0.0 1112:0.0 1113:0.0 1114:0.0 1115:0.0 1116:0.0024153462145477533 1117:0.11570223420858383 1118:0.0163502786308527 1119:0.0 1120:0.0 1121:0.0 1122:0.0 1123:0.0 1124:1.544370170449838E-4 1125:6.833476945757866E-4 1126:0.3241179883480072 1127:0.3241179883480072 1128:0.05756434425711632 1129:0.0 1130:0.0 1131:0.0 1132:0.0 1133:0.0 1134:2.427495928714052E-5 1135:0.3241179883480072 1136:0.3241179883480072 1137:0.13670414686203003 1138:0.0 1139:0.0 1140:0.0 1141:0.0 1142:0.0 1143:0.007123762741684914 1144:0.2728258967399597 1145:0.3241179883480072 1146:0.017412228509783745 1147:0.0 1148:0.0 1149:0.0 1150:0.0015789889730513096 1151:0.011229652911424637 1152:0.02137128636240959 1153:0.0224834606051445 1154:0.0 1155:0.0 1156:0.0 1157:0.0 1158:0.006170373875647783 1159:0.002265161368995905 1160:0.11309152841567993 1161:0.047909777611494064 1162:0.011347159743309021 1163:0.0 1164:0.0 1165:0.015507330186665058 1166:0.023983009159564972 1167:0.0024832296185195446 1168:0.04337754473090172 1169:0.22699503600597382 1170:0.20778509974479675 1171:0.0 1172:0.0 1173:0.0 1174:0.010679366067051888 1175:0.09435264766216278 1176:0.01236016396433115 1177:0.04107847809791565 1178:0.2443392276763916 1179:0.17393279075622559 1180:0.0049175783060491085 1181:0.0021574904676526785 1182:0.0 1183:0.0016949065029621124 1184:0.013545757159590721 1185:0.0016368250362575054 1186:0.008336910046637058 1187:0.19088605046272278 1188:0.07514265924692154 1189:0.03842097520828247 1190:0.0023372762370854616 1191:0.0015789647586643696 1192:7.289257482625544E-4 1193:0.0 1194:0.0 1195:0.0 1196:0.042651042342185974 1197:0.08684789389371872 1198:0.07485472410917282 1199:0.0019732993096113205 1200:0.004736894275993109 1201:0.002186777535825968 1202:0.0014539534458890557 1203:8.277430897578597E-4 1204:0.12886999547481537 1205:0.3020309507846832 1206:0.3020309507846832 1207:0.137624129652977 1208:0.0 1209:0.0 1210:0.0 1211:0.0015476308763027191 1212:0.0024832296185195446 1213:0.12654143571853638 1214:0.3020309507846832 1215:0.3020309507846832 1216:0.033221758902072906 1217:0.006472471170127392 1218:0.0 1219:0.0 1220:0.0 1221:0.0 1222:0.1312742382287979 1223:0.3020309507846832 1224:0.3020309507846832 1225:0.021631095558404922 1226:0.003354668151587248 1227:5.263215280137956E-4 1228:2.429752639727667E-4 1229:0.0010853635612875223 1230:8.434260962530971E-4 1231:0.030444396659731865 1232:0.008147156797349453 1233:0.030878975987434387 1234:0.02758217416703701 1235:0.0047008441761136055 1236:0.0015789647586643696 1237:7.289257482625544E-4 1238:0.011625297367572784 1239:0.004396413918584585 1240:0.006719473749399185 1241:0.0013959708157926798 1242:0.039228081703186035 1243:0.058484453707933426 1244:0.0 1245:0.0 1246:0.0 1247:0.008792904205620289 1248:6.220451323315501E-4 1249:0.00313346809707582 1250:0.03579726815223694 1251:0.20032110810279846 1252:0.05940278246998787 1253:0.0 1254:0.0 1255:0.0 1256:0.0 1257:0.0 1258:0.04392126575112343 1259:0.1241854801774025 1260:0.13580642640590668 1261:0.00950835645198822 1262:0.003104262286797166 1263:0.0 1264:0.007586569990962744 1265:0.052747104316949844 1266:0.0025302781723439693 1267:0.09133319556713104 1268:0.024441473186016083 1269:0.010026426985859871 1270:0.0014395343605428934 1271:0.0 1272:0.0 1273:0.0025288567412644625 1274:0.07009437680244446 1275:0.014732914045453072 1276:0.0217361431568861 1277:0.004462961573153734 1278:0.0014395343605428934 1279:1.1773864389397204E-4 1280:0.0 1281:0.0 1282:0.0 1283:0.0015237977495416999 1284:0.002380693331360817 1285:0.00611670408397913 1286:0.001960028661414981 1287:1.1773864389397204E-4 1288:3.532159316819161E-4 1289:0.0 1290:0.0 1291:0.0 1292:0.0 1293:0.0 1294:0.0011271461844444275 1295:3.7667277501896024E-4 1296:3.532159316819161E-4 1297:0.002996072405949235 1298:2.2120701032690704E-5 1299:6.61933227092959E-5 1300:0.0 1301:3.2619608100503683E-4 1302:0.0018421639688313007 1303:0.004435672424733639 1304:0.005382108502089977 1305:0.009634401649236679 1306:0.012096896767616272 1307:0.002207303186878562 1308:0.0 1309:0.0 1310:7.813540869392455E-4 1311:0.0077482666820287704 1312:0.017525406554341316 1313:0.0195770226418972 1314:0.024272680282592773 1315:0.006570953875780106 1316:0.00980523880571127 1317:0.0034933723509311676 1318:0.0 1319:0.0 1320:0.006088646594434977 1321:0.035634685307741165 1322:0.01391402818262577 1323:0.021020568907260895 1324:0.007835163734853268 1325:0.009787879884243011 1326:0.010480117984116077 1327:0.0 1328:8.627363131381571E-4 1329:0.0032006530091166496 1330:0.0011009122245013714 1331:0.0018994567217305303 1332:0.017974773421883583 1333:0.022366143763065338 1334:0.019360482692718506 1335:1.9857994630001485E-4 1336:0.0 1337:9.785882430151105E-4 1338:0.0051071615889668465 1339:0.0016793209360912442 1340:0.018310587853193283 1341:0.030593885108828545 1342:0.09197895228862762 1343:0.1500488817691803 1344:0.026269039139151573 1345:0.0 1346:0.0023440620861947536 1347:0.018830418586730957 1348:0.019379345700144768 1349:0.020503539592027664 1350:0.09780935943126678 1351:0.1542680859565735 1352:0.32087182998657227 1353:0.08488746732473373 1354:0.0 1355:0.0 1356:0.005022797733545303 1357:0.020895790308713913 1358:0.026594936847686768 1359:0.12117766588926315 1360:0.027149636298418045 1361:0.15734855830669403 1362:0.22601564228534698 1363:0.02443987876176834 1364:0.0 1365:0.0 1366:3.0804984271526337E-4 1367:1.0294510866515338E-4 1368:0.0539243258535862 1369:0.13099654018878937 1370:0.08669281750917435 1371:0.002881695982068777 1372:0.0 1373:0.0 1374:0.00887456163764 1375:0.0047771683894097805 1376:0.05677735060453415 1377:0.08913405984640121 1378:0.18414098024368286 1379:0.3217162489891052 1380:0.16792134940624237 1381:0.0 1382:0.0 1383:0.02662368305027485 1384:0.009755829349160194 1385:0.0026746047660708427 1386:0.06117359176278114 1387:0.12929657101631165 1388:0.3217162489891052 1389:0.2155943661928177 1390:0.0 1391:0.0 1392:0.0 1393:0.0 1394:0.0 1395:0.04862377047538757 1396:0.09286946058273315 1397:0.3217162489891052 1398:0.13240472972393036 1399:0.008146626874804497 1400:0.0 1401:0.0 1402:0.0 1403:0.0 1404:0.02299320138990879 1405:0.08694309741258621 1406:0.08286522328853607 1407:0.008645088411867619 1408:0.0 1409:0.0 1410:0.0029581869021058083 1411:0.005504380911588669 1412:0.027538646012544632 1413:0.01940380595624447 1414:0.1988903433084488 1415:0.24016636610031128 1416:0.052758317440748215 1417:0.0 1418:0.0 1419:0.00887456163764 1420:0.002786115976050496 1421:0.0 1422:0.026812659576535225 1423:0.20782676339149475 1424:0.19145441055297852 1425:0.03938893973827362 1426:0.0 1427:0.0 1428:0.0 1429:0.0 1430:0.0 1431:0.07632596790790558 1432:0.047768812626600266 1433:0.07578891515731812 1434:0.009264611639082432 1435:0.0 1436:0.0 1437:0.0 1438:0.0 1439:0.0 1440:0.02663571946322918 1441:0.013453594408929348 1442:0.0 1443:0.0 1444:0.0 1445:0.0 1446:0.0 1447:0.0 1448:0.0016649325843900442 1449:0.06335921585559845 1450:0.04819079861044884 1451:0.0 1452:0.0 1453:0.0 1454:0.0 1455:0.0 1456:0.0 1457:0.0010125595144927502 1458:0.2688872814178467 1459:0.05549861490726471 1460:0.0 1461:0.0 1462:0.0 1463:0.0 1464:0.0 1465:0.0 1466:0.047113582491874695 1467:0.2952720820903778 1468:0.06125535070896149 1469:0.0 1470:0.0 1471:0.0 1472:0.0 1473:0.0 1474:0.0 1475:0.04485055431723595 1476:0.27253127098083496 1477:0.018766136839985847 1478:0.0 1479:0.0 1480:0.0 1481:0.0 1482:0.0 1483:0.0 1484:0.024354973807930946 1485:0.08212672919034958 1486:0.10910218954086304 1487:0.0 1488:0.0 1489:0.0 1490:0.0 1491:0.0 1492:0.0 1493:0.017132926732301712 1494:0.21519313752651215 1495:0.05152672901749611 1496:0.0 1497:0.0 1498:0.0 1499:0.0 1500:0.0 1501:0.002906244480982423 1502:0.10846487432718277 1503:0.2952720820903778 1504:0.02306215837597847 1505:0.0 1506:0.0 1507:0.0 1508:0.0 1509:0.0 1510:9.687481797300279E-4 1511:0.06444532424211502 1512:0.1934753954410553 1513:0.010401410050690174 1514:0.0 1515:0.0 1516:0.0 1517:0.0 1518:0.0 1519:0.0 1520:0.0464705266058445 1521:0.15714065730571747 1522:0.09153841435909271 1523:0.0 1524:0.0 1525:0.0 1526:0.0 1527:0.0 1528:0.0 1529:0.06214360147714615 1530:0.2952720820903778 1531:0.16184689104557037 1532:0.0 1533:0.0 1534:0.0 1535:0.0 1536:0.0 1537:9.687481797300279E-4 1538:0.09631648659706116 1539:0.2952720820903778 1540:0.05223008990287781 1541:0.0 1542:0.0 1543:0.0 1544:0.0 1545:0.0 1546:3.229160502087325E-4 1547:0.037696268409490585 1548:0.2559311091899872 1549:0.014181096106767654 1550:0.0 1551:0.0 1552:0.0 1553:0.0 1554:0.0 1555:5.810604779981077E-4 1556:0.013306140899658203 1557:0.0796060785651207 1558:0.027724456042051315 1559:0.0 1560:0.0010593292536213994 1561:0.0021668407134711742 1562:0.0 1563:0.0 1564:0.009840969927608967 1565:0.04312492161989212 1566:0.26681849360466003 1567:0.0698588490486145 1568:0.01019321195781231 1569:0.0031779876444488764 1570:0.006500521209090948 1571:0.0 1572:0.0 1573:0.002699263161048293 1574:0.06664503365755081 1575:0.2952720820903778 1576:0.03420808166265488 1577:0.003397737629711628 1578:0.0 1579:0.0 1580:0.0 1581:0.0 1582:0.0 1583:0.037431750446558 1584:0.1928461641073227 1585:0.0012230847496539354 1586:0.00415863748639822 1587:0.0 1588:0.0 1589:0.0 1590:0.0 1591:0.0 1592:0.03866828605532646 1593:0.04322277382016182 1594:0.0013303478481248021 1595:0.01247591245919466 1596:0.0 1597:0.0 1598:0.0 1599:0.0 1600:0.028732500970363617 1601:0.11252439767122269 1602:0.11410880833864212 1603:0.015935862436890602 1604:0.0 1605:0.0 1606:0.0 1607:0.0 1608:0.0 1609:0.06272328644990921 1610:0.13246987760066986 1611:0.09699763357639313 1612:0.012186539359390736 1613:0.0 1614:0.0 1615:0.0 1616:0.0 1617:0.008065147325396538 1618:0.012211090885102749 1619:0.04020407423377037 1620:0.07340877503156662 1621:0.005453037563711405 1622:0.0013862125342711806 1623:0.0 1624:0.0 1625:0.0 1626:0.0 1627:0.0 1628:0.08438096940517426 1629:0.21108682453632355 1630:8.93371703568846E-4 1631:0.00415863748639822 1632:0.0 1633:0.0 1634:0.0 1635:0.0 1636:0.008196978829801083 1637:0.3048219382762909 1638:0.3048219382762909 1639:0.028396835550665855 1640:0.0 1641:0.0 1642:0.0 1643:0.0 1644:0.0 1645:0.026007603853940964 1646:0.3048219382762909 1647:0.3048219382762909 1648:0.04033530130982399 1649:0.0 1650:0.0 1651:0.0 1652:0.0 1653:0.0 1654:0.003900048090144992 1655:0.15673375129699707 1656:0.3048219382762909 1657:0.0018441553693264723 1658:0.0 1659:0.0 1660:0.0 1661:0.0 1662:0.0 1663:0.0 1664:0.03111710585653782 1665:0.07933253794908524 1666:0.001349767204374075 1667:0.0 1668:0.0 1669:0.0 1670:0.0 1671:0.0 1672:0.001373482751660049 1673:0.16439232230186462 1674:0.3048219382762909 1675:0.06228478252887726 1676:0.0 1677:0.0 1678:0.0 1679:0.0 1680:0.0 1681:0.002268947893753648 1682:0.18777810037136078 1683:0.3048219382762909 1684:0.05164651572704315 1685:0.0 1686:0.0 1687:0.0 1688:0.0 1689:0.0 1690:9.92224202491343E-4 1691:0.11597992479801178 1692:0.3048219382762909 1693:8.85949848452583E-5 1694:0.0 1695:0.0 1696:0.0 1697:0.0 1698:0.0 1699:0.0 1700:0.014692793600261211 1701:0.016044996678829193 1702:2.657849690876901E-4 1703:0.0 1704:0.0 1705:0.0 1706:0.0 1707:0.0 1708:0.0023093277122825384 1709:0.06606747210025787 1710:0.02238103561103344 1711:0.0028464768547564745 1712:0.0 1713:0.0 1714:0.0 1715:0.0 1716:0.0 1717:0.001373482751660049 1718:0.05244995281100273 1719:0.06887614727020264 1720:0.0013902048813179135 1721:0.0 1722:0.0 1723:0.0 1724:0.0 1725:0.0 1726:3.307414008304477E-4 1727:0.020422521978616714 1728:0.05243706330657005 
0.026045486002582566 1:0.0 2:0.0 3:0.0 4:0.0 5:0.008397618308663368 6:0.0 7:0.042932040989398956 8:0.014347134158015251 9:0.0 10:0.0 11:0.0 12:0.0 13:0.0 14:0.0027992059476673603 15:0.0 16:0.036393675953149796 17:0.01216212660074234 18:0.0 19:0.0 20:0.0 21:0.0 22:0.0 23:0.0 24:0.0 25:0.0 26:0.0 27:0.0 28:0.0 29:0.0 30:0.0 31:0.0 32:0.0 33:0.0 34:0.0 35:0.0 36:0.0 37:0.04741537943482399 38:0.0 39:0.0 40:0.0 41:0.012880614958703518 42:0.0 43:0.12992526590824127 44:0.04341874271631241 45:0.04741537943482399 46:0.07596838474273682 47:0.0 48:0.0 49:0.0 50:0.03864184767007828 51:0.0 52:0.3637292981147766 53:0.12155193090438843 54:0.07596838474273682 55:0.25158917903900146 56:0.0 57:0.0 58:0.0 59:0.0 60:0.0 61:0.0525934100151062 62:0.017575791105628014 63:0.25158917903900146 64:0.1423734724521637 65:0.0 66:0.0 67:0.0 68:0.0 69:0.0 70:0.0 71:0.0 72:0.1423734724521637 73:0.050211101770401 74:0.0 75:0.0 76:0.0 77:0.18226183950901031 78:0.018840879201889038 79:0.0953136458992958 80:0.028773995116353035 81:0.050211101770401 82:0.15209390223026276 83:0.0 84:0.0 85:0.0 86:0.25473570823669434 87:0.006280293222516775 88:0.13857817649841309 89:0.045284342020750046 90:0.15209390223026276 91:0.3318977355957031 92:0.0 93:0.0 94:0.0 95:0.0 96:0.0 97:0.0175311341881752 98:0.005858596879988909 99:0.3318977355957031 100:0.17522138357162476 101:0.0 102:0.0 103:0.0 104:0.0 105:0.0 106:0.0 107:0.0 108:0.17522138357162476 109:0.003804515115916729 110:0.0 111:0.0 112:0.0 113:0.04787334054708481 114:0.056522633880376816 115:0.0871272161602974 116:0.019881945103406906 117:0.003804515115916729 118:0.10819429904222488 119:0.0 120:0.0 121:0.0 122:0.04627005383372307 123:0.018840879201889038 124:0.13075189292430878 125:0.04061684012413025 126:0.10819429904222488 127:0.21168819069862366 128:0.0 129:0.0 130:0.0 131:0.0 132:0.0 133:0.0 134:0.0 135:0.21168819069862366 136:0.09896892309188843 137:0.0 138:0.0 139:0.0 140:0.0 141:0.0 142:0.021353228017687798 143:0.007135874126106501 144:0.09896892309188843 145:0.0 146:0.0 147:0.0 148:0.0 149:0.0 150:0.0 151:0.0 152:0.0 153:0.0 154:0.0 155:0.0 156:0.0 157:0.0 158:0.013073299080133438 159:0.0 160:0.0 161:0.0 162:0.0 163:0.0 164:0.03645824268460274 165:0.10909653455018997 166:0.0 167:0.04452773183584213 168:0.0 169:0.0 170:0.0 171:0.0 172:0.0 173:0.024180324748158455 174:0.07235646992921829 175:0.0 176:0.036369696259498596 177:0.0 178:0.0 179:0.0 180:0.0 181:0.0 182:0.0 183:0.0 184:0.0 185:0.0 186:0.0 187:0.0 188:0.0 189:0.0 190:0.0 191:0.0 192:0.0 193:0.0 194:0.11783874779939651 195:0.0 196:0.0 197:0.0 198:0.0 199:0.0 200:0.04484708979725838 201:0.1341990828514099 202:0.0 203:0.5616588592529297 204:0.0 205:0.0 206:0.0 207:0.0 208:0.0 209:0.01895822212100029 210:0.056730013340711594 211:0.0 212:0.07619627565145493 213:0.0 214:0.0 215:0.0 216:0.0 217:0.06966426968574524 218:0.0 219:0.0 220:0.0 221:0.0 222:0.0 223:0.0 224:0.0 225:0.06966426968574524 226:0.17457780241966248 227:0.02021394670009613 228:0.06048760563135147 229:0.0 230:0.08368421345949173 231:0.0 232:0.0 233:0.0 234:0.17457780241966248 235:0.050558194518089294 236:0.06064184010028839 237:0.18146280944347382 238:0.0 239:0.6236838698387146 240:0.0 241:0.0 242:0.0 243:0.050558194518089294 244:0.0 245:0.0 246:0.0 247:0.0 248:0.1242104098200798 249:0.0 250:0.0 251:0.0 252:0.0 253:0.05784812942147255 254:0.0 255:0.0 256:0.0 257:0.0 258:0.0 259:0.0 260:0.0 261:0.05784812942147255 262:0.15914872288703918 263:0.006737981457263231 264:0.020162533968687057 265:0.0 266:0.0 267:0.0 268:0.0 269:0.0 270:0.15914872288703918 271:0.08452878892421722 272:0.02021394670009613 273:0.06048760563135147 274:0.0 275:0.050359345972537994 276:0.0 277:0.0 278:0.0 279:0.08452878892421722 280:0.0 281:0.0 282:0.0 283:0.0 284:0.016786448657512665 285:0.0 286:0.0 287:0.0 288:0.0 289:0.034853529185056686 290:0.0 291:0.0 292:0.0 293:0.0 294:0.0 295:0.0 296:0.0 297:0.034853529185056686 298:0.10161744058132172 299:0.0 300:0.0 301:0.0 302:0.0 303:0.0 304:0.0 305:0.0 306:0.10161744058132172 307:0.12521199882030487 308:0.0 309:0.0 310:0.0 311:0.0 312:0.0 313:0.0 314:0.0 315:0.12521199882030487 316:0.047408826649188995 317:0.0 318:0.0 319:0.0 320:0.13304190337657928 321:0.0 322:0.03622674569487572 323:0.012106341309845448 324:0.047408826649188995 325:0.0 326:0.0 327:0.0 328:0.0 329:0.0 330:0.0 331:0.0 332:0.0 333:0.0 334:0.0 335:0.0 336:0.0 337:0.0 338:0.0 339:0.0 340:0.0 341:0.0 342:0.0 343:0.0 344:0.0 345:0.0 346:0.0 347:0.0 348:0.0 349:0.0 350:0.0 351:0.0 352:0.0 353:0.0 354:0.0 355:0.0 356:0.48753514885902405 357:0.0 358:0.0 359:0.0 360:0.0 361:0.0 362:0.0 363:0.0 364:0.0 365:0.0 366:0.0 367:0.0 368:0.0 369:0.0 370:0.0 371:0.0 372:0.0 373:0.0 374:0.0 375:0.0 376:0.0 377:0.0 378:0.0 379:0.0 380:0.0 381:0.0 382:0.0 383:0.0 384:0.0 385:0.0 386:0.0 387:0.0 388:0.0 389:0.0 390:0.0 391:0.0 392:0.6007359027862549 393:0.0 394:0.0 395:0.0 396:0.0 397:0.08360927551984787 398:0.0 399:0.0 400:0.0 401:0.0 402:0.0 403:0.0 404:0.0 405:0.08360927551984787 406:0.24376757442951202 407:0.0 408:0.0 409:0.0 410:0.0 411:0.0 412:0.0 413:0.0 414:0.24376757442951202 415:0.16340988874435425 416:0.0 417:0.0 418:0.0 419:0.0 420:0.0 421:0.0 422:0.0 423:0.16340988874435425 424:0.0 425:0.0 426:0.0 427:0.0 428:0.3094412386417389 429:0.0 430:0.0 431:0.0 432:0.0 433:0.0 434:0.0 435:0.0 436:0.0 437:0.0 438:0.0 439:0.0 440:0.0 441:0.0 442:0.0 443:0.0 444:0.0 445:0.0 446:0.0 447:0.0 448:0.0 449:0.0 450:0.0 451:0.0 452:0.0 453:0.0 454:0.0 455:0.034981705248355865 456:0.0 457:0.0 458:0.0 459:0.0 460:0.0 461:0.004066843539476395 462:0.012169498950242996 463:0.0 464:0.1496373564004898 465:0.0 466:0.0 467:0.0 468:0.0 469:0.0 470:0.0 471:0.0 472:0.0 473:0.0 474:0.0 475:0.0 476:0.0 477:0.0 478:0.0 479:0.0 480:0.0 481:0.0 482:0.0 483:0.0 484:0.0 485:0.0 486:0.0 487:0.0 488:0.0062378933653235435 489:0.018666082993149757 490:0.0 491:0.0843813568353653 492:0.0 493:0.0 494:0.0 495:0.0 496:0.0 497:0.018713679164648056 498:0.05599824711680412 499:0.0 500:0.4169198274612427 501:0.0 502:0.0 503:0.0 504:0.0 505:0.0 506:0.0 507:0.0 508:0.0 509:0.0 510:0.0 511:0.0 512:0.0 513:0.0 514:0.0 515:0.0 516:0.0 517:0.0 518:0.017609771341085434 519:0.0 520:0.0 521:0.0 522:0.0 523:0.0 524:0.12382973730564117 525:0.37054434418678284 526:0.0 527:0.07905074208974838 528:0.0 529:0.0 530:0.0 531:0.0 532:0.0 533:0.16781368851661682 534:0.5021606683731079 535:0.0 536:0.1884515881538391 537:0.0 538:0.0 539:0.0 540:0.0 541:0.028086533769965172 542:0.0 543:0.0 544:0.0 545:0.0 546:0.0 547:0.0 548:0.0 549:0.028086533769965172 550:0.06774913519620895 551:0.0 552:0.0 553:0.0 554:0.08110681176185608 555:0.0 556:0.0 557:0.0 558:0.06774913519620895 559:0.012477399781346321 560:0.0790780559182167 561:0.23663078248500824 562:0.0 563:0.3673785924911499 564:0.0 565:0.0 566:0.0 567:0.012477399781346321 568:0.0 569:0.06810518354177475 570:0.2037959098815918 571:0.0 572:0.20007717609405518 573:0.0 574:0.0 575:0.0 576:0.0 577:0.1322864592075348 578:0.0 579:0.0 580:0.0 581:0.0 582:0.0 583:0.0 584:0.0 585:0.1322864592075348 586:0.3856886327266693 587:0.0 588:0.0 589:0.0 590:0.0 591:0.0 592:0.0 593:0.0 594:0.3856886327266693 595:0.4752417206764221 596:0.0 597:0.0 598:0.0 599:0.0 600:0.0 601:0.0 602:0.0 603:0.4752417206764221 604:0.2447986900806427 605:0.0 606:0.0 607:0.0 608:0.0 609:0.0 610:0.0 611:0.0 612:0.2447986900806427 613:0.031121933832764626 614:0.0 615:0.0 616:0.0 617:0.0 618:0.0 619:0.0 620:0.0 621:0.031121933832764626 622:0.09073774516582489 623:0.0 624:0.0 625:0.0 626:0.0 627:0.0 628:0.0 629:0.0 630:0.09073774516582489 631:0.11180615425109863 632:0.0 633:0.0 634:0.0 635:0.0 636:0.0 637:0.0 638:0.0 639:0.11180615425109863 640:0.0575917549431324 641:0.0 642:0.0 643:0.0 644:0.0 645:0.0 646:0.0 647:0.0 648:0.0575917549431324 649:0.0 650:0.0 651:0.0 652:0.0 653:0.0 654:0.0 655:0.0 656:0.0 657:0.0 658:0.0 659:0.0 660:0.0 661:0.0 662:0.0 663:0.0 664:0.0 665:0.0 666:0.0 667:0.0 668:0.0 669:0.0 670:0.0 671:0.0 672:0.0 673:0.0 674:0.0 675:0.0 676:0.0 677:0.0 678:0.0 679:0.0 680:0.0 681:0.0 682:0.0 683:0.0 684:0.0 685:0.0 686:0.0 687:0.0 688:0.0 689:0.0 690:0.0 691:0.0 692:0.0 693:0.0 694:0.0 695:0.0 696:0.0 697:0.0 698:0.0 699:0.0 700:0.0 701:0.0 702:0.0 703:0.0 704:0.0 705:0.0 706:0.0 707:0.0 708:0.0 709:0.0 710:0.0 711:0.0 712:0.0 713:0.0 714:0.0 715:0.0 716:0.0 717:0.0 718:0.0 719:0.0 720:0.0 721:0.04102387651801109 722:0.0 723:0.0 724:0.0 725:0.0 726:0.0 727:0.0 728:0.0 729:0.04102387651801109 730:0.04428164288401604 731:0.0 732:0.0 733:0.0 734:0.066215381026268 735:0.0 736:0.15968842804431915 737:0.053365059196949005 738:0.04428164288401604 739:0.06720008701086044 740:0.0 741:0.0 742:0.0 743:0.07048159837722778 744:0.0 745:0.169977068901062 746:0.056803345680236816 747:0.06720008701086044 748:0.06999778002500534 749:0.0 750:0.0 751:0.0 752:0.0 753:0.0 754:0.0 755:0.021922284737229347 756:0.07454032450914383 757:0.009651345200836658 758:0.0 759:0.0 760:0.0 761:0.0 762:0.0 763:0.0 764:0.0 765:0.009651345200836658 766:0.025382952764630318 767:0.0 768:0.0 769:0.0 770:0.4084342122077942 771:0.0 772:0.12156215310096741 773:0.04062393307685852 774:0.025382952764630318 775:0.2383270561695099 776:0.0 777:0.0 778:0.0 779:0.28137415647506714 780:0.0 781:0.29196983575820923 782:0.09757118672132492 783:0.2383270561695099 784:0.21851828694343567 785:0.0 786:0.0 787:0.0 788:0.0 789:0.0 790:0.0 791:0.0 792:0.21851828694343567 793:0.0 794:0.0 795:0.0 796:0.0 797:0.0 798:0.0 799:0.0 800:0.0 801:0.0 802:0.044895537197589874 803:0.0 804:0.0 805:0.0 806:0.06992936134338379 807:0.0 808:0.027997862547636032 809:0.009356393478810787 810:0.044895537197589874 811:0.32375261187553406 812:0.0 813:0.0 814:0.0 815:0.02330978587269783 816:0.0 817:0.0839935913681984 818:0.028069181367754936 819:0.32375261187553406 820:0.21358658373355865 821:0.0 822:0.0 823:0.0 824:0.0 825:0.0 826:0.0 827:0.0 828:0.21358658373355865 829:0.0 830:0.0 831:0.0 832:0.0 833:0.0 834:0.0 835:0.0 836:0.0 837:0.0 838:0.0 839:0.0 840:0.0 841:0.0 842:0.0 843:0.0 844:0.0 845:0.0 846:0.0 847:0.0 848:0.0 849:0.0 850:0.0 851:0.0 852:0.0 853:0.0 854:0.0 855:0.0 856:0.014195864088833332 857:0.0 858:0.0 859:0.0 860:0.0 861:0.0 862:0.0 863:0.0 864:0.014195864088833332 865:0.0 866:0.0 867:0.0 868:0.0 869:0.0 870:0.0 871:0.0 872:0.0 873:0.0 874:0.0 875:0.0 876:0.0 877:0.0 878:0.013073299080133438 879:0.0 880:0.0 881:0.0 882:0.0 883:0.0 884:0.03645824268460274 885:0.10909653455018997 886:0.0 887:0.04452773183584213 888:0.0 889:0.0 890:0.0 891:0.0 892:0.0 893:0.024180324748158455 894:0.07235646992921829 895:0.0 896:0.036369696259498596 897:0.0 898:0.0 899:0.0 900:0.0 901:0.0 902:0.0 903:0.0 904:0.0 905:0.0 906:0.0 907:0.0 908:0.0 909:0.0 910:0.0 911:0.0 912:0.0 913:0.0 914:0.11783874779939651 915:0.0 916:0.0 917:0.0 918:0.0 919:0.0 920:0.04484708979725838 921:0.1341990828514099 922:0.0 923:0.5616588592529297 924:0.0 925:0.0 926:0.0 927:0.0 928:0.0 929:0.01895822212100029 930:0.056730013340711594 931:0.0 932:0.07619627565145493 933:0.0 934:0.0 935:0.0 936:0.0 937:0.06966426968574524 938:0.0 939:0.0 940:0.0 941:0.0 942:0.0 943:0.0 944:0.0 945:0.06966426968574524 946:0.17457780241966248 947:0.02021394670009613 948:0.06048760563135147 949:0.0 950:0.08368421345949173 951:0.0 952:0.0 953:0.0 954:0.17457780241966248 955:0.050558194518089294 956:0.06064184010028839 957:0.18146280944347382 958:0.0 959:0.6236838698387146 960:0.0 961:0.0 962:0.0 963:0.050558194518089294 964:0.0 965:0.0 966:0.0 967:0.0 968:0.1242104098200798 969:0.0 970:0.0 971:0.0 972:0.0 973:0.05784812942147255 974:0.0 975:0.0 976:0.0 977:0.0 978:0.0 979:0.0 980:0.0 981:0.05784812942147255 982:0.15914872288703918 983:0.006737981457263231 984:0.020162533968687057 985:0.0 986:0.0 987:0.0 988:0.0 989:0.0 990:0.15914872288703918 991:0.08452878892421722 992:0.02021394670009613 993:0.06048760563135147 994:0.0 995:0.050359345972537994 996:0.0 997:0.0 998:0.0 999:0.08452878892421722 1000:0.0 1001:0.0 1002:0.0 1003:0.0 1004:0.016786448657512665 1005:0.0 1006:0.0 1007:0.0 1008:0.0 1009:0.004901633132249117 1010:0.0 1011:0.0 1012:0.0 1013:0.0 1014:0.0 1015:0.0 1016:0.0 1017:0.004901633132249117 1018:0.04418183118104935 1019:0.0 1020:0.0 1021:0.0 1022:0.0 1023:0.0 1024:0.0 1025:0.0 1026:0.04418183118104935 1027:0.05767325311899185 1028:0.0 1029:0.0 1030:0.0 1031:0.0 1032:0.0 1033:0.0 1034:0.0 1035:0.05767325311899185 1036:0.02970769815146923 1037:0.0 1038:0.0 1039:0.0 1040:0.0 1041:0.0 1042:0.0 1043:0.0 1044:0.02970769815146923 1045:0.047413505613803864 1046:0.03949800506234169 1047:0.1181926354765892 1048:0.0 1049:0.0 1050:0.0 1051:0.0 1052:0.0 1053:0.047413505613803864 1054:0.26553720235824585 1055:0.05358685553073883 1056:0.1603516787290573 1057:0.0 1058:0.0 1059:0.0 1060:0.0 1061:0.0 1062:0.26553720235824585 1063:0.4247620105743408 1064:0.0 1065:0.0 1066:0.0 1067:0.0 1068:0.0 1069:0.0 1070:0.0 1071:0.4247620105743408 1072:0.21879644691944122 1073:0.0 1074:0.0 1075:0.0 1076:0.0 1077:0.0 1078:0.0 1079:0.0 1080:0.21879644691944122 1081:0.10861246287822723 1082:0.013166002929210663 1083:0.03939754515886307 1084:0.0 1085:0.02554519660770893 1086:0.0 1087:0.0 1088:0.0 1089:0.10861246287822723 1090:0.09679482132196426 1091:0.017862284556031227 1092:0.0534505620598793 1093:0.0 1094:0.03465711325407028 1095:0.0 1096:0.0 1097:0.0 1098:0.09679482132196426 1099:0.14158734679222107 1100:0.0 1101:0.0 1102:0.0 1103:0.0 1104:0.0 1105:0.0 1106:0.0 1107:0.14158734679222107 1108:0.0729321539402008 1109:0.0 1110:0.0 1111:0.0 1112:0.0 1113:0.0 1114:0.0 1115:0.0 1116:0.0729321539402008 1117:0.03413398936390877 1118:0.005576249677687883 1119:0.016686201095581055 1120:0.0 1121:0.07663559913635254 1122:0.0 1123:0.0 1124:0.0 1125:0.03413398936390877 1126:0.10943824797868729 1127:0.04106893390417099 1128:0.12289344519376755 1129:0.0 1130:0.10397132486104965 1131:0.0 1132:0.0 1133:0.0 1134:0.10943824797868729 1135:0.25417834520339966 1136:0.008113396354019642 1137:0.02427828125655651 1138:0.0 1139:0.0 1140:0.0 1141:0.0 1142:0.0 1143:0.25417834520339966 1144:0.1368272453546524 1145:0.0 1146:0.0 1147:0.0 1148:0.0 1149:0.0 1150:0.0 1151:0.0 1152:0.1368272453546524 1153:0.0 1154:0.0 1155:0.0 1156:0.0 1157:0.0 1158:0.0 1159:0.0 1160:0.0 1161:0.0 1162:0.0 1163:0.0 1164:0.0 1165:0.0 1166:0.0 1167:0.0 1168:0.0 1169:0.0 1170:0.0 1171:0.0 1172:0.0 1173:0.0 1174:0.0 1175:0.034981705248355865 1176:0.0 1177:0.0 1178:0.0 1179:0.0 1180:0.0 1181:0.004066843539476395 1182:0.012169498950242996 1183:0.0 1184:0.1496373564004898 1185:0.0 1186:0.0 1187:0.0 1188:0.0 1189:0.0 1190:0.0 1191:0.0 1192:0.0 1193:0.0 1194:0.0 1195:0.0 1196:0.0 1197:0.0 1198:0.0 1199:0.0 1200:0.0 1201:0.0 1202:0.0 1203:0.0 1204:0.0 1205:0.0 1206:0.0 1207:0.0 1208:0.0062378933653235435 1209:0.018666082993149757 1210:0.0 1211:0.0843813568353653 1212:0.0 1213:0.0 1214:0.0 1215:0.0 1216:0.0 1217:0.018713679164648056 1218:0.05599824711680412 1219:0.0 1220:0.4169198274612427 1221:0.0 1222:0.0 1223:0.0 1224:0.0 1225:0.0 1226:0.0 1227:0.0 1228:0.0 1229:0.0 1230:0.0 1231:0.0 1232:0.0 1233:0.0 1234:0.0 1235:0.0 1236:0.0 1237:0.0 1238:0.017609771341085434 1239:0.0 1240:0.0 1241:0.0 1242:0.0 1243:0.0 1244:0.12382973730564117 1245:0.37054434418678284 1246:0.0 1247:0.07905074208974838 1248:0.0 1249:0.0 1250:0.0 1251:0.0 1252:0.0 1253:0.16781368851661682 1254:0.5021606683731079 1255:0.0 1256:0.1884515881538391 1257:0.0 1258:0.0 1259:0.0 1260:0.0 1261:0.028086533769965172 1262:0.0 1263:0.0 1264:0.0 1265:0.0 1266:0.0 1267:0.0 1268:0.0 1269:0.028086533769965172 1270:0.06774913519620895 1271:0.0 1272:0.0 1273:0.0 1274:0.08110681176185608 1275:0.0 1276:0.0 1277:0.0 1278:0.06774913519620895 1279:0.012477399781346321 1280:0.0790780559182167 1281:0.23663078248500824 1282:0.0 1283:0.3673785924911499 1284:0.0 1285:0.0 1286:0.0 1287:0.012477399781346321 1288:0.0 1289:0.06810518354177475 1290:0.2037959098815918 1291:0.0 1292:0.20007717609405518 1293:0.0 1294:0.0 1295:0.0 1296:0.0 1297:0.009647402912378311 1298:0.0 1299:0.0 1300:0.0 1301:0.0 1302:0.0 1303:0.0 1304:0.0 1305:0.009647402912378311 1306:0.028127551078796387 1307:0.0 1308:0.0 1309:0.0 1310:0.0 1311:0.0 1312:0.0 1313:0.0 1314:0.028127551078796387 1315:0.034658484160900116 1316:0.0 1317:0.0 1318:0.0 1319:0.0 1320:0.0 1321:0.0 1322:0.0 1323:0.034658484160900116 1324:0.01785271055996418 1325:0.0 1326:0.0 1327:0.0 1328:0.0 1329:0.0 1330:0.0 1331:0.0 1332:0.01785271055996418 1333:0.02376173436641693 1334:0.0 1335:0.0 1336:0.0 1337:0.0 1338:0.0 1339:0.0 1340:0.0 1341:0.02376173436641693 1342:0.06927867978811264 1343:0.0 1344:0.0 1345:0.0 1346:0.0 1347:0.0 1348:0.0 1349:0.0 1350:0.06927867978811264 1351:0.08536449819803238 1352:0.0 1353:0.0 1354:0.0 1355:0.0 1356:0.0 1357:0.0 1358:0.0 1359:0.08536449819803238 1360:0.04397156089544296 1361:0.0 1362:0.0 1363:0.0 1364:0.0 1365:0.0 1366:0.0 1367:0.0 1368:0.04397156089544296 1369:0.13419418036937714 1370:0.0 1371:0.0 1372:0.0 1373:0.0 1374:0.0 1375:0.0 1376:0.0 1377:0.13419418036937714 1378:0.39125069975852966 1379:0.0 1380:0.0 1381:0.0 1382:0.0 1383:0.0 1384:0.0 1385:0.0 1386:0.39125069975852966 1387:0.48209521174430847 1388:0.0 1389:0.0 1390:0.0 1391:0.0 1392:0.0 1393:0.0 1394:0.0 1395:0.48209521174430847 1396:0.24832898378372192 1397:0.0 1398:0.0 1399:0.0 1400:0.0 1401:0.0 1402:0.0 1403:0.0 1404:0.24832898378372192 1405:0.020969657227396965 1406:0.0 1407:0.0 1408:0.0 1409:0.0 1410:0.0 1411:0.0 1412:0.0 1413:0.020969657227396965 1414:0.061138223856687546 1415:0.0 1416:0.0 1417:0.0 1418:0.0 1419:0.0 1420:0.0 1421:0.0 1422:0.061138223856687546 1423:0.07533390820026398 1424:0.0 1425:0.0 1426:0.0 1427:0.0 1428:0.0 1429:0.0 1430:0.0 1431:0.07533390820026398 1432:0.03880476951599121 1433:0.0 1434:0.0 1435:0.0 1436:0.0 1437:0.0 1438:0.0 1439:0.0 1440:0.03880476951599121 1441:0.04102387651801109 1442:0.0 1443:0.0 1444:0.0 1445:0.0 1446:0.0 1447:0.0 1448:0.0 1449:0.04102387651801109 1450:0.04428164288401604 1451:0.0 1452:0.0 1453:0.0 1454:0.066215381026268 1455:0.0 1456:0.15968842804431915 1457:0.053365059196949005 1458:0.04428164288401604 1459:0.06720008701086044 1460:0.0 1461:0.0 1462:0.0 1463:0.07048159837722778 1464:0.0 1465:0.169977068901062 1466:0.056803345680236816 1467:0.06720008701086044 1468:0.06999778002500534 1469:0.0 1470:0.0 1471:0.0 1472:0.0 1473:0.0 1474:0.0 1475:0.021922284737229347 1476:0.07454032450914383 1477:0.009651345200836658 1478:0.0 1479:0.0 1480:0.0 1481:0.0 1482:0.0 1483:0.0 1484:0.0 1485:0.009651345200836658 1486:0.025382952764630318 1487:0.0 1488:0.0 1489:0.0 1490:0.4084342122077942 1491:0.0 1492:0.12156215310096741 1493:0.04062393307685852 1494:0.025382952764630318 1495:0.2383270561695099 1496:0.0 1497:0.0 1498:0.0 1499:0.28137415647506714 1500:0.0 1501:0.29196983575820923 1502:0.09757118672132492 1503:0.2383270561695099 1504:0.21851828694343567 1505:0.0 1506:0.0 1507:0.0 1508:0.0 1509:0.0 1510:0.0 1511:0.0 1512:0.21851828694343567 1513:0.0 1514:0.0 1515:0.0 1516:0.0 1517:0.0 1518:0.0 1519:0.0 1520:0.0 1521:0.0 1522:0.044895537197589874 1523:0.0 1524:0.0 1525:0.0 1526:0.06992936134338379 1527:0.0 1528:0.027997862547636032 1529:0.009356393478810787 1530:0.044895537197589874 1531:0.32375261187553406 1532:0.0 1533:0.0 1534:0.0 1535:0.02330978587269783 1536:0.0 1537:0.0839935913681984 1538:0.028069181367754936 1539:0.32375261187553406 1540:0.21358658373355865 1541:0.0 1542:0.0 1543:0.0 1544:0.0 1545:0.0 1546:0.0 1547:0.0 1548:0.21358658373355865 1549:0.0 1550:0.0 1551:0.0 1552:0.0 1553:0.0 1554:0.0 1555:0.0 1556:0.0 1557:0.0 1558:0.0 1559:0.0 1560:0.0 1561:0.0 1562:0.0 1563:0.0 1564:0.0 1565:0.0 1566:0.0 1567:0.0 1568:0.0 1569:0.0 1570:0.0 1571:0.0 1572:0.0 1573:0.0 1574:0.0 1575:0.0 1576:0.014195864088833332 1577:0.0 1578:0.0 1579:0.0 1580:0.0 1581:0.0 1582:0.0 1583:0.0 1584:0.014195864088833332 1585:0.016324063763022423 1586:0.003030847292393446 1587:0.009069415740668774 1588:0.0 1589:0.005328348372131586 1590:0.0 1591:0.0 1592:0.0 1593:0.016324063763022423 1594:0.0034208674915134907 1595:0.0010102824307978153 1596:0.00302313850261271 1597:0.0 1598:0.015985045582056046 1599:0.0 1600:0.0 1601:0.0 1602:0.0034208674915134907 1603:0.0 1604:0.0 1605:0.0 1606:0.0 1607:0.0 1608:0.0 1609:0.0 1610:0.0 1611:0.0 1612:0.0 1613:0.0 1614:0.0 1615:0.0 1616:0.0 1617:0.0 1618:0.0 1619:0.0 1620:0.0 1621:0.08323659747838974 1622:0.0 1623:0.0 1624:0.0 1625:0.0 1626:0.0 1627:0.0 1628:0.0 1629:0.08323659747838974 1630:0.22968989610671997 1631:0.0 1632:0.0 1633:0.0 1634:0.0 1635:0.0 1636:0.0 1637:0.0 1638:0.22968989610671997 1639:0.28161656856536865 1640:0.0 1641:0.0 1642:0.0 1643:0.0 1644:0.0 1645:0.0 1646:0.0 1647:0.28161656856536865 1648:0.1450617015361786 1649:0.0 1650:0.0 1651:0.0 1652:0.0 1653:0.0 1654:0.0 1655:0.0 1656:0.1450617015361786 1657:0.0964755117893219 1658:0.0 1659:0.0 1660:0.0 1661:0.0 1662:0.0 1663:0.0 1664:0.0 1665:0.0964755117893219 1666:0.2812798023223877 1667:0.0 1668:0.0 1669:0.0 1670:0.0 1671:0.0 1672:0.0 1673:0.0 1674:0.2812798023223877 1675:0.34659016132354736 1676:0.0 1677:0.0 1678:0.0 1679:0.0 1680:0.0 1681:0.0 1682:0.0 1683:0.34659016132354736 1684:0.17852984368801117 1685:0.0 1686:0.0 1687:0.0 1688:0.0 1689:0.0 1690:0.0 1691:0.0 1692:0.17852984368801117 1693:0.06003729999065399 1694:0.0 1695:0.0 1696:0.0 1697:0.0 1698:0.0 1699:0.0 1700:0.0 1701:0.06003729999065399 1702:0.17504213750362396 1703:0.0 1704:0.0 1705:0.0 1706:0.0 1707:0.0 1708:0.0 1709:0.0 1710:0.17504213750362396 1711:0.21568520367145538 1712:0.0 1713:0.0 1714:0.0 1715:0.0 1716:0.0 1717:0.0 1718:0.0 1719:0.21568520367145538 1720:0.1111002117395401 1721:0.0 1722:0.0 1723:0.0 1724:0.0 1725:0.0 1726:0.0 1727:0.0 1728:0.1111002117395401 
0.11483223334811885 1:0.01044092234224081 2:0.011486212722957134 3:0.019951164722442627 4:0.0 5:0.0015055411495268345 6:0.0 7:0.0 8:0.0 9:0.0038388899993151426 10:0.037152428179979324 11:0.03265610709786415 12:0.006650387775152922 13:0.0 14:0.013570488430559635 15:0.0 16:0.016710205003619194 17:0.005584257189184427 18:0.008282365277409554 19:0.0388767346739769 20:0.07586570084095001 21:0.01671019196510315 22:0.0 23:0.009637203067541122 24:0.0 25:0.0055700684897601604 26:0.0018614190630614758 27:0.007053635083138943 28:0.025935400277376175 29:0.031162846833467484 30:0.005570064764469862 31:0.0 32:0.0024175746366381645 33:0.0 34:0.0 35:0.0 36:0.019863829016685486 37:0.051629889756441116 38:0.04901818931102753 39:0.03969112038612366 40:0.0 41:0.0 42:0.0 43:0.0 44:0.0 45:0.036600079387426376 46:0.20352567732334137 47:0.12098049372434616 48:0.047544386237859726 49:0.0 50:0.0 51:0.0 52:0.0055700684897601604 53:0.015334881842136383 54:0.1284024864435196 55:0.1916240155696869 56:0.1779315322637558 57:0.10851209610700607 58:0.0 59:0.0 60:0.0 61:0.0018566895741969347 62:0.005111627280712128 63:0.10608083009719849 64:0.08248821645975113 65:0.08297896385192871 66:0.02252066507935524 67:0.0 68:0.0 69:0.0 70:0.0 71:0.0 72:0.07020918279886246 73:0.060122665017843246 74:0.0933825671672821 75:0.060176171362400055 76:0.0 77:0.0 78:0.0 79:0.0 80:0.0 81:0.028947217389941216 82:0.2150065004825592 83:0.1328670084476471 84:0.09097915142774582 85:0.0 86:0.0 87:0.0 88:0.0 89:0.0620170496404171 90:0.3014509379863739 91:0.2659662067890167 92:0.23337000608444214 93:0.03431401401758194 94:0.0 95:0.0 96:0.0 97:0.0 98:0.07826345413923264 99:0.2858355641365051 100:0.222905695438385 101:0.23824173212051392 102:0.017431413754820824 103:0.0 104:0.0 105:0.0 106:0.0 107:0.0 108:0.08451028913259506 109:0.04338494688272476 110:0.07685617357492447 111:0.011417725123465061 112:0.0 113:0.0 114:0.0 115:0.0 116:0.0 117:0.02644907496869564 118:0.17005561292171478 119:0.12787318229675293 120:0.03425317257642746 121:0.0 122:0.0 123:0.0 124:0.0 125:0.0071988883428275585 126:0.09124251455068588 127:0.36351343989372253 128:0.1494787335395813 129:0.0 130:0.0 131:0.0 132:0.0 133:0.0 134:0.021596666425466537 135:0.08718357235193253 136:0.18989001214504242 137:0.11879298835992813 138:0.0 139:0.0 140:0.0 141:0.0 142:0.0 143:0.0 144:0.011598918586969376 145:0.057901278138160706 146:0.010304917581379414 147:0.0 148:0.0 149:0.0010081608779728413 150:0.0 151:0.0 152:0.0 153:4.1140170651488006E-4 154:0.07759273797273636 155:0.08366362750530243 156:0.002954804804176092 157:0.0 158:0.01515002641826868 159:0.0 160:0.0 161:0.0 162:0.015288056805729866 163:0.05351622402667999 164:0.08496994525194168 165:0.002581364708021283 166:0.0 167:0.022716140374541283 168:0.0 169:0.0 170:0.0 171:0.02611546590924263 172:0.019969724118709564 173:0.03518291562795639 174:0.008939177729189396 175:0.0 176:0.007577102165669203 177:0.0 178:0.0 179:0.003232673741877079 180:0.012779457494616508 181:0.12719343602657318 182:0.034080397337675095 183:0.0 184:0.0 185:0.0 186:0.0 187:0.0 188:0.003313158405944705 189:0.018127676099538803 190:0.2096838355064392 191:0.0777394250035286 192:0.012332401238381863 193:0.0 194:0.0 195:0.0 196:0.03041679412126541 197:0.02010423131287098 198:0.09489578008651733 199:0.25525423884391785 200:0.28311270475387573 201:0.05355376750230789 202:0.0 203:0.0 204:0.0 205:0.01013893261551857 206:0.0033882528077811003 207:0.028547272086143494 208:0.13581763207912445 209:0.13803714513778687 210:0.0651845708489418 211:0.0 212:0.015949415042996407 213:0.0 214:0.0 215:0.0010775579139590263 216:0.019158532842993736 217:0.11080705374479294 218:0.06436311453580856 219:0.0021372695919126272 220:0.004390861373394728 221:3.718063817359507E-4 222:0.0 223:0.0 224:0.009939474985003471 225:0.0243842713534832 226:0.39263424277305603 227:0.15894538164138794 228:0.04016769677400589 229:0.016000302508473396 230:0.0011154190870001912 231:0.0 232:0.01013893261551857 233:0.03320667892694473 234:0.17184315621852875 235:0.2556059658527374 236:0.3955842852592468 237:0.23496690392494202 238:0.013502495363354683 239:0.0 240:0.0 241:0.003379644127562642 242:0.0011294175637885928 243:0.06962303072214127 244:0.08493369817733765 245:0.16380009055137634 246:0.1483381986618042 247:0.022013653069734573 248:0.04784823954105377 249:0.0 250:0.0 251:0.0 252:0.04947872459888458 253:0.03919078782200813 254:0.03632226213812828 255:0.020857974886894226 256:0.014212068170309067 257:0.005972085054963827 258:0.0 259:0.0 260:0.0 261:0.0019417561125010252 262:0.16395294666290283 263:0.07453739643096924 264:0.06171438470482826 265:0.051119349896907806 266:0.003346257144585252 267:0.0 268:0.0 269:0.0 270:0.03145770728588104 271:0.1025681346654892 272:0.06776287406682968 273:0.22038432955741882 274:0.0405074842274189 275:0.0 276:0.0 277:0.0025635233614593744 278:8.566844626329839E-4 279:0.02560921385884285 280:0.007897695526480675 281:0.037311580032110214 282:0.10381054133176804 283:0.043968889862298965 284:0.007767024450004101 285:0.0 286:0.00769056985154748 287:0.0025700535625219345 288:0.005113021470606327 289:0.0016669515753164887 290:1.8620047194417566E-4 291:5.571806686930358E-4 292:0.0 293:0.0 294:7.894436130300164E-4 295:3.859451680909842E-4 296:0.0 297:0.0016669515753164887 298:0.002240355359390378 299:6.206682155607268E-5 300:1.8572690896689892E-4 301:0.0 302:0.0018231184221804142 303:0.002368330955505371 304:0.0035899165086448193 305:0.006354538258165121 306:0.005600063595920801 307:0.001020144554786384 308:0.0 309:0.0 310:0.0 311:0.005738871172070503 312:4.91625047288835E-4 313:0.0012833081418648362 314:0.004861596040427685 315:0.002692430978640914 316:1.594113709870726E-4 317:2.9899695073254406E-4 318:8.947129244916141E-4 319:0.0 320:0.0023417656775563955 321:0.0014748751418665051 322:0.0014178433921188116 323:6.704152910970151E-4 324:0.001889165141619742 325:0.01277574896812439 326:0.012304084375500679 327:0.0016715420642867684 328:0.0 329:0.0 330:2.6314790011383593E-4 331:1.2864840391557664E-4 332:0.0 333:0.004247728269547224 334:0.01767990179359913 335:0.0186974685639143 336:5.571806686930358E-4 337:0.0 338:2.888833696488291E-4 339:7.894436130300164E-4 340:0.011185088194906712 341:0.05082780867815018 342:0.03023405559360981 343:0.04092268645763397 344:0.013942435383796692 345:0.0 346:0.0 347:0.0018066827906295657 348:0.0014748751418665051 349:0.03095661848783493 350:0.03384122997522354 351:0.03792981803417206 352:0.052775777876377106 353:0.04307420924305916 354:2.982376026920974E-4 355:0.0 356:7.805885979905725E-4 357:0.004424624610692263 358:0.0021631214767694473 359:0.0013126683188602328 360:0.01543762069195509 361:0.013688036240637302 362:0.023327285423874855 363:0.007696182932704687 364:0.0 365:0.0048248618841171265 366:0.0015108260558918118 367:0.0 368:0.0 369:0.00221352674998343 370:0.12863411009311676 371:0.03911895304918289 372:0.003631915897130966 373:0.0 374:0.008591706864535809 375:5.036087241023779E-4 376:0.0033294830936938524 377:0.03128029406070709 378:0.08590307831764221 379:0.3273402154445648 380:0.19847579300403595 381:0.025102650746703148 382:0.0 383:0.0 384:0.0 385:0.009988449513912201 386:0.013393844477832317 387:0.13639691472053528 388:0.3273402154445648 389:0.23663240671157837 390:0.07530796527862549 391:0.0 392:0.0 393:0.0 394:0.0 395:0.0 396:0.013995258137583733 397:8.564826566725969E-4 398:0.003456658683717251 399:0.0025653946213424206 400:0.0 401:0.019260233268141747 402:0.014574285596609116 403:0.0 404:0.0 405:8.564826566725969E-4 406:0.16861391067504883 407:0.0789814367890358 408:0.05763449892401695 409:0.046061307191848755 410:0.17784710228443146 411:0.025122277438640594 412:0.0 413:0.0 414:0.05497576668858528 415:0.3273402154445648 416:0.3273402154445648 417:0.24457955360412598 418:0.01535376813262701 419:0.04682723060250282 420:0.0 421:0.0 422:0.0 423:0.16015437245368958 424:0.27931416034698486 425:0.3273402154445648 426:0.22592386603355408 427:0.0 428:0.0012449970236048102 429:0.004900000523775816 430:0.0 431:0.0 432:0.06884061545133591 433:0.001035406137816608 434:7.193711353465915E-4 435:5.973118240945041E-4 436:6.729079759679735E-4 437:0.007581030484288931 438:0.019381944090127945 439:0.011456378735601902 440:0.03301072493195534 441:0.07513032853603363 442:0.05861643701791763 443:1.7325316730421036E-4 444:0.0 445:0.0 446:0.0 447:0.00634697126224637 448:0.02218218892812729 449:0.27317526936531067 450:0.18657198548316956 451:0.029796553775668144 452:0.0 453:0.0 454:0.004390990827232599 455:0.026750825345516205 456:0.005376193672418594 457:0.015793677419424057 458:0.27317526936531067 459:0.25343120098114014 460:0.009580475278198719 461:0.0 462:0.0 463:0.0014636636478826404 464:0.033271484076976776 465:0.026156697422266006 466:0.03598025441169739 467:0.14408212900161743 468:0.10422877967357635 469:0.006071420386433601 470:0.0016258156392723322 471:1.9910394621547312E-4 472:0.0 473:8.494050125591457E-4 474:0.0014557890826836228 475:0.0012939806329086423 476:0.01586751639842987 477:0.03567706421017647 478:0.0965423434972763 479:0.0014107165625318885 480:0.0026660729199647903 481:0.0 482:0.002288319170475006 483:0.0012980956817045808 484:0.008913698606193066 485:0.11487043648958206 486:0.1876283586025238 487:0.11233359575271606 488:2.9698567232117057E-4 489:8.886909927241504E-4 490:0.0 491:0.0 492:0.0 493:0.03753185644745827 494:0.27317526936531067 495:0.27317526936531067 496:0.10823706537485123 497:0.0 498:0.0 499:0.0 500:0.0 501:0.0 502:0.07917556166648865 503:0.27317526936531067 504:0.27317526936531067 505:0.029658986255526543 506:0.0017249980010092258 507:0.0023355684243142605 508:0.0 509:2.542576694395393E-4 510:0.0025657585356384516 511:0.024453919380903244 512:0.08259415626525879 513:0.23365047574043274 514:0.10798889398574829 515:0.002672871109098196 516:0.007998218759894371 517:0.0 518:0.048031773418188095 519:0.035649001598358154 520:0.07299863547086716 521:0.01126394234597683 522:0.22740992903709412 523:0.04677298292517662 524:0.0023038110230118036 525:0.0026660729199647903 526:0.0 527:0.01934892125427723 528:0.01597188599407673 529:0.0021579498425126076 530:0.010986017063260078 531:0.058823518455028534 532:0.0404476523399353 533:0.005258137360215187 534:0.0 535:0.0 536:3.433764504734427E-4 537:7.41265423130244E-4 538:0.00294238212518394 539:0.006343971472233534 540:0.09178224205970764 541:0.006921127904206514 542:0.03111707791686058 543:0.01149738673120737 544:0.0 545:0.0 546:0.003802988212555647 547:0.07217397540807724 548:0.08526048809289932 549:0.10974032431840897 550:0.03528377413749695 551:0.07782625406980515 552:0.013472042046487331 553:0.024586156010627747 554:0.22677455842494965 555:0.09526415169239044 556:0.2111263871192932 557:0.019626440480351448 558:0.08632977306842804 559:0.007978305220603943 560:4.7095128684304655E-4 561:0.0 562:0.00819538626819849 563:0.0999402105808258 564:0.047915659844875336 565:0.0012983216438442469 566:0.0019146896665915847 567:0.005653998348861933 568:0.004050855990499258 569:0.001752712531015277 570:0.0 571:0.0 572:0.0010301293805241585 573:0.002223796444013715 574:4.3277390068396926E-4 575:6.382299470715225E-4 576:0.0030908198095858097 577:0.03606290742754936 578:0.011966084130108356 579:0.005924100521951914 580:0.0 581:0.0 582:0.0 583:0.0 584:0.0 585:0.008556478656828403 586:0.1296110451221466 587:0.046037960797548294 588:0.04008660838007927 589:0.013873150572180748 590:0.0 591:0.0 592:0.0 593:0.0017114555230364203 594:0.02708146721124649 595:0.17492656409740448 596:0.15051043033599854 597:0.014134189113974571 598:0.016925426200032234 599:0.008131737820804119 600:0.0 601:0.0 602:0.0051343669183552265 603:0.045246001332998276 604:0.09922356903553009 605:0.1297537088394165 606:0.0020469280425459146 607:0.0 608:0.002710579428821802 609:0.0 610:0.0 611:0.0 612:0.033999327570199966 613:0.05302661657333374 614:0.017903771251440048 615:0.017772303894162178 616:0.0 617:0.0 618:0.0 619:0.006511464715003967 620:0.011311632581055164 621:0.06292583793401718 622:0.15972676873207092 623:0.05318246781826019 624:0.12025982141494751 625:0.04161945357918739 626:0.0 627:0.0 628:0.019534394145011902 629:0.021989842876791954 630:0.028326964005827904 631:0.2541847229003906 632:0.06813380122184753 633:0.04058307409286499 634:0.05077628046274185 635:0.024395214393734932 636:0.001748866867274046 637:0.003788338042795658 638:0.0337132029235363 639:0.1187751516699791 640:0.05775754153728485 641:0.04178526625037193 642:0.0032963124103844166 643:0.0 644:0.008131737820804119 645:0.005246600601822138 646:0.011365014128386974 647:0.04206916317343712 648:0.24906644225120544 649:0.042848020792007446 650:0.0 651:0.0 652:0.0 653:0.0 654:0.0 655:0.019534394145011902 656:0.048889946192502975 657:0.10565584152936935 658:0.11540236324071884 659:0.01423303410410881 660:0.0 661:0.0 662:0.0 663:0.0 664:0.05860317870974541 665:0.10485148429870605 666:0.28242558240890503 667:0.24530622363090515 668:0.029567448422312737 669:0.0 670:0.0 671:0.0 672:0.005246600601822138 673:0.011365014128386974 674:0.17123401165008545 675:0.21334894001483917 676:0.0077980621717870235 677:0.002620657905936241 678:0.007842008024454117 679:0.0 680:0.0 681:0.0157398022711277 682:0.03409504145383835 683:0.13853831589221954 684:0.15514570474624634 685:0.03974321484565735 686:0.0 687:0.0 688:0.0 689:0.0 690:0.0 691:0.0 692:0.015931926667690277 693:0.1873222291469574 694:0.0388917438685894 695:7.464119116775692E-4 696:0.0 697:0.0 698:0.0 699:0.0 700:0.0 701:0.07301203906536102 702:0.34947988390922546 703:0.09017706662416458 704:0.00223923590965569 705:0.0 706:0.0 707:0.0 708:0.0 709:0.0 710:0.0858575776219368 711:0.34947988390922546 712:0.02145736664533615 713:0.0 714:0.0 715:0.0 716:0.0 717:0.0 718:0.0 719:0.07741454988718033 720:0.2514107823371887 721:0.006977639626711607 722:0.0 723:0.0 724:0.0 725:0.0 726:0.0 727:0.0 728:0.010092058219015598 729:0.03420143947005272 730:0.0075155883096158504 731:0.0 732:0.0 733:0.0 734:0.0 735:0.0 736:0.0 737:0.05117931216955185 738:0.12221161276102066 739:0.047413844615221024 740:0.0035319814924150705 741:0.0 742:0.0 743:0.0 744:0.0 745:0.0 746:0.058922991156578064 747:0.19116654992103577 748:0.07279884815216064 749:0.010595944710075855 750:0.0 751:0.0 752:0.0 753:0.0 754:0.0 755:0.007062393706291914 756:0.12466549873352051 757:0.006963012740015984 758:0.0 759:0.0 760:0.0 761:0.0 762:0.0 763:0.005091522354632616 764:0.04544588550925255 765:0.08469394594430923 766:0.029197944328188896 767:0.0 768:0.0 769:0.0 770:0.0 771:0.0 772:0.0 773:0.08770215511322021 774:0.2661585807800293 775:0.0922887846827507 776:0.010744476690888405 777:0.0 778:0.0 779:0.0 780:0.0 781:0.0 782:0.09542901068925858 783:0.31233081221580505 784:0.1552833914756775 785:0.037524376064538956 786:0.0 787:0.0 788:0.0 789:0.0 790:0.0 791:8.151282090693712E-4 792:0.07651564478874207 793:0.010222929529845715 794:6.680924561806023E-4 795:0.001999187283217907 796:0.0 797:0.001009530620649457 798:6.320281536318362E-4 799:0.002006161492317915 800:0.02978564240038395 801:0.23483127355575562 802:0.05479729548096657 803:0.007945669814944267 804:0.005997561849653721 805:0.0 806:3.365102456882596E-4 807:0.0 808:0.0 809:0.0605616495013237 810:0.35852280259132385 811:0.1675596535205841 812:0.011153940111398697 813:0.0 814:0.0 815:0.0 816:0.0 817:0.0 818:0.10066264122724533 819:0.35852280259132385 820:0.1379828006029129 821:0.04339325800538063 822:0.0 823:0.0 824:0.0 825:0.0 826:0.0 827:0.024723825976252556 828:0.26422831416130066 829:0.002726156497374177 830:0.002004277193918824 831:0.005997561849653721 832:0.0 833:0.0030285923276096582 834:0.001896084751933813 835:9.269624133594334E-4 836:0.01170603558421135 837:0.054214950650930405 838:0.04275741055607796 839:0.023837009444832802 840:0.017992684617638588 841:0.0 842:0.001009530620649457 843:0.0 844:0.0 845:0.05205826833844185 846:0.20965537428855896 847:0.0157019030302763 848:0.005941392853856087 849:0.0 850:0.0 851:0.001009530620649457 852:0.0 853:0.0 854:0.08769453316926956 855:0.35852280259132385 856:0.013074604794383049 857:0.0 858:0.0 859:0.0 860:0.0030285923276096582 861:0.0 862:0.0017183288000524044 863:0.050048068165779114 864:0.19349585473537445 865:0.057901278138160706 866:0.010304917581379414 867:0.0 868:0.0 869:0.0010081608779728413 870:0.0 871:0.0 872:0.0 873:4.1140170651488006E-4 874:0.07759273797273636 875:0.08366362750530243 876:0.002954804804176092 877:0.0 878:0.01515002641826868 879:0.0 880:0.0 881:0.0 882:0.015288056805729866 883:0.05351622402667999 884:0.08496994525194168 885:0.002581364708021283 886:0.0 887:0.022716140374541283 888:0.0 889:0.0 890:0.0 891:0.02611546590924263 892:0.019969724118709564 893:0.03518291562795639 894:0.008939177729189396 895:0.0 896:0.007577102165669203 897:0.0 898:0.0 899:0.003232673741877079 900:0.012779457494616508 901:0.12719343602657318 902:0.034080397337675095 903:0.0 904:0.0 905:0.0 906:0.0 907:0.0 908:0.003313158405944705 909:0.018127676099538803 910:0.2096838355064392 911:0.0777394250035286 912:0.012332401238381863 913:0.0 914:0.0 915:0.0 916:0.03041679412126541 917:0.02010423131287098 918:0.09489578008651733 919:0.25525423884391785 920:0.28311270475387573 921:0.05355376750230789 922:0.0 923:0.0 924:0.0 925:0.01013893261551857 926:0.0033882528077811003 927:0.028547272086143494 928:0.13581763207912445 929:0.13803714513778687 930:0.0651845708489418 931:0.0 932:0.015949415042996407 933:0.0 934:0.0 935:0.0010775579139590263 936:0.019158532842993736 937:0.11080705374479294 938:0.06436311453580856 939:0.0021372695919126272 940:0.004390861373394728 941:3.718063817359507E-4 942:0.0 943:0.0 944:0.009939474985003471 945:0.0243842713534832 946:0.39263424277305603 947:0.15894538164138794 948:0.04016769677400589 949:0.016000302508473396 950:0.0011154190870001912 951:0.0 952:0.01013893261551857 953:0.03320667892694473 954:0.17184315621852875 955:0.2556059658527374 956:0.3955842852592468 957:0.23496690392494202 958:0.013502495363354683 959:0.0 960:0.0 961:0.003379644127562642 962:0.0011294175637885928 963:0.06962303072214127 964:0.08493369817733765 965:0.16380009055137634 966:0.1483381986618042 967:0.022013653069734573 968:0.04784823954105377 969:0.0 970:0.0 971:0.0 972:0.04947872459888458 973:0.03919078782200813 974:0.03632226213812828 975:0.020857974886894226 976:0.014212068170309067 977:0.005972085054963827 978:0.0 979:0.0 980:0.0 981:0.0019417561125010252 982:0.16395294666290283 983:0.07453739643096924 984:0.06171438470482826 985:0.051119349896907806 986:0.003346257144585252 987:0.0 988:0.0 989:0.0 990:0.03145770728588104 991:0.1025681346654892 992:0.06776287406682968 993:0.22038432955741882 994:0.0405074842274189 995:0.0 996:0.0 997:0.0025635233614593744 998:8.566844626329839E-4 999:0.02560921385884285 1000:0.007897695526480675 1001:0.037311580032110214 1002:0.10381054133176804 1003:0.043968889862298965 1004:0.007767024450004101 1005:0.0 1006:0.00769056985154748 1007:0.0025700535625219345 1008:0.005113021470606327 1009:0.004667641129344702 1010:0.01047881692647934 1011:0.0 1012:0.0 1013:0.0017538429237902164 1014:0.0 1015:0.0 1016:4.596317303366959E-4 1017:8.921799599193037E-4 1018:0.015722932294011116 1019:0.007341297809034586 1020:0.0 1021:0.0 1022:0.00761687196791172 1023:0.0 1024:0.0011481251567602158 1025:0.0029794503934681416 1026:0.0010080792708322406 1027:0.005324317142367363 1028:1.9366545893717557E-4 1029:0.0 1030:0.0 1031:0.0072438414208590984 1032:0.0 1033:0.002226349664852023 1034:0.004394620656967163 1035:0.003318169852718711 1036:0.0020306636579334736 1037:0.0 1038:0.0 1039:0.0 1040:0.001988425152376294 1041:0.0 1042:6.145471124909818E-4 1043:2.0537138334475458E-4 1044:0.0020306636579334736 1045:0.00751755153760314 1046:0.0059525854885578156 1047:6.963738705962896E-4 1048:0.0 1049:7.25052144844085E-4 1050:8.226013742387295E-4 1051:4.021553904749453E-4 1052:0.0013788952492177486 1053:0.005366550292819738 1054:0.02464110590517521 1055:0.008034988306462765 1056:0.0021250650752335787 1057:0.0 1058:0.0 1059:0.0 1060:0.003444375703111291 1061:0.005693361628800631 1062:0.012875615619122982 1063:0.036897625774145126 1064:0.015462140552699566 1065:0.006474100053310394 1066:0.0016267247265204787 1067:0.004727934021502733 1068:0.0 1069:0.0017626723274588585 1070:0.0018059260910376906 1071:0.009769994765520096 1072:0.020397290587425232 1073:0.01669205166399479 1074:0.0035407310351729393 1075:0.004880174063146114 1076:0.0015759781235828996 1077:0.0 1078:2.0484904234763235E-4 1079:6.845712778158486E-5 1080:0.0036449700128287077 1081:0.018719086423516273 1082:0.013384436257183552 1083:0.0020891213789582253 1084:0.0 1085:2.4168405798263848E-4 1086:0.0024678041227161884 1087:0.0050491890870034695 1088:0.0012841704301536083 1089:0.008822734467685223 1090:0.12268281728029251 1091:0.1149044930934906 1092:0.0013273539952933788 1093:0.0 1094:0.0 1095:0.0 1096:0.0 1097:0.0 1098:0.008810114115476608 1099:0.3359633982181549 1100:0.13611769676208496 1101:0.0021580331958830357 1102:5.422414978966117E-4 1103:0.0015759781235828996 1104:0.0 1105:0.0 1106:0.0 1107:0.009594402275979519 1108:0.3359633982181549 1109:0.17071381211280823 1110:0.010453070513904095 1111:0.0016267247265204787 1112:5.253260023891926E-4 1113:0.0 1114:0.0 1115:0.0 1116:0.0076811485923826694 1117:0.09618111699819565 1118:0.014406148344278336 1119:0.0 1120:0.0 1121:0.0 1122:0.0 1123:0.0012809076579287648 1124:4.280568100512028E-4 1125:0.013592196628451347 1126:0.3359633982181549 1127:0.2409796118736267 1128:0.03368876501917839 1129:0.0 1130:0.0 1131:0.0 1132:0.0 1133:0.0 1134:0.028638077899813652 1135:0.3359633982181549 1136:0.3359633982181549 1137:0.22294959425926208 1138:0.0 1139:0.0 1140:0.0 1141:0.0 1142:0.0 1143:0.002935471013188362 1144:0.3359633982181549 1145:0.3359633982181549 1146:0.06844625622034073 1147:0.0 1148:0.0 1149:0.0 1150:0.0 1151:0.0 1152:0.03728263080120087 1153:0.001035406137816608 1154:7.193711353465915E-4 1155:5.973118240945041E-4 1156:6.729079759679735E-4 1157:0.007581030484288931 1158:0.019381944090127945 1159:0.011456378735601902 1160:0.03301072493195534 1161:0.07513032853603363 1162:0.05861643701791763 1163:1.7325316730421036E-4 1164:0.0 1165:0.0 1166:0.0 1167:0.00634697126224637 1168:0.02218218892812729 1169:0.27317526936531067 1170:0.18657198548316956 1171:0.029796553775668144 1172:0.0 1173:0.0 1174:0.004390990827232599 1175:0.026750825345516205 1176:0.005376193672418594 1177:0.015793677419424057 1178:0.27317526936531067 1179:0.25343120098114014 1180:0.009580475278198719 1181:0.0 1182:0.0 1183:0.0014636636478826404 1184:0.033271484076976776 1185:0.026156697422266006 1186:0.03598025441169739 1187:0.14408212900161743 1188:0.10422877967357635 1189:0.006071420386433601 1190:0.0016258156392723322 1191:1.9910394621547312E-4 1192:0.0 1193:8.494050125591457E-4 1194:0.0014557890826836228 1195:0.0012939806329086423 1196:0.01586751639842987 1197:0.03567706421017647 1198:0.0965423434972763 1199:0.0014107165625318885 1200:0.0026660729199647903 1201:0.0 1202:0.002288319170475006 1203:0.0012980956817045808 1204:0.008913698606193066 1205:0.11487043648958206 1206:0.1876283586025238 1207:0.11233359575271606 1208:2.9698567232117057E-4 1209:8.886909927241504E-4 1210:0.0 1211:0.0 1212:0.0 1213:0.03753185644745827 1214:0.27317526936531067 1215:0.27317526936531067 1216:0.10823706537485123 1217:0.0 1218:0.0 1219:0.0 1220:0.0 1221:0.0 1222:0.07917556166648865 1223:0.27317526936531067 1224:0.27317526936531067 1225:0.029658986255526543 1226:0.0017249980010092258 1227:0.0023355684243142605 1228:0.0 1229:2.542576694395393E-4 1230:0.0025657585356384516 1231:0.024453919380903244 1232:0.08259415626525879 1233:0.23365047574043274 1234:0.10798889398574829 1235:0.002672871109098196 1236:0.007998218759894371 1237:0.0 1238:0.048031773418188095 1239:0.035649001598358154 1240:0.07299863547086716 1241:0.01126394234597683 1242:0.22740992903709412 1243:0.04677298292517662 1244:0.0023038110230118036 1245:0.0026660729199647903 1246:0.0 1247:0.01934892125427723 1248:0.01597188599407673 1249:0.0021579498425126076 1250:0.010986017063260078 1251:0.058823518455028534 1252:0.0404476523399353 1253:0.005258137360215187 1254:0.0 1255:0.0 1256:3.433764504734427E-4 1257:7.41265423130244E-4 1258:0.00294238212518394 1259:0.006343971472233534 1260:0.09178224205970764 1261:0.006921127904206514 1262:0.03111707791686058 1263:0.01149738673120737 1264:0.0 1265:0.0 1266:0.003802988212555647 1267:0.07217397540807724 1268:0.08526048809289932 1269:0.10974032431840897 1270:0.03528377413749695 1271:0.07782625406980515 1272:0.013472042046487331 1273:0.024586156010627747 1274:0.22677455842494965 1275:0.09526415169239044 1276:0.2111263871192932 1277:0.019626440480351448 1278:0.08632977306842804 1279:0.007978305220603943 1280:4.7095128684304655E-4 1281:0.0 1282:0.00819538626819849 1283:0.0999402105808258 1284:0.047915659844875336 1285:0.0012983216438442469 1286:0.0019146896665915847 1287:0.005653998348861933 1288:0.004050855990499258 1289:0.001752712531015277 1290:0.0 1291:0.0 1292:0.0010301293805241585 1293:0.002223796444013715 1294:4.3277390068396926E-4 1295:6.382299470715225E-4 1296:0.0030908198095858097 1297:0.0 1298:7.927148835733533E-4 1299:0.0023720962926745415 1300:0.0022572374437004328 1301:0.002076569478958845 1302:0.0011835533659905195 1303:0.0 1304:8.572425576858222E-4 1305:0.006560984533280134 1306:0.003028365783393383 1307:0.0014367469120770693 1308:0.004299277905374765 1309:7.524124230258167E-4 1310:0.004407746717333794 1311:0.006216265261173248 1312:0.014154039323329926 1313:0.007892508059740067 1314:0.011438742280006409 1315:0.019321070984005928 1316:0.0 1317:0.0032929808367043734 1318:0.00102899014018476 1319:0.001383771188557148 1320:0.030018482357263565 1321:0.019193537533283234 1322:0.011139900423586369 1323:0.008979852311313152 1324:0.008099950850009918 1325:8.265918004326522E-4 1326:0.009878942742943764 1327:0.0030869704205542803 1328:0.0020365682430565357 1329:0.024218667298555374 1330:0.0027610824909061193 1331:0.0011884499108418822 1332:0.010726959444582462 1333:0.04459168389439583 1334:2.6423827512189746E-4 1335:7.906987448222935E-4 1336:0.006771712563931942 1337:0.005099236965179443 1338:0.0023706478532403708 1339:0.0 1340:0.05856641009449959 1341:0.060746777802705765 1342:0.11355086416006088 1343:0.03591509908437729 1344:0.009525434114038944 1345:0.0022572374437004328 1346:0.013223240152001381 1347:0.01706486940383911 