svm_type c_svc
kernel_type linear
nr_class 2
total_sv 90
rho 0.7444681230404666
label 0 1
probA -1.5827071540277875
probB 0.4495383946901005
nr_sv 30 60
SV
0.17393187074598487 1:0.003438866464421153 2:0.0 3:0.0 4:0.0 5:0.014405529946088791 6:0.0 7:0.0 8:0.0 9:0.003438866464421153 10:0.0 11:0.0 12:0.0 13:0.0 14:0.004801843781024218 15:0.0 16:0.0 17:0.0 18:0.0 19:0.010577060282230377 20:0.0 21:0.0 22:0.0 23:0.0 24:0.0 25:0.0 26:0.0 27:0.010577060282230377 28:0.008783026598393917 29:0.0022428424563258886 30:0.0067114136181771755 31:0.0 32:0.0 33:0.0 34:0.0 35:0.0 36:0.008783026598393917 37:0.00466550188139081 38:0.0 39:0.0 40:0.0 41:0.016390901058912277 42:0.0 43:0.0 44:0.0 45:0.00466550188139081 46:0.09013087302446365 47:0.09251667559146881 48:0.060156937688589096 49:0.0 50:0.04013518616557121 51:0.0 52:0.0 53:0.0 54:0.07512607425451279 55:0.2823270857334137 56:0.37673988938331604 57:0.020052313804626465 58:0.0 59:0.0 60:0.0 61:0.0 62:0.0 63:0.08909079432487488 64:0.2298237532377243 65:0.05766153335571289 66:0.02013424225151539 67:0.0 68:0.0 69:0.0 70:0.0 71:0.0 72:0.18041644990444183 73:0.04964267835021019 74:0.019496824592351913 75:0.03648702800273895 76:0.0 77:0.039005495607852936 78:0.0 79:0.0 80:0.0 81:0.04812932014465332 82:0.05687663331627846 83:0.21202799677848816 84:0.39341336488723755 85:0.11282750964164734 86:0.11701648682355881 87:0.0 88:0.0 89:0.0 90:0.03636500984430313 91:0.16282042860984802 92:0.474621057510376 93:0.17486001551151276 94:0.03760916739702225 95:0.09233719855546951 96:0.0 97:0.0 98:0.0 99:0.03645564615726471 100:0.17443527281284332 101:0.06369797140359879 102:0.0 103:0.0 104:0.1043127179145813 105:0.0 106:0.0 107:0.0 108:0.14828521013259888 109:0.04662507772445679 110:0.02597486600279808 111:0.012162343598902225 112:0.0 113:0.00633161561563611 114:0.0 115:0.0 116:0.0 117:0.04208500310778618 118:0.04206084832549095 119:0.09956519305706024 120:0.11963022500276566 121:0.03760916739702225 122:0.01899484544992447 123:0.0 124:0.0 125:0.0 126:0.02844063565135002 127:0.023430634289979935 128:0.02593834698200226 129:0.08374596387147903 130:0.012536389753222466 131:0.03077906370162964 132:0.0 133:0.0 134:0.0 135:0.023430634289979935 136:0.024078449234366417 137:0.003263316582888365 138:0.009765050373971462 139:0.0 140:0.0347709059715271 141:0.0 142:0.0 143:0.0 144:0.024078449234366417 145:0.017557421699166298 146:0.0028828082140535116 147:0.008626427501440048 148:0.0 149:0.0033925313036888838 150:0.0 151:0.0 152:0.0 153:0.017557421699166298 154:0.011136560700833797 155:0.008648425340652466 156:0.025879284366965294 157:0.0 158:0.09570050984621048 159:0.0 160:0.0 161:0.0 162:0.011136560700833797 163:0.011061041615903378 164:0.012583347968757153 165:0.0413752980530262 166:0.007611471228301525 167:0.13048939406871796 168:0.0 169:0.0 170:0.0 171:0.011061041615903378 172:0.006810544058680534 173:0.023897789418697357 174:0.03756694495677948 175:0.0228344164788723 176:0.029862452298402786 177:0.0 178:0.0 179:0.0 180:0.0036870138719677925 181:0.07031270116567612 182:0.027795366942882538 183:0.008804327808320522 184:0.0 185:0.0 186:0.0 187:0.0 188:0.0 189:0.06516287475824356 190:0.1782437413930893 191:0.011167176067829132 192:0.008626427501440048 193:0.0 194:0.04585384950041771 195:0.02069013938307762 196:0.048776041716337204 197:0.012919825501739979 198:0.17652712762355804 199:0.06143456697463989 200:0.004194449167698622 201:0.029849857091903687 202:0.03538361191749573 203:0.15294219553470612 204:0.062070414423942566 205:0.1849891096353531 206:0.05167929828166962 207:0.06143456697463989 208:0.020431632176041603 209:0.048163723200559616 210:0.06069657951593399 211:0.10615082830190659 212:0.18981178104877472 213:0.0 214:0.012886999174952507 215:0.004306608345359564 216:0.011061041615903378 217:0.06118570268154144 218:0.09833220392465591 219:0.07113726437091827 220:0.0 221:0.011530790477991104 222:0.0 223:0.0 224:0.0 225:0.04573620855808258 226:0.25626140832901 227:0.029047567397356033 228:0.012551379390060902 229:0.0 230:0.0027127531357109547 231:0.11684736609458923 232:0.17236624658107758 233:0.0385117270052433 234:0.25111159682273865 235:0.23236174881458282 236:0.04097585007548332 237:0.018405282869935036 238:0.03764758259057999 239:0.01474805548787117 240:0.3505420982837677 241:0.3601360619068146 242:0.06308100372552872 243:0.2238711267709732 244:0.09686750173568726 245:0.13551092147827148 246:0.09286998957395554 247:0.11294276267290115 248:0.0963384285569191 249:0.0 250:0.03866099566221237 251:0.012919825501739979 252:0.07139559090137482 253:0.0036870138719677925 254:0.005942973308265209 255:0.017783572897315025 256:0.0 257:0.0531083345413208 258:0.0 259:0.0 260:0.0 261:0.0036870138719677925 262:0.04806535318493843 263:0.0013981537194922566 264:0.004183793440461159 265:0.0 266:0.012494356371462345 267:0.01825898326933384 268:0.04304470866918564 269:0.0114017054438591 270:0.04806535318493843 271:0.2064899504184723 272:0.01654142513871193 273:0.008626427501440048 274:0.0 275:0.0 276:0.05477695167064667 277:0.03815222531557083 278:0.003800568636506796 279:0.20365972816944122 280:0.11291645467281342 281:0.053818732500076294 282:0.03843066468834877 283:0.0 284:0.0 285:0.0 286:0.0 287:0.0 288:0.1044258251786232 289:0.01595631241798401 290:0.006558836437761784 291:0.019626464694738388 292:0.0 293:0.0 294:0.0 295:0.0 296:0.0 297:0.01595631241798401 298:0.06183985248208046 299:0.0021862785797566175 300:0.006542154122143984 301:0.0 302:0.0 303:0.0 304:0.02015126869082451 305:0.0067342002876102924 306:0.06183985248208046 307:0.01786888763308525 308:0.0 309:0.003248976543545723 310:0.006645706947892904 311:0.038121651858091354 312:0.0 313:0.08092760294675827 314:0.02704457938671112 315:0.01786888763308525 316:0.004379307851195335 317:0.02785349451005459 318:0.02985246852040291 319:0.019937124103307724 320:0.031655631959438324 321:0.0 322:0.006824599113315344 323:0.002280660904943943 324:0.0 325:0.06494517624378204 326:0.07049793004989624 327:0.03904515504837036 328:0.0 329:0.0 330:0.0 331:0.0 332:0.0 333:0.05304097756743431 334:0.2367118000984192 335:0.02349931001663208 336:0.013015050441026688 337:0.0 338:0.0 339:0.0 340:0.027339177206158638 341:0.06812208145856857 342:0.2449662685394287 343:0.10197540372610092 344:0.05681665614247322 345:0.022572124376893044 346:0.019937124103307724 347:0.01270721759647131 348:0.0 349:0.143438920378685 350:0.33738502860069275 351:0.29276251792907715 352:0.033961839973926544 353:0.19259701669216156 354:0.1356804221868515 355:0.10639249533414841 356:0.022267121821641922 357:0.0 358:0.020473798736929893 359:0.04433960095047951 360:0.08387524634599686 361:0.08635136485099792 362:0.031599536538124084 363:0.03725392743945122 364:0.0 365:0.0 366:0.0 367:0.007531888782978058 368:0.00251702475361526 369:0.08238330483436584 370:0.23960235714912415 371:0.010533180087804794 372:0.01241797674447298 373:0.0 374:0.0 375:0.0 376:0.0025106295943260193 377:0.020500943064689636 378:0.24235385656356812 379:0.3320017457008362 380:0.018938884139060974 381:0.004275064449757338 382:0.0 383:0.0 384:0.0 385:0.0 386:0.09648342430591583 387:0.3955974876880646 388:0.15715943276882172 389:0.06780342012643814 390:0.05329258367419243 391:0.015527045354247093 392:0.03514573350548744 393:0.0 394:0.0 395:0.012499204836785793 396:0.17428383231163025 397:0.01929634064435959 398:0.0 399:0.0 400:0.0 401:0.0 402:0.0 403:0.04222214221954346 404:0.01410989835858345 405:0.01929634064435959 406:0.04624795913696289 407:0.0 408:0.008601635694503784 409:0.01759444735944271 410:0.0 411:0.0 412:0.034159086644649506 413:0.011415365152060986 414:0.04624795913696289 415:0.10762987285852432 416:0.010986769571900368 417:0.05868138000369072 418:0.05278334021568298 419:0.0 420:0.0 421:0.007531888782978058 422:0.00251702475361526 423:0.10762987285852432 424:0.06422780454158783 425:0.011366319842636585 426:0.03401223197579384 427:0.0 428:0.0 429:0.0 430:0.022595666348934174 431:0.007551074959337711 432:0.06422780454158783 433:0.004723493475466967 434:0.00958284642547369 435:8.077380480244756E-4 436:0.0 437:0.0 438:0.0 439:0.0 440:0.0 441:0.0027937577106058598 442:0.0030650985427200794 443:0.013234448619186878 444:0.020010316744446754 445:0.05316239595413208 446:0.015102299861609936 447:0.0 448:0.0 449:0.0 450:8.174350950866938E-4 451:0.0 452:5.258056335151196E-4 453:0.060802161693573 454:0.30895400047302246 455:0.166586235165596 456:0.015508715994656086 457:0.0 458:0.0 459:0.0 460:0.06254873424768448 461:0.018973680213093758 462:0.06645473092794418 463:0.1671978384256363 464:0.14209116995334625 465:0.046526145190000534 466:0.0 467:0.0 468:0.005697228014469147 469:0.009732929989695549 470:0.006118699908256531 471:0.0024232142604887486 472:0.0 473:0.005085015203803778 474:0.0 475:0.0 476:0.0 477:0.008632868528366089 478:0.009541206061840057 479:0.005100310314446688 480:0.009884079918265343 481:0.06887034326791763 482:0.19516877830028534 483:0.005945510696619749 484:0.0 485:0.0 486:0.008987762965261936 487:0.0 488:0.0 489:8.714794530533254E-4 490:0.23525340855121613 491:0.34650570154190063 492:0.10596738755702972 493:0.07951858639717102 494:0.081533282995224 495:0.019818583503365517 496:0.15136641263961792 497:0.15837779641151428 498:0.0 499:0.08553067594766617 500:0.20063984394073486 501:0.15344665944576263 502:0.052540138363838196 503:0.18243655562400818 504:0.0594557486474514 505:0.0037101469933986664 506:0.0 507:0.0 508:0.0 509:0.020721672102808952 510:0.0 511:0.001297052949666977 512:4.33453475125134E-4 513:0.0037101469933986664 514:0.008756567724049091 515:0.0 516:0.0 517:0.04796458035707474 518:0.13541652262210846 519:0.019723404198884964 520:0.012980788946151733 521:0.004029691684991121 522:0.008756567724049091 523:0.004267930053174496 524:0.0 525:0.0 526:0.015988193452358246 527:0.29437434673309326 528:0.07303844392299652 529:0.2536928653717041 530:0.21941547095775604 531:0.10349029302597046 532:0.0750870630145073 533:0.18005333840847015 534:0.0 535:0.0 536:0.026070741936564445 537:0.004622744861990213 538:0.08069384098052979 539:0.12551231682300568 540:0.3082941472530365 541:0.0011430424638092518 542:0.0 543:0.0 544:0.0 545:0.007608921267092228 546:0.0 547:0.0038911595474928617 548:0.001300360425375402 549:0.0011430424638092518 550:0.0034291271585971117 551:0.0 552:0.003921656869351864 553:0.008021660149097443 554:0.03293706476688385 555:0.005660617724061012 556:0.007939761504530907 557:0.0017285224748775363 558:0.0034291271585971117 559:0.006098620593547821 560:0.0 561:0.0013072190340608358 562:0.0026738864835351706 563:0.012605048716068268 564:0.016981855034828186 565:0.036166999489068985 566:0.04782887548208237 567:0.019354157149791718 568:0.02820144034922123 569:0.016488846391439438 570:0.0 571:0.0 572:0.0 573:0.0 574:0.005412956699728966 575:0.014647888951003551 576:0.06321395933628082 577:0.005142977926880121 578:0.0 579:0.0 580:0.0 581:0.0 582:0.0 583:0.0 584:0.0 585:0.005142977926880121 586:0.0012099455343559384 587:0.0 588:0.0 589:0.0 590:0.011135188862681389 591:0.0 592:0.0 593:0.0 594:0.0012099455343559384 595:0.03246902674436569 596:0.010442783124744892 597:0.0312486719340086 598:0.0 599:0.033405568450689316 600:0.0 601:0.0 602:0.0 603:0.03246902674436569 604:0.04841851443052292 605:0.003480927785858512 606:0.010416222736239433 607:0.0 608:0.0 609:0.0 610:0.0 611:0.0 612:0.04841851443052292 613:0.06467073410749435 614:0.0 615:0.0 616:0.0 617:0.0 618:0.0 619:0.01180313527584076 620:0.0039444006979465485 621:0.06467073410749435 622:0.0621366873383522 623:0.034005314111709595 624:0.0 625:0.0 626:0.08201038837432861 627:0.0 628:0.03540940582752228 629:0.10186190158128738 630:0.07374539971351624 631:0.04096692427992821 632:0.13334429264068604 633:0.09374601393938065 634:0.0 635:0.4233167767524719 636:0.0 637:0.0 638:0.030009565874934196 639:0.026046447455883026 640:0.05761510133743286 641:0.010442783124744892 642:0.0312486719340086 643:0.0 644:0.05909520387649536 645:0.0 646:0.0 647:0.0 648:0.05761510133743286 649:0.08598675578832626 650:0.010442783124744892 651:0.0312486719340086 652:0.0 653:0.0 654:0.0 655:0.08558806031942368 656:0.04111187160015106 657:0.08857893198728561 658:0.056631918996572495 659:0.1893695443868637 660:0.2613943815231323 661:0.0 662:0.016201604157686234 663:0.0 664:0.174474835395813 665:0.3659220039844513 666:0.09923459589481354 667:0.08011917024850845 668:0.32472288608551025 669:0.055882785469293594 670:0.0 671:0.3659936487674713 672:0.0 673:0.1545611470937729 674:0.14168031513690948 675:0.0353577584028244 676:0.0 677:0.0 678:0.0 679:0.0 680:0.10579627752304077 681:0.0 682:0.0 683:0.0 684:0.0 685:0.035824570804834366 686:0.003480927785858512 687:0.010416222736239433 688:0.0 689:0.039105452597141266 690:0.0 691:0.016726220026612282 692:0.0431191548705101 693:0.04360112547874451 694:0.027547981590032578 695:0.05696520954370499 696:0.17046132683753967 697:0.0 698:0.16555427014827728 699:0.0 700:0.02274886891245842 701:0.12019090354442596 702:0.050877638161182404 703:0.07920046150684357 704:0.015507474541664124 705:0.04640422388911247 706:0.0 707:0.0744529515504837 708:0.0 709:0.05152038484811783 710:0.017217205837368965 711:0.07920046150684357 712:0.024157637730240822 713:0.006168917752802372 714:0.018459685146808624 715:0.0 716:0.014297866262495518 717:0.0 718:0.0 719:0.0 720:0.024157637730240822 721:0.009233947843313217 722:0.0 723:0.0 724:0.0 725:0.0 726:0.0 727:0.0 728:0.0 729:0.009233947843313217 730:0.009967230260372162 731:0.008718641474843025 732:0.02608940191566944 733:0.0 734:0.11811450123786926 735:0.0 736:0.0 737:0.017219947651028633 738:0.013535400852560997 739:0.0109751857817173 740:0.002906213980168104 741:0.00869646668434143 742:0.0 743:0.14806869626045227 744:0.08867412060499191 745:0.08232611417770386 746:0.06468456983566284 747:0.021679695695638657 748:0.05507664754986763 749:0.0 750:0.0 751:0.0 752:0.01640866883099079 753:0.02955804020166397 754:0.02744203805923462 755:0.004341574385762215 756:0.05507664754986763 757:0.012306501157581806 758:0.0 759:0.0 760:0.0 761:0.031598422676324844 762:0.0 763:0.0 764:0.0 765:0.012306501157581806 766:0.04176015406847 767:0.0 768:0.0 769:0.0 770:0.3053537607192993 771:0.0 772:0.0 773:0.0 774:0.04176015406847 775:0.14017046988010406 776:0.0 777:0.0 778:0.0 779:0.293515682220459 780:0.02955804020166397 781:0.13137507438659668 782:0.03907416760921478 783:0.14017046988010406 784:0.09810192883014679 785:0.007899909280240536 786:0.02363944984972477 787:0.0 788:0.09516403079032898 789:0.009852680377662182 790:0.043791696429252625 791:0.013024723157286644 792:0.09810192883014679 793:0.03479330986738205 794:0.002983923302963376 795:0.008929002098739147 796:0.0 797:0.11396066844463348 798:0.0 799:0.0 800:0.0 801:0.03479330986738205 802:0.22854892909526825 803:0.008951770141720772 804:0.026787005364894867 805:0.0 806:0.08030956238508224 807:0.0 808:0.014721444807946682 809:0.004919648170471191 810:0.22854892909526825 811:0.2571633756160736 812:0.002983923302963376 813:0.008929002098739147 814:0.0 815:0.18653559684753418 816:0.0 817:0.04416433349251747 818:0.014758943580091 819:0.2571633756160736 820:0.009840588085353374 821:0.03744303435087204 822:0.11204339563846588 823:0.0 824:0.32443591952323914 825:0.0 826:0.0 827:0.0 828:0.009840588085353374 829:0.01856703869998455 830:0.05718347057700157 831:0.05072281137108803 832:0.0 833:0.05749623849987984 834:0.0 835:0.0 836:0.0 837:0.010230380110442638 838:0.1426924169063568 839:0.05464082956314087 840:0.12337516248226166 841:0.0 842:0.013526661321520805 843:0.0 844:0.06780380010604858 845:0.022658836096525192 846:0.13991352915763855 847:0.12649638950824738 848:0.018534844741225243 849:0.05546310171484947 850:0.0 851:0.12256426364183426 852:0.0 853:0.20341140031814575 854:0.06797651201486588 855:0.12649638950824738 856:0.01968117617070675 857:0.06997913867235184 858:0.20940347015857697 859:0.0 860:0.11494062840938568 861:0.0 862:0.0 863:0.0 864:0.01968117617070675 865:0.017557421699166298 866:0.0028828082140535116 867:0.008626427501440048 868:0.0 869:0.0033925313036888838 870:0.0 871:0.0 872:0.0 873:0.017557421699166298 874:0.011136560700833797 875:0.008648425340652466 876:0.025879284366965294 877:0.0 878:0.09570050984621048 879:0.0 880:0.0 881:0.0 882:0.011136560700833797 883:0.011061041615903378 884:0.012583347968757153 885:0.0413752980530262 886:0.007611471228301525 887:0.13048939406871796 888:0.0 889:0.0 890:0.0 891:0.011061041615903378 892:0.006810544058680534 893:0.023897789418697357 894:0.03756694495677948 895:0.0228344164788723 896:0.029862452298402786 897:0.0 898:0.0 899:0.0 900:0.0036870138719677925 901:0.07031270116567612 902:0.027795366942882538 903:0.008804327808320522 904:0.0 905:0.0 906:0.0 907:0.0 908:0.0 909:0.06516287475824356 910:0.1782437413930893 911:0.011167176067829132 912:0.008626427501440048 913:0.0 914:0.04585384950041771 915:0.02069013938307762 916:0.048776041716337204 917:0.012919825501739979 918:0.17652712762355804 919:0.06143456697463989 920:0.004194449167698622 921:0.029849857091903687 922:0.03538361191749573 923:0.15294219553470612 924:0.062070414423942566 925:0.1849891096353531 926:0.05167929828166962 927:0.06143456697463989 928:0.020431632176041603 929:0.048163723200559616 930:0.06069657951593399 931:0.10615082830190659 932:0.18981178104877472 933:0.0 934:0.012886999174952507 935:0.004306608345359564 936:0.011061041615903378 937:0.06118570268154144 938:0.09833220392465591 939:0.07113726437091827 940:0.0 941:0.011530790477991104 942:0.0 943:0.0 944:0.0 945:0.04573620855808258 946:0.25626140832901 947:0.029047567397356033 948:0.012551379390060902 949:0.0 950:0.0027127531357109547 951:0.11684736609458923 952:0.17236624658107758 953:0.0385117270052433 954:0.25111159682273865 955:0.23236174881458282 956:0.04097585007548332 957:0.018405282869935036 958:0.03764758259057999 959:0.01474805548787117 960:0.3505420982837677 961:0.3601360619068146 962:0.06308100372552872 963:0.2238711267709732 964:0.09686750173568726 965:0.13551092147827148 966:0.09286998957395554 967:0.11294276267290115 968:0.0963384285569191 969:0.0 970:0.03866099566221237 971:0.012919825501739979 972:0.07139559090137482 973:0.0036870138719677925 974:0.005942973308265209 975:0.017783572897315025 976:0.0 977:0.0531083345413208 978:0.0 979:0.0 980:0.0 981:0.0036870138719677925 982:0.04806535318493843 983:0.0013981537194922566 984:0.004183793440461159 985:0.0 986:0.012494356371462345 987:0.01825898326933384 988:0.04304470866918564 989:0.0114017054438591 990:0.04806535318493843 991:0.2064899504184723 992:0.01654142513871193 993:0.008626427501440048 994:0.0 995:0.0 996:0.05477695167064667 997:0.03815222531557083 998:0.003800568636506796 999:0.20365972816944122 1000:0.11291645467281342 1001:0.053818732500076294 1002:0.03843066468834877 1003:0.0 1004:0.0 1005:0.0 1006:0.0 1007:0.0 1008:0.1044258251786232 1009:0.003285209881141782 1010:0.020659711211919785 1011:0.024470889940857887 1012:0.020642412826418877 1013:0.00824799109250307 1014:0.0 1015:0.0 1016:0.0 1017:0.0 1018:0.020853953436017036 1019:0.11529416590929031 1020:0.05641555041074753 1021:0.004856368061155081 1022:0.024047482758760452 1023:0.0 1024:0.0 1025:0.011489021591842175 1026:0.012340869754552841 1027:0.03513532131910324 1028:0.032382797449827194 1029:0.003634627442806959 1030:0.0 1031:0.028202610090374947 1032:0.0 1033:0.03481333702802658 1034:0.04610107094049454 1035:0.038903675973415375 1036:0.005643200129270554 1037:0.0 1038:0.0 1039:0.0 1040:0.048329394310712814 1041:0.0 1042:0.011604446917772293 1043:0.0038780018221586943 1044:0.005643200129270554 1045:0.009855628944933414 1046:0.08878552168607712 1047:0.13783548772335052 1048:0.029625462368130684 1049:0.01992042548954487 1050:0.0 1051:0.0 1052:0.0 1053:0.0 1054:0.009012341499328613 1055:0.27162599563598633 1056:0.330465167760849 1057:0.0016187893925234675 1058:0.043941348791122437 1059:0.0 1060:0.028698744252324104 1061:0.044057682156562805 1062:0.010462041944265366 1063:0.0746377557516098 1064:0.06219583377242088 1065:0.03623041883111 1066:0.0 1067:0.04373195394873619 1068:0.0 1069:0.1905362457036972 1070:0.2627156376838684 1071:0.22597038745880127 1072:0.16797445714473724 1073:0.0 1074:0.0 1075:0.0 1076:0.048329394310712814 1077:0.0 1078:0.03481333702802658 1079:0.0435141995549202 1080:0.21165154874324799 1081:0.031137589365243912 1082:0.07418954372406006 1083:0.16582928597927094 1084:0.024210086092352867 1085:0.059761274605989456 1086:0.0 1087:0.0 1088:0.0 1089:0.0 1090:0.1276226043701172 1091:0.10335087031126022 1092:0.3012239336967468 1093:0.0 1094:0.13182403147220612 1095:0.0 1096:0.009566247463226318 1097:0.014685893431305885 1098:0.12632215023040771 1099:0.1676594316959381 1100:0.056984253227710724 1101:0.1705179661512375 1102:0.0 1103:0.1191135123372078 1104:0.0 1105:0.028698744252324104 1106:0.07593788206577301 1107:0.2184785008430481 1108:0.19679422676563263 1109:0.008463704958558083 1110:0.02532653510570526 1111:0.0 1112:0.006041174288839102 1113:0.0 1114:0.0 1115:0.010626730509102345 1116:0.21135325729846954 1117:0.03982798382639885 1118:0.05466427654027939 1119:0.08667714148759842 1120:0.020642412826418877 1121:0.0 1122:0.0 1123:0.0 1124:0.0 1125:0.0 1126:0.10112820565700531 1127:0.055374931544065475 1128:0.143956258893013 1129:0.004856368061155081 1130:0.0 1131:0.0 1132:0.0 1133:0.03446706756949425 1134:0.09722688049077988 1135:0.08950593322515488 1136:0.018054340034723282 1137:0.05402526259422302 1138:0.0 1139:0.0 1140:0.0 1141:0.006403555162250996 1142:0.1055411547422409 1143:0.11093185096979141 1144:0.04699148237705231 1145:0.0028212349861860275 1146:0.00844217836856842 1147:0.0 1148:0.018123522400856018 1149:0.0 1150:0.01921066641807556 1151:0.0064198668114840984 1152:0.04699148237705231 1153:0.004723493475466967 1154:0.00958284642547369 1155:8.077380480244756E-4 1156:0.0 1157:0.0 1158:0.0 1159:0.0 1160:0.0 1161:0.0027937577106058598 1162:0.0030650985427200794 1163:0.013234448619186878 1164:0.020010316744446754 1165:0.05316239595413208 1166:0.015102299861609936 1167:0.0 1168:0.0 1169:0.0 1170:8.174350950866938E-4 1171:0.0 1172:5.258056335151196E-4 1173:0.060802161693573 1174:0.30895400047302246 1175:0.166586235165596 1176:0.015508715994656086 1177:0.0 1178:0.0 1179:0.0 1180:0.06254873424768448 1181:0.018973680213093758 1182:0.06645473092794418 1183:0.1671978384256363 1184:0.14209116995334625 1185:0.046526145190000534 1186:0.0 1187:0.0 1188:0.005697228014469147 1189:0.009732929989695549 1190:0.006118699908256531 1191:0.0024232142604887486 1192:0.0 1193:0.005085015203803778 1194:0.0 1195:0.0 1196:0.0 1197:0.008632868528366089 1198:0.009541206061840057 1199:0.005100310314446688 1200:0.009884079918265343 1201:0.06887034326791763 1202:0.19516877830028534 1203:0.005945510696619749 1204:0.0 1205:0.0 1206:0.008987762965261936 1207:0.0 1208:0.0 1209:8.714794530533254E-4 1210:0.23525340855121613 1211:0.34650570154190063 1212:0.10596738755702972 1213:0.07951858639717102 1214:0.081533282995224 1215:0.019818583503365517 1216:0.15136641263961792 1217:0.15837779641151428 1218:0.0 1219:0.08553067594766617 1220:0.20063984394073486 1221:0.15344665944576263 1222:0.052540138363838196 1223:0.18243655562400818 1224:0.0594557486474514 1225:0.0037101469933986664 1226:0.0 1227:0.0 1228:0.0 1229:0.020721672102808952 1230:0.0 1231:0.001297052949666977 1232:4.33453475125134E-4 1233:0.0037101469933986664 1234:0.008756567724049091 1235:0.0 1236:0.0 1237:0.04796458035707474 1238:0.13541652262210846 1239:0.019723404198884964 1240:0.012980788946151733 1241:0.004029691684991121 1242:0.008756567724049091 1243:0.004267930053174496 1244:0.0 1245:0.0 1246:0.015988193452358246 1247:0.29437434673309326 1248:0.07303844392299652 1249:0.2536928653717041 1250:0.21941547095775604 1251:0.10349029302597046 1252:0.0750870630145073 1253:0.18005333840847015 1254:0.0 1255:0.0 1256:0.026070741936564445 1257:0.004622744861990213 1258:0.08069384098052979 1259:0.12551231682300568 1260:0.3082941472530365 1261:0.0011430424638092518 1262:0.0 1263:0.0 1264:0.0 1265:0.007608921267092228 1266:0.0 1267:0.0038911595474928617 1268:0.001300360425375402 1269:0.0011430424638092518 1270:0.0034291271585971117 1271:0.0 1272:0.003921656869351864 1273:0.008021660149097443 1274:0.03293706476688385 1275:0.005660617724061012 1276:0.007939761504530907 1277:0.0017285224748775363 1278:0.0034291271585971117 1279:0.006098620593547821 1280:0.0 1281:0.0013072190340608358 1282:0.0026738864835351706 1283:0.012605048716068268 1284:0.016981855034828186 1285:0.036166999489068985 1286:0.04782887548208237 1287:0.019354157149791718 1288:0.02820144034922123 1289:0.016488846391439438 1290:0.0 1291:0.0 1292:0.0 1293:0.0 1294:0.005412956699728966 1295:0.014647888951003551 1296:0.06321395933628082 1297:0.0 1298:0.004274362698197365 1299:0.01279052346944809 1300:0.0 1301:0.08458050340414047 1302:0.0 1303:0.013297155499458313 1304:0.004443682264536619 1305:0.0 1306:0.039360664784908295 1307:0.00142478768248111 1308:0.004263508133590221 1309:0.0 1310:0.10253749787807465 1311:0.0 1312:0.12691904604434967 1313:0.04241422191262245 1314:0.039360664784908295 1315:0.05274755135178566 1316:0.0 1317:0.0 1318:0.0 1319:0.08547530323266983 1320:0.0 1321:0.08665738999843597 1322:0.028959449380636215 1323:0.05274755135178566 1324:0.00901319645345211 1325:0.004274362698197365 1326:0.01279052346944809 1327:0.0 1328:0.09295634925365448 1329:0.0 1330:0.03068285994231701 1331:0.010253672488033772 1332:0.00901319645345211 1333:0.04861486330628395 1334:0.0 1335:0.0 1336:0.0 1337:0.12910327315330505 1338:0.0 1339:0.08340466022491455 1340:0.027872374281287193 1341:0.04861486330628395 1342:0.3472675383090973 1343:0.028617706149816513 1344:0.0856347605586052 1345:0.0 1346:0.03926906734704971 1347:0.0 1348:0.11445894092321396 1349:0.03825024515390396 1350:0.3472675383090973 1351:0.1342461258172989 1352:0.08585311472415924 1353:0.256904274225235 1354:0.0 1355:0.3668985962867737 1356:0.0 1357:0.18583472073078156 1358:0.06210286170244217 1359:0.1342461258172989 1360:0.02703959308564663 1361:0.0 1362:0.0 1363:0.0 1364:0.13832299411296844 1365:0.0 1366:0.010227620601654053 1367:0.003417890751734376 1368:0.02703959308564663 1369:0.08051015436649323 1370:0.0 1371:0.0 1372:0.0 1373:0.010933560319244862 1374:0.0 1375:0.027801556512713432 1376:0.009290792047977448 1377:0.08051015436649323 1378:0.3252522051334381 1379:0.009539235383272171 1380:0.028544919565320015 1381:0.0 1382:0.0 1383:0.0 1384:0.009267185814678669 1385:0.0030969304498285055 1386:0.3252522051334381 1387:0.18959535658359528 1388:0.028617706149816513 1389:0.0856347605586052 1390:0.0 1391:0.07129577547311783 1392:0.0 1393:0.0 1394:0.0 1395:0.18959535658359528 1396:0.0 1397:0.0 1398:0.0 1399:0.0 1400:0.023765258491039276 1401:0.0 1402:0.0 1403:0.0 1404:0.0 1405:0.02951979450881481 1406:0.0 1407:0.0 1408:0.0 1409:0.0 1410:0.0 1411:0.0 1412:0.0 1413:0.02951979450881481 1414:0.03186400979757309 1415:0.0 1416:0.0 1417:0.0 1418:0.0 1419:0.0 1420:0.0 1421:0.0 1422:0.03186400979757309 1423:0.0 1424:0.0 1425:0.0 1426:0.0 1427:0.0 1428:0.0 1429:0.0 1430:0.0 1431:0.0 1432:0.0 1433:0.0 1434:0.0 1435:0.0 1436:0.0 1437:0.0 1438:0.0 1439:0.0 1440:0.0 1441:0.009233947843313217 1442:0.0 1443:0.0 1444:0.0 1445:0.0 1446:0.0 1447:0.0 1448:0.0 1449:0.009233947843313217 1450:0.009967230260372162 1451:0.008718641474843025 1452:0.02608940191566944 1453:0.0 1454:0.11811450123786926 1455:0.0 1456:0.0 1457:0.017219947651028633 1458:0.013535400852560997 1459:0.0109751857817173 1460:0.002906213980168104 1461:0.00869646668434143 1462:0.0 1463:0.14806869626045227 1464:0.08867412060499191 1465:0.08232611417770386 1466:0.06468456983566284 1467:0.021679695695638657 1468:0.05507664754986763 1469:0.0 1470:0.0 1471:0.0 1472:0.01640866883099079 1473:0.02955804020166397 1474:0.02744203805923462 1475:0.004341574385762215 1476:0.05507664754986763 1477:0.012306501157581806 1478:0.0 1479:0.0 1480:0.0 1481:0.031598422676324844 1482:0.0 1483:0.0 1484:0.0 1485:0.012306501157581806 1486:0.04176015406847 1487:0.0 1488:0.0 1489:0.0 1490:0.3053537607192993 1491:0.0 1492:0.0 1493:0.0 1494:0.04176015406847 1495:0.14017046988010406 1496:0.0 1497:0.0 1498:0.0 1499:0.293515682220459 1500:0.02955804020166397 1501:0.13137507438659668 1502:0.03907416760921478 1503:0.14017046988010406 1504:0.09810192883014679 1505:0.007899909280240536 1506:0.02363944984972477 1507:0.0 1508:0.09516403079032898 1509:0.009852680377662182 1510:0.043791696429252625 1511:0.013024723157286644 1512:0.09810192883014679 1513:0.03479330986738205 1514:0.002983923302963376 1515:0.008929002098739147 1516:0.0 1517:0.11396066844463348 1518:0.0 1519:0.0 1520:0.0 1521:0.03479330986738205 1522:0.22854892909526825 1523:0.008951770141720772 1524:0.026787005364894867 1525:0.0 1526:0.08030956238508224 1527:0.0 1528:0.014721444807946682 1529:0.004919648170471191 1530:0.22854892909526825 1531:0.2571633756160736 1532:0.002983923302963376 1533:0.008929002098739147 1534:0.0 1535:0.18653559684753418 1536:0.0 1537:0.04416433349251747 1538:0.014758943580091 1539:0.2571633756160736 1540:0.009840588085353374 1541:0.03744303435087204 1542:0.11204339563846588 1543:0.0 1544:0.32443591952323914 1545:0.0 1546:0.0 1547:0.0 1548:0.009840588085353374 1549:0.01856703869998455 1550:0.05718347057700157 1551:0.05072281137108803 1552:0.0 1553:0.05749623849987984 1554:0.0 1555:0.0 1556:0.0 1557:0.010230380110442638 1558:0.1426924169063568 1559:0.05464082956314087 1560:0.12337516248226166 1561:0.0 1562:0.013526661321520805 1563:0.0 1564:0.06780380010604858 1565:0.022658836096525192 1566:0.13991352915763855 1567:0.12649638950824738 1568:0.018534844741225243 1569:0.05546310171484947 1570:0.0 1571:0.12256426364183426 1572:0.0 1573:0.20341140031814575 1574:0.06797651201486588 1575:0.12649638950824738 1576:0.01968117617070675 1577:0.06997913867235184 1578:0.20940347015857697 1579:0.0 1580:0.11494062840938568 1581:0.0 1582:0.0 1583:0.0 1584:0.01968117617070675 1585:0.013417162001132965 1586:0.0 1587:0.007631269283592701 1588:0.015609586611390114 1589:0.004332708194851875 1590:0.01872272603213787 1591:0.009153231047093868 1592:0.0 1593:0.013417162001132965 1594:0.05545256286859512 1595:0.0028235914651304483 1596:0.009721106849610806 1597:0.0026015974581241608 1598:0.0 1599:0.006240908056497574 1600:0.008706915192306042 1601:0.0018900815630331635 1602:0.05545256286859512 1603:0.05368124321103096 1604:0.01594620570540428 1605:0.04771694540977478 1606:0.0 1607:0.0 1608:0.0 1609:0.016967514529824257 1610:0.031835995614528656 1611:0.05910308286547661 1612:0.04956597462296486 1613:0.002491810591891408 1614:0.0074564190581440926 1615:0.0 1616:0.0 1617:0.0 1618:0.0 1619:0.008721918798983097 1620:0.051373254507780075 1621:0.025045694783329964 1622:0.0 1623:0.0012718781363219023 1624:0.0026015974581241608 1625:0.021103382110595703 1626:0.006240908056497574 1627:0.0030510772485285997 1628:0.0 1629:0.025045694783329964 1630:0.03730091452598572 1631:0.020795676857233047 1632:0.062228355556726456 1633:0.0 1634:0.2954773008823395 1635:0.0020803026854991913 1636:0.0010170256718993187 1637:0.0 1638:0.03730091452598572 1639:0.03987325355410576 1640:0.08481332659721375 1641:0.25379282236099243 1642:0.0 1643:0.11243465542793274 1644:0.0 1645:0.00844922848045826 1646:0.0028235914651304483 1647:0.03987325355410576 1648:0.06398625671863556 1649:0.00747543154284358 1650:0.022369258105754852 1651:0.0 1652:0.012799848802387714 1653:0.0 1654:0.025347689166665077 1655:0.008470773696899414 1656:0.06398625671863556 1657:0.06629438698291779 1658:0.03908894956111908 1659:0.0 1660:0.0 1661:0.007034461013972759 1662:0.0 1663:0.0 1664:0.0 1665:0.05819474160671234 1666:0.09231346100568771 1667:0.2257242202758789 1668:0.20757602155208588 1669:0.0 1670:0.22632095217704773 1671:0.0 1672:0.0 1673:0.0 1674:0.059914857149124146 1675:0.17122767865657806 1676:0.054583363234996796 1677:0.12434408068656921 1678:0.0 1679:0.17354267835617065 1680:0.0 1681:0.15048296749591827 1682:0.050288788974285126 1683:0.16852779686450958 1684:0.023044710978865623 1685:0.02517634630203247 1686:0.07533697038888931 1687:0.0 1688:0.03839954361319542 1689:0.0 1690:0.1673409342765808 1691:0.0559224970638752 1692:0.023044710978865623 1693:0.049247078597545624 1694:0.01302964985370636 1695:0.0 1696:0.0 1697:0.0 1698:0.0 1699:0.013214304111897945 1700:0.02842186950147152 1701:0.05152146890759468 1702:0.17128172516822815 1703:0.17810916900634766 1704:0.06509415060281754 1705:0.0 1706:0.0 1707:0.0 1708:0.004404767416417599 1709:0.15233424305915833 1710:0.14901094138622284 1711:0.4734005630016327 1712:0.0796334519982338 1713:0.029154468327760696 1714:0.0 1715:0.0 1716:0.0 1717:0.11502908170223236 1718:0.0743480995297432 1719:0.12098073214292526 1720:0.20755261182785034 1721:0.037072546780109406 1722:0.04705685004591942 1723:0.0 1724:0.0 1725:0.0 1726:0.09131418168544769 1727:0.030515603721141815 1728:0.0 
0.2944670458376127 1:0.029465198516845703 2:0.03593450039625168 3:0.011391413398087025 4:0.0 5:0.00993201695382595 6:0.0 7:0.0 8:0.0 9:0.010069300420582294 10:0.016029788181185722 11:0.07788508385419846 12:0.057616762816905975 13:0.0 14:0.04204753041267395 15:0.0 16:0.0 17:0.0 18:0.00956448819488287 19:0.02790132537484169 20:0.014982625842094421 21:0.047854818403720856 22:0.006179914344102144 23:0.02554756961762905 24:0.0 25:0.019038790836930275 26:0.006362446118146181 27:0.02790132537484169 28:0.014718456193804741 29:0.0046812258660793304 30:0.030862178653478622 31:0.03447491675615311 32:0.02495761401951313 33:0.0 34:0.0063462634570896626 35:0.0021208152174949646 36:0.014718456193804741 37:0.027263138443231583 38:0.018219802528619766 39:0.022474415600299835 40:0.0 41:0.010894130915403366 42:0.010188955813646317 43:0.024020005017518997 44:0.05978552997112274 45:0.031867679208517075 46:0.04565522447228432 47:0.02804224006831646 48:0.04717421531677246 49:0.0444745309650898 50:0.08203236758708954 51:0.03056686744093895 52:0.0720600113272667 53:0.05761334300041199 54:0.05148313567042351 55:0.09566430747509003 56:0.004994208458811045 57:0.031255919486284256 58:0.05299811437726021 59:0.08835671097040176 60:0.11774592101573944 61:0.11468040943145752 62:0.08124227076768875 63:0.1085435152053833 64:0.009841704741120338 65:0.014043678529560566 66:0.10098739713430405 67:0.17950910329818726 68:0.18666914105415344 69:0.03924863412976265 70:0.03822679817676544 71:0.006362446118146181 72:0.009841704741120338 73:0.03617382049560547 74:0.07163836061954498 75:0.04292907193303108 76:0.009923608973622322 77:0.0326823927462101 78:0.03056686744093895 79:0.021289901807904243 80:0.01992851123213768 81:0.02127189189195633 82:0.043564457446336746 83:0.07245352119207382 84:0.23864252865314484 85:0.2544773817062378 86:0.03702779486775398 87:0.09170061349868774 88:0.06386970728635788 89:0.07445327192544937 90:0.031417593359947205 91:0.10938131809234619 92:0.17848816514015198 93:0.04093087837100029 94:0.20698511600494385 95:0.05713920295238495 96:0.03924863412976265 97:0.019188011065125465 98:0.18646478652954102 99:0.11103428900241852 100:0.027134880423545837 101:0.05949605256319046 102:0.05223176255822182 103:0.4958886206150055 104:0.14691515266895294 105:0.013082879595458508 106:0.006396003533154726 107:0.0 108:0.014806659892201424 109:0.04094640538096428 110:0.038520485162734985 111:0.039888929575681686 112:0.05562961474061012 113:0.0 114:0.0 115:0.0 116:0.0 117:0.014690347947180271 118:0.13907021284103394 119:0.08825301378965378 120:0.07926836609840393 121:0.08425480127334595 122:0.0 123:0.0 124:0.0 125:0.0 126:0.06596064567565918 127:0.10344921797513962 128:0.2668543756008148 129:0.020403962582349777 130:0.06652756035327911 131:0.004525552038103342 132:0.0 133:0.0 134:0.0 135:0.049124106764793396 136:0.01392710953950882 137:0.0812559723854065 138:0.056873198598623276 139:0.24849975109100342 140:0.018470309674739838 141:0.0 142:0.0 143:0.0 144:0.0 145:0.0056796446442604065 146:0.01638556458055973 147:0.005218007601797581 148:0.0 149:0.005291416309773922 150:0.0 151:0.0 152:0.0 153:0.002645708154886961 154:0.019845586270093918 155:0.06425414234399796 156:0.06083115190267563 157:0.0 158:0.03596382960677147 159:0.0 160:0.0 161:0.0 162:0.010743774473667145 163:0.003581258235499263 164:0.03253309056162834 165:0.09735104441642761 166:0.0 167:0.05937618017196655 168:0.0 169:0.0 170:0.0 171:0.003581258235499263 172:0.0 173:0.006611322518438101 174:0.019783521071076393 175:0.0 176:0.08799883723258972 177:0.0 178:0.0 179:0.0 180:0.0 181:0.016276774927973747 182:0.010111911222338676 183:0.025223081931471825 184:0.01957329362630844 185:0.06732368469238281 186:0.0 187:0.04233288764953613 188:0.014146938920021057 189:0.015265462920069695 190:0.0529787503182888 191:0.07625892758369446 192:0.18757092952728271 193:0.006524431519210339 194:0.23739804327487946 195:0.0 196:0.012191364541649818 197:0.00407415023073554 198:0.049944810569286346 199:0.06388423591852188 200:0.06521636247634888 201:0.19515147805213928 202:0.0 203:0.04668262228369713 204:0.0 205:0.0 206:0.0 207:0.06388423591852188 208:0.0 209:0.02119201421737671 210:0.06341435015201569 211:0.0 212:0.145599365234375 213:0.0 214:0.0 215:0.0 216:0.0 217:0.08001578599214554 218:0.010285422205924988 219:0.03220006451010704 220:0.058719880878925323 221:0.10885832458734512 222:0.0 223:0.029467754065990448 224:0.024489400908350945 225:0.08116035163402557 226:0.0790882483124733 227:0.08248244971036911 228:0.19513219594955444 229:0.044042881578207016 230:0.43285590410232544 231:0.0 232:0.004063788335770369 233:0.0062386454083025455 234:0.05959497019648552 235:0.29941508173942566 236:0.08705443143844604 237:0.06185437738895416 238:0.008156529627740383 239:0.06693807989358902 240:0.0 241:0.0 242:0.0 243:0.24665866792201996 244:0.09322507679462433 245:0.13569816946983337 246:0.048765458166599274 247:0.0 248:0.1336318701505661 249:0.0 250:0.0 251:0.0 252:0.06848378479480743 253:0.044562164694070816 254:0.04140346497297287 255:0.010478653013706207 256:0.0 257:0.02514737844467163 258:0.0 259:0.0 260:0.04392535611987114 261:0.033545803278684616 262:0.12242365628480911 263:0.15726733207702637 264:0.21748819947242737 265:0.1252288818359375 266:0.025718698278069496 267:0.0 268:0.0 269:0.014641785994172096 270:0.020593665540218353 271:0.28958311676979065 272:0.11442136019468307 273:0.07249605655670166 274:0.0417429618537426 275:0.007904826663434505 276:0.0 277:0.0 278:0.0 279:0.15330606698989868 280:0.1366739720106125 281:0.043874677270650864 282:0.012191364541649818 283:0.0 284:0.02371448092162609 285:0.0 286:0.0 287:0.0 288:0.12842689454555511 289:0.010490349493920803 290:0.007732813246548176 291:0.0 292:0.0 293:0.0 294:0.0 295:0.0027558032888919115 296:9.20941005460918E-4 297:0.008888027630746365 298:0.009044588543474674 299:0.018179478123784065 300:0.042916323989629745 301:0.04088481515645981 302:0.03390631452202797 303:0.0 304:0.015054999850690365 305:0.005031122360378504 306:0.006865315139293671 307:0.02512035146355629 308:0.045729126781225204 309:0.07222659885883331 310:0.013628272339701653 311:0.032139167189598083 312:0.0 313:0.020362772047519684 314:0.006804897915571928 315:0.020184850320219994 316:0.033410824835300446 317:0.004693241789937019 318:0.014043914154171944 319:0.0 320:0.017302775755524635 321:0.0 322:0.0 323:0.018550043925642967 324:0.03725460544228554 325:0.01801995374262333 326:0.002268299227580428 327:0.006787589751183987 328:0.0 329:0.010282609611749649 330:0.0 331:0.04682617262005806 332:0.015648508444428444 333:0.01801995374262333 334:0.045129016041755676 335:0.008019031025469303 336:0.0306585431098938 337:0.013628272339701653 338:0.10514649003744125 339:0.0 340:0.11351940780878067 341:0.037936240434646606 342:0.045129016041755676 343:0.03841007500886917 344:0.016757873818278313 345:0.05706823617219925 346:0.014159773476421833 347:0.09641751646995544 348:0.11113645136356354 349:0.22227415442466736 350:0.05612320080399513 351:0.03841007500886917 352:0.01559179462492466 353:0.01165662333369255 354:0.04898573085665703 355:0.02885105460882187 356:0.07913143932819366 357:0.03704548627138138 358:0.07202117890119553 359:0.02419925481081009 360:0.016873056069016457 361:0.11249178647994995 362:0.04312795400619507 363:0.020362772047519684 364:0.0 365:0.030847826972603798 366:0.0 367:0.015608723275363445 368:0.005216169636696577 369:0.06272781640291214 370:0.2875606119632721 371:0.22950421273708344 372:0.06108831614255905 373:0.0 374:0.010282609611749649 375:0.0 376:0.031052211299538612 377:0.01037711463868618 378:0.16048569977283478 379:0.3562454581260681 380:0.34389322996139526 381:0.1417796015739441 382:0.03468406945466995 383:0.0 384:0.03704548627138138 385:0.0537286177277565 386:0.011902835220098495 387:0.15476234257221222 388:0.0423414409160614 389:0.11347641050815582 390:0.253713995218277 391:0.10405221581459045 392:0.009074370376765728 393:0.012348496355116367 394:0.024007059633731842 395:0.0060053011402487755 396:0.03287416324019432 397:0.10320509225130081 398:0.01565522886812687 399:0.010615557432174683 400:0.0 401:0.0 402:0.0 403:0.0 404:0.0 405:0.08661708980798721 406:0.28749674558639526 407:0.13119938969612122 408:0.0035385186783969402 409:0.0 410:0.0 411:0.0 412:0.0 413:0.0 414:0.16249725222587585 415:0.2550940215587616 416:0.12483681738376617 417:0.020535053685307503 418:0.017499050125479698 419:0.0 420:0.0 421:0.0 422:0.050424251705408096 423:0.17083440721035004 424:0.04354577884078026 425:0.027240315452218056 426:0.06160515546798706 427:0.05249714478850365 428:0.0 429:0.0 430:0.0 431:0.01680808514356613 432:0.04387284070253372 433:0.011234083212912083 434:0.001661475165747106 435:0.0049717482179403305 436:0.0 437:0.012094392441213131 438:0.0 439:0.011311603710055351 440:0.0037801393773406744 441:0.011234083212912083 442:0.011756034567952156 443:0.004984426312148571 444:0.014915244653820992 445:0.0 446:0.004031463526189327 447:0.0 448:0.12364470958709717 449:0.0792420506477356 450:0.01961393840610981 451:0.034141458570957184 452:0.01431359350681305 453:0.04283156618475914 454:0.0 455:0.03417820855975151 456:0.0 457:0.04453533515334129 458:0.02752365544438362 459:0.036760762333869934 460:0.011745157651603222 461:0.013671701774001122 462:0.04979080334305763 463:0.01816386729478836 464:0.011392734944820404 465:0.0 466:0.0 467:0.0 468:0.011745157651603222 469:0.012402213178575039 470:0.0077237277291715145 471:0.023112280294299126 472:0.0 473:0.049325209110975266 474:0.0 475:0.0026611867360770702 476:0.03881149739027023 477:0.020260095596313477 478:0.01366936694830656 479:0.09099952131509781 480:0.27230507135391235 481:0.0 482:0.08395181596279144 483:0.0 484:0.03121558204293251 485:0.30048778653144836 486:0.07377218455076218 487:0.06492121517658234 488:0.039424266666173935 489:0.1179722398519516 490:0.0 491:0.27941691875457764 492:0.0 493:0.12417227774858475 494:0.10025948286056519 495:0.07709760963916779 496:0.02673262543976307 497:0.015607551671564579 498:0.04966357350349426 499:0.042257532477378845 500:0.06993797421455383 501:0.0 502:0.09668023139238358 503:0.0323089174926281 504:0.02673262543976307 505:0.048864834010601044 506:0.008217904716730118 507:0.024591106921434402 508:0.0 509:0.05888346955180168 510:0.0 511:0.004971751477569342 512:0.052224352955818176 513:0.059342022985219955 514:0.12113812565803528 515:0.1624913513660431 516:0.18566538393497467 517:0.0 518:0.04108460992574692 519:0.0 520:0.014915255829691887 521:0.3442423343658447 522:0.17062276601791382 523:0.22147615253925323 524:0.2940319776535034 525:0.16727299988269806 526:0.0 527:0.11390902101993561 528:0.0 529:0.03880942240357399 530:0.07549256831407547 531:0.18508806824684143 532:0.07727547734975815 533:0.1176484078168869 534:0.017146019265055656 535:0.11992025375366211 536:0.18126951158046722 537:0.0 538:0.032226745039224625 539:0.010769639164209366 540:0.05370182916522026 541:0.015526901930570602 542:0.004453879781067371 543:0.013327675871551037 544:0.0 545:0.03201442211866379 546:0.0 547:0.02773512341082096 548:0.02190931886434555 549:0.018146203830838203 550:0.07777171581983566 551:0.15082938969135284 552:0.04854174703359604 553:0.0 554:0.019949549809098244 555:0.0 556:0.04901904985308647 557:0.05430346354842186 558:0.05773748829960823 559:0.07566583901643753 560:0.13773977756500244 561:0.07377324253320694 562:0.0 563:0.05231688171625137 564:0.0 565:0.0 566:0.0 567:0.05223321169614792 568:0.03889423981308937 569:0.04220636188983917 570:0.029409918934106827 571:0.0339345708489418 572:0.05614925175905228 573:0.0 574:0.0 575:0.0 576:0.031036358326673508 577:0.050237637013196945 578:0.007573389448225498 579:0.022662382572889328 580:0.0 581:0.0 582:0.0 583:0.0 584:0.015556673519313335 585:0.0715508759021759 586:0.04329073801636696 587:0.037562888115644455 588:0.1435900628566742 589:0.07175762206315994 590:0.11375604569911957 591:0.0 592:0.0 593:0.005185557994991541 594:0.04731958732008934 595:0.03453338146209717 596:0.04452816769480705 597:0.025200972333550453 598:0.023919207975268364 599:0.12073397636413574 600:0.007299431134015322 601:0.026056306436657906 602:0.007515008561313152 603:0.025306666269898415 604:0.058214299380779266 605:0.0 606:0.0 607:0.0 608:0.024768784642219543 609:0.021898293867707253 610:0.01820160448551178 611:0.0025050027761608362 612:0.058214299380779266 613:0.1094333678483963 614:0.008185984566807747 615:0.024495571851730347 616:0.0 617:0.0 618:0.0 619:0.03359436243772507 620:0.05789666622877121 621:0.17337307333946228 622:0.1364082545042038 623:0.006399825215339661 624:0.08896065503358841 625:0.14279471337795258 626:0.1220947802066803 627:0.0 628:0.24742159247398376 629:0.09824062883853912 630:0.15772148966789246 631:0.08997966349124908 632:0.0 633:0.02326999604701996 634:0.04759823530912399 635:0.15343080461025238 636:0.0 637:0.04887950420379639 638:0.016334669664502144 639:0.08997966349124908 640:0.07807959616184235 641:0.0 642:0.0 643:0.0 644:0.02487764321267605 645:0.0 646:0.0 647:0.0 648:0.07807959616184235 649:0.09154714643955231 650:0.020427891984581947 651:0.06112804263830185 652:0.0 653:0.0 654:0.0 655:0.018894467502832413 656:0.006314198952168226 657:0.09154714643955231 658:0.17039424180984497 659:0.01803596317768097 660:0.05397035554051399 661:0.0 662:0.30707111954689026 663:0.0 664:0.10556291043758392 665:0.035277269780635834 666:0.17039424180984497 667:0.2025197446346283 668:0.0037422222085297108 669:0.011198112741112709 670:0.0 671:0.13427983224391937 672:0.0 673:0.1629316806793213 674:0.05444890633225441 675:0.2025197446346283 676:0.06818820536136627 677:0.03962363675236702 678:0.05394525080919266 679:0.0 680:0.05766875669360161 681:0.0 682:0.04887950420379639 683:0.016334669664502144 684:0.06371326744556427 685:0.048275649547576904 686:0.0 687:0.0 688:0.0 689:0.0 690:0.0 691:0.02308904379606247 692:0.007715952582657337 693:0.048275649547576904 694:0.13042831420898438 695:0.03367999941110611 696:0.10078301280736923 697:0.0 698:0.08202652633190155 699:0.0 700:0.06926712393760681 701:0.023147854954004288 702:0.13042831420898438 703:0.2909591794013977 704:0.02678333967924118 705:0.033594340085983276 706:0.0 707:0.12311055511236191 708:0.0 709:0.04887950420379639 710:0.016334669664502144 711:0.26964595913887024 712:0.16717763245105743 713:0.17254002392292023 714:0.03041328303515911 715:0.0 716:0.0 717:0.0 718:0.01629316806793213 719:0.005444890353828669 720:0.08981310576200485 721:0.01522478275001049 722:0.005118419416248798 723:0.015316203236579895 724:0.0 725:0.02562820352613926 726:0.0 727:0.014794948510825634 728:0.004944224376231432 729:0.01522478275001049 730:0.01177519466727972 731:0.018516600131988525 732:0.05540850758552551 733:0.0 734:0.10538224130868912 735:0.0 736:0.035312771797180176 737:0.011800912208855152 738:0.01177519466727972 739:0.04853406548500061 740:0.09900204837322235 741:0.13140998780727386 742:0.0 743:0.04948998987674713 744:0.0 745:0.09114335477352142 746:0.03045850805938244 747:0.005342534277588129 748:0.022516705095767975 749:0.11898964643478394 750:0.1131034642457962 751:0.0 752:0.036614034324884415 753:0.0 754:0.0 755:0.0 756:0.008119529113173485 757:0.12257909774780273 758:0.07756572216749191 759:0.08062076568603516 760:0.0 761:0.02206515707075596 762:0.0 763:0.0049316491931676865 764:0.0016480748308822513 765:0.053222816437482834 766:0.08628666400909424 767:0.10192614793777466 768:0.2015528827905655 769:0.058504968881607056 770:0.16392740607261658 771:0.0 772:0.12109170109033585 773:0.04046671837568283 774:0.05752051621675491 775:0.1664501577615738 776:0.26466503739356995 777:0.32605642080307007 778:0.17439302802085876 779:0.10405997186899185 780:0.0 781:0.06682138890028 782:0.022330529987812042 783:0.019933374598622322 784:0.10299165546894073 785:0.08665061742067337 786:0.11969145387411118 787:0.05163045600056648 788:0.12333792448043823 789:0.0 790:0.0 791:0.0 792:0.05980012193322182 793:0.07717467844486237 794:0.0839572623372078 795:0.06977640092372894 796:0.0 797:0.04299275204539299 798:0.0 799:0.0 800:0.0 801:0.04498741030693054 802:0.1808924376964569 803:0.22328150272369385 804:0.09957040846347809 805:0.17551490664482117 806:0.014330917969346046 807:0.0 808:0.03644026070833206 809:0.012177693657577038 810:0.1290384978055954 811:0.10379869490861893 812:0.259088397026062 813:0.09513559192419052 814:0.11013542115688324 815:0.1704137772321701 816:0.03548508509993553 817:0.029494788497686386 818:0.004059231374412775 819:0.052972130477428436 820:0.0325634628534317 821:0.034938398748636246 822:0.1129627674818039 823:0.017210152000188828 824:0.1995975524187088 825:0.1064552590250969 826:0.052044108510017395 827:0.07027649879455566 828:0.04712555930018425 829:0.039768822491168976 830:0.020306287333369255 831:0.021382654085755348 832:0.008738372474908829 833:0.0 834:0.0 835:0.01479495782405138 836:0.0049442145973443985 837:0.036745984107255936 838:0.10608956217765808 839:0.057204414159059525 840:0.0402168408036232 841:0.0 842:0.0 843:0.0 844:0.004931652918457985 845:0.0016480715712532401 846:0.09702106565237045 847:0.14173194766044617 848:0.0044799321331083775 849:0.013405612669885159 850:0.0 851:0.0 852:0.011828362010419369 853:0.014996218495070934 854:0.0030790031887590885 855:0.14173194766044617 856:0.06857234239578247 857:0.0 858:0.0 859:0.0 860:0.0 861:0.03548508509993553 862:0.059783611446619034 863:0.037606727331876755 864:0.07342638075351715 865:0.0056796446442604065 866:0.01638556458055973 867:0.005218007601797581 868:0.0 869:0.005291416309773922 870:0.0 871:0.0 872:0.0 873:0.002645708154886961 874:0.019845586270093918 875:0.06425414234399796 876:0.06083115190267563 877:0.0 878:0.03596382960677147 879:0.0 880:0.0 881:0.0 882:0.010743774473667145 883:0.003581258235499263 884:0.03253309056162834 885:0.09735104441642761 886:0.0 887:0.05937618017196655 888:0.0 889:0.0 890:0.0 891:0.003581258235499263 892:0.0 893:0.006611322518438101 894:0.019783521071076393 895:0.0 896:0.08799883723258972 897:0.0 898:0.0 899:0.0 900:0.0 901:0.016276774927973747 902:0.010111911222338676 903:0.025223081931471825 904:0.01957329362630844 905:0.06732368469238281 906:0.0 907:0.04233288764953613 908:0.014146938920021057 909:0.015265462920069695 910:0.0529787503182888 911:0.07625892758369446 912:0.18757092952728271 913:0.006524431519210339 914:0.23739804327487946 915:0.0 916:0.012191364541649818 917:0.00407415023073554 918:0.049944810569286346 919:0.06388423591852188 920:0.06521636247634888 921:0.19515147805213928 922:0.0 923:0.04668262228369713 924:0.0 925:0.0 926:0.0 927:0.06388423591852188 928:0.0 929:0.02119201421737671 930:0.06341435015201569 931:0.0 932:0.145599365234375 933:0.0 934:0.0 935:0.0 936:0.0 937:0.08001578599214554 938:0.010285422205924988 939:0.03220006451010704 940:0.058719880878925323 941:0.10885832458734512 942:0.0 943:0.029467754065990448 944:0.024489400908350945 945:0.08116035163402557 946:0.0790882483124733 947:0.08248244971036911 948:0.19513219594955444 949:0.044042881578207016 950:0.43285590410232544 951:0.0 952:0.004063788335770369 953:0.0062386454083025455 954:0.05959497019648552 955:0.29941508173942566 956:0.08705443143844604 957:0.06185437738895416 958:0.008156529627740383 959:0.06693807989358902 960:0.0 961:0.0 962:0.0 963:0.24665866792201996 964:0.09322507679462433 965:0.13569816946983337 966:0.048765458166599274 967:0.0 968:0.1336318701505661 969:0.0 970:0.0 971:0.0 972:0.06848378479480743 973:0.044562164694070816 974:0.04140346497297287 975:0.010478653013706207 976:0.0 977:0.02514737844467163 978:0.0 979:0.0 980:0.04392535611987114 981:0.033545803278684616 982:0.12242365628480911 983:0.15726733207702637 984:0.21748819947242737 985:0.1252288818359375 986:0.025718698278069496 987:0.0 988:0.0 989:0.014641785994172096 990:0.020593665540218353 991:0.28958311676979065 992:0.11442136019468307 993:0.07249605655670166 994:0.0417429618537426 995:0.007904826663434505 996:0.0 997:0.0 998:0.0 999:0.15330606698989868 1000:0.1366739720106125 1001:0.043874677270650864 1002:0.012191364541649818 1003:0.0 1004:0.02371448092162609 1005:0.0 1006:0.0 1007:0.0 1008:0.12842689454555511 1009:0.0 1010:0.00676006218418479 1011:0.022037791088223457 1012:0.003700648434460163 1013:0.01958746835589409 1014:0.0 1015:0.0 1016:0.0 1017:0.0 1018:0.01290068868547678 1019:0.007880369201302528 1020:0.02358097955584526 1021:0.0 1022:0.08088387548923492 1023:0.0 1024:0.0 1025:0.0 1026:0.01290068868547678 1027:0.005713054444640875 1028:0.01326780766248703 1029:0.031096694990992546 1030:0.024131260812282562 1031:0.13573934137821198 1032:0.0 1033:0.006265575531870127 1034:0.0020938452798873186 1035:0.004300229717046022 1036:0.015043817460536957 1037:0.028341788798570633 1038:0.003932458348572254 1039:0.008043752983212471 1040:0.06205970421433449 1041:0.028510360047221184 1042:0.03273497149348259 1043:0.006281536538153887 1044:0.0 1045:0.11382836848497391 1046:0.05326514318585396 1047:0.039283622056245804 1048:0.01110194530338049 1049:0.0032892576418817043 1050:0.0 1051:0.0 1052:0.008097779005765915 1053:0.07619835436344147 1054:0.20516559481620789 1055:0.045478761196136475 1056:0.1271476149559021 1057:0.03016773797571659 1058:0.06061138957738876 1059:0.0 1060:0.0 1061:0.024293335154652596 1062:0.20443536341190338 1063:0.08989603072404861 1064:0.07985636591911316 1065:0.3452851474285126 1066:0.27734407782554626 1067:0.060227204114198685 1068:0.0 1069:0.0020885253325104713 1070:6.979484460316598E-4 1071:0.030783500522375107 1072:0.07093283534049988 1073:0.0850253477692604 1074:0.04948610067367554 1075:0.1012226864695549 1076:0.05107014253735542 1077:0.00950345303863287 1078:0.01091165654361248 1079:0.0020938452798873186 1080:0.02580137737095356 1081:0.10211119800806046 1082:0.03405016288161278 1083:0.018944039940834045 1084:0.03874959424138069 1085:0.005140294786542654 1086:0.01723300851881504 1087:0.002611879026517272 1088:0.045088376849889755 1089:0.11912265419960022 1090:0.3415476083755493 1091:0.04387805983424187 1092:0.028097322210669518 1093:0.02297244220972061 1094:0.02366773411631584 1095:0.005744336172938347 1096:0.02808036282658577 1097:0.08226397633552551 1098:0.38128140568733215 1099:0.30784428119659424 1100:0.12015880644321442 1101:0.10767856985330582 1102:0.11675407737493515 1103:0.041770271956920624 1104:0.0 1105:0.08424109220504761 1106:0.028151892125606537 1107:0.1432221233844757 1108:0.0375005379319191 1109:0.0 1110:0.10268475860357285 1111:0.21003933250904083 1112:0.05960216000676155 1113:0.0 1114:0.0 1115:0.0 1116:0.0375005379319191 1117:0.0026779621839523315 1118:0.0 1119:0.006314679980278015 1120:0.012916533276438713 1121:0.021720856428146362 1122:0.07937151938676834 1123:0.007835636846721172 1124:0.009259269572794437 1125:0.004053992684930563 1126:0.05672547593712807 1127:0.0 1128:0.0021048933267593384 1129:0.0043055107817053795 1130:0.07178426533937454 1131:0.026457171887159348 1132:0.009360120631754398 1133:0.003127987962216139 1134:0.05672547593712807 1135:0.055033423006534576 1136:0.04779082164168358 1137:0.003932458348572254 1138:0.008043752983212471 1139:0.12106503546237946 1140:0.0 1141:0.02808036282658577 1142:0.009383964352309704 1143:0.04513060674071312 1144:0.027658572420477867 1145:0.01593027450144291 1146:0.011797375977039337 1147:0.024131260812282562 1148:0.09726550430059433 1149:0.014255180023610592 1150:0.006969122216105461 1151:0.0 1152:0.024357637390494347 1153:0.011234083212912083 1154:0.001661475165747106 1155:0.0049717482179403305 1156:0.0 1157:0.012094392441213131 1158:0.0 1159:0.011311603710055351 1160:0.0037801393773406744 1161:0.011234083212912083 1162:0.011756034567952156 1163:0.004984426312148571 1164:0.014915244653820992 1165:0.0 1166:0.004031463526189327 1167:0.0 1168:0.12364470958709717 1169:0.0792420506477356 1170:0.01961393840610981 1171:0.034141458570957184 1172:0.01431359350681305 1173:0.04283156618475914 1174:0.0 1175:0.03417820855975151 1176:0.0 1177:0.04453533515334129 1178:0.02752365544438362 1179:0.036760762333869934 1180:0.011745157651603222 1181:0.013671701774001122 1182:0.04979080334305763 1183:0.01816386729478836 1184:0.011392734944820404 1185:0.0 1186:0.0 1187:0.0 1188:0.011745157651603222 1189:0.012402213178575039 1190:0.0077237277291715145 1191:0.023112280294299126 1192:0.0 1193:0.049325209110975266 1194:0.0 1195:0.0026611867360770702 1196:0.03881149739027023 1197:0.020260095596313477 1198:0.01366936694830656 1199:0.09099952131509781 1200:0.27230507135391235 1201:0.0 1202:0.08395181596279144 1203:0.0 1204:0.03121558204293251 1205:0.30048778653144836 1206:0.07377218455076218 1207:0.06492121517658234 1208:0.039424266666173935 1209:0.1179722398519516 1210:0.0 1211:0.27941691875457764 1212:0.0 1213:0.12417227774858475 1214:0.10025948286056519 1215:0.07709760963916779 1216:0.02673262543976307 1217:0.015607551671564579 1218:0.04966357350349426 1219:0.042257532477378845 1220:0.06993797421455383 1221:0.0 1222:0.09668023139238358 1223:0.0323089174926281 1224:0.02673262543976307 1225:0.048864834010601044 1226:0.008217904716730118 1227:0.024591106921434402 1228:0.0 1229:0.05888346955180168 1230:0.0 1231:0.004971751477569342 1232:0.052224352955818176 1233:0.059342022985219955 1234:0.12113812565803528 1235:0.1624913513660431 1236:0.18566538393497467 1237:0.0 1238:0.04108460992574692 1239:0.0 1240:0.014915255829691887 1241:0.3442423343658447 1242:0.17062276601791382 1243:0.22147615253925323 1244:0.2940319776535034 1245:0.16727299988269806 1246:0.0 1247:0.11390902101993561 1248:0.0 1249:0.03880942240357399 1250:0.07549256831407547 1251:0.18508806824684143 1252:0.07727547734975815 1253:0.1176484078168869 1254:0.017146019265055656 1255:0.11992025375366211 1256:0.18126951158046722 1257:0.0 1258:0.032226745039224625 1259:0.010769639164209366 1260:0.05370182916522026 1261:0.015526901930570602 1262:0.004453879781067371 1263:0.013327675871551037 1264:0.0 1265:0.03201442211866379 1266:0.0 1267:0.02773512341082096 1268:0.02190931886434555 1269:0.018146203830838203 1270:0.07777171581983566 1271:0.15082938969135284 1272:0.04854174703359604 1273:0.0 1274:0.019949549809098244 1275:0.0 1276:0.04901904985308647 1277:0.05430346354842186 1278:0.05773748829960823 1279:0.07566583901643753 1280:0.13773977756500244 1281:0.07377324253320694 1282:0.0 1283:0.05231688171625137 1284:0.0 1285:0.0 1286:0.0 1287:0.05223321169614792 1288:0.03889423981308937 1289:0.04220636188983917 1290:0.029409918934106827 1291:0.0339345708489418 1292:0.05614925175905228 1293:0.0 1294:0.0 1295:0.0 1296:0.031036358326673508 1297:0.019553763791918755 1298:0.02019413188099861 1299:0.0 1300:0.0 1301:0.016922511160373688 1302:0.006740095093846321 1303:0.0 1304:0.0 1305:0.0067646619863808155 1306:0.017862629145383835 1307:0.08519474416971207 1308:0.010009989142417908 1309:0.0 1310:0.08464079350233078 1311:0.024560900405049324 1312:0.009402497671544552 1313:0.0274836253374815 1314:0.012224838137626648 1315:0.05859408527612686 1316:0.018710743635892868 1317:0.023613374680280685 1318:0.010673110373318195 1319:0.01670927181839943 1320:0.013021843507885933 1321:0.02820749022066593 1322:0.08245087414979935 1323:0.07567884773015976 1324:0.024517329409718513 1325:0.03855505585670471 1326:0.06083013862371445 1327:0.03201933205127716 1328:0.00913697388023138 1329:0.0 1330:0.0 1331:0.0 1332:0.018970733508467674 1333:0.048250164836645126 1334:0.16206099092960358 1335:0.07772254943847656 1336:0.016600962728261948 1337:0.0051030064933001995 1338:0.0 1339:0.0 1340:0.0 1341:0.008419913239777088 1342:0.14258652925491333 1343:0.40422022342681885 1344:0.10674328356981277 1345:0.04980288818478584 1346:0.03144755959510803 1347:0.0 1348:0.0 1349:0.08332505077123642 1350:0.12585429847240448 1351:0.29922330379486084 1352:0.07651308178901672 1353:0.048269640654325485 1354:0.011799067258834839 1355:0.005379513371735811 1356:0.0 1357:0.0 1358:0.2605223059654236 1359:0.34742045402526855 1360:0.10234019160270691 1361:0.12401556968688965 1362:0.08843293786048889 1363:0.03539719805121422 1364:0.03335149213671684 1365:0.0 1366:0.0 1367:0.03164147958159447 1368:0.0840134471654892 1369:0.02654426358640194 1370:0.1061297059059143 1371:0.06282200664281845 1372:0.07244373857975006 1373:0.009982775896787643 1374:0.0 1375:0.0 1376:0.0 1377:0.012864276766777039 1378:0.08036237210035324 1379:0.09084920585155487 1380:0.13764861226081848 1381:0.21733121573925018 1382:0.0888163223862648 1383:0.0 1384:0.015979669988155365 1385:0.020686166360974312 1386:0.08044520020484924 1387:0.27091243863105774 1388:0.018112242221832275 1389:0.02634602040052414 1390:0.0 1391:0.021934550255537033 1392:0.0 1393:0.021306237205863 1394:0.08479973673820496 1395:0.28507986664772034 1396:0.06783419102430344 1397:0.027923524379730225 1398:0.0 1399:0.0 1400:0.035500314086675644 1401:0.0 1402:0.04793904349207878 1403:0.11094482243061066 1404:0.08171756565570831 1405:0.02032563090324402 1406:0.01494638528674841 1407:0.00368957850150764 1408:0.0075469473376870155 1409:0.01729680225253105 1410:0.0 1411:0.0 1412:0.023371709510684013 1413:0.02207145094871521 1414:0.06647840887308121 1415:0.004982128273695707 1416:0.011068735271692276 1417:0.02264084294438362 1418:0.0530179925262928 1419:0.0 1420:0.047939009964466095 1421:0.021518884226679802 1422:0.06658539921045303 1423:0.12555328011512756 1424:0.0 1425:0.0 1426:0.0 1427:0.007311516907066107 1428:0.0 1429:0.027184821665287018 1430:0.009084708988666534 1431:0.12555328011512756 1432:0.04350220412015915 1433:0.0 1434:0.0 1435:0.0 1436:0.0 1437:0.0 1438:0.03361545503139496 1439:0.011233710683882236 1440:0.04350220412015915 1441:0.01522478275001049 1442:0.005118419416248798 1443:0.015316203236579895 1444:0.0 1445:0.02562820352613926 1446:0.0 1447:0.014794948510825634 1448:0.004944224376231432 1449:0.01522478275001049 1450:0.01177519466727972 1451:0.018516600131988525 1452:0.05540850758552551 1453:0.0 1454:0.10538224130868912 1455:0.0 1456:0.035312771797180176 1457:0.011800912208855152 1458:0.01177519466727972 1459:0.04853406548500061 1460:0.09900204837322235 1461:0.13140998780727386 1462:0.0 1463:0.04948998987674713 1464:0.0 1465:0.09114335477352142 1466:0.03045850805938244 1467:0.005342534277588129 1468:0.022516705095767975 1469:0.11898964643478394 1470:0.1131034642457962 1471:0.0 1472:0.036614034324884415 1473:0.0 1474:0.0 1475:0.0 1476:0.008119529113173485 1477:0.12257909774780273 1478:0.07756572216749191 1479:0.08062076568603516 1480:0.0 1481:0.02206515707075596 1482:0.0 1483:0.0049316491931676865 1484:0.0016480748308822513 1485:0.053222816437482834 1486:0.08628666400909424 1487:0.10192614793777466 1488:0.2015528827905655 1489:0.058504968881607056 1490:0.16392740607261658 1491:0.0 1492:0.12109170109033585 1493:0.04046671837568283 1494:0.05752051621675491 1495:0.1664501577615738 1496:0.26466503739356995 1497:0.32605642080307007 1498:0.17439302802085876 1499:0.10405997186899185 1500:0.0 1501:0.06682138890028 1502:0.022330529987812042 1503:0.019933374598622322 1504:0.10299165546894073 1505:0.08665061742067337 1506:0.11969145387411118 1507:0.05163045600056648 1508:0.12333792448043823 1509:0.0 1510:0.0 1511:0.0 1512:0.05980012193322182 1513:0.07717467844486237 1514:0.0839572623372078 1515:0.06977640092372894 1516:0.0 1517:0.04299275204539299 1518:0.0 1519:0.0 1520:0.0 1521:0.04498741030693054 1522:0.1808924376964569 1523:0.22328150272369385 1524:0.09957040846347809 1525:0.17551490664482117 1526:0.014330917969346046 1527:0.0 1528:0.03644026070833206 1529:0.012177693657577038 1530:0.1290384978055954 1531:0.10379869490861893 1532:0.259088397026062 1533:0.09513559192419052 1534:0.11013542115688324 1535:0.1704137772321701 1536:0.03548508509993553 1537:0.029494788497686386 1538:0.004059231374412775 1539:0.052972130477428436 1540:0.0325634628534317 1541:0.034938398748636246 1542:0.1129627674818039 1543:0.017210152000188828 1544:0.1995975524187088 1545:0.1064552590250969 1546:0.052044108510017395 1547:0.07027649879455566 1548:0.04712555930018425 1549:0.039768822491168976 1550:0.020306287333369255 1551:0.021382654085755348 1552:0.008738372474908829 1553:0.0 1554:0.0 1555:0.01479495782405138 1556:0.0049442145973443985 1557:0.036745984107255936 1558:0.10608956217765808 1559:0.057204414159059525 1560:0.0402168408036232 1561:0.0 1562:0.0 1563:0.0 1564:0.004931652918457985 1565:0.0016480715712532401 1566:0.09702106565237045 1567:0.14173194766044617 1568:0.0044799321331083775 1569:0.013405612669885159 1570:0.0 1571:0.0 1572:0.011828362010419369 1573:0.014996218495070934 1574:0.0030790031887590885 1575:0.14173194766044617 1576:0.06857234239578247 1577:0.0 1578:0.0 1579:0.0 1580:0.0 1581:0.03548508509993553 1582:0.059783611446619034 1583:0.037606727331876755 1584:0.07342638075351715 1585:0.007220483850687742 1586:0.001526955864392221 1587:0.004569217097014189 1588:0.0 1589:0.008853496052324772 1590:0.0 1591:0.007970025762915611 1592:0.002663449617102742 1593:0.007220483850687742 1594:0.011831407435238361 1595:0.02571958303451538 1596:0.02752273716032505 1597:0.028258446604013443 1598:0.08830136060714722 1599:0.0 1600:0.010812915861606598 1601:0.003613495733588934 1602:0.007451238110661507 1603:0.039754725992679596 1604:0.0649431049823761 1605:0.014256532303988934 1606:0.01981518045067787 1607:0.05694461986422539 1608:0.0 1609:0.0 1610:0.0 1611:0.026614222675561905 1612:0.00817167665809393 1613:0.004580868408083916 1614:0.028954511508345604 1615:0.09689531475305557 1616:0.03849124163389206 1617:0.0 1618:0.0 1619:0.0 1620:0.00817167665809393 1621:0.015483454801142216 1622:0.013763516210019588 1623:0.04118553176522255 1624:0.0 1625:0.013719715178012848 1626:0.0 1627:0.0 1628:0.0 1629:0.015483454801142216 1630:0.020432090386748314 1631:0.05248748138546944 1632:0.17742228507995605 1633:0.08477533608675003 1634:0.13432078063488007 1635:0.0 1636:0.032882943749427795 1637:0.010988930240273476 1638:0.018972031772136688 1639:0.04281000420451164 1640:0.0381716750562191 1641:0.06647808849811554 1642:0.03172368183732033 1643:0.19439947605133057 1644:0.028258446604013443 1645:0.11246391385793686 1646:0.03296678885817528 1647:0.03842983394861221 1648:0.011086494661867619 1649:0.013742602430284023 1650:0.04620523750782013 1651:0.16974584758281708 1652:0.10118608921766281 1653:0.11780242621898651 1654:0.04144526273012161 1655:0.0 1656:0.011086494661867619 1657:0.023312684148550034 1658:0.09188925474882126 1659:0.04306335374712944 1660:0.028258446604013443 1661:0.034237176179885864 1662:0.0 1663:0.0 1664:0.0 1665:0.006297576706856489 1666:0.13667437434196472 1667:0.2756361663341522 1668:0.1664513200521469 1669:0.08477533608675003 1670:0.038789302110672 1671:0.0 1672:0.01096098031848669 1673:0.0036629769019782543 1674:0.08821582049131393 1675:0.23329351842403412 1676:0.15050342679023743 1677:0.11178376525640488 1678:0.0 1679:0.07914485037326813 1680:0.00941948127001524 1681:0.03748796880245209 1682:0.010988930240273476 1683:0.20984822511672974 1684:0.05468818545341492 1685:0.16227002441883087 1686:0.0293487049639225 1687:0.11680102348327637 1688:0.2187587171792984 1689:0.1273396909236908 1690:0.01381508819758892 1691:0.0 1692:0.02309638261795044 1693:0.02453737147152424 1694:0.1010434478521347 1695:0.02146923914551735 1696:0.01981518045067787 1697:0.0 1698:0.0 1699:0.0 1700:0.0 1701:0.004415941424667835 1702:0.09771047532558441 1703:0.26861536502838135 1704:0.05517330393195152 1705:0.10482250899076462 1706:0.0 1707:0.0 1708:0.0 1709:0.0 1710:0.04232243448495865 1711:0.27312225103378296 1712:0.23556341230869293 1713:0.022069035097956657 1714:0.015125654637813568 1715:0.0 1716:0.0 1717:0.0 1718:0.0 1719:0.22532710433006287 1720:0.07365405559539795 1721:0.2413618564605713 1722:0.1320691704750061 1723:0.029146261513233185 1724:0.012379192747175694 1725:0.0 1726:0.01178192999213934 1727:0.003937314264476299 1728:0.03278660029172897 
0.16420242329840992 1:0.0045896414667367935 2:0.0 3:0.0 4:0.0 5:0.001300643547438085 6:0.0 7:0.0 8:8.018837543204427E-4 9:0.028493164107203484 10:0.023990241810679436 11:0.0 12:0.0 13:0.0 14:0.003765685483813286 15:0.0 16:0.0 17:2.6729455566965044E-4 18:0.08403437584638596 19:0.028311025351285934 20:0.0 21:0.0 22:0.0 23:0.003355412743985653 24:0.0 25:0.0 26:0.00413340562954545 27:0.11399103701114655 28:0.007223095744848251 29:0.0 30:0.0 31:0.0 32:0.0033425039146095514 33:0.0 34:0.0 35:0.02021997608244419 36:0.05295852944254875 37:0.04953853040933609 38:0.0 39:0.0 40:0.0 41:0.0 42:0.0 43:0.0 44:0.0072149899788200855 45:0.13168595731258392 46:0.24419884383678436 47:0.0 48:0.0 49:0.0 50:0.0 51:0.0 52:0.0 53:0.002404996892437339 54:0.2864176630973816 55:0.1971496343612671 56:0.0 57:0.0 58:0.0 59:0.0 60:0.0 61:0.0 62:0.00137780187651515 63:0.3065758943557739 64:0.07537020742893219 65:0.0 66:0.0 67:0.0 68:0.0 69:0.0 70:0.0 71:0.006739992182701826 72:0.25129690766334534 73:0.07620330899953842 74:0.0 75:0.0 76:0.0 77:0.0 78:0.0 79:0.0 80:0.015326631255447865 81:0.2146824151277542 82:0.2990557849407196 83:3.41117091011256E-4 84:0.0 85:0.0 86:0.0 87:0.0 88:0.0 89:0.005993243772536516 90:0.3065758943557739 91:0.3065758943557739 92:0.0034553331788629293 93:0.0 94:0.0 95:0.0 96:0.0 97:0.0 98:0.0 99:0.3065758943557739 100:0.23891058564186096 101:0.0010320654837414622 102:0.0 103:0.0 104:0.0 105:0.0 106:0.0 107:0.0 108:0.3065758943557739 109:0.010115120559930801 110:0.0 111:0.0 112:0.0 113:3.9912250940687954E-4 114:0.0 115:0.0 116:0.002592527773231268 117:0.027810338884592056 118:0.04840099811553955 119:0.001023351214826107 120:0.0 121:0.0 122:0.001855409354902804 123:0.0 124:0.0 125:0.0035172763746231794 126:0.08082543313503265 127:0.09921225905418396 128:0.010365999303758144 129:0.0 130:0.0 131:0.0019741251599043608 132:0.0 133:0.0018466617912054062 134:6.171235581859946E-4 135:0.08625006675720215 136:0.06450814008712769 137:0.003096196334809065 138:0.0 139:0.0 140:0.0 141:0.0 142:6.15553988609463E-4 143:2.0570788183249533E-4 144:0.045853640884160995 145:0.01988379843533039 146:0.0 147:0.0 148:0.0 149:0.003365839133039117 150:0.0 151:0.0 152:0.0 153:0.04437411576509476 154:0.038961730897426605 155:0.0 156:0.0 157:0.0 158:0.00806409865617752 159:0.0 160:0.0 161:0.0 162:0.16417020559310913 163:0.042405497282743454 164:0.0 165:0.0 166:0.0 167:0.004513484891504049 168:0.0 169:0.0 170:0.0 171:0.22125144302845 172:0.02961011789739132 173:0.0 174:0.0 175:0.0 176:8.07425007224083E-4 177:0.0 178:0.0 179:0.0 180:0.10792537033557892 181:0.0603143684566021 182:0.0 183:0.0 184:0.0 185:0.0 186:0.0 187:0.0 188:0.0 189:0.11441817879676819 190:0.154768168926239 191:0.0 192:0.0 193:0.0 194:0.0 195:0.0 196:0.0 197:0.0 198:0.27161580324172974 199:0.23737898468971252 200:0.0 201:0.0 202:0.0 203:0.0 204:0.0 205:0.0 206:0.0 207:0.27161580324172974 208:0.165068119764328 209:0.0 210:0.0 211:0.0 212:0.0 213:0.0 214:0.0 215:0.0 216:0.23868200182914734 217:0.07946410775184631 218:0.0 219:0.0 220:0.0 221:0.0 222:0.0 223:0.0 224:0.001389332814142108 225:0.15086114406585693 226:0.26024970412254333 227:0.0 228:0.0 229:0.0 230:0.0 231:0.0 232:0.0 233:0.0037324100267142057 234:0.27161580324172974 235:0.27161580324172974 236:0.002354334807023406 237:0.0 238:0.0 239:0.0 240:0.0 241:0.0 242:0.0 243:0.27161580324172974 244:0.27161580324172974 245:0.012062117457389832 246:0.0 247:0.0 248:0.0 249:0.0 250:0.0 251:0.0 252:0.12304513156414032 253:0.01646088808774948 254:0.0 255:0.0 256:0.0 257:0.0 258:0.0 259:0.0 260:0.004880608059465885 261:0.08584072440862656 262:0.09957847744226456 263:0.0 264:0.0 265:0.0 266:0.0 267:0.0 268:0.0 269:0.011339622549712658 270:0.20352762937545776 271:0.24586963653564453 272:0.007063004653900862 273:0.0 274:0.0 275:0.0 276:0.0 277:0.0 278:0.0 279:0.1472657322883606 280:0.15625235438346863 281:0.03180018439888954 282:0.0 283:0.0 284:0.0 285:0.0 286:0.0 287:0.0 288:0.017978092655539513 289:0.0 290:0.0 291:0.0 292:0.0 293:0.0 294:0.0 295:0.0 296:0.0 297:0.0 298:0.0 299:0.0 300:0.0 301:0.0 302:0.0 303:0.0 304:0.0 305:0.0 306:0.0 307:0.0 308:0.0 309:0.0 310:0.0 311:0.027296002954244614 312:0.0 313:0.0 314:0.0 315:0.0 316:0.009632554836571217 317:0.0 318:0.0 319:0.0 320:0.09478389471769333 321:0.0 322:0.032791268080472946 323:0.010958293452858925 324:0.009632554836571217 325:0.0 326:0.0 327:0.0 328:0.0 329:0.0 330:0.0 331:0.0 332:0.0 333:0.0 334:0.0 335:0.0 336:0.0 337:0.0 338:0.0 339:0.0 340:0.0 341:0.0 342:0.0 343:0.0 344:0.0 345:0.0 346:0.0 347:0.0064217038452625275 348:0.0 349:0.0 350:0.0 351:0.0 352:0.028897667303681374 353:0.0 354:0.0 355:0.0 356:0.019265109673142433 357:0.0 358:0.010930421762168407 359:0.0036527644842863083 360:0.028897667303681374 361:0.1054038405418396 362:0.0 363:0.0 364:0.0 365:0.0 366:0.0 367:0.0 368:0.0 369:0.1054038405418396 370:0.3073108196258545 371:0.0 372:0.0 373:0.0 374:0.0 375:0.0 376:0.0 377:0.0 378:0.3073108196258545 379:0.37866538763046265 380:0.0 381:0.0 382:0.0 383:0.0 384:0.0 385:0.0 386:0.0 387:0.37866538763046265 388:0.195051908493042 389:0.0 390:0.0 391:0.0 392:0.0 393:0.0 394:0.0 395:0.0 396:0.195051908493042 397:0.08752571791410446 398:0.0 399:0.0 400:0.0 401:0.0 402:0.0 403:0.0 404:0.0 405:0.08752571791410446 406:0.25518617033958435 407:0.0 408:0.0 409:0.0 410:0.0 411:0.0 412:0.0 413:0.0 414:0.25518617033958435 415:0.3144378960132599 416:0.0 417:0.0 418:0.0 419:0.0 420:0.0 421:0.0 422:0.0 423:0.3144378960132599 424:0.16196808218955994 425:0.0 426:0.0 427:0.0 428:0.0 429:0.0 430:0.0 431:0.0 432:0.16196808218955994 433:0.0 434:0.0 435:0.0 436:0.0 437:0.0 438:0.0 439:0.0 440:0.0 441:0.0 442:0.0 443:0.0 444:0.0 445:0.0 446:0.0 447:0.0 448:0.0 449:0.0 450:0.0 451:0.0 452:0.0 453:0.0 454:0.0 455:0.1761017143726349 456:0.0 457:0.045885633677244186 458:0.015334172174334526 459:0.0 460:0.0 461:0.0 462:0.0 463:0.0 464:0.10621167719364166 465:0.0 466:0.16593338549137115 467:0.055452022701501846 468:0.0 469:0.0 470:0.0 471:0.0 472:0.0 473:0.0 474:0.0 475:0.0 476:0.0 477:0.0 478:0.0 479:0.0 480:0.0 481:0.0 482:0.0 483:0.0 484:0.0 485:0.0 486:0.0 487:0.0 488:0.0 489:0.0 490:0.0 491:0.038813795894384384 492:0.0 493:0.06225293129682541 494:0.02080383524298668 495:0.0 496:0.05822069197893143 497:0.0 498:0.0 499:0.0 500:0.012937931343913078 501:0.0 502:0.2715882658958435 503:0.0907600149512291 504:0.05822069197893143 505:0.12724237143993378 506:0.0 507:0.0 508:0.0 509:0.0 510:0.0 511:0.051451634615659714 512:0.017194276675581932 513:0.12724237143993378 514:0.31580275297164917 515:0.0 516:0.0 517:0.0 518:0.0 519:0.0 520:0.10589596629142761 521:0.03538866341114044 522:0.31580275297164917 523:0.05275341868400574 524:0.0 525:0.0 526:0.0 527:0.0 528:0.0 529:0.11271879076957703 530:0.03766873851418495 531:0.05275341868400574 532:0.03274505212903023 533:0.0 534:0.0 535:0.0 536:0.0 537:0.0 538:0.0 539:0.0 540:0.03274505212903023 541:0.12978695333003998 542:0.0 543:0.0 544:0.0 545:0.04283639043569565 546:0.0 547:0.03607854247093201 548:0.012056848034262657 549:0.12978695333003998 550:0.18357425928115845 551:0.0 552:0.0 553:0.0 554:0.014278796501457691 555:0.0 556:0.3643079102039337 557:0.12174563109874725 558:0.18357425928115845 559:0.01758447289466858 560:0.009449522942304611 561:0.028276465833187103 562:0.0 563:0.11644138395786285 564:0.0 565:0.4780164361000061 566:0.15974511206150055 567:0.01758447289466858 568:0.06143265217542648 569:0.028348570689558983 570:0.0848294124007225 571:0.0 572:0.038813795894384384 573:0.0 574:0.0 575:0.0 576:0.06143265217542648 577:0.0 578:0.0 579:0.0 580:0.0 581:0.0 582:0.0 583:0.0 584:0.0 585:0.0 586:0.0 587:0.0 588:0.0 589:0.0 590:0.0 591:0.0 592:0.0 593:0.0 594:0.0 595:0.002179994247853756 596:0.0 597:0.0 598:0.0 599:0.016972439363598824 600:0.0 601:0.0 602:0.0 603:0.002179994247853756 604:0.013541184365749359 605:0.005949280224740505 606:0.017802448943257332 607:0.0 608:0.06137638911604881 609:0.0 610:0.0 611:0.0 612:0.013541184365749359 613:0.0 614:0.0 615:0.0 616:0.0 617:0.0 618:0.0 619:0.0 620:0.0 621:0.0 622:0.0 623:0.0 624:0.0 625:0.0 626:0.0 627:0.0 628:0.0 629:0.0 630:0.0 631:0.005369366612285376 632:0.0 633:0.0 634:0.0 635:0.05145716667175293 636:0.0 637:0.0 638:0.0 639:0.005369366612285376 640:0.033352188766002655 641:0.001983093563467264 642:0.00593414856120944 643:0.0 644:0.18574869632720947 645:0.0 646:0.04839206859469414 647:0.01617182046175003 648:0.033352188766002655 649:0.06789017468690872 650:0.0 651:0.0 652:0.0 653:0.0 654:0.0 655:0.0 656:0.0 657:0.06789017468690872 658:0.19793765246868134 659:0.0 660:0.0 661:0.0 662:0.0 663:0.0 664:0.0 665:0.0 666:0.19793765246868134 667:0.21167930960655212 668:0.13686195015907288 669:0.13844749331474304 670:0.0 671:0.009476899169385433 672:0.0 673:0.0 674:0.0 675:0.14879585802555084 676:0.2009994238615036 677:0.1922025978565216 678:0.06456004083156586 679:0.0 680:0.028430698439478874 681:0.0 682:0.016130689531564713 683:0.005390607286244631 684:0.1509396731853485 685:0.11377181857824326 686:0.0 687:0.0 688:0.0 689:0.0 690:0.0 691:0.0 692:0.0 693:0.11377181857824326 694:0.34598633646965027 695:0.023008309304714203 696:0.0 697:0.0 698:0.0 699:0.0 700:0.0 701:0.0 702:0.3144640624523163 703:0.49322769045829773 704:0.221956267952919 705:0.06456004083156586 706:0.0 707:0.0 708:0.0 709:0.0 710:0.019372912123799324 711:0.24312332272529602 712:0.12501418590545654 713:0.11624465137720108 714:0.07675264775753021 715:0.0 716:0.0 717:0.0 718:0.0 719:0.05811874195933342 720:0.07417357712984085 721:0.0 722:0.0 723:0.0 724:0.0 725:0.008958918042480946 726:0.0 727:0.0 728:0.0 729:0.0 730:0.0 731:0.0 732:0.0 733:0.0 734:0.10255145281553268 735:0.0 736:0.0 737:0.0 738:0.0 739:0.0 740:0.0 741:0.0 742:0.0 743:0.1979222595691681 744:0.01599205657839775 745:0.0078182527795434 746:0.0 747:0.0 748:0.0 749:0.0 750:0.0 751:0.0 752:0.057993099093437195 753:0.04797617346048355 754:0.023454761132597923 755:0.0 756:0.0 757:0.0 758:0.0 759:0.0 760:0.0 761:0.026120232418179512 762:0.0 763:0.0 764:0.0 765:0.0 766:0.0 767:0.0 768:0.0 769:0.0 770:0.2989945411682129 771:0.0 772:0.0 773:0.0 774:0.0 775:0.0 776:0.0 777:0.0 778:0.0 779:0.5014791488647461 780:0.021696386858820915 781:0.010607006028294563 782:0.0 783:0.0 784:0.0 785:0.0 786:0.0 787:0.0 788:0.23297375440597534 789:0.0650891587138176 790:0.03182101622223854 791:0.0 792:0.0 793:0.026650669053196907 794:0.0023244046606123447 795:0.0069555058144032955 796:0.0 797:0.01750973053276539 798:0.0 799:0.0 800:0.0 801:0.026650669053196907 802:0.04657747596502304 803:0.030740955844521523 804:0.09198866784572601 805:0.0 806:0.2592480480670929 807:0.0 808:0.0 809:0.0 810:0.04657747596502304 811:0.0029728433582931757 812:0.01635286957025528 813:0.04893402382731438 814:0.0 815:0.5434225797653198 816:0.02678844891488552 817:0.017427958548069 818:0.0014475241769105196 819:0.0029728433582931757 820:0.0 821:0.0 822:0.0 823:0.0 824:0.20489569008350372 825:0.08036535233259201 826:0.0965554490685463 827:0.019137391820549965 828:0.0 829:0.04693534970283508 830:0.006973213981837034 831:0.0208665169775486 832:0.0 833:0.0 834:0.0 835:0.0 836:0.0 837:0.04693534970283508 838:0.17901435494422913 839:0.0625586062669754 840:0.05588952824473381 841:0.0 842:0.01960556022822857 843:0.0 844:0.0 845:0.0 846:0.08060834556818008 847:0.05279340595006943 848:0.09260804951190948 849:0.07344324886798859 850:0.0 851:0.11232785880565643 852:0.008929482661187649 853:0.017360059544444084 854:0.0043425727635622025 855:0.00891853030771017 856:0.0 857:0.0 858:0.0 859:0.0 860:0.01783706061542034 861:0.02678844891488552 862:0.10393337160348892 863:0.04987340420484543 864:0.004044177010655403 865:0.01988379843533039 866:0.0 867:0.0 868:0.0 869:0.003365839133039117 870:0.0 871:0.0 872:0.0 873:0.04437411576509476 874:0.038961730897426605 875:0.0 876:0.0 877:0.0 878:0.00806409865617752 879:0.0 880:0.0 881:0.0 882:0.16417020559310913 883:0.042405497282743454 884:0.0 885:0.0 886:0.0 887:0.004513484891504049 888:0.0 889:0.0 890:0.0 891:0.22125144302845 892:0.02961011789739132 893:0.0 894:0.0 895:0.0 896:8.07425007224083E-4 897:0.0 898:0.0 899:0.0 900:0.10792537033557892 901:0.0603143684566021 902:0.0 903:0.0 904:0.0 905:0.0 906:0.0 907:0.0 908:0.0 909:0.11441817879676819 910:0.154768168926239 911:0.0 912:0.0 913:0.0 914:0.0 915:0.0 916:0.0 917:0.0 918:0.27161580324172974 919:0.23737898468971252 920:0.0 921:0.0 922:0.0 923:0.0 924:0.0 925:0.0 926:0.0 927:0.27161580324172974 928:0.165068119764328 929:0.0 930:0.0 931:0.0 932:0.0 933:0.0 934:0.0 935:0.0 936:0.23868200182914734 937:0.07946410775184631 938:0.0 939:0.0 940:0.0 941:0.0 942:0.0 943:0.0 944:0.001389332814142108 945:0.15086114406585693 946:0.26024970412254333 947:0.0 948:0.0 949:0.0 950:0.0 951:0.0 952:0.0 953:0.0037324100267142057 954:0.27161580324172974 955:0.27161580324172974 956:0.002354334807023406 957:0.0 958:0.0 959:0.0 960:0.0 961:0.0 962:0.0 963:0.27161580324172974 964:0.27161580324172974 965:0.012062117457389832 966:0.0 967:0.0 968:0.0 969:0.0 970:0.0 971:0.0 972:0.12304513156414032 973:0.01646088808774948 974:0.0 975:0.0 976:0.0 977:0.0 978:0.0 979:0.0 980:0.004880608059465885 981:0.08584072440862656 982:0.09957847744226456 983:0.0 984:0.0 985:0.0 986:0.0 987:0.0 988:0.0 989:0.011339622549712658 990:0.20352762937545776 991:0.24586963653564453 992:0.007063004653900862 993:0.0 994:0.0 995:0.0 996:0.0 997:0.0 998:0.0 999:0.1472657322883606 1000:0.15625235438346863 1001:0.03180018439888954 1002:0.0 1003:0.0 1004:0.0 1005:0.0 1006:0.0 1007:0.0 1008:0.017978092655539513 1009:0.007953754626214504 1010:0.0 1011:0.0 1012:0.0 1013:5.090056220069528E-4 1014:0.0 1015:0.0 1016:0.0 1017:0.036537133157253265 1018:0.01626393385231495 1019:0.0 1020:0.0 1021:0.0 1022:9.780919644981623E-4 1023:0.0 1024:0.0 1025:0.0021200100891292095 1026:0.10100947320461273 1027:0.02814534679055214 1028:0.0 1029:0.0 1030:0.0 1031:0.004491301253437996 1032:0.0 1033:0.0 1034:0.014679343439638615 1035:0.10289803147315979 1036:0.018280955031514168 1037:0.0 1038:0.0 1039:0.0 1040:0.0017732208361849189 1041:0.0 1042:0.0 1043:0.004005610942840576 1044:0.050229016691446304 1045:0.1260085254907608 1046:0.005189580377191305 1047:0.0 1048:0.0 1049:0.0 1050:0.0 1051:0.0 1052:0.0 1053:0.1903463751077652 1054:0.3135131895542145 1055:0.001167674083262682 1056:0.0 1057:0.0 1058:0.0 1059:0.0 1060:0.0 1061:7.066699326969683E-4 1062:0.3135131895542145 1063:0.3135131895542145 1064:0.0 1065:0.0 1066:0.0 1067:0.0 1068:0.0 1069:0.0 1070:0.005572180263698101 1071:0.3135131895542145 1072:0.12217168509960175 1073:0.0 1074:0.0 1075:0.0 1076:0.0 1077:0.0 1078:0.0 1079:0.0059697749093174934 1080:0.3135131895542145 1081:0.1352589875459671 1082:0.01616358384490013 1083:2.9043745598755777E-4 1084:0.0 1085:6.234009051695466E-4 1086:0.0 1087:0.002035735407844186 1088:6.803070427849889E-4 1089:0.05390717089176178 1090:0.30258387327194214 1091:0.00869693886488676 1092:0.01357689406722784 1093:0.00512065552175045 1094:1.4666235074400902E-4 1095:0.0 1096:6.785785662941635E-4 1097:2.267690288135782E-4 1098:0.2648331820964813 1099:0.207777738571167 1100:0.0011364622041583061 1101:0.014761589467525482 1102:0.04209496080875397 1103:0.005662213079631329 1104:0.0 1105:0.0 1106:0.0020371966529637575 1107:0.3135131895542145 1108:0.029268991202116013 1109:2.68055300693959E-4 1110:0.018470752984285355 1111:0.0230260007083416 1112:0.004934293683618307 1113:0.0 1114:0.0 1115:0.01390371285378933 1116:0.28335845470428467 1117:6.996170268394053E-4 1118:4.571050521917641E-4 1119:8.713123970665038E-4 1120:0.0 1121:0.003184386296197772 1122:0.0012434913078323007 1123:7.867016247473657E-4 1124:2.267690288135782E-4 1125:0.001579613541252911 1126:0.0019678508397191763 1127:0.004202416632324457 1128:0.013699357397854328 1129:0.006728725973516703 1130:0.003461704356595874 1131:3.4077579039148986E-4 1132:2.26192845730111E-4 1133:7.558967627119273E-5 1134:0.0 1135:0.0 1136:9.437005501240492E-4 1137:0.011948519386351109 1138:0.029923152178525925 1139:0.02144448272883892 1140:0.0 1141:0.0 1142:0.0 1143:0.0 1144:0.0 1145:8.935176447266713E-5 1146:0.006156918127089739 1147:0.019416851922869682 1148:0.023410702124238014 1149:0.0 1150:0.0 1151:0.0 1152:0.0 1153:0.0 1154:0.0 1155:0.0 1156:0.0 1157:0.0 1158:0.0 1159:0.0 1160:0.0 1161:0.0 1162:0.0 1163:0.0 1164:0.0 1165:0.0 1166:0.0 1167:0.0 1168:0.0 1169:0.0 1170:0.0 1171:0.0 1172:0.0 1173:0.0 1174:0.0 1175:0.1761017143726349 1176:0.0 1177:0.045885633677244186 1178:0.015334172174334526 1179:0.0 1180:0.0 1181:0.0 1182:0.0 1183:0.0 1184:0.10621167719364166 1185:0.0 1186:0.16593338549137115 1187:0.055452022701501846 1188:0.0 1189:0.0 1190:0.0 1191:0.0 1192:0.0 1193:0.0 1194:0.0 1195:0.0 1196:0.0 1197:0.0 1198:0.0 1199:0.0 1200:0.0 1201:0.0 1202:0.0 1203:0.0 1204:0.0 1205:0.0 1206:0.0 1207:0.0 1208:0.0 1209:0.0 1210:0.0 1211:0.038813795894384384 1212:0.0 1213:0.06225293129682541 1214:0.02080383524298668 1215:0.0 1216:0.05822069197893143 1217:0.0 1218:0.0 1219:0.0 1220:0.012937931343913078 1221:0.0 1222:0.2715882658958435 1223:0.0907600149512291 1224:0.05822069197893143 1225:0.12724237143993378 1226:0.0 1227:0.0 1228:0.0 1229:0.0 1230:0.0 1231:0.051451634615659714 1232:0.017194276675581932 1233:0.12724237143993378 1234:0.31580275297164917 1235:0.0 1236:0.0 1237:0.0 1238:0.0 1239:0.0 1240:0.10589596629142761 1241:0.03538866341114044 1242:0.31580275297164917 1243:0.05275341868400574 1244:0.0 1245:0.0 1246:0.0 1247:0.0 1248:0.0 1249:0.11271879076957703 1250:0.03766873851418495 1251:0.05275341868400574 1252:0.03274505212903023 1253:0.0 1254:0.0 1255:0.0 1256:0.0 1257:0.0 1258:0.0 1259:0.0 1260:0.03274505212903023 1261:0.12978695333003998 1262:0.0 1263:0.0 1264:0.0 1265:0.04283639043569565 1266:0.0 1267:0.03607854247093201 1268:0.012056848034262657 1269:0.12978695333003998 1270:0.18357425928115845 1271:0.0 1272:0.0 1273:0.0 1274:0.014278796501457691 1275:0.0 1276:0.3643079102039337 1277:0.12174563109874725 1278:0.18357425928115845 1279:0.01758447289466858 1280:0.009449522942304611 1281:0.028276465833187103 1282:0.0 1283:0.11644138395786285 1284:0.0 1285:0.4780164361000061 1286:0.15974511206150055 1287:0.01758447289466858 1288:0.06143265217542648 1289:0.028348570689558983 1290:0.0848294124007225 1291:0.0 1292:0.038813795894384384 1293:0.0 1294:0.0 1295:0.0 1296:0.06143265217542648 1297:0.005619123112410307 1298:0.0 1299:0.0 1300:0.0 1301:0.010641040280461311 1302:0.009952254593372345 1303:0.010721724480390549 1304:0.01017338689416647 1305:0.007321640849113464 1306:0.019117670133709908 1307:0.0 1308:0.0 1309:0.0 1310:0.003547013271600008 1311:0.04796580597758293 1312:0.1053633913397789 1313:0.06615540385246277 1314:0.0520947091281414 1315:0.006004407070577145 1316:0.0 1317:0.0 1318:0.0 1319:0.0 1320:0.00603634724393487 1321:0.04230443388223648 1322:0.2635991871356964 1323:0.17565281689167023 1324:0.0 1325:0.0 1326:0.0 1327:0.0 1328:0.0 1329:0.0 1330:0.008171513676643372 1331:0.1739698052406311 1332:0.1130601316690445 1333:0.036852505058050156 1334:0.0 1335:0.0 1336:0.0 1337:0.03516800329089165 1338:0.003317418275400996 1339:0.013202762231230736 1340:0.003870154730975628 1341:0.036852505058050156 1342:0.062173906713724136 1343:0.027852056547999382 1344:0.08334365487098694 1345:0.0 1346:0.12574408948421478 1347:0.009952254593372345 1348:0.060646358877420425 1349:0.05073493346571922 1350:0.10614383220672607 1351:0.01801322214305401 1352:0.009284019470214844 1353:0.02778121829032898 1354:0.0 1355:0.016703477129340172 1356:0.0 1357:0.15182824432849884 1358:0.43031999468803406 1359:0.24279384315013885 1360:0.005462785251438618 1361:0.0 1362:0.0 1363:0.0 1364:0.020411653444170952 1365:0.0 1366:0.06777466088533401 1367:0.26600852608680725 1368:0.16040609776973724 1369:0.015043429099023342 1370:0.0 1371:0.0 1372:0.0 1373:0.11840619891881943 1374:0.006197748705744743 1375:0.037772782146930695 1376:0.011610465124249458 1377:0.015043429099023342 1378:0.005008906126022339 1379:0.009284019470214844 1380:0.02778121829032898 1381:0.0 1382:0.42813676595687866 1383:0.01859324797987938 1384:0.05025802552700043 1385:0.013757678680121899 1386:0.005008906126022339 1387:0.010205826722085476 1388:0.009475462138652802 1389:0.028354162350296974 1390:0.0 1391:0.1770867556333542 1392:0.0 1393:0.13865020871162415 1394:0.09488047659397125 1395:0.020265113562345505 1396:0.01638835482299328 1397:0.004474290180951357 1398:0.013388783670961857 1399:0.0 1400:0.15386399626731873 1401:0.0 1402:0.05057401582598686 1403:0.05094202607870102 1404:0.02344205416738987 1405:0.005227976944297552 1406:0.003769355360418558 1407:0.011279348284006119 1408:0.0 1409:0.04153067618608475 1410:0.01859324797987938 1411:0.01379186287522316 1412:0.0015713024185970426 1413:0.04336787760257721 1414:0.024384450167417526 1415:0.0012564517091959715 1416:0.0037597825285047293 1417:0.0 1418:0.07207614928483963 1419:0.05577974021434784 1420:0.08455100655555725 1421:0.0432201623916626 1422:0.2339886575937271 1423:0.07785686105489731 1424:0.02148972824215889 1425:0.06430546194314957 1426:0.0 1427:0.05333013832569122 1428:0.0 1429:0.01909373514354229 1430:0.01440672017633915 1431:0.10958503931760788 1432:0.008905023336410522 1433:0.04017490893602371 1434:0.06123895198106766 1435:0.0 1436:0.06389046460390091 1437:0.0 1438:0.0 1439:0.0 1440:0.004820891190320253 1441:0.0 1442:0.0 1443:0.0 1444:0.0 1445:0.008958918042480946 1446:0.0 1447:0.0 1448:0.0 1449:0.0 1450:0.0 1451:0.0 1452:0.0 1453:0.0 1454:0.10255145281553268 1455:0.0 1456:0.0 1457:0.0 1458:0.0 1459:0.0 1460:0.0 1461:0.0 1462:0.0 1463:0.1979222595691681 1464:0.01599205657839775 1465:0.0078182527795434 1466:0.0 1467:0.0 1468:0.0 1469:0.0 1470:0.0 1471:0.0 1472:0.057993099093437195 1473:0.04797617346048355 1474:0.023454761132597923 1475:0.0 1476:0.0 1477:0.0 1478:0.0 1479:0.0 1480:0.0 1481:0.026120232418179512 1482:0.0 1483:0.0 1484:0.0 1485:0.0 1486:0.0 1487:0.0 1488:0.0 1489:0.0 1490:0.2989945411682129 1491:0.0 1492:0.0 1493:0.0 1494:0.0 1495:0.0 1496:0.0 1497:0.0 1498:0.0 1499:0.5014791488647461 1500:0.021696386858820915 1501:0.010607006028294563 1502:0.0 1503:0.0 1504:0.0 1505:0.0 1506:0.0 1507:0.0 1508:0.23297375440597534 1509:0.0650891587138176 1510:0.03182101622223854 1511:0.0 1512:0.0 1513:0.026650669053196907 1514:0.0023244046606123447 1515:0.0069555058144032955 1516:0.0 1517:0.01750973053276539 1518:0.0 1519:0.0 1520:0.0 1521:0.026650669053196907 1522:0.04657747596502304 1523:0.030740955844521523 1524:0.09198866784572601 1525:0.0 1526:0.2592480480670929 1527:0.0 1528:0.0 1529:0.0 1530:0.04657747596502304 1531:0.0029728433582931757 1532:0.01635286957025528 1533:0.04893402382731438 1534:0.0 1535:0.5434225797653198 1536:0.02678844891488552 1537:0.017427958548069 1538:0.0014475241769105196 1539:0.0029728433582931757 1540:0.0 1541:0.0 1542:0.0 1543:0.0 1544:0.20489569008350372 1545:0.08036535233259201 1546:0.0965554490685463 1547:0.019137391820549965 1548:0.0 1549:0.04693534970283508 1550:0.006973213981837034 1551:0.0208665169775486 1552:0.0 1553:0.0 1554:0.0 1555:0.0 1556:0.0 1557:0.04693534970283508 1558:0.17901435494422913 1559:0.0625586062669754 1560:0.05588952824473381 1561:0.0 1562:0.01960556022822857 1563:0.0 1564:0.0 1565:0.0 1566:0.08060834556818008 1567:0.05279340595006943 1568:0.09260804951190948 1569:0.07344324886798859 1570:0.0 1571:0.11232785880565643 1572:0.008929482661187649 1573:0.017360059544444084 1574:0.0043425727635622025 1575:0.00891853030771017 1576:0.0 1577:0.0 1578:0.0 1579:0.0 1580:0.01783706061542034 1581:0.02678844891488552 1582:0.10393337160348892 1583:0.04987340420484543 1584:0.004044177010655403 1585:0.002678705146536231 1586:0.018669845536351204 1587:0.014261026866734028 1588:0.0 1589:0.0 1590:0.0 1591:0.0 1592:0.0079213110730052 1593:0.002616716083139181 1594:0.01184130646288395 1595:0.0054170843213796616 1596:0.004753675777465105 1597:0.0 1598:0.004305644892156124 1599:0.0 1600:0.03537989780306816 1601:0.06930936872959137 1602:0.029938358813524246 1603:0.002838192507624626 1604:0.007987402379512787 1605:0.02871319092810154 1606:0.00222136452794075 1607:0.04697524756193161 1608:0.008559864945709705 1609:0.021672682836651802 1610:0.057375650852918625 1611:0.053821124136447906 1612:0.0012022207956761122 1613:0.021897777915000916 1614:0.0626005083322525 1615:0.006664094515144825 1616:0.011352770030498505 1617:0.0028532883152365685 1618:0.0013949255226179957 1619:0.0 1620:0.0 1621:0.012293403968214989 1622:0.030692530795931816 1623:0.022231871262192726 1624:0.008559864945709705 1625:0.009469997137784958 1626:0.0 1627:0.0 1628:0.0012945790076628327 1629:0.007451529148966074 1630:0.06687873601913452 1631:0.007812250405550003 1632:0.00601569889113307 1633:0.015458792448043823 1634:0.006496017333120108 1635:0.04092700779438019 1636:0.009432617574930191 1637:0.043220095336437225 1638:0.07134129106998444 1639:0.014708896167576313 1640:0.0023541110567748547 1641:0.021479910239577293 1642:0.11807966977357864 1643:0.41103264689445496 1644:0.12278103083372116 1645:0.020228026434779167 1646:0.09391039609909058 1647:0.03170320764183998 1648:0.00360666261985898 1649:0.021350769326090813 1650:0.0888388454914093 1651:0.13789641857147217 1652:0.20937369763851166 1653:0.0 1654:0.0 1655:0.0 1656:0.0 1657:0.008217883296310902 1658:0.001614407985471189 1659:0.006225830875337124 1660:0.0028532883152365685 1661:0.03980914503335953 1662:0.0 1663:0.014492715708911419 1664:0.004843223374336958 1665:0.008217883296310902 1666:0.026671521365642548 1667:0.0197355505079031 1668:0.12296286970376968 1669:0.06704343110322952 1670:0.01024654135107994 1671:0.013642336241900921 1672:0.004830905236303806 1673:0.001614407985471189 1674:0.026671521365642548 1675:0.002064772881567478 1676:0.006399137899279594 1677:0.23037220537662506 1678:0.45482340455055237 1679:0.29721707105636597 1680:0.04092700779438019 1681:0.0 1682:0.0 1683:0.002064772881567478 1684:0.0 1685:0.0 1686:0.021562915295362473 1687:0.2666814625263214 1688:0.3057330250740051 1689:0.04858200252056122 1690:0.0 1691:0.0 1692:0.0 1693:0.016170207411050797 1694:0.0 1695:0.0 1696:0.0 1697:0.0037997178733348846 1698:0.0 1699:0.004830905236303806 1700:0.005793801508843899 1701:0.021896138787269592 1702:0.016278043389320374 1703:0.022485017776489258 1704:0.10117971897125244 1705:0.032649386674165726 1706:0.001274910639040172 1707:0.0355902723968029 1708:0.01164904423058033 1709:0.013076316565275192 1710:0.033455830067396164 1711:0.0 1712:0.007495005615055561 1713:0.13443635404109955 1714:0.24956411123275757 1715:0.061780426651239395 1716:0.09158122539520264 1717:0.0033462478313595057 1718:0.0 1719:0.0 1720:0.0 1721:0.0 1722:0.03336316719651222 1723:0.13364863395690918 1724:0.08104655891656876 1725:0.05342087894678116 1726:0.0 1727:0.0 1728:0.0 
