svm_type c_svc
kernel_type rbf
gamma 0.06666667014360428
nr_class 2
total_sv 15
rho 0.08759879077307736
label 0 1
probA -5.0531148513853195
probB 1.3054292809342205
nr_sv 9 6
SV
0.8378914939472383 1:0.0 2:0.0 3:0.0 4:0.0 5:0.0 6:0.0 7:0.0 8:0.0 9:0.0 10:0.011471733450889587 11:0.0 12:0.0 13:0.0 14:0.0 15:0.0 16:0.0 17:0.0 18:0.011471733450889587 19:0.07174446433782578 20:0.0 21:0.0 22:0.0 23:0.0 24:0.0 25:0.0 26:0.0 27:0.07174446433782578 28:0.04217061772942543 29:0.0 30:0.0 31:0.0 32:0.0 33:0.0 34:0.0 35:0.0 36:0.04217061772942543 37:0.0 38:0.0 39:0.0 40:0.0 41:0.0 42:0.0 43:0.0 44:0.0 45:0.0 46:0.05332888662815094 47:0.0 48:0.0 49:0.0 50:0.3652876019477844 51:0.0 52:0.0 53:0.0 54:0.05332888662815094 55:0.33351999521255493 56:0.0 57:0.0 58:0.0 59:0.38882288336753845 60:0.0 61:0.0 62:0.0 63:0.33351999521255493 64:0.19603945314884186 65:0.0 66:0.0 67:0.0 68:0.0 69:0.0 70:0.0 71:0.0 72:0.19603945314884186 73:0.0 74:0.0 75:0.0 76:0.0 77:0.0 78:0.0 79:0.0 80:0.0 81:0.0 82:0.05674107000231743 83:0.0 84:0.0 85:0.0 86:0.12176252156496048 87:0.0 88:0.0 89:0.0 90:0.05674107000231743 91:0.3548598289489746 92:0.0 93:0.0 94:0.0 95:0.12960761785507202 96:0.0 97:0.0 98:0.0 99:0.3548598289489746 100:0.208582803606987 101:0.0 102:0.0 103:0.0 104:0.0 105:0.0 106:0.0 107:0.0 108:0.208582803606987 109:0.0 110:0.0 111:0.0 112:0.0 113:0.0 114:0.0 115:0.0 116:0.0 117:0.0 118:0.0 119:0.0 120:0.0 121:0.0 122:0.0 123:0.0 124:0.0 125:0.0 126:0.0 127:0.0 128:0.0 129:0.0 130:0.0 131:0.0 132:0.0 133:0.0 134:0.0 135:0.0 136:0.0 137:0.0 138:0.0 139:0.0 140:0.0 141:0.0 142:0.0 143:0.0 144:0.0 145:0.009406761266291142 146:0.0 147:0.0 148:0.0 149:0.011111943982541561 150:0.0 151:0.012418887577950954 152:0.004150174092501402 153:0.009406761266291142 154:0.00313558685593307 155:0.0 156:0.0 157:0.0 158:0.014643586240708828 159:0.0 160:0.1252228170633316 161:0.04184726998209953 162:0.00313558685593307 163:0.0 164:0.0 165:0.0 166:0.0 167:0.05998438596725464 168:0.0 169:0.029322054237127304 170:0.009798916056752205 171:0.0 172:0.0 173:0.0 174:0.0 175:0.0 176:0.11006108671426773 177:0.0 178:0.0 179:0.0 180:0.0 181:0.00313558685593307 182:0.0 183:0.0 184:0.0 185:0.0 186:0.0 187:0.004139629192650318 188:0.0013833913253620267 189:0.00313558685593307 190:0.0010451956186443567 191:0.0 192:0.0 193:0.0 194:0.2999511659145355 195:0.0 196:0.13176238536834717 197:0.04403267055749893 198:0.0010451956186443567 199:0.0 200:0.0042611537501215935 201:0.01275094784796238 202:0.0 203:0.4467695951461792 204:0.0 205:0.03978116810321808 206:0.013294166885316372 207:0.0 208:0.0 209:0.01278346125036478 210:0.03825284168124199 211:0.0 212:0.284801185131073 213:0.0 214:0.0 215:0.0 216:0.0 217:0.0 218:0.0 219:0.0 220:0.0 221:0.0 222:0.0 223:0.0 224:0.0 225:0.0 226:0.006014686077833176 227:0.0 228:0.0 229:0.0 230:0.4198777973651886 231:0.0 232:0.05565759539604187 233:0.01859978958964348 234:0.006014686077833176 235:0.03396788612008095 236:0.07330769300460815 237:0.2193637192249298 238:0.0 239:0.36320969462394714 240:0.0 241:0.16697277128696442 242:0.05579936504364014 243:0.03396788612008095 244:0.03087816946208477 245:0.09275894612073898 246:0.27756908535957336 247:0.0 248:0.12873275578022003 249:0.0 250:0.0 251:0.0 252:0.03087816946208477 253:0.0 254:0.0 255:0.0 256:0.0 257:0.0 258:0.0 259:0.0 260:0.0 261:0.0 262:0.018044058233499527 263:0.0 264:0.0 265:0.0 266:0.04633805900812149 267:0.0 268:0.01855253241956234 269:0.006199929863214493 270:0.018044058233499527 271:0.10190365463495255 272:0.020174745470285416 273:0.06037028878927231 274:0.0 275:0.04905066266655922 276:0.0 277:0.05565759539604187 278:0.01859978958964348 279:0.10190365463495255 280:0.024447236210107803 281:0.029203340411186218 282:0.08738719671964645 283:0.0 284:0.1196274533867836 285:0.0 286:0.0 287:0.0 288:0.024447236210107803 289:0.12876366078853607 290:0.0 291:0.0 292:0.0 293:0.0 294:0.0 295:0.0 296:0.0 297:0.12876366078853607 298:0.37541770935058594 299:0.0 300:0.0 301:0.0 302:0.0 303:0.0 304:0.0 305:0.0 306:0.37541770935058594 307:0.4625859558582306 308:0.0 309:0.0 310:0.0 311:0.0 312:0.0 313:0.0 314:0.0 315:0.4625859558582306 316:0.23827968537807465 317:0.0 318:0.0 319:0.0 320:0.0 321:0.0 322:0.0 323:0.0 324:0.23827968537807465 325:0.0 326:0.0 327:0.0 328:0.0 329:0.0 330:0.0 331:0.0 332:0.0 333:0.0 334:0.0 335:0.0 336:0.0 337:0.0 338:0.0 339:0.0 340:0.0 341:0.0 342:0.0 343:0.0 344:0.0 345:0.0 346:0.0 347:0.0 348:0.0 349:0.0 350:0.0 351:0.0 352:0.0 353:0.0 354:0.0 355:0.0 356:0.0 357:0.0 358:0.0 359:0.0 360:0.0 361:0.0 362:0.0 363:0.0 364:0.0 365:0.0 366:0.0 367:0.0 368:0.0 369:0.0 370:0.0 371:0.0 372:0.0 373:0.0 374:0.0 375:0.0 376:0.0 377:0.0 378:0.0 379:0.0 380:0.0 381:0.0 382:0.0 383:0.0 384:0.0 385:0.0 386:0.0 387:0.0 388:0.0 389:0.0 390:0.0 391:0.0 392:0.0 393:0.0 394:0.0 395:0.0 396:0.0 397:0.0 398:0.0 399:0.0 400:0.0 401:0.0 402:0.0 403:0.0 404:0.0 405:0.0 406:0.0 407:0.0 408:0.0 409:0.0 410:0.0 411:0.0 412:0.0 413:0.0 414:0.0 415:0.0 416:0.0 417:0.0 418:0.0 419:0.0 420:0.0 421:0.0 422:0.0 423:0.0 424:0.0 425:0.0 426:0.0 427:0.0 428:0.0 429:0.0 430:0.0 431:0.0 432:0.0 433:0.013371028937399387 434:0.0 435:0.0 436:0.0 437:0.0 438:0.0 439:0.0 440:0.0 441:0.013371028937399387 442:0.038983989506959915 443:0.0 444:0.0 445:0.0 446:0.0 447:0.0 448:0.0 449:0.0 450:0.038983989506959915 451:0.043953146785497665 452:0.0028923084028065205 453:0.008654856123030186 454:0.0 455:0.031784787774086 456:0.0 457:0.0 458:0.0 459:0.043953146785497665 460:0.005940059199929237 461:0.0133213484659791 462:0.03986240550875664 463:0.0 464:0.14639386534690857 465:0.0 466:0.0 467:0.0 468:0.005940059199929237 469:0.0 470:0.0 471:0.0 472:0.0 473:0.0 474:0.0 475:0.0 476:0.0 477:0.0 478:0.0 479:0.0 480:0.0 481:0.0 482:0.0 483:0.0 484:0.0 485:0.0 486:0.0 487:0.0 488:0.0 489:0.0 490:0.0 491:0.11647609621286392 492:0.0 493:0.0 494:0.0 495:0.0 496:0.0 497:0.0 498:0.0 499:0.0 500:0.536463737487793 501:0.0 502:0.0 503:0.0 504:0.0 505:0.0 506:0.0 507:0.0 508:0.0 509:0.0 510:0.0 511:0.0 512:0.0 513:0.0 514:0.0 515:0.0 516:0.0 517:0.0 518:0.0 519:0.0 520:0.0 521:0.0 522:0.0 523:0.0 524:0.0 525:0.0 526:0.0 527:0.15571846067905426 528:0.0 529:0.0 530:0.0 531:0.0 532:0.0 533:0.0 534:0.0771552249789238 535:0.1578192561864853 536:0.5925348401069641 537:0.0 538:0.0 539:0.0 540:0.0 541:0.0 542:0.0 543:0.0 544:0.0 545:0.0 546:0.0 547:0.0 548:0.0 549:0.0 550:0.0 551:0.0 552:0.0 553:0.0 554:0.0 555:0.0 556:0.0 557:0.0 558:0.0 559:0.0 560:0.0 561:0.0 562:0.0 563:0.13010837137699127 564:0.0 565:0.0 566:0.0 567:0.0 568:0.0 569:0.0 570:0.064068503677845 571:0.13105066120624542 572:0.4532301127910614 573:0.0 574:0.0 575:0.0 576:0.0 577:0.05950796976685524 578:0.0 579:0.0 580:0.0 581:0.0 582:0.0 583:0.0 584:0.0 585:0.05950796976685524 586:0.17349883913993835 587:0.0 588:0.0 589:0.0 590:0.0 591:0.0 592:0.0 593:0.0 594:0.17349883913993835 595:0.21378356218338013 596:0.0 597:0.0 598:0.0 599:0.0 600:0.0 601:0.0 602:0.0 603:0.21378356218338013 604:0.11012066155672073 605:0.0 606:0.0 607:0.0 608:0.0 609:0.0 610:0.0 611:0.0 612:0.11012066155672073 613:0.013999943621456623 614:0.0 615:0.0 616:0.0 617:0.0 618:0.0 619:0.0 620:0.0 621:0.013999943621456623 622:0.04081762582063675 623:0.0 624:0.0 625:0.0 626:0.0 627:0.0 628:0.0 629:0.0 630:0.04081762582063675 631:0.05029507353901863 632:0.0 633:0.0 634:0.0 635:0.0 636:0.0 637:0.0 638:0.0 639:0.05029507353901863 640:0.02590717375278473 641:0.0 642:0.0 643:0.0 644:0.0 645:0.0 646:0.0 647:0.0 648:0.02590717375278473 649:0.026155337691307068 650:0.0 651:0.0 652:0.0 653:0.0 654:0.0 655:0.0 656:0.0 657:0.026155337691307068 658:0.0762573704123497 659:0.0 660:0.0 661:0.0 662:0.0 663:0.0 664:0.0 665:0.0 666:0.0762573704123497 667:0.09396357089281082 668:0.0 669:0.0 670:0.0 671:0.0 672:0.0 673:0.0 674:0.0 675:0.09396357089281082 676:0.04840097203850746 677:0.0 678:0.0 679:0.0 680:0.0 681:0.0 682:0.0 683:0.0 684:0.04840097203850746 685:0.12046584486961365 686:0.0 687:0.0 688:0.0 689:0.0 690:0.0 691:0.0 692:0.0 693:0.12046584486961365 694:0.35122498869895935 695:0.0 696:0.0 697:0.0 698:0.0 699:0.0 700:0.0 701:0.0 702:0.35122498869895935 703:0.43277594447135925 704:0.0 705:0.0 706:0.0 707:0.0 708:0.0 709:0.0 710:0.0 711:0.43277594447135925 712:0.22292442619800568 713:0.0 714:0.0 715:0.0 716:0.0 717:0.0 718:0.0 719:0.0 720:0.22292442619800568 721:0.057174310088157654 722:0.0 723:0.0 724:0.0 725:0.0 726:0.0 727:0.0 728:0.0 729:0.057174310088157654 730:0.15822698175907135 731:0.0 732:0.0 733:0.0 734:0.0 735:0.0 736:0.0 737:0.031369682401418686 738:0.164727121591568 739:0.2550012171268463 740:0.019026683643460274 741:0.0 742:0.0 743:0.0 744:0.0 745:0.0 746:0.09410905092954636 747:0.2705591917037964 748:0.12762115895748138 749:0.05708004906773567 750:0.0 751:0.0 752:0.0 753:0.0 754:0.0 755:0.0 756:0.11579356342554092 757:0.01345092337578535 758:0.0 759:0.0 760:0.0 761:0.0 762:0.0 763:0.0 764:0.0 765:0.01345092337578535 766:0.03921692445874214 767:0.0 768:0.0 769:0.0 770:0.0 771:0.0 772:0.0 773:0.0 774:0.03921692445874214 775:0.06624936312437057 776:0.0 777:0.0 778:0.0 779:0.0 780:0.0 781:0.0 782:0.0 783:0.06624936312437057 784:0.030866753309965134 785:0.0 786:0.0 787:0.0 788:0.0 789:0.0 790:0.0 791:0.0 792:0.030866753309965134 793:0.025129633024334908 794:0.0 795:0.0 796:0.0 797:0.0 798:0.0 799:0.0 800:0.0 801:0.025129633024334908 802:0.07326686382293701 803:0.0 804:0.0 805:0.0 806:0.0 807:0.0 808:0.0 809:0.0 810:0.07326686382293701 811:0.09027870744466782 812:0.0 813:0.0 814:0.0 815:0.0 816:0.0 817:0.0 818:0.0 819:0.09027870744466782 820:0.04650288075208664 821:0.0 822:0.0 823:0.0 824:0.0 825:0.0 826:0.0 827:0.0 828:0.04650288075208664 829:0.11574167758226395 830:0.0 831:0.0 832:0.0 833:0.0 834:0.0 835:0.0 836:0.0 837:0.11574167758226395 838:0.33745139837265015 839:0.0 840:0.0 841:0.0 842:0.0 843:0.0 844:0.0 845:0.0 846:0.33745139837265015 847:0.41580426692962646 848:0.0 849:0.0 850:0.0 851:0.0 852:0.0 853:0.0 854:0.0 855:0.41580426692962646 856:0.21418224275112152 857:0.0 858:0.0 859:0.0 860:0.0 861:0.0 862:0.0 863:0.0 864:0.21418224275112152 865:0.009406761266291142 866:0.0 867:0.0 868:0.0 869:0.011111943982541561 870:0.0 871:0.012418887577950954 872:0.004150174092501402 873:0.009406761266291142 874:0.00313558685593307 875:0.0 876:0.0 877:0.0 878:0.014643586240708828 879:0.0 880:0.1252228170633316 881:0.04184726998209953 882:0.00313558685593307 883:0.0 884:0.0 885:0.0 886:0.0 887:0.05998438596725464 888:0.0 889:0.029322054237127304 890:0.009798916056752205 891:0.0 892:0.0 893:0.0 894:0.0 895:0.0 896:0.11006108671426773 897:0.0 898:0.0 899:0.0 900:0.0 901:0.00313558685593307 902:0.0 903:0.0 904:0.0 905:0.0 906:0.0 907:0.004139629192650318 908:0.0013833913253620267 909:0.00313558685593307 910:0.0010451956186443567 911:0.0 912:0.0 913:0.0 914:0.2999511659145355 915:0.0 916:0.13176238536834717 917:0.04403267055749893 918:0.0010451956186443567 919:0.0 920:0.0042611537501215935 921:0.01275094784796238 922:0.0 923:0.4467695951461792 924:0.0 925:0.03978116810321808 926:0.013294166885316372 927:0.0 928:0.0 929:0.01278346125036478 930:0.03825284168124199 931:0.0 932:0.284801185131073 933:0.0 934:0.0 935:0.0 936:0.0 937:0.0 938:0.0 939:0.0 940:0.0 941:0.0 942:0.0 943:0.0 944:0.0 945:0.0 946:0.006014686077833176 947:0.0 948:0.0 949:0.0 950:0.4198777973651886 951:0.0 952:0.05565759539604187 953:0.01859978958964348 954:0.006014686077833176 955:0.03396788612008095 956:0.07330769300460815 957:0.2193637192249298 958:0.0 959:0.36320969462394714 960:0.0 961:0.16697277128696442 962:0.05579936504364014 963:0.03396788612008095 964:0.03087816946208477 965:0.09275894612073898 966:0.27756908535957336 967:0.0 968:0.12873275578022003 969:0.0 970:0.0 971:0.0 972:0.03087816946208477 973:0.0 974:0.0 975:0.0 976:0.0 977:0.0 978:0.0 979:0.0 980:0.0 981:0.0 982:0.018044058233499527 983:0.0 984:0.0 985:0.0 986:0.04633805900812149 987:0.0 988:0.01855253241956234 989:0.006199929863214493 990:0.018044058233499527 991:0.10190365463495255 992:0.020174745470285416 993:0.06037028878927231 994:0.0 995:0.04905066266655922 996:0.0 997:0.05565759539604187 998:0.01859978958964348 999:0.10190365463495255 1000:0.024447236210107803 1001:0.029203340411186218 1002:0.08738719671964645 1003:0.0 1004:0.1196274533867836 1005:0.0 1006:0.0 1007:0.0 1008:0.024447236210107803 1009:0.005905536003410816 1010:0.0 1011:0.0 1012:0.0 1013:0.0 1014:0.0 1015:0.0 1016:0.0 1017:0.005905536003410816 1018:0.053230706602334976 1019:0.0 1020:0.0 1021:0.0 1022:0.0 1023:0.0 1024:0.0 1025:0.0 1026:0.053230706602334976 1027:0.06948530673980713 1028:0.0 1029:0.0 1030:0.0 1031:0.0 1032:0.0 1033:0.0 1034:0.0 1035:0.06948530673980713 1036:0.03579213097691536 1037:0.0 1038:0.0 1039:0.0 1040:0.0 1041:0.0 1042:0.0 1043:0.0 1044:0.03579213097691536 1045:0.027453191578388214 1046:0.0 1047:0.0 1048:0.0 1049:0.1343412697315216 1050:0.0 1051:0.0 1052:0.0 1053:0.027453191578388214 1054:0.2474546879529953 1055:0.0 1056:0.0 1057:0.0 1058:0.18226048350334167 1059:0.0 1060:0.0 1061:0.0 1062:0.2474546879529953 1063:0.32301783561706543 1064:0.0 1065:0.0 1066:0.0 1067:0.0 1068:0.0 1069:0.0 1070:0.0 1071:0.32301783561706543 1072:0.1663876175880432 1073:0.0 1074:0.0 1075:0.0 1076:0.0 1077:0.0 1078:0.0 1079:0.0 1080:0.1663876175880432 1081:0.09181120246648788 1082:0.0 1083:0.0 1084:0.0 1085:0.056591495871543884 1086:0.0 1087:0.020103713497519493 1088:0.006718307733535767 1089:0.09181120246648788 1090:0.27708548307418823 1091:0.0 1092:0.0 1093:0.0 1094:0.09618671238422394 1095:0.0 1096:0.006701237987726927 1097:0.002239435911178589 1098:0.27708548307418823 1099:0.3436856269836426 1100:0.0 1101:0.0 1102:0.0 1103:0.0 1104:0.0 1105:0.0 1106:0.0 1107:0.3436856269836426 1108:0.17703373730182648 1109:0.0 1110:0.0 1111:0.0 1112:0.0 1113:0.0 1114:0.0 1115:0.0 1116:0.17703373730182648 1117:0.031408775597810745 1118:0.0 1119:0.0 1120:0.0 1121:0.0848546102643013 1122:0.0 1123:0.06031114235520363 1124:0.02015492506325245 1125:0.031408775597810745 1126:0.0045992364175617695 1127:0.0 1128:0.0 1129:0.0 1130:0.173349529504776 1131:0.0 1132:0.020103713497519493 1133:0.006718307733535767 1134:0.0045992364175617695 1135:0.0 1136:0.0 1137:0.0 1138:0.0 1139:0.0 1140:0.0 1141:0.0 1142:0.0 1143:0.0 1144:0.0 1145:0.0 1146:0.0 1147:0.0 1148:0.0 1149:0.0 1150:0.0 1151:0.0 1152:0.0 1153:0.013371028937399387 1154:0.0 1155:0.0 1156:0.0 1157:0.0 1158:0.0 1159:0.0 1160:0.0 1161:0.013371028937399387 1162:0.038983989506959915 1163:0.0 1164:0.0 1165:0.0 1166:0.0 1167:0.0 1168:0.0 1169:0.0 1170:0.038983989506959915 1171:0.043953146785497665 1172:0.0028923084028065205 1173:0.008654856123030186 1174:0.0 1175:0.031784787774086 1176:0.0 1177:0.0 1178:0.0 1179:0.043953146785497665 1180:0.005940059199929237 1181:0.0133213484659791 1182:0.03986240550875664 1183:0.0 1184:0.14639386534690857 1185:0.0 1186:0.0 1187:0.0 1188:0.005940059199929237 1189:0.0 1190:0.0 1191:0.0 1192:0.0 1193:0.0 1194:0.0 1195:0.0 1196:0.0 1197:0.0 1198:0.0 1199:0.0 1200:0.0 1201:0.0 1202:0.0 1203:0.0 1204:0.0 1205:0.0 1206:0.0 1207:0.0 1208:0.0 1209:0.0 1210:0.0 1211:0.11647609621286392 1212:0.0 1213:0.0 1214:0.0 1215:0.0 1216:0.0 1217:0.0 1218:0.0 1219:0.0 1220:0.536463737487793 1221:0.0 1222:0.0 1223:0.0 1224:0.0 1225:0.0 1226:0.0 1227:0.0 1228:0.0 1229:0.0 1230:0.0 1231:0.0 1232:0.0 1233:0.0 1234:0.0 1235:0.0 1236:0.0 1237:0.0 1238:0.0 1239:0.0 1240:0.0 1241:0.0 1242:0.0 1243:0.0 1244:0.0 1245:0.0 1246:0.0 1247:0.15571846067905426 1248:0.0 1249:0.0 1250:0.0 1251:0.0 1252:0.0 1253:0.0 1254:0.0771552249789238 1255:0.1578192561864853 1256:0.5925348401069641 1257:0.0 1258:0.0 1259:0.0 1260:0.0 1261:0.0 1262:0.0 1263:0.0 1264:0.0 1265:0.0 1266:0.0 1267:0.0 1268:0.0 1269:0.0 1270:0.0 1271:0.0 1272:0.0 1273:0.0 1274:0.0 1275:0.0 1276:0.0 1277:0.0 1278:0.0 1279:0.0 1280:0.0 1281:0.0 1282:0.0 1283:0.13010837137699127 1284:0.0 1285:0.0 1286:0.0 1287:0.0 1288:0.0 1289:0.0 1290:0.064068503677845 1291:0.13105066120624542 1292:0.4532301127910614 1293:0.0 1294:0.0 1295:0.0 1296:0.0 1297:0.02908938191831112 1298:0.0 1299:0.0 1300:0.0 1301:0.0 1302:0.0 1303:0.0 1304:0.0 1305:0.02908938191831112 1306:0.084811732172966 1307:0.0 1308:0.0 1309:0.0 1310:0.0 1311:0.0 1312:0.0 1313:0.0 1314:0.084811732172966 1315:0.10450416803359985 1316:0.0 1317:0.0 1318:0.0 1319:0.0 1320:0.0 1321:0.0 1322:0.0 1323:0.10450416803359985 1324:0.039568252861499786 1325:0.0 1326:0.0 1327:0.0 1328:0.11103915423154831 1329:0.0 1330:0.030235489830374718 1331:0.010104168206453323 1332:0.039568252861499786 1333:0.04977170005440712 1334:0.0 1335:0.0 1336:0.0 1337:0.0 1338:0.0 1339:0.0 1340:0.0 1341:0.04977170005440712 1342:0.011709373444318771 1343:0.0 1344:0.0 1345:0.0 1346:0.0 1347:0.0 1348:0.0 1349:0.0 1350:0.011709373444318771 1351:0.0 1352:0.0 1353:0.0 1354:0.0 1355:0.0 1356:0.0 1357:0.0 1358:0.0 1359:0.0 1360:0.0 1361:0.0 1362:0.0 1363:0.0 1364:0.3366492986679077 1365:0.0 1366:0.0 1367:0.0 1368:0.0 1369:0.18808384239673615 1370:0.0 1371:0.0 1372:0.0 1373:0.18498243391513824 1374:0.0 1375:0.19716015458106995 1376:0.0658874586224556 1377:0.18808384239673615 1378:0.035128120332956314 1379:0.0 1380:0.0 1381:0.0 1382:0.44131386280059814 1383:0.0 1384:0.06572005152702332 1385:0.02196248434484005 1386:0.035128120332956314 1387:0.0 1388:0.0 1389:0.0 1390:0.0 1391:0.0 1392:0.0 1393:0.0 1394:0.0 1395:0.0 1396:0.0 1397:0.0 1398:0.0 1399:0.0 1400:0.06200091540813446 1401:0.0 1402:0.0 1403:0.0 1404:0.0 1405:0.012922912836074829 1406:0.0 1407:0.0 1408:0.0 1409:0.3570985496044159 1410:0.0 1411:0.06572005152702332 1412:0.02196248434484005 1413:0.012922912836074829 1414:0.0 1415:0.0 1416:0.0 1417:0.0 1418:0.5479243397712708 1419:0.0 1420:0.021906685084104538 1421:0.0073208287358284 1422:0.0 1423:0.0 1424:0.0 1425:0.0 1426:0.0 1427:0.0 1428:0.0 1429:0.0 1430:0.0 1431:0.0 1432:0.0 1433:0.0 1434:0.0 1435:0.0 1436:0.06842658668756485 1437:0.0 1438:0.0 1439:0.0 1440:0.0 1441:0.057174310088157654 1442:0.0 1443:0.0 1444:0.0 1445:0.0 1446:0.0 1447:0.0 1448:0.0 1449:0.057174310088157654 1450:0.15822698175907135 1451:0.0 1452:0.0 1453:0.0 1454:0.0 1455:0.0 1456:0.0 1457:0.031369682401418686 1458:0.164727121591568 1459:0.2550012171268463 1460:0.019026683643460274 1461:0.0 1462:0.0 1463:0.0 1464:0.0 1465:0.0 1466:0.09410905092954636 1467:0.2705591917037964 1468:0.12762115895748138 1469:0.05708004906773567 1470:0.0 1471:0.0 1472:0.0 1473:0.0 1474:0.0 1475:0.0 1476:0.11579356342554092 1477:0.01345092337578535 1478:0.0 1479:0.0 1480:0.0 1481:0.0 1482:0.0 1483:0.0 1484:0.0 1485:0.01345092337578535 1486:0.03921692445874214 1487:0.0 1488:0.0 1489:0.0 1490:0.0 1491:0.0 1492:0.0 1493:0.0 1494:0.03921692445874214 1495:0.06624936312437057 1496:0.0 1497:0.0 1498:0.0 1499:0.0 1500:0.0 1501:0.0 1502:0.0 1503:0.06624936312437057 1504:0.030866753309965134 1505:0.0 1506:0.0 1507:0.0 1508:0.0 1509:0.0 1510:0.0 1511:0.0 1512:0.030866753309965134 1513:0.025129633024334908 1514:0.0 1515:0.0 1516:0.0 1517:0.0 1518:0.0 1519:0.0 1520:0.0 1521:0.025129633024334908 1522:0.07326686382293701 1523:0.0 1524:0.0 1525:0.0 1526:0.0 1527:0.0 1528:0.0 1529:0.0 1530:0.07326686382293701 1531:0.09027870744466782 1532:0.0 1533:0.0 1534:0.0 1535:0.0 1536:0.0 1537:0.0 1538:0.0 1539:0.09027870744466782 1540:0.04650288075208664 1541:0.0 1542:0.0 1543:0.0 1544:0.0 1545:0.0 1546:0.0 1547:0.0 1548:0.04650288075208664 1549:0.11574167758226395 1550:0.0 1551:0.0 1552:0.0 1553:0.0 1554:0.0 1555:0.0 1556:0.0 1557:0.11574167758226395 1558:0.33745139837265015 1559:0.0 1560:0.0 1561:0.0 1562:0.0 1563:0.0 1564:0.0 1565:0.0 1566:0.33745139837265015 1567:0.41580426692962646 1568:0.0 1569:0.0 1570:0.0 1571:0.0 1572:0.0 1573:0.0 1574:0.0 1575:0.41580426692962646 1576:0.21418224275112152 1577:0.0 1578:0.0 1579:0.0 1580:0.0 1581:0.0 1582:0.0 1583:0.0 1584:0.21418224275112152 1585:0.0364270880818367 1586:0.006763325072824955 1587:0.020238367840647697 1588:0.0 1589:0.011890189722180367 1590:0.0 1591:0.0 1592:0.0 1593:0.0364270880818367 1594:0.007633652538061142 1595:0.002254441613331437 1596:0.0067461226135492325 1597:0.0 1598:0.03567056730389595 1599:0.0 1600:0.0 1601:0.0 1602:0.007633652538061142 1603:0.0 1604:0.0 1605:0.0 1606:0.0 1607:0.0 1608:0.0 1609:0.0 1610:0.0 1611:0.0 1612:0.0 1613:0.0 1614:0.0 1615:0.0 1616:0.0 1617:0.0 1618:0.0 1619:0.0 1620:0.0 1621:0.010815833695232868 1622:0.0 1623:0.0 1624:0.0 1625:0.0 1626:0.0 1627:0.0 1628:0.0 1629:0.010815833695232868 1630:0.002544550923630595 1631:0.0 1632:0.0 1633:0.0 1634:0.0 1635:0.0 1636:0.0 1637:0.0 1638:0.002544550923630595 1639:0.0 1640:0.0 1641:0.0 1642:0.0 1643:0.0 1644:0.0 1645:0.0 1646:0.0 1647:0.0 1648:0.0 1649:0.0 1650:0.0 1651:0.0 1652:0.0 1653:0.0 1654:0.0 1655:0.0 1656:0.0 1657:0.029087992385029793 1658:0.0 1659:0.0 1660:0.0 1661:0.0 1662:0.0 1663:0.0 1664:0.0 1665:0.029087992385029793 1666:0.08480768650770187 1667:0.0 1668:0.0 1669:0.0 1670:0.0 1671:0.0 1672:0.0 1673:0.0 1674:0.08480768650770187 1675:0.10449918359518051 1676:0.0 1677:0.0 1678:0.0 1679:0.0 1680:0.0 1681:0.0 1682:0.0 1683:0.10449918359518051 1684:0.05382790416479111 1685:0.0 1686:0.0 1687:0.0 1688:0.0 1689:0.0 1690:0.0 1691:0.0 1692:0.05382790416479111 1693:0.13397301733493805 1694:0.0 1695:0.0 1696:0.0 1697:0.0 1698:0.0 1699:0.0 1700:0.0 1701:0.13397301733493805 1702:0.3906058967113495 1703:0.0 1704:0.0 1705:0.0 1706:0.0 1707:0.0 1708:0.0 1709:0.0 1710:0.3906058967113495 1711:0.4813007116317749 1712:0.0 1713:0.0 1714:0.0 1715:0.0 1716:0.0 1717:0.0 1718:0.0 1719:0.4813007116317749 1720:0.2479196935892105 1721:0.0 1722:0.0 1723:0.0 1724:0.0 1725:0.0 1726:0.0 1727:0.0 1728:0.2479196935892105 
0.846922901777726 1:0.01044092234224081 2:0.011486212722957134 3:0.019951164722442627 4:0.0 5:0.0015055411495268345 6:0.0 7:0.0 8:0.0 9:0.0038388899993151426 10:0.037152428179979324 11:0.03265610709786415 12:0.006650387775152922 13:0.0 14:0.013570488430559635 15:0.0 16:0.016710205003619194 17:0.005584257189184427 18:0.008282365277409554 19:0.0388767346739769 20:0.07586570084095001 21:0.01671019196510315 22:0.0 23:0.009637203067541122 24:0.0 25:0.0055700684897601604 26:0.0018614190630614758 27:0.007053635083138943 28:0.025935400277376175 29:0.031162846833467484 30:0.005570064764469862 31:0.0 32:0.0024175746366381645 33:0.0 34:0.0 35:0.0 36:0.019863829016685486 37:0.051629889756441116 38:0.04901818931102753 39:0.03969112038612366 40:0.0 41:0.0 42:0.0 43:0.0 44:0.0 45:0.036600079387426376 46:0.20352567732334137 47:0.12098049372434616 48:0.047544386237859726 49:0.0 50:0.0 51:0.0 52:0.0055700684897601604 53:0.015334881842136383 54:0.1284024864435196 55:0.1916240155696869 56:0.1779315322637558 57:0.10851209610700607 58:0.0 59:0.0 60:0.0 61:0.0018566895741969347 62:0.005111627280712128 63:0.10608083009719849 64:0.08248821645975113 65:0.08297896385192871 66:0.02252066507935524 67:0.0 68:0.0 69:0.0 70:0.0 71:0.0 72:0.07020918279886246 73:0.060122665017843246 74:0.0933825671672821 75:0.060176171362400055 76:0.0 77:0.0 78:0.0 79:0.0 80:0.0 81:0.028947217389941216 82:0.2150065004825592 83:0.1328670084476471 84:0.09097915142774582 85:0.0 86:0.0 87:0.0 88:0.0 89:0.0620170496404171 90:0.3014509379863739 91:0.2659662067890167 92:0.23337000608444214 93:0.03431401401758194 94:0.0 95:0.0 96:0.0 97:0.0 98:0.07826345413923264 99:0.2858355641365051 100:0.222905695438385 101:0.23824173212051392 102:0.017431413754820824 103:0.0 104:0.0 105:0.0 106:0.0 107:0.0 108:0.08451028913259506 109:0.04338494688272476 110:0.07685617357492447 111:0.011417725123465061 112:0.0 113:0.0 114:0.0 115:0.0 116:0.0 117:0.02644907496869564 118:0.17005561292171478 119:0.12787318229675293 120:0.03425317257642746 121:0.0 122:0.0 123:0.0 124:0.0 125:0.0071988883428275585 126:0.09124251455068588 127:0.36351343989372253 128:0.1494787335395813 129:0.0 130:0.0 131:0.0 132:0.0 133:0.0 134:0.021596666425466537 135:0.08718357235193253 136:0.18989001214504242 137:0.11879298835992813 138:0.0 139:0.0 140:0.0 141:0.0 142:0.0 143:0.0 144:0.011598918586969376 145:0.057901278138160706 146:0.010304917581379414 147:0.0 148:0.0 149:0.0010081608779728413 150:0.0 151:0.0 152:0.0 153:4.1140170651488006E-4 154:0.07759273797273636 155:0.08366362750530243 156:0.002954804804176092 157:0.0 158:0.01515002641826868 159:0.0 160:0.0 161:0.0 162:0.015288056805729866 163:0.05351622402667999 164:0.08496994525194168 165:0.002581364708021283 166:0.0 167:0.022716140374541283 168:0.0 169:0.0 170:0.0 171:0.02611546590924263 172:0.019969724118709564 173:0.03518291562795639 174:0.008939177729189396 175:0.0 176:0.007577102165669203 177:0.0 178:0.0 179:0.003232673741877079 180:0.012779457494616508 181:0.12719343602657318 182:0.034080397337675095 183:0.0 184:0.0 185:0.0 186:0.0 187:0.0 188:0.003313158405944705 189:0.018127676099538803 190:0.2096838355064392 191:0.0777394250035286 192:0.012332401238381863 193:0.0 194:0.0 195:0.0 196:0.03041679412126541 197:0.02010423131287098 198:0.09489578008651733 199:0.25525423884391785 200:0.28311270475387573 201:0.05355376750230789 202:0.0 203:0.0 204:0.0 205:0.01013893261551857 206:0.0033882528077811003 207:0.028547272086143494 208:0.13581763207912445 209:0.13803714513778687 210:0.0651845708489418 211:0.0 212:0.015949415042996407 213:0.0 214:0.0 215:0.0010775579139590263 216:0.019158532842993736 217:0.11080705374479294 218:0.06436311453580856 219:0.0021372695919126272 220:0.004390861373394728 221:3.718063817359507E-4 222:0.0 223:0.0 224:0.009939474985003471 225:0.0243842713534832 226:0.39263424277305603 227:0.15894538164138794 228:0.04016769677400589 229:0.016000302508473396 230:0.0011154190870001912 231:0.0 232:0.01013893261551857 233:0.03320667892694473 234:0.17184315621852875 235:0.2556059658527374 236:0.3955842852592468 237:0.23496690392494202 238:0.013502495363354683 239:0.0 240:0.0 241:0.003379644127562642 242:0.0011294175637885928 243:0.06962303072214127 244:0.08493369817733765 245:0.16380009055137634 246:0.1483381986618042 247:0.022013653069734573 248:0.04784823954105377 249:0.0 250:0.0 251:0.0 252:0.04947872459888458 253:0.03919078782200813 254:0.03632226213812828 255:0.020857974886894226 256:0.014212068170309067 257:0.005972085054963827 258:0.0 259:0.0 260:0.0 261:0.0019417561125010252 262:0.16395294666290283 263:0.07453739643096924 264:0.06171438470482826 265:0.051119349896907806 266:0.003346257144585252 267:0.0 268:0.0 269:0.0 270:0.03145770728588104 271:0.1025681346654892 272:0.06776287406682968 273:0.22038432955741882 274:0.0405074842274189 275:0.0 276:0.0 277:0.0025635233614593744 278:8.566844626329839E-4 279:0.02560921385884285 280:0.007897695526480675 281:0.037311580032110214 282:0.10381054133176804 283:0.043968889862298965 284:0.007767024450004101 285:0.0 286:0.00769056985154748 287:0.0025700535625219345 288:0.005113021470606327 289:0.0016669515753164887 290:1.8620047194417566E-4 291:5.571806686930358E-4 292:0.0 293:0.0 294:7.894436130300164E-4 295:3.859451680909842E-4 296:0.0 297:0.0016669515753164887 298:0.002240355359390378 299:6.206682155607268E-5 300:1.8572690896689892E-4 301:0.0 302:0.0018231184221804142 303:0.002368330955505371 304:0.0035899165086448193 305:0.006354538258165121 306:0.005600063595920801 307:0.001020144554786384 308:0.0 309:0.0 310:0.0 311:0.005738871172070503 312:4.91625047288835E-4 313:0.0012833081418648362 314:0.004861596040427685 315:0.002692430978640914 316:1.594113709870726E-4 317:2.9899695073254406E-4 318:8.947129244916141E-4 319:0.0 320:0.0023417656775563955 321:0.0014748751418665051 322:0.0014178433921188116 323:6.704152910970151E-4 324:0.001889165141619742 325:0.01277574896812439 326:0.012304084375500679 327:0.0016715420642867684 328:0.0 329:0.0 330:2.6314790011383593E-4 331:1.2864840391557664E-4 332:0.0 333:0.004247728269547224 334:0.01767990179359913 335:0.0186974685639143 336:5.571806686930358E-4 337:0.0 338:2.888833696488291E-4 339:7.894436130300164E-4 340:0.011185088194906712 341:0.05082780867815018 342:0.03023405559360981 343:0.04092268645763397 344:0.013942435383796692 345:0.0 346:0.0 347:0.0018066827906295657 348:0.0014748751418665051 349:0.03095661848783493 350:0.03384122997522354 351:0.03792981803417206 352:0.052775777876377106 353:0.04307420924305916 354:2.982376026920974E-4 355:0.0 356:7.805885979905725E-4 357:0.004424624610692263 358:0.0021631214767694473 359:0.0013126683188602328 360:0.01543762069195509 361:0.013688036240637302 362:0.023327285423874855 363:0.007696182932704687 364:0.0 365:0.0048248618841171265 366:0.0015108260558918118 367:0.0 368:0.0 369:0.00221352674998343 370:0.12863411009311676 371:0.03911895304918289 372:0.003631915897130966 373:0.0 374:0.008591706864535809 375:5.036087241023779E-4 376:0.0033294830936938524 377:0.03128029406070709 378:0.08590307831764221 379:0.3273402154445648 380:0.19847579300403595 381:0.025102650746703148 382:0.0 383:0.0 384:0.0 385:0.009988449513912201 386:0.013393844477832317 387:0.13639691472053528 388:0.3273402154445648 389:0.23663240671157837 390:0.07530796527862549 391:0.0 392:0.0 393:0.0 394:0.0 395:0.0 396:0.013995258137583733 397:8.564826566725969E-4 398:0.003456658683717251 399:0.0025653946213424206 400:0.0 401:0.019260233268141747 402:0.014574285596609116 403:0.0 404:0.0 405:8.564826566725969E-4 406:0.16861391067504883 407:0.0789814367890358 408:0.05763449892401695 409:0.046061307191848755 410:0.17784710228443146 411:0.025122277438640594 412:0.0 413:0.0 414:0.05497576668858528 415:0.3273402154445648 416:0.3273402154445648 417:0.24457955360412598 418:0.01535376813262701 419:0.04682723060250282 420:0.0 421:0.0 422:0.0 423:0.16015437245368958 424:0.27931416034698486 425:0.3273402154445648 426:0.22592386603355408 427:0.0 428:0.0012449970236048102 429:0.004900000523775816 430:0.0 431:0.0 432:0.06884061545133591 433:0.001035406137816608 434:7.193711353465915E-4 435:5.973118240945041E-4 436:6.729079759679735E-4 437:0.007581030484288931 438:0.019381944090127945 439:0.011456378735601902 440:0.03301072493195534 441:0.07513032853603363 442:0.05861643701791763 443:1.7325316730421036E-4 444:0.0 445:0.0 446:0.0 447:0.00634697126224637 448:0.02218218892812729 449:0.27317526936531067 450:0.18657198548316956 451:0.029796553775668144 452:0.0 453:0.0 454:0.004390990827232599 455:0.026750825345516205 456:0.005376193672418594 457:0.015793677419424057 458:0.27317526936531067 459:0.25343120098114014 460:0.009580475278198719 461:0.0 462:0.0 463:0.0014636636478826404 464:0.033271484076976776 465:0.026156697422266006 466:0.03598025441169739 467:0.14408212900161743 468:0.10422877967357635 469:0.006071420386433601 470:0.0016258156392723322 471:1.9910394621547312E-4 472:0.0 473:8.494050125591457E-4 474:0.0014557890826836228 475:0.0012939806329086423 476:0.01586751639842987 477:0.03567706421017647 478:0.0965423434972763 479:0.0014107165625318885 480:0.0026660729199647903 481:0.0 482:0.002288319170475006 483:0.0012980956817045808 484:0.008913698606193066 485:0.11487043648958206 486:0.1876283586025238 487:0.11233359575271606 488:2.9698567232117057E-4 489:8.886909927241504E-4 490:0.0 491:0.0 492:0.0 493:0.03753185644745827 494:0.27317526936531067 495:0.27317526936531067 496:0.10823706537485123 497:0.0 498:0.0 499:0.0 500:0.0 501:0.0 502:0.07917556166648865 503:0.27317526936531067 504:0.27317526936531067 505:0.029658986255526543 506:0.0017249980010092258 507:0.0023355684243142605 508:0.0 509:2.542576694395393E-4 510:0.0025657585356384516 511:0.024453919380903244 512:0.08259415626525879 513:0.23365047574043274 514:0.10798889398574829 515:0.002672871109098196 516:0.007998218759894371 517:0.0 518:0.048031773418188095 519:0.035649001598358154 520:0.07299863547086716 521:0.01126394234597683 522:0.22740992903709412 523:0.04677298292517662 524:0.0023038110230118036 525:0.0026660729199647903 526:0.0 527:0.01934892125427723 528:0.01597188599407673 529:0.0021579498425126076 530:0.010986017063260078 531:0.058823518455028534 532:0.0404476523399353 533:0.005258137360215187 534:0.0 535:0.0 536:3.433764504734427E-4 537:7.41265423130244E-4 538:0.00294238212518394 539:0.006343971472233534 540:0.09178224205970764 541:0.006921127904206514 542:0.03111707791686058 543:0.01149738673120737 544:0.0 545:0.0 546:0.003802988212555647 547:0.07217397540807724 548:0.08526048809289932 549:0.10974032431840897 550:0.03528377413749695 551:0.07782625406980515 552:0.013472042046487331 553:0.024586156010627747 554:0.22677455842494965 555:0.09526415169239044 556:0.2111263871192932 557:0.019626440480351448 558:0.08632977306842804 559:0.007978305220603943 560:4.7095128684304655E-4 561:0.0 562:0.00819538626819849 563:0.0999402105808258 564:0.047915659844875336 565:0.0012983216438442469 566:0.0019146896665915847 567:0.005653998348861933 568:0.004050855990499258 569:0.001752712531015277 570:0.0 571:0.0 572:0.0010301293805241585 573:0.002223796444013715 574:4.3277390068396926E-4 575:6.382299470715225E-4 576:0.0030908198095858097 577:0.03606290742754936 578:0.011966084130108356 579:0.005924100521951914 580:0.0 581:0.0 582:0.0 583:0.0 584:0.0 585:0.008556478656828403 586:0.1296110451221466 587:0.046037960797548294 588:0.04008660838007927 589:0.013873150572180748 590:0.0 591:0.0 592:0.0 593:0.0017114555230364203 594:0.02708146721124649 595:0.17492656409740448 596:0.15051043033599854 597:0.014134189113974571 598:0.016925426200032234 599:0.008131737820804119 600:0.0 601:0.0 602:0.0051343669183552265 603:0.045246001332998276 604:0.09922356903553009 605:0.1297537088394165 606:0.0020469280425459146 607:0.0 608:0.002710579428821802 609:0.0 610:0.0 611:0.0 612:0.033999327570199966 613:0.05302661657333374 614:0.017903771251440048 615:0.017772303894162178 616:0.0 617:0.0 618:0.0 619:0.006511464715003967 620:0.011311632581055164 621:0.06292583793401718 622:0.15972676873207092 623:0.05318246781826019 624:0.12025982141494751 625:0.04161945357918739 626:0.0 627:0.0 628:0.019534394145011902 629:0.021989842876791954 630:0.028326964005827904 631:0.2541847229003906 632:0.06813380122184753 633:0.04058307409286499 634:0.05077628046274185 635:0.024395214393734932 636:0.001748866867274046 637:0.003788338042795658 638:0.0337132029235363 639:0.1187751516699791 640:0.05775754153728485 641:0.04178526625037193 642:0.0032963124103844166 643:0.0 644:0.008131737820804119 645:0.005246600601822138 646:0.011365014128386974 647:0.04206916317343712 648:0.24906644225120544 649:0.042848020792007446 650:0.0 651:0.0 652:0.0 653:0.0 654:0.0 655:0.019534394145011902 656:0.048889946192502975 657:0.10565584152936935 658:0.11540236324071884 659:0.01423303410410881 660:0.0 661:0.0 662:0.0 663:0.0 664:0.05860317870974541 665:0.10485148429870605 666:0.28242558240890503 667:0.24530622363090515 668:0.029567448422312737 669:0.0 670:0.0 671:0.0 672:0.005246600601822138 673:0.011365014128386974 674:0.17123401165008545 675:0.21334894001483917 676:0.0077980621717870235 677:0.002620657905936241 678:0.007842008024454117 679:0.0 680:0.0 681:0.0157398022711277 682:0.03409504145383835 683:0.13853831589221954 684:0.15514570474624634 685:0.03974321484565735 686:0.0 687:0.0 688:0.0 689:0.0 690:0.0 691:0.0 692:0.015931926667690277 693:0.1873222291469574 694:0.0388917438685894 695:7.464119116775692E-4 696:0.0 697:0.0 698:0.0 699:0.0 700:0.0 701:0.07301203906536102 702:0.34947988390922546 703:0.09017706662416458 704:0.00223923590965569 705:0.0 706:0.0 707:0.0 708:0.0 709:0.0 710:0.0858575776219368 711:0.34947988390922546 712:0.02145736664533615 713:0.0 714:0.0 715:0.0 716:0.0 717:0.0 718:0.0 719:0.07741454988718033 720:0.2514107823371887 721:0.006977639626711607 722:0.0 723:0.0 724:0.0 725:0.0 726:0.0 727:0.0 728:0.010092058219015598 729:0.03420143947005272 730:0.0075155883096158504 731:0.0 732:0.0 733:0.0 734:0.0 735:0.0 736:0.0 737:0.05117931216955185 738:0.12221161276102066 739:0.047413844615221024 740:0.0035319814924150705 741:0.0 742:0.0 743:0.0 744:0.0 745:0.0 746:0.058922991156578064 747:0.19116654992103577 748:0.07279884815216064 749:0.010595944710075855 750:0.0 751:0.0 752:0.0 753:0.0 754:0.0 755:0.007062393706291914 756:0.12466549873352051 757:0.006963012740015984 758:0.0 759:0.0 760:0.0 761:0.0 762:0.0 763:0.005091522354632616 764:0.04544588550925255 765:0.08469394594430923 766:0.029197944328188896 767:0.0 768:0.0 769:0.0 770:0.0 771:0.0 772:0.0 773:0.08770215511322021 774:0.2661585807800293 775:0.0922887846827507 776:0.010744476690888405 777:0.0 778:0.0 779:0.0 780:0.0 781:0.0 782:0.09542901068925858 783:0.31233081221580505 784:0.1552833914756775 785:0.037524376064538956 786:0.0 787:0.0 788:0.0 789:0.0 790:0.0 791:8.151282090693712E-4 792:0.07651564478874207 793:0.010222929529845715 794:6.680924561806023E-4 795:0.001999187283217907 796:0.0 797:0.001009530620649457 798:6.320281536318362E-4 799:0.002006161492317915 800:0.02978564240038395 801:0.23483127355575562 802:0.05479729548096657 803:0.007945669814944267 804:0.005997561849653721 805:0.0 806:3.365102456882596E-4 807:0.0 808:0.0 809:0.0605616495013237 810:0.35852280259132385 811:0.1675596535205841 812:0.011153940111398697 813:0.0 814:0.0 815:0.0 816:0.0 817:0.0 818:0.10066264122724533 819:0.35852280259132385 820:0.1379828006029129 821:0.04339325800538063 822:0.0 823:0.0 824:0.0 825:0.0 826:0.0 827:0.024723825976252556 828:0.26422831416130066 829:0.002726156497374177 830:0.002004277193918824 831:0.005997561849653721 832:0.0 833:0.0030285923276096582 834:0.001896084751933813 835:9.269624133594334E-4 836:0.01170603558421135 837:0.054214950650930405 838:0.04275741055607796 839:0.023837009444832802 840:0.017992684617638588 841:0.0 842:0.001009530620649457 843:0.0 844:0.0 845:0.05205826833844185 846:0.20965537428855896 847:0.0157019030302763 848:0.005941392853856087 849:0.0 850:0.0 851:0.001009530620649457 852:0.0 853:0.0 854:0.08769453316926956 855:0.35852280259132385 856:0.013074604794383049 857:0.0 858:0.0 859:0.0 860:0.0030285923276096582 861:0.0 862:0.0017183288000524044 863:0.050048068165779114 864:0.19349585473537445 865:0.057901278138160706 866:0.010304917581379414 867:0.0 868:0.0 869:0.0010081608779728413 870:0.0 871:0.0 872:0.0 873:4.1140170651488006E-4 874:0.07759273797273636 875:0.08366362750530243 876:0.002954804804176092 877:0.0 878:0.01515002641826868 879:0.0 880:0.0 881:0.0 882:0.015288056805729866 883:0.05351622402667999 884:0.08496994525194168 885:0.002581364708021283 886:0.0 887:0.022716140374541283 888:0.0 889:0.0 890:0.0 891:0.02611546590924263 892:0.019969724118709564 893:0.03518291562795639 894:0.008939177729189396 895:0.0 896:0.007577102165669203 897:0.0 898:0.0 899:0.003232673741877079 900:0.012779457494616508 901:0.12719343602657318 902:0.034080397337675095 903:0.0 904:0.0 905:0.0 906:0.0 907:0.0 908:0.003313158405944705 909:0.018127676099538803 910:0.2096838355064392 911:0.0777394250035286 912:0.012332401238381863 913:0.0 914:0.0 915:0.0 916:0.03041679412126541 917:0.02010423131287098 918:0.09489578008651733 919:0.25525423884391785 920:0.28311270475387573 921:0.05355376750230789 922:0.0 923:0.0 924:0.0 925:0.01013893261551857 926:0.0033882528077811003 927:0.028547272086143494 928:0.13581763207912445 929:0.13803714513778687 930:0.0651845708489418 931:0.0 932:0.015949415042996407 933:0.0 934:0.0 935:0.0010775579139590263 936:0.019158532842993736 937:0.11080705374479294 938:0.06436311453580856 939:0.0021372695919126272 940:0.004390861373394728 941:3.718063817359507E-4 942:0.0 943:0.0 944:0.009939474985003471 945:0.0243842713534832 946:0.39263424277305603 947:0.15894538164138794 948:0.04016769677400589 949:0.016000302508473396 950:0.0011154190870001912 951:0.0 952:0.01013893261551857 953:0.03320667892694473 954:0.17184315621852875 955:0.2556059658527374 956:0.3955842852592468 957:0.23496690392494202 958:0.013502495363354683 959:0.0 960:0.0 961:0.003379644127562642 962:0.0011294175637885928 963:0.06962303072214127 964:0.08493369817733765 965:0.16380009055137634 966:0.1483381986618042 967:0.022013653069734573 968:0.04784823954105377 969:0.0 970:0.0 971:0.0 972:0.04947872459888458 973:0.03919078782200813 974:0.03632226213812828 975:0.020857974886894226 976:0.014212068170309067 977:0.005972085054963827 978:0.0 979:0.0 980:0.0 981:0.0019417561125010252 982:0.16395294666290283 983:0.07453739643096924 984:0.06171438470482826 985:0.051119349896907806 986:0.003346257144585252 987:0.0 988:0.0 989:0.0 990:0.03145770728588104 991:0.1025681346654892 992:0.06776287406682968 993:0.22038432955741882 994:0.0405074842274189 995:0.0 996:0.0 997:0.0025635233614593744 998:8.566844626329839E-4 999:0.02560921385884285 1000:0.007897695526480675 1001:0.037311580032110214 1002:0.10381054133176804 1003:0.043968889862298965 1004:0.007767024450004101 1005:0.0 1006:0.00769056985154748 1007:0.0025700535625219345 1008:0.005113021470606327 1009:0.004667641129344702 1010:0.01047881692647934 1011:0.0 1012:0.0 1013:0.0017538429237902164 1014:0.0 1015:0.0 1016:4.596317303366959E-4 1017:8.921799599193037E-4 1018:0.015722932294011116 1019:0.007341297809034586 1020:0.0 1021:0.0 1022:0.00761687196791172 1023:0.0 1024:0.0011481251567602158 1025:0.0029794503934681416 1026:0.0010080792708322406 1027:0.005324317142367363 1028:1.9366545893717557E-4 1029:0.0 1030:0.0 1031:0.0072438414208590984 1032:0.0 1033:0.002226349664852023 1034:0.004394620656967163 1035:0.003318169852718711 1036:0.0020306636579334736 1037:0.0 1038:0.0 1039:0.0 1040:0.001988425152376294 1041:0.0 1042:6.145471124909818E-4 1043:2.0537138334475458E-4 1044:0.0020306636579334736 1045:0.00751755153760314 1046:0.0059525854885578156 1047:6.963738705962896E-4 1048:0.0 1049:7.25052144844085E-4 1050:8.226013742387295E-4 1051:4.021553904749453E-4 1052:0.0013788952492177486 1053:0.005366550292819738 1054:0.02464110590517521 1055:0.008034988306462765 1056:0.0021250650752335787 1057:0.0 1058:0.0 1059:0.0 1060:0.003444375703111291 1061:0.005693361628800631 1062:0.012875615619122982 1063:0.036897625774145126 1064:0.015462140552699566 1065:0.006474100053310394 1066:0.0016267247265204787 1067:0.004727934021502733 1068:0.0 1069:0.0017626723274588585 1070:0.0018059260910376906 1071:0.009769994765520096 1072:0.020397290587425232 1073:0.01669205166399479 1074:0.0035407310351729393 1075:0.004880174063146114 1076:0.0015759781235828996 1077:0.0 1078:2.0484904234763235E-4 1079:6.845712778158486E-5 1080:0.0036449700128287077 1081:0.018719086423516273 1082:0.013384436257183552 1083:0.0020891213789582253 1084:0.0 1085:2.4168405798263848E-4 1086:0.0024678041227161884 1087:0.0050491890870034695 1088:0.0012841704301536083 1089:0.008822734467685223 1090:0.12268281728029251 1091:0.1149044930934906 1092:0.0013273539952933788 1093:0.0 1094:0.0 1095:0.0 1096:0.0 1097:0.0 1098:0.008810114115476608 1099:0.3359633982181549 1100:0.13611769676208496 1101:0.0021580331958830357 1102:5.422414978966117E-4 1103:0.0015759781235828996 1104:0.0 1105:0.0 1106:0.0 1107:0.009594402275979519 1108:0.3359633982181549 1109:0.17071381211280823 1110:0.010453070513904095 1111:0.0016267247265204787 1112:5.253260023891926E-4 1113:0.0 1114:0.0 1115:0.0 1116:0.0076811485923826694 1117:0.09618111699819565 1118:0.014406148344278336 1119:0.0 1120:0.0 1121:0.0 1122:0.0 1123:0.0012809076579287648 1124:4.280568100512028E-4 1125:0.013592196628451347 1126:0.3359633982181549 1127:0.2409796118736267 1128:0.03368876501917839 1129:0.0 1130:0.0 1131:0.0 1132:0.0 1133:0.0 1134:0.028638077899813652 1135:0.3359633982181549 1136:0.3359633982181549 1137:0.22294959425926208 1138:0.0 1139:0.0 1140:0.0 1141:0.0 1142:0.0 1143:0.002935471013188362 1144:0.3359633982181549 1145:0.3359633982181549 1146:0.06844625622034073 1147:0.0 1148:0.0 1149:0.0 1150:0.0 1151:0.0 1152:0.03728263080120087 1153:0.001035406137816608 1154:7.193711353465915E-4 1155:5.973118240945041E-4 1156:6.729079759679735E-4 1157:0.007581030484288931 1158:0.019381944090127945 1159:0.011456378735601902 1160:0.03301072493195534 1161:0.07513032853603363 1162:0.05861643701791763 1163:1.7325316730421036E-4 1164:0.0 1165:0.0 1166:0.0 1167:0.00634697126224637 1168:0.02218218892812729 1169:0.27317526936531067 1170:0.18657198548316956 1171:0.029796553775668144 1172:0.0 1173:0.0 1174:0.004390990827232599 1175:0.026750825345516205 1176:0.005376193672418594 1177:0.015793677419424057 1178:0.27317526936531067 1179:0.25343120098114014 1180:0.009580475278198719 1181:0.0 1182:0.0 1183:0.0014636636478826404 1184:0.033271484076976776 1185:0.026156697422266006 1186:0.03598025441169739 1187:0.14408212900161743 1188:0.10422877967357635 1189:0.006071420386433601 1190:0.0016258156392723322 1191:1.9910394621547312E-4 1192:0.0 1193:8.494050125591457E-4 1194:0.0014557890826836228 1195:0.0012939806329086423 1196:0.01586751639842987 1197:0.03567706421017647 1198:0.0965423434972763 1199:0.0014107165625318885 1200:0.0026660729199647903 1201:0.0 1202:0.002288319170475006 1203:0.0012980956817045808 1204:0.008913698606193066 1205:0.11487043648958206 1206:0.1876283586025238 1207:0.11233359575271606 1208:2.9698567232117057E-4 1209:8.886909927241504E-4 1210:0.0 1211:0.0 1212:0.0 1213:0.03753185644745827 1214:0.27317526936531067 1215:0.27317526936531067 1216:0.10823706537485123 1217:0.0 1218:0.0 1219:0.0 1220:0.0 1221:0.0 1222:0.07917556166648865 1223:0.27317526936531067 1224:0.27317526936531067 1225:0.029658986255526543 1226:0.0017249980010092258 1227:0.0023355684243142605 1228:0.0 1229:2.542576694395393E-4 1230:0.0025657585356384516 1231:0.024453919380903244 1232:0.08259415626525879 1233:0.23365047574043274 1234:0.10798889398574829 1235:0.002672871109098196 1236:0.007998218759894371 1237:0.0 1238:0.048031773418188095 1239:0.035649001598358154 1240:0.07299863547086716 1241:0.01126394234597683 1242:0.22740992903709412 1243:0.04677298292517662 1244:0.0023038110230118036 1245:0.0026660729199647903 1246:0.0 1247:0.01934892125427723 1248:0.01597188599407673 1249:0.0021579498425126076 1250:0.010986017063260078 1251:0.058823518455028534 1252:0.0404476523399353 1253:0.005258137360215187 1254:0.0 1255:0.0 1256:3.433764504734427E-4 1257:7.41265423130244E-4 1258:0.00294238212518394 1259:0.006343971472233534 1260:0.09178224205970764 1261:0.006921127904206514 1262:0.03111707791686058 1263:0.01149738673120737 1264:0.0 1265:0.0 1266:0.003802988212555647 1267:0.07217397540807724 1268:0.08526048809289932 1269:0.10974032431840897 1270:0.03528377413749695 1271:0.07782625406980515 1272:0.013472042046487331 1273:0.024586156010627747 1274:0.22677455842494965 1275:0.09526415169239044 1276:0.2111263871192932 1277:0.019626440480351448 1278:0.08632977306842804 1279:0.007978305220603943 1280:4.7095128684304655E-4 1281:0.0 1282:0.00819538626819849 1283:0.0999402105808258 1284:0.047915659844875336 1285:0.0012983216438442469 1286:0.0019146896665915847 1287:0.005653998348861933 1288:0.004050855990499258 1289:0.001752712531015277 1290:0.0 1291:0.0 1292:0.0010301293805241585 1293:0.002223796444013715 1294:4.3277390068396926E-4 1295:6.382299470715225E-4 1296:0.0030908198095858097 1297:0.0 1298:7.927148835733533E-4 1299:0.0023720962926745415 1300:0.0022572374437004328 1301:0.002076569478958845 1302:0.0011835533659905195 1303:0.0 1304:8.572425576858222E-4 1305:0.006560984533280134 1306:0.003028365783393383 1307:0.0014367469120770693 1308:0.004299277905374765 1309:7.524124230258167E-4 1310:0.004407746717333794 1311:0.006216265261173248 1312:0.014154039323329926 1313:0.007892508059740067 1314:0.011438742280006409 1315:0.019321070984005928 1316:0.0 1317:0.0032929808367043734 1318:0.00102899014018476 1319:0.001383771188557148 1320:0.030018482357263565 1321:0.019193537533283234 1322:0.011139900423586369 1323:0.008979852311313152 1324:0.008099950850009918 1325:8.265918004326522E-4 1326:0.009878942742943764 1327:0.0030869704205542803 1328:0.0020365682430565357 1329:0.024218667298555374 1330:0.0027610824909061193 1331:0.0011884499108418822 1332:0.010726959444582462 1333:0.04459168389439583 1334:2.6423827512189746E-4 1335:7.906987448222935E-4 1336:0.006771712563931942 1337:0.005099236965179443 1338:0.0023706478532403708 1339:0.0 1340:0.05856641009449959 1341:0.060746777802705765 1342:0.11355086416006088 1343:0.03591509908437729 1344:0.009525434114038944 1345:0.0022572374437004328 1346:0.013223240152001381 1347:0.01706486940383911 1348:0.002158242277801037 1349:0.05735296756029129 1350:0.11901100724935532 1351:0.19459864497184753 1352:0.17856717109680176 1353:0.07532390207052231 1354:8.502596756443381E-4 1355:0.00212865904904902 1356:0.021580083295702934 1357:0.0034804963506758213 1358:0.03129693120718002 1359:0.08924312144517899 1360:0.058323245495557785 1361:0.11934493482112885 1362:0.2610832750797272 1363:0.0025507789105176926 1364:4.174066998530179E-5 1365:0.008072889409959316 1366:9.203607332892716E-4 1367:0.003565350314602256 1368:0.021997587755322456 1369:0.02183610200881958 1370:0.0 1371:0.0 1372:0.0 1373:0.0 1374:0.006967621855437756 1375:0.0034063556231558323 1376:0.20200981199741364 1377:0.14929619431495667 1378:0.2854820489883423 1379:0.17234137654304504 1380:0.12405665218830109 1381:0.0 1382:0.0 1383:0.020902864634990692 1384:0.01021906640380621 1385:0.13122259080410004 1386:0.18656259775161743 1387:0.2585093379020691 1388:0.2854820489883423 1389:0.20238393545150757 1390:0.0 1391:0.0 1392:0.0 1393:0.0 1394:0.010319148190319538 1395:0.039745718240737915 1396:0.11706402897834778 1397:0.2854820489883423 1398:0.16253884136676788 1399:0.0 1400:0.0 1401:0.0 1402:1.6446475638076663E-4 1403:5.496123412740417E-5 1404:0.005380498711019754 1405:0.025361977517604828 1406:0.0010837550507858396 1407:0.0 1408:0.0 1409:0.0 1410:0.002322540385648608 1411:0.0011354517191648483 1412:0.036315955221652985 1413:0.10172579437494278 1414:0.2744137942790985 1415:0.04164633899927139 1416:0.03325987234711647 1417:0.0 1418:0.0 1419:0.006967621855437756 1420:0.0034063556231558323 1421:0.011599332094192505 1422:0.11388900876045227 1423:0.2854820489883423 1424:0.15158669650554657 1425:0.0386100672185421 1426:0.0 1427:0.0013545179972425103 1428:0.0 1429:0.0 1430:4.511262523010373E-4 1431:0.04367675259709358 1432:0.07820132374763489 1433:0.08585280925035477 1434:0.021280957385897636 1435:0.0 1436:4.515059699770063E-4 1437:0.0 1438:4.933942691422999E-4 1439:1.648837060201913E-4 1440:0.019213760271668434 1441:0.006977639626711607 1442:0.0 1443:0.0 1444:0.0 1445:0.0 1446:0.0 1447:0.0 1448:0.010092058219015598 1449:0.03420143947005272 1450:0.0075155883096158504 1451:0.0 1452:0.0 1453:0.0 1454:0.0 1455:0.0 1456:0.0 1457:0.05117931216955185 1458:0.12221161276102066 1459:0.047413844615221024 1460:0.0035319814924150705 1461:0.0 1462:0.0 1463:0.0 1464:0.0 1465:0.0 1466:0.058922991156578064 1467:0.19116654992103577 1468:0.07279884815216064 1469:0.010595944710075855 1470:0.0 1471:0.0 1472:0.0 1473:0.0 1474:0.0 1475:0.007062393706291914 1476:0.12466549873352051 1477:0.006963012740015984 1478:0.0 1479:0.0 1480:0.0 1481:0.0 1482:0.0 1483:0.005091522354632616 1484:0.04544588550925255 1485:0.08469394594430923 1486:0.029197944328188896 1487:0.0 1488:0.0 1489:0.0 1490:0.0 1491:0.0 1492:0.0 1493:0.08770215511322021 1494:0.2661585807800293 1495:0.0922887846827507 1496:0.010744476690888405 1497:0.0 1498:0.0 1499:0.0 1500:0.0 1501:0.0 1502:0.09542901068925858 1503:0.31233081221580505 1504:0.1552833914756775 1505:0.037524376064538956 1506:0.0 1507:0.0 1508:0.0 1509:0.0 1510:0.0 1511:8.151282090693712E-4 1512:0.07651564478874207 1513:0.010222929529845715 1514:6.680924561806023E-4 1515:0.001999187283217907 1516:0.0 1517:0.001009530620649457 1518:6.320281536318362E-4 1519:0.002006161492317915 1520:0.02978564240038395 1521:0.23483127355575562 1522:0.05479729548096657 1523:0.007945669814944267 1524:0.005997561849653721 1525:0.0 1526:3.365102456882596E-4 1527:0.0 1528:0.0 1529:0.0605616495013237 1530:0.35852280259132385 1531:0.1675596535205841 1532:0.011153940111398697 1533:0.0 1534:0.0 1535:0.0 1536:0.0 1537:0.0 1538:0.10066264122724533 1539:0.35852280259132385 1540:0.1379828006029129 1541:0.04339325800538063 1542:0.0 1543:0.0 1544:0.0 1545:0.0 1546:0.0 1547:0.024723825976252556 1548:0.26422831416130066 1549:0.002726156497374177 1550:0.002004277193918824 1551:0.005997561849653721 1552:0.0 1553:0.0030285923276096582 1554:0.001896084751933813 1555:9.269624133594334E-4 1556:0.01170603558421135 1557:0.054214950650930405 1558:0.04275741055607796 1559:0.023837009444832802 1560:0.017992684617638588 1561:0.0 1562:0.001009530620649457 1563:0.0 1564:0.0 1565:0.05205826833844185 1566:0.20965537428855896 1567:0.0157019030302763 1568:0.005941392853856087 1569:0.0 1570:0.0 1571:0.001009530620649457 1572:0.0 1573:0.0 1574:0.08769453316926956 1575:0.35852280259132385 1576:0.013074604794383049 1577:0.0 1578:0.0 1579:0.0 1580:0.0030285923276096582 1581:0.0 1582:0.0017183288000524044 1583:0.050048068165779114 1584:0.19349585473537445 1585:0.0024012038484215736 1586:0.0 1587:0.0 1588:0.0 1589:0.0 1590:0.0 1591:0.0 1592:0.04142287001013756 1593:0.09974713623523712 1594:0.0038853425066918135 1595:0.0 1596:0.0 1597:0.0 1598:0.007872211746871471 1599:0.0 1600:0.0 1601:0.15579162538051605 1602:0.1851198971271515 1603:0.0 1604:0.0 1605:0.0 1606:0.0 1607:0.02361663617193699 1608:0.0 1609:0.006977770011872053 1610:0.12544848024845123 1611:0.222732812166214 1612:0.0 1613:0.0 1614:0.002418320393189788 1615:0.001381305861286819 1616:0.0 1617:0.0 1618:0.024537233635783195 1619:0.12107139825820923 1620:0.05659537389874458 1621:0.010768378153443336 1622:0.0 1623:0.0 1624:0.0 1625:0.0 1626:0.0 1627:0.0 1628:0.06263486295938492 1629:0.17905546724796295 1630:0.0422433502972126 1631:0.0 1632:0.0 1633:0.0 1634:0.002624070504680276 1635:0.0 1636:0.0 1637:0.2469242513179779 1638:0.3224778473377228 1639:0.013649414293467999 1640:0.0 1641:0.0 1642:0.0 1643:0.007872211746871471 1644:0.0 1645:0.002325923414900899 1646:0.3224778473377228 1647:0.3224778473377228 1648:0.00316757895052433 1649:0.0 1650:0.0 1651:0.0 1652:0.0 1653:0.0 1654:0.01778954453766346 1655:0.3023177683353424 1656:0.3224778473377228 1657:0.010088968090713024 1658:0.0013435991713777184 1659:0.0 1660:0.0 1661:0.0 1662:0.0 1663:6.006718031130731E-4 1664:0.030883053317666054 1665:0.038241010159254074 1666:0.013649414293467999 1667:0.0 1668:0.0 1669:0.0 1670:0.0 1671:0.0 1672:0.01238918025046587 1673:0.09090779721736908 1674:0.17850524187088013 1675:0.004549804143607616 1676:0.0 1677:0.0 1678:0.0 1679:0.0 1680:0.0 1681:0.021855294704437256 1682:0.14213927090168 1683:0.30330634117126465 1684:0.010068003088235855 1685:0.0 1686:0.0 1687:0.0 1688:0.0 1689:0.0 1690:0.002314596204087138 1691:0.12569083273410797 1692:0.2146427184343338 1693:0.003271040739491582 1694:4.4786633225157857E-4 1695:0.0 1696:0.0 1697:0.0 1698:0.0 1699:0.0018020158167928457 1700:0.01721792109310627 1701:0.022120248526334763 1702:0.0015206648968160152 1703:0.0 1704:0.0 1705:0.0 1706:0.0 1707:0.0 1708:0.011539358645677567 1709:0.059739574790000916 1710:0.05290168151259422 1711:9.052910609170794E-4 1712:0.0 1713:0.0 1714:0.0 1715:0.0 1716:0.0 1717:0.00837946031242609 1718:0.07889463007450104 1719:0.04608912020921707 1720:0.00797144416719675 1721:0.0 1722:0.0 1723:0.0 1724:0.0 1725:0.0 1726:7.715320680290461E-4 1727:0.029941532760858536 1728:0.03021567314863205 
1.2768365636063639 1:0.0046501196920871735 2:0.0 3:0.0 4:0.0 5:5.895881331525743E-4 6:0.0 7:0.0 8:0.0 9:0.011233310215175152 10:0.009286164306104183 11:0.0 12:0.0 13:0.0 14:0.003334704553708434 15:0.0 16:0.0 17:0.006993469316512346 18:0.03421378508210182 19:0.007850561290979385 20:0.0 21:0.0 22:0.0 23:0.0036641210317611694 24:0.0 25:0.0 26:0.005897920113056898 27:0.060485903173685074 28:0.006792348809540272 29:0.0 30:0.0 31:0.0 32:0.001892374362796545 33:0.0 34:0.0 35:5.923155113123357E-4 36:0.03195245563983917 37:0.04223296418786049 38:0.0 39:0.0 40:0.0 41:0.0 42:0.0 43:0.0 44:0.0 45:0.10669878870248795 46:0.14014030992984772 47:0.0 48:0.0 49:0.0 50:0.0 51:0.0 52:0.0 53:0.0023311562836170197 54:0.2555042803287506 55:0.1317429542541504 56:0.0 57:0.0 58:0.0 59:0.0 60:0.0 61:0.0 62:0.0019659732934087515 63:0.32404837012290955 64:0.03919881209731102 65:0.0 66:0.0 67:0.0 68:0.0 69:0.0 70:0.0 71:1.9743850862141699E-4 72:0.17990729212760925 73:0.08280972391366959 74:0.0 75:0.0 76:0.0 77:0.0 78:0.0 79:0.0 80:0.0 81:0.2382059246301651 82:0.20963382720947266 83:0.0 84:0.0 85:0.0 86:0.0 87:0.0 88:0.0 89:0.0 90:0.32404837012290955 91:0.1979074627161026 92:0.0 93:0.0 94:0.0 95:0.0 96:0.0 97:0.0 98:4.2396088247187436E-4 99:0.32404837012290955 100:0.0294646006077528 101:0.0 102:0.0 103:0.0 104:0.0 105:0.0 106:0.0 107:0.013223933055996895 108:0.32404837012290955 109:0.031191334128379822 110:0.0 111:0.0 112:0.0 113:0.0 114:0.0 115:0.0 116:5.8838224504143E-4 117:0.0953926220536232 118:0.10890937596559525 119:0.0 120:0.0 121:0.0 122:0.0 123:0.0 124:0.0 125:0.0017651468515396118 126:0.26448196172714233 127:0.10942583531141281 128:0.0 129:0.0 130:0.0 131:0.0 132:0.0 133:0.0 134:0.0017251527169719338 135:0.32404837012290955 136:0.0123934680595994 137:0.0 138:0.0 139:0.0 140:0.0 141:0.0 142:0.0 143:0.01157691702246666 144:0.253284752368927 145:0.008504897356033325 146:0.0 147:0.0 148:0.0 149:8.100836421363056E-4 150:0.0 151:0.0 152:0.0026824409142136574 153:0.01981278322637081 154:0.01134762167930603 155:0.0 156:0.0 157:0.0 158:0.004270270466804504 159:0.0 160:0.0 161:0.029638417065143585 162:0.05451120436191559 163:0.028002506121993065 164:0.0021438945550471544 165:0.0 166:0.0 167:0.0025812929961830378 168:0.0 169:0.0 170:0.007513080257922411 171:0.0739295557141304 172:0.0163576640188694 173:0.0031506281811743975 174:0.0 175:0.0 176:0.0010659933323040605 177:0.0 178:0.0 179:0.0 180:0.026005737483501434 181:0.03373151272535324 182:0.0 183:0.0 184:0.0 185:0.0 186:0.0 187:0.0 188:0.0015439754351973534 189:0.10807342082262039 190:0.03841671720147133 191:0.0 192:0.0 193:0.0 194:0.0 195:0.0 196:0.0 197:0.03169340640306473 198:0.31109341979026794 199:0.05783245339989662 200:7.146315183490515E-4 201:0.0 202:0.0 203:0.0 204:0.0 205:0.0 206:0.02339935675263405 207:0.31109341979026794 208:0.06809528917074203 209:0.0010502093937247992 210:0.0 211:0.0 212:0.0 213:0.0 214:0.0 215:0.0 216:0.1896691620349884 217:0.043823596090078354 218:0.0 219:0.0 220:0.0 221:0.0 222:0.0 223:0.0 224:0.0019494853913784027 225:0.17158213257789612 226:0.0545182041823864 227:0.0 228:0.0 229:0.0 230:0.0 231:0.0 232:0.0 233:0.02003389783203602 234:0.31109341979026794 235:0.18665723502635956 236:0.0 237:0.0 238:0.0 239:0.0 240:0.0 241:0.0 242:0.009486318565905094 243:0.31109341979026794 244:0.14367997646331787 245:0.0 246:0.0 247:0.0 248:0.0 249:0.0 250:0.0 251:0.0 252:0.2294817417860031 253:0.03519614785909653 254:0.0 255:0.0 256:0.0 257:0.0 258:0.0 259:0.0 260:0.0 261:0.21120397746562958 262:0.14919552206993103 263:0.0 264:0.0 265:0.0 266:0.0 267:0.0 268:0.0 269:0.0 270:0.31109341979026794 271:0.21331296861171722 272:0.0 273:0.0 274:0.0 275:0.0 276:0.0 277:0.0 278:0.0064655812457203865 279:0.31109341979026794 280:0.10847675800323486 281:0.0 282:0.0 283:0.0 284:0.0 285:0.0 286:0.0 287:0.002155193593353033 288:0.2761756479740143 289:5.007258732803166E-4 290:6.096011493355036E-4 291:0.0018241589423269033 292:6.444266764447093E-4 293:7.960605435073376E-4 294:0.0 295:0.0 296:0.0 297:5.007258732803166E-4 298:2.0647994824685156E-4 299:2.032003685599193E-4 300:6.080529419705272E-4 301:2.1480888244695961E-4 302:0.017333289608359337 303:0.0 304:0.0 305:0.0 306:2.0647994824685156E-4 307:0.0 308:0.0 309:0.0 310:0.0 311:0.015260611660778522 312:0.0 313:0.0 314:0.0 315:0.0 316:0.0 317:7.829911191947758E-5 318:2.3430077999364585E-4 319:0.0 320:0.0049015008844435215 321:0.0 322:0.0 323:0.0 324:0.0 325:0.12819433212280273 326:8.270443649962544E-4 327:0.0024748321156948805 328:0.0 329:0.0013439096510410309 330:0.0 331:0.029594095423817635 332:0.04621947184205055 333:0.22300003468990326 334:0.07675964385271072 335:2.756814647000283E-4 336:8.249440579675138E-4 337:0.011338703334331512 338:0.0874238982796669 339:0.02547784149646759 340:0.09348833560943604 341:0.07253465056419373 342:0.14951534569263458 343:0.00824058335274458 344:6.279946537688375E-4 345:6.590487319044769E-4 346:0.005127641372382641 347:0.03884020075201988 348:0.008492613211274147 349:0.014118158258497715 350:0.01020041760057211 351:0.009246460162103176 352:0.001696401508525014 353:0.0025874103885143995 354:0.004082066938281059 355:0.004044220317155123 356:0.005529331509023905 357:0.0 358:0.0 359:0.0018274548929184675 360:0.0016846864018589258 361:0.09164047986268997 362:0.0 363:0.0 364:0.0 365:0.023663681000471115 366:0.15291652083396912 367:0.11985567212104797 368:0.21318235993385315 369:0.2908647954463959 370:0.02931312657892704 371:0.0 372:0.0 373:0.008921802043914795 374:0.33073294162750244 375:0.33073294162750244 376:0.2994268834590912 377:0.24414220452308655 378:0.1094391718506813 379:0.01427360437810421 380:0.0018839839613065124 381:2.196829009335488E-4 382:0.003423291491344571 383:0.22130203247070312 384:0.05802805349230766 385:0.0328676700592041 386:0.035692162811756134 387:0.01729123666882515 388:0.002327175112441182 389:0.006517671048641205 390:0.003249609610065818 391:0.0013480734778568149 392:0.0042458176612854 393:0.002346547320485115 394:0.00322164804674685 395:0.005482364911586046 396:0.0022920300252735615 397:0.011051944456994534 398:0.0 399:0.0 400:0.0 401:0.10478762537240982 402:0.1105630099773407 403:0.014662932604551315 404:0.0248413123190403 405:0.011051944456994534 406:0.0 407:3.857054398395121E-4 408:0.0011541733983904123 409:0.015426702797412872 410:0.33073294162750244 411:0.2875027060508728 412:0.013266468420624733 413:0.010244036093354225 414:0.0 415:0.0 416:0.0011571162613108754 417:0.0034625199623405933 418:0.005142234265804291 419:0.20691315829753876 420:0.03293250873684883 421:0.014070996083319187 422:0.006502436473965645 423:1.267384650418535E-4 424:7.704796153120697E-4 425:3.509122761897743E-4 426:0.0010500632924959064 427:0.0 428:0.0055565545335412025 429:0.005427320953458548 430:0.001307498780079186 431:0.0018349215388298035 432:0.0011506950249895453 433:9.892339585348964E-4 434:0.0 435:0.0 436:0.0 437:0.027306269854307175 438:0.01508721150457859 439:0.007375888526439667 440:0.008791005238890648 441:0.0028108246624469757 442:0.02580738626420498 443:0.035409677773714066 444:0.06560973823070526 445:0.0 446:0.05155802518129349 447:0.03249460086226463 448:0.015886075794696808 449:0.0 450:0.023013345897197723 451:0.06022052466869354 452:0.04776056483387947 453:0.03602069243788719 454:0.028945188969373703 455:0.017316628247499466 456:0.06677643209695816 457:0.03577875718474388 458:0.0010469666449353099 459:0.05183839797973633 460:0.009237737394869328 461:0.0 462:0.004716926254332066 463:0.009648395702242851 464:0.02229270339012146 465:0.04743824154138565 466:0.032590482383966446 467:0.003140899818390608 468:0.009237737394869328 469:0.0036398808006197214 470:0.006827093660831451 471:0.020429188385605812 472:0.04828712344169617 473:0.13734027743339539 474:0.045261628925800323 475:0.02212766744196415 476:0.002930335234850645 477:0.004247077740728855 478:0.16099002957344055 479:0.06824184954166412 480:0.08315747231245041 481:0.01136010978370905 482:0.17297856509685516 483:0.0974838063120842 484:0.047658227384090424 485:0.0 486:0.15260791778564453 487:0.28121334314346313 488:0.12379220128059387 489:0.07307304441928864 490:0.1345580518245697 491:0.03443017974495888 492:0.047987837344408035 493:0.023460445925593376 494:0.0 495:0.2560669779777527 496:0.06638320535421371 497:0.0 498:0.021927693858742714 499:0.044852688908576965 500:0.07357284426689148 501:0.0498930923640728 502:0.007730575278401375 503:0.0 504:0.06638320535421371 505:0.028627565130591393 506:0.008167042396962643 507:0.006809729151427746 508:0.1448613703250885 509:0.139410600066185 510:0.010648327879607677 511:0.005205791909247637 512:0.0 513:0.020556192845106125 514:0.14781633019447327 515:0.03815527260303497 516:0.12305539846420288 517:0.1604253053665161 518:0.22105136513710022 519:0.0035494426265358925 520:0.04313373565673828 521:0.013834676705300808 522:0.12360221147537231 523:0.14881117641925812 524:0.00455138273537159 525:0.10420095175504684 526:0.18528246879577637 527:0.2362205535173416 528:0.05789031833410263 529:0.1524970382452011 530:0.04150402918457985 531:0.14881117641925812 532:0.0759788304567337 533:0.0 534:0.028536522760987282 535:0.05837083235383034 536:0.08830418437719345 537:0.16801753640174866 538:0.032156988978385925 539:0.0 540:0.0759788304567337 541:0.03014758601784706 542:0.036521073430776596 543:0.017099037766456604 544:0.0 545:0.04696686938405037 546:0.03194498270750046 547:0.015617375262081623 548:0.0 549:0.003212183713912964 550:0.10591696947813034 551:0.13472740352153778 552:0.147187277674675 553:0.042114999145269394 554:0.006877432111650705 555:0.010648327879607677 556:0.0519733689725399 557:0.015628943219780922 558:0.025110773742198944 559:0.008370257914066315 560:0.013654148206114769 561:0.0477215051651001 562:0.014038332737982273 563:0.069330595433712 564:0.20891441404819489 565:0.3015502989292145 566:0.06001967564225197 567:0.011091525666415691 568:0.009636551141738892 569:0.008065983653068542 570:0.03975383937358856 571:0.031945016235113144 572:0.05843338370323181 573:0.08513137698173523 574:0.06132357195019722 575:0.03939855471253395 576:0.017800355330109596 577:0.023294448852539062 578:0.002938739489763975 579:0.0017315393779426813 580:0.0 581:0.006065696012228727 582:0.013306223787367344 583:0.0 584:0.02260720357298851 585:0.08452141284942627 586:0.1803576648235321 587:0.007029059808701277 588:0.007196736987680197 589:0.004095286130905151 590:0.018197089433670044 591:0.039918672293424606 592:0.05987231805920601 593:0.21425101161003113 594:0.3990961015224457 595:0.3990961015224457 596:0.0 597:6.673726602457464E-4 598:0.001365095260553062 599:6.247097044251859E-4 600:0.0 601:0.019957438111305237 602:0.059545982629060745 603:0.3990961015224457 604:0.3990961015224457 605:0.0 606:0.0 607:0.0 608:0.0018741292878985405 609:0.0 610:0.0 611:0.001338474452495575 612:0.3575005531311035 613:0.04969516396522522 614:0.008816218934953213 615:0.005194618832319975 616:0.0 617:0.0 618:0.0 619:0.0 620:0.003509665373712778 621:0.04343076050281525 622:0.07690209895372391 623:0.021087175235152245 624:0.021590208634734154 625:0.012285858392715454 626:0.0 627:0.0 628:0.004765480291098356 629:0.012121539562940598 630:0.14469987154006958 631:0.17254938185214996 632:3.6484506563283503E-4 633:0.00309387338347733 634:0.004095286130905151 635:0.0018741292878985405 636:0.0 637:0.026913005858659744 638:0.008993877097964287 639:0.21562016010284424 640:0.11190752685070038 641:0.003301305463537574 642:0.0032752668485045433 643:0.0 644:0.005622387398034334 645:0.0 646:0.004205521196126938 647:0.005420838948339224 648:0.09110277891159058 649:0.007984206080436707 650:0.0 651:0.0 652:0.0 653:0.0 654:0.0 655:0.008193966001272202 656:0.0027382867410779 657:0.007984206080436707 658:0.00541891623288393 659:0.0 660:0.0 661:0.0 662:0.0 663:0.0 664:0.016683807596564293 665:0.005575449671596289 666:0.00541891623288393 667:0.00940439011901617 668:0.002060459228232503 669:0.00862647034227848 670:0.005033506546169519 671:0.0 672:0.0 673:0.009934472851455212 674:0.0033199344761669636 675:0.00940439011901617 676:0.013411195017397404 677:0.010581234470009804 678:0.022449927404522896 679:0.021676672622561455 680:0.0 681:0.0 682:0.0014018404763191938 683:4.6847169869579375E-4 684:0.004341108724474907 685:8.057948434725404E-4 686:0.0 687:0.0 688:0.0 689:0.0 690:0.0 691:0.004497142508625984 692:0.0015028701163828373 693:8.057948434725404E-4 694:0.009082314558327198 695:0.0 696:0.0 697:0.0 698:0.0 699:0.0 700:0.018036991357803345 701:0.0060276612639427185 702:0.009082314558327198 703:0.015434907749295235 704:0.002897772006690502 705:0.011451177299022675 706:0.005686318967491388 707:0.0 708:0.0 709:0.0028904101345688105 710:9.659266797825694E-4 711:0.015434907749295235 712:0.002264993730932474 713:0.0020319547038525343 714:0.015491853468120098 715:0.019251007586717606 716:0.0 717:0.0 718:0.0 719:0.0 720:0.002264993730932474 721:0.2913866639137268 722:0.02130669541656971 723:0.012718706391751766 724:0.0020937607623636723 725:0.0016980316722765565 726:0.002210073871538043 727:0.0012208257103338838 728:0.0054083410650491714 729:0.13973812758922577 730:0.41343221068382263 731:0.009936184622347355 732:0.016333984211087227 733:0.006281282752752304 734:0.040127210319042206 735:0.0 736:0.0036201144102960825 737:0.002876569051295519 738:0.41343221068382263 739:0.41343221068382263 740:0.0010568711441010237 741:0.003162556793540716 742:0.0 743:0.03745206072926521 744:0.0 745:0.009639516472816467 746:0.003221365390345454 747:0.41343221068382263 748:0.2684968113899231 749:0.0031706131994724274 750:0.009487669914960861 751:0.0 752:0.00986404251307249 753:0.0 754:0.0 755:0.0 756:0.29484179615974426 757:0.0034811676014214754 758:0.014905300922691822 759:0.013783060014247894 760:0.0021369352471083403 761:0.018764153122901917 762:0.03002767823636532 763:0.0036624770145863295 764:0.016225023195147514 765:9.438811684958637E-4 766:0.028454633429646492 767:0.020994408056139946 768:0.007586778607219458 769:0.0020937607623636723 770:0.029029646888375282 771:0.007799152750521898 772:0.002291883109137416 773:0.005766270682215691 774:0.02449953742325306 775:0.04901914298534393 776:0.0032042344100773335 777:0.009588256478309631 778:0.0 779:0.04442723095417023 780:0.0 781:0.003213172545656562 782:0.001073788502253592 783:0.04901914298534393 784:0.0054898993112146854 785:0.009612702764570713 786:0.028764771297574043 787:0.0 788:0.03492949903011322 789:0.0 790:0.0 791:0.0 792:0.0054898993112146854 793:0.005903053097426891 794:0.006442712619900703 795:0.035085685551166534 796:0.027274591848254204 797:0.005382581148296595 798:0.010560441762208939 799:0.0013499457854777575 800:0.0 801:0.005903053097426891 802:0.051367878913879395 803:0.005644197575747967 804:0.008390509523451328 805:0.004017652943730354 806:0.005217968951910734 807:0.0035201471764594316 808:0.00918428972363472 809:0.002918859710916877 810:0.05064333975315094 811:0.026173744350671768 812:0.011080005206167698 813:0.001765875262208283 814:0.0 815:0.0862838551402092 816:0.0075059570372104645 817:0.029872462153434753 818:0.008756578899919987 819:0.024000130593776703 820:0.0026367786340415478 821:0.0017703779740259051 822:0.005297625903040171 823:0.0 824:0.06896010041236877 825:0.0025019855238497257 826:0.0097300224006176 827:0.0028428449295461178 828:0.0026367786340415478 829:0.006118216551840305 830:6.512856343761086E-4 831:0.005601267796009779 832:0.010722055099904537 833:2.752985164988786E-4 834:0.008283867500722408 835:0.004049837123602629 836:0.0 837:0.006118216551840305 838:0.03251872956752777 839:0.027308939024806023 840:0.006501381751149893 841:0.00133921776432544 842:0.0 843:0.0027612887788563967 844:0.010687730275094509 845:0.0031205262057483196 846:0.02726488560438156 847:0.01547486986964941 848:0.03926754370331764 849:0.008506853133440018 850:0.0 851:0.01620955392718315 852:0.022517871111631393 853:0.04097085818648338 854:0.010012863203883171 855:0.00792727991938591 856:0.00791033636778593 857:9.476123377680779E-4 858:0.002835617633536458 859:0.0 860:0.009845702908933163 861:0.0075059570372104645 862:0.012351816520094872 863:0.0029014721512794495 864:0.00791033636778593 865:0.008504897356033325 866:0.0 867:0.0 868:0.0 869:8.100836421363056E-4 870:0.0 871:0.0 872:0.0026824409142136574 873:0.01981278322637081 874:0.01134762167930603 875:0.0 876:0.0 877:0.0 878:0.004270270466804504 879:0.0 880:0.0 881:0.029638417065143585 882:0.05451120436191559 883:0.028002506121993065 884:0.0021438945550471544 885:0.0 886:0.0 887:0.0025812929961830378 888:0.0 889:0.0 890:0.007513080257922411 891:0.0739295557141304 892:0.0163576640188694 893:0.0031506281811743975 894:0.0 895:0.0 896:0.0010659933323040605 897:0.0 898:0.0 899:0.0 900:0.026005737483501434 901:0.03373151272535324 902:0.0 903:0.0 904:0.0 905:0.0 906:0.0 907:0.0 908:0.0015439754351973534 909:0.10807342082262039 910:0.03841671720147133 911:0.0 912:0.0 913:0.0 914:0.0 915:0.0 916:0.0 917:0.03169340640306473 918:0.31109341979026794 919:0.05783245339989662 920:7.146315183490515E-4 921:0.0 922:0.0 923:0.0 924:0.0 925:0.0 926:0.02339935675263405 927:0.31109341979026794 928:0.06809528917074203 929:0.0010502093937247992 930:0.0 931:0.0 932:0.0 933:0.0 934:0.0 935:0.0 936:0.1896691620349884 937:0.043823596090078354 938:0.0 939:0.0 940:0.0 941:0.0 942:0.0 943:0.0 944:0.0019494853913784027 945:0.17158213257789612 946:0.0545182041823864 947:0.0 948:0.0 949:0.0 950:0.0 951:0.0 952:0.0 953:0.02003389783203602 954:0.31109341979026794 955:0.18665723502635956 956:0.0 957:0.0 958:0.0 959:0.0 960:0.0 961:0.0 962:0.009486318565905094 963:0.31109341979026794 964:0.14367997646331787 965:0.0 966:0.0 967:0.0 968:0.0 969:0.0 970:0.0 971:0.0 972:0.2294817417860031 973:0.03519614785909653 974:0.0 975:0.0 976:0.0 977:0.0 978:0.0 979:0.0 980:0.0 981:0.21120397746562958 982:0.14919552206993103 983:0.0 984:0.0 985:0.0 986:0.0 987:0.0 988:0.0 989:0.0 990:0.31109341979026794 991:0.21331296861171722 992:0.0 993:0.0 994:0.0 995:0.0 996:0.0 997:0.0 998:0.0064655812457203865 999:0.31109341979026794 1000:0.10847675800323486 1001:0.0 1002:0.0 1003:0.0 1004:0.0 1005:0.0 1006:0.0 1007:0.002155193593353033 1008:0.2761756479740143 1009:7.825912907719612E-4 1010:0.0 1011:0.0 1012:0.0 1013:0.0017949930625036359 1014:0.0 1015:0.0 1016:0.007132813334465027 1017:0.008005715906620026 1018:0.005341114941984415 1019:3.446395567152649E-4 1020:0.0 1021:0.0 1022:0.014365077950060368 1023:0.0 1024:4.7613002243451774E-4 1025:0.017770739272236824 1026:0.009151304140686989 1027:0.026006130501627922 1028:0.0016021371120586991 1029:0.0 1030:0.0 1031:0.011560243554413319 1032:0.0 1033:1.5870999777689576E-4 1034:0.004579921253025532 1035:0.027960339561104774 1036:0.013844539411365986 1037:0.00421170424669981 1038:0.0 1039:0.0 1040:0.0043635559268295765 1041:0.0 1042:0.0019899511244148016 1043:0.0025290600024163723 1044:0.012107692658901215 1045:0.01915057748556137 1046:0.0 1047:0.0 1048:0.0 1049:0.0 1050:0.0 1051:0.0 1052:0.011476969346404076 1053:0.11947038024663925 1054:0.12752097845077515 1055:1.1487985466374084E-4 1056:0.0 1057:0.0 1058:0.0018210080452263355 1059:0.0 1060:0.0014283901546150446 1061:0.04256579279899597 1062:0.2655748128890991 1063:0.10984854400157928 1064:0.002049294300377369 1065:0.0 1066:0.0 1067:6.070026429370046E-4 1068:0.0 1069:4.7613002243451774E-4 1070:0.033885762095451355 1071:0.3286014497280121 1072:0.022492121905088425 1073:0.0019089841516688466 1074:0.0 1075:0.0 1076:0.0 1077:0.0 1078:0.0059698536060750484 1079:0.01885460503399372 1080:0.1862419843673706 1081:0.0550471693277359 1082:0.0 1083:0.0 1084:0.0 1085:0.0 1086:0.0 1087:0.0 1088:0.0017461582319810987 1089:0.22412951290607452 1090:0.22796693444252014 1091:0.0 1092:0.0 1093:0.0 1094:0.0 1095:0.0 1096:0.0 1097:4.741039883811027E-4 1098:0.3286014497280121 1099:0.14500240981578827 1100:0.0 1101:0.0 1102:0.0 1103:0.0 1104:0.0 1105:0.0 1106:0.017575779929757118 1107:0.3286014497280121 1108:0.09345252066850662 1109:0.0 1110:0.0 1111:0.0 1112:0.0 1113:0.0 1114:0.0 1115:0.01743512600660324 1116:0.3286014497280121 1117:0.045434433966875076 1118:0.0 1119:0.0 1120:0.0 1121:0.0 1122:0.0 1123:0.0 1124:0.0 1125:0.1309770792722702 1126:0.12721453607082367 1127:0.0 1128:0.0 1129:0.0 1130:0.0 1131:0.0 1132:0.0 1133:6.279285571508808E-6 1134:0.3054758310317993 1135:0.11423838138580322 1136:0.0 1137:0.0 1138:0.0 1139:0.0 1140:0.0 1141:0.0 1142:0.0159409511834383 1143:0.3286014497280121 1144:0.053290024399757385 1145:0.0 1146:0.0 1147:0.0 1148:0.0 1149:0.0 1150:0.0 1151:0.020544495433568954 1152:0.14487224817276 1153:9.892339585348964E-4 1154:0.0 1155:0.0 1156:0.0 1157:0.027306269854307175 1158:0.01508721150457859 1159:0.007375888526439667 1160:0.008791005238890648 1161:0.0028108246624469757 1162:0.02580738626420498 1163:0.035409677773714066 1164:0.06560973823070526 1165:0.0 1166:0.05155802518129349 1167:0.03249460086226463 1168:0.015886075794696808 1169:0.0 1170:0.023013345897197723 1171:0.06022052466869354 1172:0.04776056483387947 1173:0.03602069243788719 1174:0.028945188969373703 1175:0.017316628247499466 1176:0.06677643209695816 1177:0.03577875718474388 1178:0.0010469666449353099 1179:0.05183839797973633 1180:0.009237737394869328 1181:0.0 1182:0.004716926254332066 1183:0.009648395702242851 1184:0.02229270339012146 1185:0.04743824154138565 1186:0.032590482383966446 1187:0.003140899818390608 1188:0.009237737394869328 1189:0.0036398808006197214 1190:0.006827093660831451 1191:0.020429188385605812 1192:0.04828712344169617 1193:0.13734027743339539 1194:0.045261628925800323 1195:0.02212766744196415 1196:0.002930335234850645 1197:0.004247077740728855 1198:0.16099002957344055 1199:0.06824184954166412 1200:0.08315747231245041 1201:0.01136010978370905 1202:0.17297856509685516 1203:0.0974838063120842 1204:0.047658227384090424 1205:0.0 1206:0.15260791778564453 1207:0.28121334314346313 1208:0.12379220128059387 1209:0.07307304441928864 1210:0.1345580518245697 1211:0.03443017974495888 1212:0.047987837344408035 1213:0.023460445925593376 1214:0.0 1215:0.2560669779777527 1216:0.06638320535421371 1217:0.0 1218:0.021927693858742714 1219:0.044852688908576965 1220:0.07357284426689148 1221:0.0498930923640728 1222:0.007730575278401375 1223:0.0 1224:0.06638320535421371 1225:0.028627565130591393 1226:0.008167042396962643 1227:0.006809729151427746 1228:0.1448613703250885 1229:0.139410600066185 1230:0.010648327879607677 1231:0.005205791909247637 1232:0.0 1233:0.020556192845106125 1234:0.14781633019447327 1235:0.03815527260303497 1236:0.12305539846420288 1237:0.1604253053665161 1238:0.22105136513710022 1239:0.0035494426265358925 1240:0.04313373565673828 1241:0.013834676705300808 1242:0.12360221147537231 1243:0.14881117641925812 1244:0.00455138273537159 1245:0.10420095175504684 1246:0.18528246879577637 1247:0.2362205535173416 1248:0.05789031833410263 1249:0.1524970382452011 1250:0.04150402918457985 1251:0.14881117641925812 1252:0.0759788304567337 1253:0.0 1254:0.028536522760987282 1255:0.05837083235383034 1256:0.08830418437719345 1257:0.16801753640174866 1258:0.032156988978385925 1259:0.0 1260:0.0759788304567337 1261:0.03014758601784706 1262:0.036521073430776596 1263:0.017099037766456604 1264:0.0 1265:0.04696686938405037 1266:0.03194498270750046 1267:0.015617375262081623 1268:0.0 1269:0.003212183713912964 1270:0.10591696947813034 1271:0.13472740352153778 1272:0.147187277674675 1273:0.042114999145269394 1274:0.006877432111650705 1275:0.010648327879607677 1276:0.0519733689725399 1277:0.015628943219780922 1278:0.025110773742198944 1279:0.008370257914066315 1280:0.013654148206114769 1281:0.0477215051651001 1282:0.014038332737982273 1283:0.069330595433712 1284:0.20891441404819489 1285:0.3015502989292145 1286:0.06001967564225197 1287:0.011091525666415691 1288:0.009636551141738892 1289:0.008065983653068542 1290:0.03975383937358856 1291:0.031945016235113144 1292:0.05843338370323181 1293:0.08513137698173523 1294:0.06132357195019722 1295:0.03939855471253395 1296:0.017800355330109596 1297:0.0 1298:0.0 1299:0.0 1300:0.0 1301:0.0027674322482198477 1302:0.020536279305815697 1303:0.029540274292230606 1304:0.018676316365599632 1305:0.0 1306:0.001408834708854556 1307:0.0 1308:0.0 1309:0.0 1310:0.00954926572740078 1311:0.07640338689088821 1312:0.1189618855714798 1313:0.057711612433195114 1314:0.001408834708854556 1315:0.004226504359394312 1316:0.0 1317:0.0 1318:0.03856547921895981 1319:0.038222894072532654 1320:0.05285229533910751 1321:0.055768631398677826 1322:0.03668583929538727 1323:0.004226504359394312 1324:0.0 1325:0.005281390622258186 1326:0.022216210141777992 1327:0.025157475844025612 1328:0.02815474197268486 1329:0.007512199226766825 1330:7.528753485530615E-4 1331:0.0 1332:0.0 1333:0.0 1334:0.0 1335:0.0024855374358594418 1336:0.03147979453206062 1337:0.043542247265577316 1338:0.04501387104392052 1339:0.008429491892457008 1340:0.005158215295523405 1341:0.0 1342:0.0 1343:0.0 1344:0.0 1345:0.09435530006885529 1346:0.22746820747852325 1347:0.22060614824295044 1348:0.05561400577425957 1349:0.01764637604355812 1350:0.0 1351:0.0 1352:0.0 1353:0.0 1354:0.23603732883930206 1355:0.29912933707237244 1356:0.2511196732521057 1357:0.024875018745660782 1358:0.011888666078448296 1359:0.0 1360:0.0 1361:0.01584417186677456 1362:0.03200480341911316 1363:0.15950103104114532 1364:0.1427571326494217 1365:0.03492496535181999 1366:0.014728361740708351 1367:0.0 1368:0.0 1369:9.825932793319225E-4 1370:0.0027634783182293177 1371:0.00478643411770463 1372:0.04417184740304947 1373:0.022688211873173714 1374:0.048396021127700806 1375:0.002415775554254651 1376:0.0 1377:4.0996845928020775E-4 1378:1.366561627946794E-4 1379:0.0 1380:0.0 1381:0.04923464357852936 1382:0.2893758714199066 1383:0.29912933707237244 1384:0.05010582506656647 1385:0.0 1386:1.366561627946794E-4 1387:0.0 1388:0.0 1389:0.0 1390:0.0747050791978836 1391:0.29912933707237244 1392:0.2536028027534485 1393:0.17994046211242676 1394:0.023394588381052017 1395:0.0 1396:0.0 1397:0.0 1398:0.0 1399:0.04708061367273331 1400:0.14500513672828674 1401:0.1446150839328766 1402:0.12751629948616028 1403:0.007798195816576481 1404:0.0 1405:0.0020791012793779373 1406:9.211594588123262E-4 1407:0.0011515617370605469 1408:0.009034889750182629 1409:0.001392229343764484 1410:0.014783595688641071 1411:0.0014673450496047735 1412:0.0 1413:0.0018882263684645295 1414:6.294088088907301E-4 1415:0.0 1416:0.0011960610281676054 1417:0.03510448336601257 1418:0.11362115293741226 1419:0.16615913808345795 1420:0.018688200041651726 1421:0.0 1422:6.294088088907301E-4 1423:0.0 1424:0.0 1425:0.0 1426:0.07007545232772827 1427:0.18405312299728394 1428:0.19233345985412598 1429:0.10512644052505493 1430:0.007798195816576481 1431:0.0 1432:0.0 1433:0.0 1434:9.553839918226004E-4 1435:0.030557403340935707 1436:0.09086837619543076 1437:0.0911870077252388 1438:0.042825840413570404 1439:0.0025993986055254936 1440:0.0 1441:0.2913866639137268 1442:0.02130669541656971 1443:0.012718706391751766 1444:0.0020937607623636723 1445:0.0016980316722765565 1446:0.002210073871538043 1447:0.0012208257103338838 1448:0.0054083410650491714 1449:0.13973812758922577 1450:0.41343221068382263 1451:0.009936184622347355 1452:0.016333984211087227 1453:0.006281282752752304 1454:0.040127210319042206 1455:0.0 1456:0.0036201144102960825 1457:0.002876569051295519 1458:0.41343221068382263 1459:0.41343221068382263 1460:0.0010568711441010237 1461:0.003162556793540716 1462:0.0 1463:0.03745206072926521 1464:0.0 1465:0.009639516472816467 1466:0.003221365390345454 1467:0.41343221068382263 1468:0.2684968113899231 1469:0.0031706131994724274 1470:0.009487669914960861 1471:0.0 1472:0.00986404251307249 1473:0.0 1474:0.0 1475:0.0 1476:0.29484179615974426 1477:0.0034811676014214754 1478:0.014905300922691822 1479:0.013783060014247894 1480:0.0021369352471083403 1481:0.018764153122901917 1482:0.03002767823636532 1483:0.0036624770145863295 1484:0.016225023195147514 1485:9.438811684958637E-4 1486:0.028454633429646492 1487:0.020994408056139946 1488:0.007586778607219458 1489:0.0020937607623636723 1490:0.029029646888375282 1491:0.007799152750521898 1492:0.002291883109137416 1493:0.005766270682215691 1494:0.02449953742325306 1495:0.04901914298534393 1496:0.0032042344100773335 1497:0.009588256478309631 1498:0.0 1499:0.04442723095417023 1500:0.0 1501:0.003213172545656562 1502:0.001073788502253592 1503:0.04901914298534393 1504:0.0054898993112146854 1505:0.009612702764570713 1506:0.028764771297574043 1507:0.0 1508:0.03492949903011322 1509:0.0 1510:0.0 1511:0.0 1512:0.0054898993112146854 1513:0.005903053097426891 1514:0.006442712619900703 1515:0.035085685551166534 1516:0.027274591848254204 1517:0.005382581148296595 1518:0.010560441762208939 1519:0.0013499457854777575 1520:0.0 1521:0.005903053097426891 1522:0.051367878913879395 1523:0.005644197575747967 1524:0.008390509523451328 1525:0.004017652943730354 1526:0.005217968951910734 1527:0.0035201471764594316 1528:0.00918428972363472 1529:0.002918859710916877 1530:0.05064333975315094 1531:0.026173744350671768 1532:0.011080005206167698 1533:0.001765875262208283 1534:0.0 1535:0.0862838551402092 1536:0.0075059570372104645 1537:0.029872462153434753 1538:0.008756578899919987 1539:0.024000130593776703 1540:0.0026367786340415478 1541:0.0017703779740259051 1542:0.005297625903040171 1543:0.0 1544:0.06896010041236877 1545:0.0025019855238497257 1546:0.0097300224006176 1547:0.0028428449295461178 1548:0.0026367786340415478 1549:0.006118216551840305 1550:6.512856343761086E-4 1551:0.005601267796009779 1552:0.010722055099904537 1553:2.752985164988786E-4 1554:0.008283867500722408 1555:0.004049837123602629 1556:0.0 1557:0.006118216551840305 1558:0.03251872956752777 1559:0.027308939024806023 1560:0.006501381751149893 1561:0.00133921776432544 1562:0.0 1563:0.0027612887788563967 1564:0.010687730275094509 1565:0.0031205262057483196 1566:0.02726488560438156 1567:0.01547486986964941 1568:0.03926754370331764 1569:0.008506853133440018 1570:0.0 1571:0.01620955392718315 1572:0.022517871111631393 1573:0.04097085818648338 1574:0.010012863203883171 1575:0.00792727991938591 1576:0.00791033636778593 1577:9.476123377680779E-4 1578:0.002835617633536458 1579:0.0 1580:0.009845702908933163 1581:0.0075059570372104645 1582:0.012351816520094872 1583:0.0029014721512794495 1584:0.00791033636778593 1585:0.029354101046919823 1586:0.018433360382914543 1587:0.0 1588:0.0 1589:0.009847784414887428 1590:0.0 1591:0.006500560790300369 1592:0.002172378823161125 1593:0.13555030524730682 1594:0.15754494071006775 1595:0.06754947453737259 1596:0.0 1597:0.0 1598:0.003282594960182905 1599:0.0 1600:0.019501684233546257 1601:0.0065171364694833755 1602:0.23103053867816925 1603:0.1947074979543686 1604:0.053744684904813766 1605:0.0 1606:0.0 1607:0.017590075731277466 1608:0.0 1609:0.0 1610:0.03087788261473179 1611:0.06494040787220001 1612:0.02512926608324051 1613:0.021845033392310143 1614:0.019141344353556633 1615:0.0 1616:0.0650356188416481 1617:0.0 1618:0.0 1619:0.010292627848684788 1620:0.006594259291887283 1621:0.038814447820186615 1622:0.10488332808017731 1623:0.0 1624:0.0 1625:0.024167925119400024 1626:0.0 1627:0.002166853751987219 1628:7.241262937895954E-4 1629:0.017081495374441147 1630:0.09570510685443878 1631:0.21917618811130524 1632:0.0 1633:0.0 1634:0.08897166699171066 1635:0.0 1636:0.006500560790300369 1637:0.002172378823161125 1638:0.05028944090008736 1639:0.046224988996982574 1640:0.1358456313610077 1641:0.0736064687371254 1642:0.19916187226772308 1643:0.09343112260103226 1644:0.0 1645:0.0 1646:0.09263364970684052 1647:0.03727107122540474 1648:0.0014871697640046477 1649:0.0011627872008830309 1650:0.02801499329507351 1651:0.19599007070064545 1652:0.2330516278743744 1653:0.0 1654:0.0 1655:0.03087788261473179 1656:0.007885419763624668 1657:0.031180446967482567 1658:0.016527749598026276 1659:0.0 1660:0.0 1661:0.03869112581014633 1662:0.0 1663:0.0 1664:0.0 1665:0.027755724266171455 1666:0.047087885439395905 1667:0.0055092498660087585 1668:0.0 1669:0.0 1670:0.29828518629074097 1671:0.0 1672:0.01767035759985447 1673:0.005905138328671455 1674:0.045946307480335236 1675:0.0040425462648272514 1676:0.0 1677:0.09058871120214462 1678:0.20149804651737213 1679:0.44295498728752136 1680:0.04860103875398636 1681:0.0058901188895106316 1682:0.0019683793652802706 1683:0.0040425462648272514 1684:0.0 1685:0.0 1686:0.06283572316169739 1687:0.17713049054145813 1688:0.25627806782722473 1689:0.016200345009565353 1690:0.0 1691:0.0 1692:0.0 1693:0.018584443256258965 1694:0.0 1695:0.0 1696:0.0 1697:0.031357210129499435 1698:0.0 1699:0.0 1700:0.0 1701:0.018584443256258965 1702:0.006194814573973417 1703:0.0 1704:0.0 1705:0.0 1706:0.13185864686965942 1707:0.0 1708:0.08138585090637207 1709:0.027197793126106262 1710:0.006194814573973417 1711:0.0 1712:0.0 1713:0.004079935606569052 1714:0.00834544189274311 1715:0.20634476840496063 1716:0.19298981130123138 1717:0.06191111356019974 1718:0.009065930731594563 1719:0.0 1720:0.0 1721:0.0 1722:0.012239807285368443 1723:0.02503632754087448 1724:0.10780065506696701 1725:0.08295328915119171 1726:0.05193546414375305 1727:0.0 1728:0.0 
