svm_type c_svc
kernel_type linear
nr_class 2
total_sv 19
rho 0.16309390362579937
label 0 1
probA -3.8313783653341256
probB 0.9447075461401424
nr_sv 11 8
SV
0.0358954953246026 1:0.019180430099368095 2:0.0 3:0.0 4:0.0 5:0.0013750451616942883 6:0.0 7:0.0 8:0.0 9:0.019180430099368095 10:0.08172085881233215 11:0.016062237322330475 12:0.017293887212872505 13:0.0 14:0.00865926779806614 15:0.0 16:0.0 17:0.0 18:0.04107029363512993 19:0.06904824823141098 20:0.05875737592577934 21:0.051881663501262665 22:0.0 23:0.019604435190558434 24:0.0 25:0.0 26:0.0 27:0.019464051350951195 28:0.025036929175257683 29:0.021472742781043053 30:0.003496424062177539 31:0.0 32:0.004208704922348261 33:0.0 34:0.0 35:0.0 36:0.020829658955335617 37:0.07606852799654007 38:0.02655586414039135 39:0.0 40:0.0 41:0.0 42:0.0 43:0.0 44:0.0 45:0.05139954760670662 46:0.26455408334732056 47:0.258157342672348 48:0.03175222501158714 49:0.0 50:0.0 51:0.0 52:0.0 53:0.0 54:0.03932095691561699 55:0.273669570684433 56:0.19662530720233917 57:0.025956420227885246 58:0.0 59:0.0 60:0.0 61:0.0 62:0.06418468803167343 63:0.13819721341133118 64:0.05919415131211281 65:0.06738145649433136 66:0.010489273816347122 67:0.0 68:0.0 69:0.0 70:0.0 71:0.053297970443964005 72:0.1189785897731781 73:0.04885432496666908 74:0.062150709331035614 75:0.026274295523762703 76:0.0030850465409457684 77:0.0 78:0.0 79:0.0 80:0.0 81:0.017289796844124794 82:0.13197298347949982 83:0.37289512157440186 84:0.05274094641208649 85:0.009255141019821167 86:0.0 87:0.0 88:0.0 89:0.0 90:0.0015997930895537138 91:0.25276684761047363 92:0.3268623948097229 93:0.004872065503150225 94:0.0 95:0.0 96:0.0 97:0.0 98:0.021394893527030945 99:0.1476089209318161 100:0.2437441647052765 101:0.07660304754972458 102:0.0 103:0.0 104:0.0 105:0.0 106:0.0 107:0.017765989527106285 108:0.1370440572500229 109:0.02760307490825653 110:0.03520017862319946 111:0.014970273710787296 112:0.009255141019821167 113:0.0 114:0.0 115:0.0 116:0.0 117:0.0063749453984200954 118:0.025948338210582733 119:0.2106345295906067 120:0.10990726947784424 121:0.03905460983514786 122:0.0 123:0.0 124:0.0 125:0.0 126:0.0 127:0.20472031831741333 128:0.2710793912410736 129:0.02618749998509884 130:0.0037630631122738123 131:0.0 132:0.0 133:0.0 134:0.0 135:0.04116630554199219 136:0.1716168075799942 137:0.09574133157730103 138:0.0 139:0.0 140:0.0 141:0.0 142:0.0 143:0.0 144:0.013722101226449013 145:0.030627980828285217 146:0.007322881370782852 147:0.0 148:0.0 149:0.003419415792450309 150:0.0 151:0.0 152:0.0 153:0.011503811925649643 154:0.06478122621774673 155:0.02773391455411911 156:0.02354133315384388 157:0.0 158:0.011900351382791996 159:0.0 160:0.0 161:0.0 162:0.023390542715787888 163:0.051457613706588745 164:0.08667615056037903 165:0.014488226734101772 166:0.0 167:0.011157983914017677 168:0.0 169:0.0 170:0.0 171:0.01523201446980238 172:0.051002684980630875 173:0.027045924216508865 174:0.01161629892885685 175:0.0 176:0.007270305883139372 177:0.0 178:0.0 179:0.0 180:0.004964911378920078 181:0.13491953909397125 182:0.0530177503824234 183:0.0010381609899923205 184:0.0 185:0.0 186:0.0 187:0.0 188:0.0 189:0.02541188895702362 190:0.3888365924358368 191:0.08990142494440079 192:0.007847110740840435 193:0.0 194:0.0 195:0.0 196:0.0 197:0.0 198:0.11491682380437851 199:0.3888365924358368 200:0.22052323818206787 201:0.0048294090665876865 202:0.0 203:0.0 204:0.0 205:0.0 206:0.0 207:0.12876781821250916 208:0.2295650988817215 209:0.12626086175441742 210:0.0038720990996807814 211:0.0 212:0.0 213:0.0 214:0.0 215:0.0 216:0.005405624862760305 217:0.07371287792921066 218:0.09974632412195206 219:0.06350976228713989 220:0.004848537966609001 221:0.0 222:0.002127633895725012 223:0.001040165196172893 224:0.0 225:0.0 226:0.34038177132606506 227:0.14410579204559326 228:0.09449828416109085 229:0.01720546931028366 230:0.0 231:0.006382902152836323 232:0.003120495704934001 233:0.01363413967192173 234:0.19028353691101074 235:0.30443015694618225 236:0.1677813082933426 237:0.04565560445189476 238:0.024277376011013985 239:0.0 240:0.04053783789277077 241:0.01981823705136776 242:0.0271759070456028 243:0.26797276735305786 244:0.11404918134212494 245:0.15361157059669495 246:0.06550648808479309 247:0.005432602018117905 248:0.0 249:0.013512613251805305 250:0.006606079172343016 251:0.0 252:0.01125196274369955 253:0.011515629477798939 254:0.04298064857721329 255:0.02336002141237259 256:0.008199614472687244 257:0.013755097053945065 258:0.006382902152836323 259:0.003120495704934001 260:0.0 261:0.0 262:0.010528081096708775 263:0.042930711060762405 264:0.046863917261362076 265:0.03257841244339943 266:0.012041468173265457 267:0.019148705527186394 268:0.00936148688197136 269:0.03666383773088455 270:0.07791657745838165 271:0.0079281534999609 272:0.02169005759060383 273:0.12601742148399353 274:0.0728321298956871 275:0.002451350213959813 276:0.042462121695280075 277:0.01142877247184515 278:0.02137667126953602 279:0.06079506874084473 280:0.005479466635733843 281:0.05533181503415108 282:0.07946750521659851 283:0.016297806054353714 284:8.171168155968189E-4 285:0.0141540402546525 286:0.0166701041162014 287:0.0048349779099226 288:0.005479466635733843 289:0.0016309685306623578 290:0.002189032733440399 291:0.0 292:0.0 293:0.0 294:0.0 295:3.2180387643165886E-4 296:1.0754119284683838E-4 297:0.001177377300336957 298:0.005220670253038406 299:0.0055311210453510284 300:0.0016673612408339977 301:0.0 302:0.0 303:0.0 304:1.0726794425863773E-4 305:3.584706428227946E-5 306:0.0041900211945176125 307:0.006166314706206322 308:0.0038464688695967197 309:0.0026694093830883503 310:0.0 311:0.0 312:0.0 313:0.0 314:0.0 315:0.00555413169786334 316:0.004104383755475283 317:8.400668739341199E-4 318:0.0 319:0.0 320:0.0 321:0.0 322:0.0 323:0.0 324:0.00393031258136034 325:0.012177420780062675 326:0.0057399277575314045 327:0.0 328:0.0 329:0.0 330:0.0 331:0.0 332:0.0 333:0.010988045483827591 334:0.06982498615980148 335:0.008513125590980053 336:2.6420276844874024E-4 337:0.0 338:0.0 339:0.0 340:0.0 341:0.0 342:0.021644508466124535 343:0.11477316915988922 344:0.004594794008880854 345:7.926084217615426E-4 346:0.0 347:0.0 348:0.0 349:0.0 350:0.0 351:0.04512528330087662 352:0.07285377383232117 353:0.002774997381493449 354:0.0 355:0.0 356:0.0 357:0.0 358:0.0 359:0.0 360:0.028441423550248146 361:0.00930555909872055 362:0.015153764747083187 363:4.1269356734119356E-4 364:0.00942226406186819 365:0.001942310482263565 366:0.0 367:0.0 368:0.0 369:0.00758359394967556 370:0.16434736549854279 371:0.1140366643667221 372:0.02538376860320568 373:0.009395538829267025 374:6.474368274211884E-4 375:0.0 376:0.0 377:0.0 378:0.017415691167116165 379:0.3349822759628296 380:0.27219024300575256 381:0.027149740606546402 382:0.0 383:0.0 384:0.0 385:0.0 386:0.0 387:0.07552767544984818 388:0.3349822759628296 389:0.1445034295320511 390:0.057303536683321 391:0.0 392:0.0 393:0.0 394:0.0 395:0.0 396:0.07860514521598816 397:0.0011601169826462865 398:0.002281182911247015 399:0.0013873211573809385 400:0.015063499100506306 401:0.02008862793445587 402:0.00259915878996253 403:0.0 404:0.0 405:0.0011601169826462865 406:0.21380221843719482 407:0.16246260702610016 408:0.034465864300727844 409:0.2205790877342224 410:0.04929732903838158 411:0.007797477301210165 412:0.0 413:0.0 414:0.0 415:0.3349822759628296 416:0.3349822759628296 417:0.13530798256397247 418:0.06559786200523376 419:3.648603451438248E-4 420:0.0 421:0.0 422:0.011671865358948708 423:0.018903043121099472 424:0.27321213483810425 425:0.3349822759628296 426:0.1719105988740921 427:0.0 428:0.0 429:8.293483406305313E-4 430:0.0017965070437639952 431:0.03501559793949127 432:0.047884777188301086 433:0.008074047975242138 434:0.0 435:2.874864439945668E-4 436:1.3271694479044527E-4 437:0.009434856474399567 438:0.0059181866236031055 439:0.028841610997915268 440:0.04766036197543144 441:0.07254776358604431 442:0.06709542870521545 443:0.0 444:0.0 445:0.0 446:0.0 447:0.001525689265690744 448:0.02894902043044567 449:0.2752113342285156 450:0.1798069030046463 451:0.016756616532802582 452:0.0 453:0.0 454:0.0 455:0.04518019035458565 456:0.006365096662193537 457:0.03999587893486023 458:0.2752113342285156 459:0.2752113342285156 460:4.550431913230568E-4 461:0.0 462:0.0 463:0.0 464:0.03922497481107712 465:0.01909528858959675 466:0.03680582717061043 467:0.14602087438106537 468:0.121779665350914 469:0.013165260665118694 470:0.001185743953101337 471:8.624593028798699E-4 472:3.981508198194206E-4 473:5.74097444768995E-4 474:0.0011413382599130273 475:0.0031216072384268045 476:0.019592050462961197 477:0.03834134712815285 478:0.09948249906301498 479:0.0020103948190808296 480:0.0018399074906483293 481:0.005143257323652506 482:0.001839125412516296 483:0.0034240144304931164 484:0.008973537012934685 485:0.1357259601354599 486:0.22756505012512207 487:0.10976098477840424 488:0.0010010969126597047 489:0.00684784259647131 490:0.01542977336794138 491:3.5049996222369373E-4 492:0.0 493:0.1025884822010994 494:0.2752113342285156 495:0.2752113342285156 496:0.09280510246753693 497:1.4794454909861088E-4 498:4.427065432537347E-4 499:0.0 500:0.0 501:0.0 502:0.07255470752716064 503:0.2752113342285156 504:0.2752113342285156 505:0.02401290461421013 506:0.0024757871869951487 507:0.0 508:0.0 509:0.0017222921596840024 510:0.010997196659445763 511:0.014146392233669758 512:0.06345580518245697 513:0.2364833652973175 514:0.045459844172000885 515:0.005128237418830395 516:6.133025162853301E-4 517:0.005393770057708025 518:0.05551464110612869 519:0.04658878594636917 520:0.039448343217372894 521:0.011305698193609715 522:0.21064721047878265 523:0.030419278889894485 524:0.003003290854394436 525:0.005824266467243433 526:0.01618131250143051 527:0.02169029414653778 528:0.019013311713933945 529:0.006495942827314138 530:0.001210676389746368 531:0.04477931931614876 532:0.03316434845328331 533:4.438336763996631E-4 534:0.0013281196588650346 535:8.150701178237796E-4 536:0.0015689728315919638 537:0.005953124724328518 538:0.0017374864546582103 539:0.013035198673605919 540:0.1165279746055603 541:0.023617390543222427 542:0.010374280624091625 543:0.025939330458641052 544:0.0 545:0.0 546:0.03185025230050087 547:0.04306484013795853 548:0.09255754202604294 549:0.10388483852148056 550:0.01643010601401329 551:0.012397991493344307 552:0.07781799137592316 553:0.013989383354783058 554:0.22014948725700378 555:0.13265348970890045 556:0.11421787738800049 557:0.02420913614332676 558:0.07915239781141281 559:3.1362927984446287E-4 560:0.0 561:0.0 562:0.004663127940148115 563:0.08802547305822372 564:0.032688241451978683 565:0.006443633232265711 566:0.004147710278630257 567:0.0029460424557328224 568:0.001208893139846623 569:0.0 570:0.0 571:0.0024452107027173042 572:7.070388528518379E-4 573:0.004013421945273876 574:0.0033176059368997812 575:0.0028706889133900404 576:0.0027420767582952976 577:0.04026681184768677 578:0.014024773612618446 579:0.005876366514712572 580:0.0 581:0.0 582:0.0 583:0.0 584:0.0036792263854295015 585:0.010855467058718204 586:0.14609122276306152 587:0.042492836713790894 588:0.04690292105078697 589:0.0 590:0.0 591:0.0 592:0.0 593:0.00122640875633806 594:0.06323369592428207 595:0.1447426825761795 596:0.2293616682291031 597:0.04588961973786354 598:0.004592821933329105 599:0.0 600:0.0 601:0.0 602:0.0 603:0.047025714069604874 604:0.10891828685998917 605:0.13795433938503265 606:0.008822883479297161 607:0.0015309406444430351 608:0.0 609:0.0 610:0.0 611:0.0 612:0.02051522210240364 613:0.037532053887844086 614:0.041400231420993805 615:0.017629100009799004 616:0.0 617:0.004033107776194811 618:0.0 619:0.0 620:8.171311928890646E-4 621:0.038720276206731796 622:0.065620057284832 623:0.08940108865499496 624:0.14337104558944702 625:0.0 626:0.012099322862923145 627:0.0 628:0.0 629:0.014926460571587086 630:0.13786663115024567 631:0.047174666076898575 632:0.16258949041366577 633:0.10160261392593384 634:0.018219714984297752 635:3.7607047124765813E-4 636:0.0 637:0.007048339582979679 638:0.05065871775150299 639:0.2937651574611664 640:0.0521690770983696 641:0.04515610262751579 642:0.017818531021475792 643:0.020702244713902473 644:0.001128211384639144 645:0.0 646:0.002349446527659893 647:0.05398913472890854 648:0.20638738572597504 649:0.0488012433052063 650:0.0 651:0.0 652:0.0 653:0.0013443691423162818 654:0.0 655:0.0 656:0.002451393287628889 657:0.1579728126525879 658:0.07320921123027802 659:0.0026690582744777203 660:0.007986809127032757 661:0.0 662:0.004033107776194811 663:0.0 664:0.0 665:0.05251733213663101 666:0.34038496017456055 667:0.054948367178440094 668:0.008007174357771873 669:0.023960428312420845 670:0.01332374382764101 671:0.001128211384639144 672:0.0 673:0.021145017817616463 674:0.054135724902153015 675:0.34038496017456055 676:0.03776806220412254 677:0.0 678:0.018102696165442467 679:0.04832826927304268 680:0.0033846343867480755 681:0.0 682:0.007048339582979679 683:0.040175098925828934 684:0.1577267199754715 685:0.040391091257333755 686:0.0 687:0.0 688:0.0 689:0.0 690:0.0 691:0.0 692:0.014691715128719807 693:0.14428523182868958 694:0.06494036316871643 695:0.0 696:0.0 697:0.0 698:0.0 699:0.0 700:0.0 701:0.03778066113591194 702:0.34038496017456055 703:0.0758771225810051 704:0.0 705:0.0 706:0.0 707:0.0 708:0.0 709:0.0 710:0.05190667510032654 711:0.34038496017456055 712:0.021407775580883026 713:0.0 714:0.0 715:0.0 716:0.0 717:0.0 718:0.0 719:0.05207202956080437 720:0.20677508413791656 721:0.012163802050054073 722:0.0 723:0.0 724:0.0 725:0.0 726:0.0 727:0.0 728:0.010311074554920197 729:0.04544224590063095 730:0.03528779000043869 731:0.0 732:0.0 733:0.0 734:0.0 735:0.0 736:0.0 737:0.027248820289969444 738:0.1520262211561203 739:0.04935784265398979 740:0.0 741:0.0 742:0.0 743:0.0 744:0.0 745:0.0 746:0.038706570863723755 747:0.2651185393333435 748:0.019141018390655518 749:0.0 750:0.0 751:0.0 752:0.0 753:0.0 754:0.0 755:0.01584392972290516 756:0.21899192035198212 757:0.01060725748538971 758:0.0 759:0.0 760:0.0 761:0.0 762:0.0 763:0.0011398629285395145 764:0.06295877695083618 765:0.07660310715436935 766:0.036472730338573456 767:0.0 768:0.0 769:0.0 770:0.0 771:0.0 772:3.799542901106179E-4 773:0.1400524079799652 774:0.22039705514907837 775:0.12301775068044662 776:0.0 777:0.0 778:0.0 779:0.0 780:0.0 781:0.0 782:0.062023013830184937 783:0.25474071502685547 784:0.05395388603210449 785:0.0 786:0.0 787:0.0 788:0.0 789:0.0 790:0.0 791:0.0033038444817066193 792:0.1872868835926056 793:0.022951962426304817 794:9.305470739491284E-4 795:0.0012317219516262412 796:0.0 797:0.0 798:0.0 799:3.799542901106179E-4 800:0.0472007654607296 801:0.1782904863357544 802:0.030867887660861015 803:0.0012348579475656152 804:0.003695165738463402 805:0.0 806:0.0 807:0.0 808:0.0094220582395792 809:0.30211979150772095 810:0.30211979150772095 811:0.11576305329799652 812:0.0 813:0.0 814:0.0 815:0.0 816:0.0 817:0.0030984687618911266 818:0.20643988251686096 819:0.30211979150772095 820:0.06672961264848709 821:0.0 822:0.0 823:0.0 824:0.0 825:0.0 826:0.0 827:0.006905681453645229 828:0.30211979150772095 829:0.005255475640296936 830:0.0027916415128856897 831:0.003695165738463402 832:0.0 833:0.0 834:0.0 835:8.80287610925734E-4 836:0.03230177238583565 837:0.028783490881323814 838:0.014980695210397243 839:0.00370457349345088 840:0.01108549814671278 841:0.0 842:0.0 843:0.0 844:0.005739331711083651 845:0.13455146551132202 846:0.15003742277622223 847:0.031561944633722305 848:0.0 849:0.0 850:0.0 851:0.0 852:0.0 853:0.0010328228818252683 854:0.06766200065612793 855:0.30211979150772095 856:0.016850730404257774 857:0.0 858:0.0 859:0.0 860:0.0 861:0.0 862:0.0 863:0.011707601137459278 864:0.20973482728004456 865:0.030627980828285217 866:0.007322881370782852 867:0.0 868:0.0 869:0.003419415792450309 870:0.0 871:0.0 872:0.0 873:0.011503811925649643 874:0.06478122621774673 875:0.02773391455411911 876:0.02354133315384388 877:0.0 878:0.011900351382791996 879:0.0 880:0.0 881:0.0 882:0.023390542715787888 883:0.051457613706588745 884:0.08667615056037903 885:0.014488226734101772 886:0.0 887:0.011157983914017677 888:0.0 889:0.0 890:0.0 891:0.01523201446980238 892:0.051002684980630875 893:0.027045924216508865 894:0.01161629892885685 895:0.0 896:0.007270305883139372 897:0.0 898:0.0 899:0.0 900:0.004964911378920078 901:0.13491953909397125 902:0.0530177503824234 903:0.0010381609899923205 904:0.0 905:0.0 906:0.0 907:0.0 908:0.0 909:0.02541188895702362 910:0.3888365924358368 911:0.08990142494440079 912:0.007847110740840435 913:0.0 914:0.0 915:0.0 916:0.0 917:0.0 918:0.11491682380437851 919:0.3888365924358368 920:0.22052323818206787 921:0.0048294090665876865 922:0.0 923:0.0 924:0.0 925:0.0 926:0.0 927:0.12876781821250916 928:0.2295650988817215 929:0.12626086175441742 930:0.0038720990996807814 931:0.0 932:0.0 933:0.0 934:0.0 935:0.0 936:0.005405624862760305 937:0.07371287792921066 938:0.09974632412195206 939:0.06350976228713989 940:0.004848537966609001 941:0.0 942:0.002127633895725012 943:0.001040165196172893 944:0.0 945:0.0 946:0.34038177132606506 947:0.14410579204559326 948:0.09449828416109085 949:0.01720546931028366 950:0.0 951:0.006382902152836323 952:0.003120495704934001 953:0.01363413967192173 954:0.19028353691101074 955:0.30443015694618225 956:0.1677813082933426 957:0.04565560445189476 958:0.024277376011013985 959:0.0 960:0.04053783789277077 961:0.01981823705136776 962:0.0271759070456028 963:0.26797276735305786 964:0.11404918134212494 965:0.15361157059669495 966:0.06550648808479309 967:0.005432602018117905 968:0.0 969:0.013512613251805305 970:0.006606079172343016 971:0.0 972:0.01125196274369955 973:0.011515629477798939 974:0.04298064857721329 975:0.02336002141237259 976:0.008199614472687244 977:0.013755097053945065 978:0.006382902152836323 979:0.003120495704934001 980:0.0 981:0.0 982:0.010528081096708775 983:0.042930711060762405 984:0.046863917261362076 985:0.03257841244339943 986:0.012041468173265457 987:0.019148705527186394 988:0.00936148688197136 989:0.03666383773088455 990:0.07791657745838165 991:0.0079281534999609 992:0.02169005759060383 993:0.12601742148399353 994:0.0728321298956871 995:0.002451350213959813 996:0.042462121695280075 997:0.01142877247184515 998:0.02137667126953602 999:0.06079506874084473 1000:0.005479466635733843 1001:0.05533181503415108 1002:0.07946750521659851 1003:0.016297806054353714 1004:8.171168155968189E-4 1005:0.0141540402546525 1006:0.0166701041162014 1007:0.0048349779099226 1008:0.005479466635733843 1009:0.002807860728353262 1010:0.006097887642681599 1011:0.0024384651333093643 1012:0.0 1013:0.001204426633194089 1014:0.0 1015:0.0 1016:0.0 1017:2.2891696426086128E-4 1018:0.0097682299092412 1019:0.003996109124273062 1020:0.0018753341864794493 1021:0.0 1022:0.0062652695924043655 1023:0.0 1024:0.0 1025:0.0 1026:0.003708592616021633 1027:0.002980375662446022 1028:0.0060602156445384026 1029:0.004201004281640053 1030:0.0 1031:0.00453442195430398 1032:0.0 1033:0.0 1034:0.0 1035:0.002980375662446022 1036:0.0029527272563427687 1037:1.7840352666098624E-4 1038:5.338514456525445E-4 1039:0.0 1040:6.733629270456731E-4 1041:0.0 1042:0.0 1043:0.0 1044:0.0029527272563427687 1045:0.0029170687776058912 1046:0.005548716988414526 1047:0.002458876697346568 1048:0.0 1049:0.0 1050:0.0 1051:3.7894281558692455E-4 1052:0.001678742584772408 1053:8.473118068650365E-4 1054:0.008010486140847206 1055:0.023360803723335266 1056:0.007904238998889923 1057:0.0 1058:0.0041071088053286076 1059:0.0 1060:1.2631426216103137E-4 1061:5.595808615908027E-4 1062:0.0028355075046420097 1063:0.032771360129117966 1064:0.056475795805454254 1065:0.015166910365223885 1066:0.0 1067:0.0013690362684428692 1068:0.0 1069:0.0 1070:0.0 1071:0.009095683693885803 1072:0.05606459453701973 1073:0.019079307094216347 1074:1.779504818841815E-4 1075:0.0 1076:0.0 1077:0.0 1078:0.0 1079:0.0 1080:0.01663897931575775 1081:0.02800394780933857 1082:0.008097573183476925 1083:2.2254239593166858E-4 1084:0.0 1085:0.0 1086:0.0 1087:0.0011368284467607737 1088:0.0050362274050712585 1089:0.0025602474343031645 1090:0.12685838341712952 1091:0.124148428440094 1092:0.001096250955015421 1093:0.0 1094:0.0013690362684428692 1095:0.0 1096:3.7894281558692455E-4 1097:0.001678742584772408 1098:0.004880338441580534 1099:0.317415326833725 1100:0.28967785835266113 1101:0.0032887528650462627 1102:0.0 1103:4.5634544221684337E-4 1104:0.0 1105:0.0 1106:0.0 1107:0.002018083818256855 1108:0.317415326833725 1109:0.18106558918952942 1110:0.013709647580981255 1111:0.0 1112:0.0 1113:0.0 1114:0.0 1115:0.0 1116:0.006054251920431852 1117:0.093522809445858 1118:0.026498885825276375 1119:0.0 1120:0.0 1121:0.0 1122:0.0 1123:0.0 1124:0.0 1125:0.002767960075289011 1126:0.317415326833725 1127:0.28924235701560974 1128:0.043531909584999084 1129:0.0 1130:0.0 1131:0.0 1132:0.0 1133:0.0 1134:0.008084122091531754 1135:0.317415326833725 1136:0.317415326833725 1137:0.18266841769218445 1138:0.0 1139:0.0 1140:0.0 1141:0.0 1142:0.0 1143:2.5450618704780936E-4 1144:0.317415326833725 1145:0.317415326833725 1146:0.05848649889230728 1147:0.0 1148:0.0 1149:0.0 1150:0.0 1151:0.0020423925016075373 1152:0.029897572472691536 1153:0.008074047975242138 1154:0.0 1155:2.874864439945668E-4 1156:1.3271694479044527E-4 1157:0.009434856474399567 1158:0.0059181866236031055 1159:0.028841610997915268 1160:0.04766036197543144 1161:0.07254776358604431 1162:0.06709542870521545 1163:0.0 1164:0.0 1165:0.0 1166:0.0 1167:0.001525689265690744 1168:0.02894902043044567 1169:0.2752113342285156 1170:0.1798069030046463 1171:0.016756616532802582 1172:0.0 1173:0.0 1174:0.0 1175:0.04518019035458565 1176:0.006365096662193537 1177:0.03999587893486023 1178:0.2752113342285156 1179:0.2752113342285156 1180:4.550431913230568E-4 1181:0.0 1182:0.0 1183:0.0 1184:0.03922497481107712 1185:0.01909528858959675 1186:0.03680582717061043 1187:0.14602087438106537 1188:0.121779665350914 1189:0.013165260665118694 1190:0.001185743953101337 1191:8.624593028798699E-4 1192:3.981508198194206E-4 1193:5.74097444768995E-4 1194:0.0011413382599130273 1195:0.0031216072384268045 1196:0.019592050462961197 1197:0.03834134712815285 1198:0.09948249906301498 1199:0.0020103948190808296 1200:0.0018399074906483293 1201:0.005143257323652506 1202:0.001839125412516296 1203:0.0034240144304931164 1204:0.008973537012934685 1205:0.1357259601354599 1206:0.22756505012512207 1207:0.10976098477840424 1208:0.0010010969126597047 1209:0.00684784259647131 1210:0.01542977336794138 1211:3.5049996222369373E-4 1212:0.0 1213:0.1025884822010994 1214:0.2752113342285156 1215:0.2752113342285156 1216:0.09280510246753693 1217:1.4794454909861088E-4 1218:4.427065432537347E-4 1219:0.0 1220:0.0 1221:0.0 1222:0.07255470752716064 1223:0.2752113342285156 1224:0.2752113342285156 1225:0.02401290461421013 1226:0.0024757871869951487 1227:0.0 1228:0.0 1229:0.0017222921596840024 1230:0.010997196659445763 1231:0.014146392233669758 1232:0.06345580518245697 1233:0.2364833652973175 1234:0.045459844172000885 1235:0.005128237418830395 1236:6.133025162853301E-4 1237:0.005393770057708025 1238:0.05551464110612869 1239:0.04658878594636917 1240:0.039448343217372894 1241:0.011305698193609715 1242:0.21064721047878265 1243:0.030419278889894485 1244:0.003003290854394436 1245:0.005824266467243433 1246:0.01618131250143051 1247:0.02169029414653778 1248:0.019013311713933945 1249:0.006495942827314138 1250:0.001210676389746368 1251:0.04477931931614876 1252:0.03316434845328331 1253:4.438336763996631E-4 1254:0.0013281196588650346 1255:8.150701178237796E-4 1256:0.0015689728315919638 1257:0.005953124724328518 1258:0.0017374864546582103 1259:0.013035198673605919 1260:0.1165279746055603 1261:0.023617390543222427 1262:0.010374280624091625 1263:0.025939330458641052 1264:0.0 1265:0.0 1266:0.03185025230050087 1267:0.04306484013795853 1268:0.09255754202604294 1269:0.10388483852148056 1270:0.01643010601401329 1271:0.012397991493344307 1272:0.07781799137592316 1273:0.013989383354783058 1274:0.22014948725700378 1275:0.13265348970890045 1276:0.11421787738800049 1277:0.02420913614332676 1278:0.07915239781141281 1279:3.1362927984446287E-4 1280:0.0 1281:0.0 1282:0.004663127940148115 1283:0.08802547305822372 1284:0.032688241451978683 1285:0.006443633232265711 1286:0.004147710278630257 1287:0.0029460424557328224 1288:0.001208893139846623 1289:0.0 1290:0.0 1291:0.0024452107027173042 1292:7.070388528518379E-4 1293:0.004013421945273876 1294:0.0033176059368997812 1295:0.0028706889133900404 1296:0.0027420767582952976 1297:0.00268191727809608 1298:3.383490548003465E-5 1299:0.0 1300:0.0013043541694059968 1301:0.002961490536108613 1302:0.0015258087078109384 1303:8.456204668618739E-4 1304:7.979744113981724E-4 1305:0.0074365451000630856 1306:0.005168785806745291 1307:0.0 1308:4.964454565197229E-4 1309:8.442563703283668E-4 1310:0.005538224708288908 1311:0.0037464017514139414 1312:0.024170326068997383 1313:0.009942554868757725 1314:0.008459051139652729 1315:0.010522543452680111 1316:0.010518940165638924 1317:0.0014893364859744906 1318:0.0023115379735827446 1319:0.003595565678551793 1320:0.0296307560056448 1321:0.02510961890220642 1322:0.0227905735373497 1323:0.0 1324:0.013938436284661293 1325:0.004622356966137886 1326:0.0 1327:0.0032493702601641417 1328:0.008651775307953358 1329:0.01735202968120575 1330:0.003100518137216568 1331:0.0 1332:0.007265875581651926 1333:0.03231027349829674 1334:1.1278302736172918E-5 1335:0.0 1336:0.003913062624633312 1337:0.008884470909833908 1338:0.0032932073809206486 1339:5.558052216656506E-4 1340:0.0452689453959465 1341:0.0717516541481018 1342:0.04754975065588951 1343:0.08798284828662872 1344:0.008007562719285488 1345:0.002532769227400422 1346:0.016614671796560287 1347:0.01086562778800726 1348:0.0030058990232646465 1349:0.018651150166988373 1350:0.16599701344966888 1351:0.12124179303646088 1352:0.27001169323921204 1353:0.08186743408441544 1354:0.006934614386409521 1355:0.007161418441683054 1356:0.010852858424186707 1357:0.0045755826868116856 1358:0.0042703598737716675 1359:0.13418513536453247 1360:0.04908876121044159 1361:0.14842498302459717 1362:0.2441987842321396 1363:0.009748109616339207 1364:0.015079488977789879 1365:0.005603277124464512 1366:0.0010335060069337487 1367:0.0 1368:0.021797629073262215 1369:0.02147454395890236 1370:0.0 1371:0.0019170313607901335 1372:0.0023178032133728266 1373:0.0 1374:0.0 1375:0.0 1376:0.18080173432826996 1377:0.14944688975811005 1378:0.1885080337524414 1379:0.30339542031288147 1380:0.09509822726249695 1381:0.006953409407287836 1382:0.0 1383:0.0 1384:0.0 1385:0.05414939299225807 1386:0.25047656893730164 1387:0.1905708760023117 1388:0.30339542031288147 1389:0.16881735622882843 1390:0.0 1391:0.0 1392:0.0 1393:0.0 1394:0.0 1395:0.061836838722229004 1396:0.11378887295722961 1397:0.30339542031288147 1398:0.13262058794498444 1399:0.0 1400:3.735535574378446E-5 1401:4.411524278111756E-4 1402:0.0 1403:0.0 1404:0.0041422354988753796 1405:0.04082644730806351 1406:0.0 1407:6.390104535967112E-4 1408:7.72600993514061E-4 1409:0.0 1410:0.0 1411:0.0 1412:0.034216683357954025 1413:0.09126878529787064 1414:0.25884950160980225 1415:0.10693299770355225 1416:0.025181183591485023 1417:0.0023178032133728266 1418:0.0 1419:0.0 1420:0.0 1421:0.013947566971182823 1422:0.07022055238485336 1423:0.2403700202703476 1424:0.19398590922355652 1425:0.030290573835372925 1426:0.0 1427:0.0 1428:0.0 1429:0.0 1430:0.0013338621938601136 1431:0.05886700376868248 1432:0.0635487511754036 1433:0.08933353424072266 1434:0.012432156130671501 1435:0.0 1436:1.1206606723135337E-4 1437:0.0013234573416411877 1438:0.0 1439:0.00153096963185817 1440:0.021407943218946457 1441:0.012163802050054073 1442:0.0 1443:0.0 1444:0.0 1445:0.0 1446:0.0 1447:0.0 1448:0.010311074554920197 1449:0.04544224590063095 1450:0.03528779000043869 1451:0.0 1452:0.0 1453:0.0 1454:0.0 1455:0.0 1456:0.0 1457:0.027248820289969444 1458:0.1520262211561203 1459:0.04935784265398979 1460:0.0 1461:0.0 1462:0.0 1463:0.0 1464:0.0 1465:0.0 1466:0.038706570863723755 1467:0.2651185393333435 1468:0.019141018390655518 1469:0.0 1470:0.0 1471:0.0 1472:0.0 1473:0.0 1474:0.0 1475:0.01584392972290516 1476:0.21899192035198212 1477:0.01060725748538971 1478:0.0 1479:0.0 1480:0.0 1481:0.0 1482:0.0 1483:0.0011398629285395145 1484:0.06295877695083618 1485:0.07660310715436935 1486:0.036472730338573456 1487:0.0 1488:0.0 1489:0.0 1490:0.0 1491:0.0 1492:3.799542901106179E-4 1493:0.1400524079799652 1494:0.22039705514907837 1495:0.12301775068044662 1496:0.0 1497:0.0 1498:0.0 1499:0.0 1500:0.0 1501:0.0 1502:0.062023013830184937 1503:0.25474071502685547 1504:0.05395388603210449 1505:0.0 1506:0.0 1507:0.0 1508:0.0 1509:0.0 1510:0.0 1511:0.0033038444817066193 1512:0.1872868835926056 1513:0.022951962426304817 1514:9.305470739491284E-4 1515:0.0012317219516262412 1516:0.0 1517:0.0 1518:0.0 1519:3.799542901106179E-4 1520:0.0472007654607296 1521:0.1782904863357544 1522:0.030867887660861015 1523:0.0012348579475656152 1524:0.003695165738463402 1525:0.0 1526:0.0 1527:0.0 1528:0.0094220582395792 1529:0.30211979150772095 1530:0.30211979150772095 1531:0.11576305329799652 1532:0.0 1533:0.0 1534:0.0 1535:0.0 1536:0.0 1537:0.0030984687618911266 1538:0.20643988251686096 1539:0.30211979150772095 1540:0.06672961264848709 1541:0.0 1542:0.0 1543:0.0 1544:0.0 1545:0.0 1546:0.0 1547:0.006905681453645229 1548:0.30211979150772095 1549:0.005255475640296936 1550:0.0027916415128856897 1551:0.003695165738463402 1552:0.0 1553:0.0 1554:0.0 1555:8.80287610925734E-4 1556:0.03230177238583565 1557:0.028783490881323814 1558:0.014980695210397243 1559:0.00370457349345088 1560:0.01108549814671278 1561:0.0 1562:0.0 1563:0.0 1564:0.005739331711083651 1565:0.13455146551132202 1566:0.15003742277622223 1567:0.031561944633722305 1568:0.0 1569:0.0 1570:0.0 1571:0.0 1572:0.0 1573:0.0010328228818252683 1574:0.06766200065612793 1575:0.30211979150772095 1576:0.016850730404257774 1577:0.0 1578:0.0 1579:0.0 1580:0.0 1581:0.0 1582:0.0 1583:0.011707601137459278 1584:0.20973482728004456 1585:0.001646649674512446 1586:0.0 1587:0.0 1588:0.0 1589:0.0 1590:0.0 1591:6.869150092825294E-5 1592:0.03803948312997818 1593:0.08958136290311813 1594:0.002079788828268647 1595:0.0 1596:0.0 1597:0.0060098120011389256 1598:3.808063183896593E-6 1599:0.0 1600:0.010976815596222878 1601:0.13292689621448517 1602:0.1530245840549469 1603:0.0 1604:0.0 1605:0.0 1606:0.018029434606432915 1607:1.1424189324316103E-5 1608:0.0 1609:0.00834712479263544 1610:0.16060148179531097 1611:0.1780865490436554 1612:0.007349872495979071 1613:2.445647260174155E-4 1614:0.0 1615:0.0 1616:0.0 1617:0.0 1618:0.014270633459091187 1619:0.10738474875688553 1620:0.06412851810455322 1621:0.0033218616154044867 1622:0.0 1623:0.0 1624:0.0 1625:0.0 1626:0.0 1627:0.0 1628:0.07537873089313507 1629:0.17582203447818756 1630:0.04120022803544998 1631:0.0 1632:0.0 1633:0.0020032706670463085 1634:1.269354356736585E-6 1635:0.0 1636:0.0035902471281588078 1637:0.25909528136253357 1638:0.3152439296245575 1639:0.012889804318547249 1640:0.0 1641:0.0 1642:0.0060098120011389256 1643:3.808063183896593E-6 1644:0.0 1645:0.0024494060780853033 1646:0.3152439296245575 1647:0.3152439296245575 1648:0.010289383120834827 1649:0.0 1650:0.0 1651:0.0 1652:0.0 1653:0.0 1654:0.003757971338927746 1655:0.25046980381011963 1656:0.3152439296245575 1657:0.0012170184636488557 1658:0.0 1659:0.0 1660:0.0 1661:0.0 1662:0.0 1663:0.0 1664:0.02585582248866558 1665:0.06539025902748108 1666:0.013502322137355804 1667:0.0 1668:0.0 1669:0.0 1670:0.0 1671:0.0 1672:0.0 1673:0.13811644911766052 1674:0.1960732340812683 1675:0.005754272919148207 1676:0.0 1677:0.0 1678:0.0 1679:0.0 1680:0.0 1681:0.0 1682:0.1455863118171692 1683:0.3152439296245575 1684:0.016713866963982582 1685:0.0 1686:0.0 1687:0.0 1688:0.0 1689:0.0 1690:0.0 1691:0.07208624482154846 1692:0.30972522497177124 1693:7.764132460579276E-4 1694:0.0 1695:0.0 1696:0.0 1697:0.0 1698:0.0 1699:0.0 1700:0.015172166749835014 1701:0.03057044930756092 1702:0.0013894421281293035 1703:0.0 1704:0.0 1705:0.0 1706:0.0 1707:0.0 1708:0.0 1709:0.07414302974939346 1710:0.05500025302171707 1711:0.005524966400116682 1712:0.0 1713:0.0 1714:0.0 1715:0.0 1716:0.0 1717:0.0 1718:0.06545479595661163 1719:0.07095887511968613 1720:0.021577099338173866 1721:0.0 1722:0.0 1723:0.0 1724:0.0 1725:0.0 1726:0.0 1727:0.006047865841537714 1728:0.04573468118906021 
0.02993738033661456 1:0.004042870365083218 2:0.0 3:0.0 4:0.0 5:0.027123749256134033 6:0.0 7:0.005535007920116186 8:0.09630822390317917 9:0.01220052968710661 10:0.01906025968492031 11:0.0 12:0.0 13:0.0 14:0.054285258054733276 15:0.0 16:0.0018450026400387287 17:0.20706403255462646 18:0.2795954942703247 19:0.057180777192115784 20:0.0 21:0.0 22:0.0 23:0.022711120545864105 24:0.0 25:0.0 26:0.09771638363599777 27:0.33397018909454346 28:0.0 29:0.0 30:0.0 31:0.0 32:0.027786334976553917 33:0.0 34:0.0 35:0.13838829100131989 36:0.22100770473480225 37:0.007336667273193598 38:0.0 39:0.0 40:0.0 41:0.008611436001956463 42:0.0 43:0.0018450026400387287 44:0.08336755633354187 45:0.022307785227894783 46:0.10873701423406601 47:0.006477877963334322 48:0.005794787313789129 49:0.0 50:0.0028704784344881773 51:0.0 52:6.150008412078023E-4 53:0.22323602437973022 54:0.33397018909454346 55:0.19007372856140137 56:0.01893761195242405 57:0.004888281691819429 58:0.0 59:0.0 60:0.0 61:0.0 62:0.20823894441127777 63:0.33397018909454346 64:0.006368422415107489 65:0.0012266524136066437 66:0.0 67:0.0 68:0.0 69:0.0 70:0.003447788767516613 71:0.33397018909454346 72:0.33397018909454346 73:0.024114128202199936 74:0.0026467512361705303 75:0.0 76:0.0 77:0.0028704784344881773 78:0.0 79:0.0 80:0.0011925642611458898 81:0.02424645610153675 82:0.08249282836914062 83:0.0554175078868866 84:0.022466890513896942 85:0.0 86:9.568262612447143E-4 87:0.0 88:0.0 89:0.003577692899852991 90:0.049143191426992416 91:0.11985310167074203 92:0.12495915591716766 93:0.0299124363809824 94:0.0 95:0.0 96:0.0 97:0.0 98:0.021258272230625153 99:0.05522843077778816 100:0.04984202980995178 101:0.010541006922721863 102:0.0 103:0.0 104:0.0 105:0.0 106:0.010343365371227264 107:0.057416897267103195 108:0.06786864995956421 109:0.012835312634706497 110:0.015124318189918995 111:0.0 112:0.0 113:0.0 114:0.0 115:0.0 116:0.0 117:0.005311636719852686 118:0.05660005286335945 119:0.03888796269893646 120:0.00741979107260704 121:0.0 122:0.0 123:0.0 124:0.0 125:0.0 126:0.013111919164657593 127:0.043833982199430466 128:0.06779371201992035 129:0.022914355620741844 130:0.0 131:0.0 132:0.0 133:0.0 134:0.0 135:0.00697549432516098 136:0.02550249919295311 137:0.023657478392124176 138:0.001964945113286376 139:0.0 140:0.0 141:0.0 142:0.0 143:0.0 144:0.020386453717947006 145:0.011655365116894245 146:0.0025892124976962805 147:0.008632432669401169 148:0.005163667723536491 149:0.010089261457324028 150:0.0 151:0.0 152:0.0020642918534576893 153:0.02045293338596821 154:0.013776536099612713 155:3.1893528648652136E-4 156:0.0028774773236364126 157:0.015491005033254623 158:0.021012287586927414 159:0.01685227081179619 160:6.052226526662707E-4 161:0.014285803772509098 162:0.02156682126224041 163:0.0 164:0.009248418733477592 165:0.0027695130556821823 166:3.1478129676543176E-4 167:0.009979650378227234 168:0.005617423914372921 169:0.0018156679579988122 170:0.01811526156961918 171:0.0073530287481844425 172:0.0 173:0.003082806244492531 174:0.0027414842043071985 175:9.443439776077867E-4 176:0.005793452262878418 177:0.002062710700556636 178:0.0 179:0.0011844923719763756 180:0.0016228000167757273 181:0.03298771008849144 182:8.630708325654268E-4 183:0.0028774773236364126 184:0.0017212226521223783 185:2.9121412080712616E-4 186:0.0 187:0.0 188:0.024765977635979652 189:0.1985429972410202 190:0.052466485649347305 191:1.0631175973685458E-4 192:9.591591660864651E-4 193:0.005163667723536491 194:0.0026198108680546284 195:0.005617423914372921 196:0.0018156679579988122 197:0.14949171245098114 198:0.30702492594718933 199:0.07150756567716599 200:0.01254730112850666 201:0.004877912811934948 202:9.443439776077867E-4 203:8.779707713983953E-4 204:0.0018724744440987706 205:0.005447003990411758 206:0.13788247108459473 207:0.30702492594718933 208:0.14408907294273376 209:0.00418243370950222 210:0.007080909796059132 211:0.0028330315835773945 212:0.0011797718470916152 213:6.875702529214323E-4 214:0.0 215:0.009694850072264671 216:0.13871535658836365 217:0.021362032741308212 218:0.0 219:0.0 220:0.0 221:0.0 222:0.0 223:0.0037540253251791 224:0.04932443052530289 225:0.1938227415084839 226:0.0953931212425232 227:0.0 228:0.0 229:0.0 230:0.0 231:0.0 232:0.0 233:0.13247644901275635 234:0.30702492594718933 235:0.30702492594718933 236:0.0 237:0.0 238:0.0 239:0.0 240:0.0 241:0.0 242:0.05836137384176254 243:0.30702492594718933 244:0.30702492594718933 245:0.0 246:0.0 247:0.0 248:0.0 249:0.0 250:0.0 251:0.002047124318778515 252:0.2689914405345917 253:0.020721476525068283 254:0.0013271264033392072 255:0.001511035836301744 256:0.0 257:2.971236244775355E-4 258:0.0 259:0.0012513417750597 260:0.008769082836806774 261:0.04957306757569313 262:0.04649690166115761 263:0.0026348168030381203 264:5.03678573295474E-4 265:0.0 266:0.0 267:0.0 268:0.0 269:0.02505183406174183 270:0.21173352003097534 271:0.11178089678287506 272:0.0 273:0.0 274:0.0 275:0.0 276:0.0 277:0.0 278:0.010418974794447422 279:0.2674872875213623 280:0.07424687594175339 281:0.0 282:0.0 283:0.0 284:0.0 285:0.0 286:0.0 287:0.005455516744405031 288:0.11864470690488815 289:5.877580842934549E-4 290:7.233468350023031E-4 291:9.737353684613481E-5 292:0.0 293:2.354847820242867E-4 294:0.0 295:0.0 296:0.0 297:5.272579146549106E-4 298:0.0035976204089820385 299:0.003828190267086029 300:2.921206469181925E-4 301:0.0 302:7.064543897286057E-4 303:0.0 304:0.0 305:3.226023691240698E-4 306:0.0015185001539066434 307:0.0028759436681866646 308:8.122491417452693E-4 309:0.0 310:0.0 311:0.0 312:0.0 313:0.0013391532702371478 314:0.0014153284719213843 315:0.003368232399225235 316:0.0013692545471712947 317:0.0 318:0.0 319:0.0 320:1.5763127885293216E-4 321:0.0 322:0.001112012192606926 323:3.7161490763537586E-4 324:0.0013692545471712947 325:0.01622762158513069 326:0.007497534155845642 327:2.921206469181925E-4 328:0.0 329:7.84949297667481E-5 330:0.0 331:0.0 332:0.0 333:0.0028874767012894154 334:0.08599460870027542 335:0.017598101869225502 336:8.763617370277643E-4 337:0.0 338:2.354847820242867E-4 339:0.0 340:0.0 341:0.0011476152576506138 342:0.019368363544344902 343:0.16818217933177948 344:0.011724104173481464 345:0.0 346:0.0 347:0.0 348:0.0 349:4.4638445251621306E-4 350:0.0035920196678489447 351:0.11272583156824112 352:0.17022614181041718 353:0.03275225684046745 354:0.0 355:0.0 356:0.0 357:0.0 358:3.7067069206386805E-4 359:1.238716213265434E-4 360:0.0777602419257164 361:0.14685212075710297 362:0.0407775416970253 363:0.013083528727293015 364:0.0 365:0.0 366:0.0 367:0.0 368:0.0 369:0.01625642366707325 370:0.3117988407611847 371:0.275135338306427 372:0.017562180757522583 373:0.0 374:0.0 375:0.0 376:0.0 377:5.993603917886503E-5 378:0.032156191766262054 379:0.3117988407611847 380:0.3117988407611847 381:0.1299871951341629 382:0.008085950277745724 383:0.0021268902346491814 384:0.0 385:0.013989413157105446 386:0.006563728209584951 387:0.14299844205379486 388:0.3117988407611847 389:0.2733179032802582 390:0.04296837002038956 391:0.02844814956188202 392:0.006380670703947544 393:0.0 394:0.004663137253373861 395:0.002127973362803459 396:0.05336065962910652 397:0.07773380726575851 398:0.10845493525266647 399:0.039250586181879044 400:0.0 401:0.0 402:0.0 403:4.1507235437165946E-5 404:0.0032299519516527653 405:0.0340593159198761 406:0.3114577531814575 407:0.23596176505088806 408:0.028090238571166992 409:0.0011172819649800658 410:0.0012443432351574302 411:0.0 412:8.070347248576581E-4 413:0.012713435105979443 414:0.04451023042201996 415:0.21736164391040802 416:0.24104149639606476 417:0.048620399087667465 418:0.027609696611762047 419:0.010113701224327087 420:0.0015427551697939634 421:0.04790729656815529 422:0.02015962079167366 423:0.021099785342812538 424:0.02577349729835987 425:0.06172936409711838 426:0.03713477402925491 427:0.08534445613622665 428:0.019142013043165207 429:0.004628265742212534 430:0.04391069337725639 431:0.018822232261300087 432:0.0 433:0.004571225494146347 434:0.0 435:0.0 436:5.128273041918874E-4 437:0.010245990008115768 438:0.011293403804302216 439:0.012166338041424751 440:0.04712030664086342 441:0.03488059341907501 442:0.006663951091468334 443:0.0 444:0.0 445:0.0 446:0.00309153669513762 447:0.022402837872505188 448:0.011888022534549236 449:0.17135781049728394 450:0.1472868174314499 451:0.038650624454021454 452:0.003055875189602375 453:0.0 454:5.735232844017446E-4 455:0.0026343814097344875 456:0.0 457:0.02091171033680439 458:0.26597434282302856 459:0.09766940772533417 460:0.021555108949542046 461:0.001018625102005899 462:0.0 463:0.001720569678582251 464:0.00790314469486475 465:0.0 466:0.023589402437210083 467:0.08647914975881577 468:0.05631494149565697 469:0.03492531552910805 470:9.714988846099004E-5 471:2.907095185946673E-4 472:0.0 473:0.0 474:0.0 475:0.03465185686945915 476:0.11587964743375778 477:0.08697488903999329 478:0.05194177106022835 479:1.7458446382079273E-4 480:5.224233609624207E-4 481:0.0 482:0.0 483:0.0 484:0.08293983340263367 485:0.2817245125770569 486:0.2817245125770569 487:0.07293584942817688 488:0.0 489:0.0 490:0.0 491:0.0 492:0.0 493:0.23712876439094543 494:0.2817245125770569 495:0.2817245125770569 496:0.055940985679626465 497:0.0 498:0.0 499:0.0 500:0.00768273277208209 501:0.0 502:0.07608217000961304 503:0.2817245125770569 504:0.2014666348695755 505:0.011565607972443104 506:2.9144968721084297E-4 507:8.721285266801715E-4 508:0.0 509:2.911490446422249E-4 510:0.0 511:1.4140458370093256E-4 512:4.7254925448214635E-5 513:0.020715929567813873 514:0.04657899960875511 515:5.237534060142934E-4 516:0.0015672699082642794 517:0.0 518:7.171055185608566E-4 519:0.0 520:0.02271038107573986 521:0.06999354809522629 522:0.11283576488494873 523:0.07811205834150314 524:0.0 525:0.0 526:0.0 527:0.002151316497474909 528:0.0 529:0.07545752078294754 530:0.23974594473838806 531:0.2817245125770569 532:0.06329239159822464 533:0.0 534:0.0 535:0.0 536:0.002560911001637578 537:0.0 538:0.002442125463858247 539:0.2817245125770569 540:0.2310195118188858 541:2.4001181009225547E-4 542:0.0 543:0.0 544:0.0 545:9.704967669676989E-5 546:5.078523536212742E-4 547:0.0010466808453202248 548:1.9844408961944282E-4 549:2.4001181009225547E-4 550:7.456407183781266E-4 551:0.0 552:0.0 553:0.0 554:2.3903517285361886E-4 555:1.2862692528869957E-4 556:5.717013264074922E-4 557:1.7003800894599408E-4 558:7.456407183781266E-4 559:0.003108027158305049 560:0.0 561:0.0 562:0.0 563:7.171055185608566E-4 564:0.0 565:6.708047003485262E-4 566:2.241711044916883E-4 567:0.0022772441152483225 568:0.017381111159920692 569:0.0 570:0.0 571:0.0 572:0.0 573:0.0 574:2.2360154252965003E-4 575:7.472370634786785E-5 576:0.00821289885789156 577:0.035516414791345596 578:0.06671170145273209 579:0.0 580:0.0 581:0.0 582:0.0 583:0.0014425343833863735 584:0.00118753791321069 585:0.01901331916451454 586:0.1687927544116974 587:0.16771180927753448 588:0.0 589:0.0 590:0.0 591:0.0 592:4.8084481386467814E-4 593:0.026562096551060677 594:0.019708355888724327 595:0.19146950542926788 596:0.13529911637306213 597:9.992090053856373E-4 598:0.002043859101831913 599:0.0 600:0.0 601:0.0 602:0.019979462027549744 603:0.03716138377785683 604:0.04047815501689911 605:0.0744287371635437 606:0.0029976272489875555 607:0.006131577305495739 608:0.0 609:0.0 610:0.0 611:0.003258274868130684 612:0.0246552973985672 613:0.01875421218574047 614:0.02145017683506012 615:0.0 616:0.0 617:0.0 618:0.0 619:0.0043276031501591206 620:0.05577700957655907 621:0.07147114723920822 622:0.04532454162836075 623:0.04939694330096245 624:0.0 625:0.0 626:0.0 627:0.0 628:0.0014425343833863735 629:0.18791387975215912 630:0.3235686123371124 631:0.08021540194749832 632:0.01919347606599331 633:3.3306970726698637E-4 634:6.81286386679858E-4 635:0.0 636:0.0 637:0.0 638:0.18461352586746216 639:0.3301004469394684 640:0.043625280261039734 641:0.004497317597270012 642:9.992090053856373E-4 643:0.002043859101831913 644:0.0 645:0.0 646:0.0 647:0.070541150867939 648:0.3301004469394684 649:0.032285287976264954 650:0.0 651:0.0 652:0.0 653:0.0 654:0.0 655:0.0 656:0.028885500505566597 657:0.08766134083271027 658:0.05541565269231796 659:0.043112996965646744 660:0.0 661:0.0 662:0.0 663:0.0 664:0.002456334885209799 665:0.08386815339326859 666:0.20289242267608643 667:0.11235684156417847 668:0.03896155580878258 669:0.0 670:0.0 671:0.0 672:0.0042126853950321674 673:0.061292193830013275 674:0.15051661431789398 675:0.29481834173202515 676:0.027590559795498848 677:0.0 678:0.0 679:0.0 680:0.017820898443460464 681:0.01263805665075779 682:0.04449215531349182 683:0.08724188804626465 684:0.2797330319881439 685:0.02511576935648918 686:0.0 687:0.0 688:0.0 689:0.0 690:0.0 691:0.0 692:0.01629042997956276 693:0.11390431225299835 694:0.030752195045351982 695:0.0 696:0.0 697:0.0 698:0.0 699:0.0 700:0.0073690046556293964 701:0.09249813854694366 702:0.23045797646045685 703:0.03603823855519295 704:0.0 705:0.0 706:0.0 707:0.0 708:0.0014042285038158298 709:0.022614141926169395 710:0.10476363450288773 711:0.24336481094360352 712:0.012290692888200283 713:0.0 714:0.0 715:0.0 716:0.0059402999468147755 717:0.0042126853950321674 718:0.01483071781694889 719:0.027280686423182487 720:0.14161649346351624 721:0.01566535234451294 722:0.0 723:0.0 724:0.0 725:0.0 726:0.0 727:0.0 728:0.004451835993677378 729:0.07942362874746323 730:0.01591167226433754 731:0.0 732:0.0 733:0.0 734:0.0 735:0.0 736:0.0 737:0.0631147176027298 738:0.292062371969223 739:0.03421206772327423 740:0.0 741:0.0 742:0.0 743:0.0 744:0.0 745:0.0 746:0.11302811652421951 747:0.292062371969223 748:0.014255438931286335 749:0.0 750:0.0 751:0.0 752:0.0 753:0.0 754:0.0 755:0.06997311860322952 756:0.292062371969223 757:0.005281359422951937 758:0.0 759:0.0 760:0.0 761:0.0 762:0.0 763:0.0 764:0.013086131773889065 765:0.07781442254781723 766:0.0024481627624481916 767:0.0 768:0.0 769:0.0 770:0.0 771:0.0 772:0.0 773:0.0873456597328186 774:0.24167902767658234 775:0.013659282587468624 776:0.0 777:0.0 778:0.0 779:0.0 780:0.0 781:0.0 782:0.14500141143798828 783:0.292062371969223 784:0.01658438891172409 785:0.0 786:0.0 787:0.0 788:0.0 789:0.0 790:0.0 791:0.03536219149827957 792:0.28320300579071045 793:0.02195119857788086 794:0.0 795:0.0 796:0.0 797:0.0 798:0.0 799:0.0 800:0.00803577434271574 801:0.13604512810707092 802:0.026481643319129944 803:0.0 804:0.0 805:0.0 806:0.0 807:0.0 808:0.0 809:0.07630361616611481 810:0.292062371969223 811:0.06570933014154434 812:0.0 813:0.0 814:0.0 815:0.0 816:0.0 817:0.0 818:0.08251697570085526 819:0.292062371969223 820:0.040750112384557724 821:0.0 822:0.0 823:0.0 824:0.0 825:0.0 826:0.0 827:0.029253333806991577 828:0.21330149471759796 829:0.0074903834611177444 830:0.0013256423408165574 831:0.0 832:0.0 833:0.0 834:0.0 835:0.0030725717078894377 836:0.01426966954022646 837:0.07700687646865845 838:0.020005004480481148 839:0.003976927138864994 840:0.0 841:0.0 842:0.0 843:0.0 844:8.121205028146505E-4 845:0.06955907493829727 846:0.2357770800590515 847:0.0721089169383049 848:5.322173237800598E-4 849:0.0 850:0.0 851:0.0 852:0.0 853:0.0 854:0.05405617877840996 855:0.292062371969223 856:0.043973658233881 857:1.774057891452685E-4 858:0.0 859:0.0 860:0.0 861:0.0 862:0.0 863:0.016647562384605408 864:0.1810663491487503 865:0.011655365116894245 866:0.0025892124976962805 867:0.008632432669401169 868:0.005163667723536491 869:0.010089261457324028 870:0.0 871:0.0 872:0.0020642918534576893 873:0.02045293338596821 874:0.013776536099612713 875:3.1893528648652136E-4 876:0.0028774773236364126 877:0.015491005033254623 878:0.021012287586927414 879:0.01685227081179619 880:6.052226526662707E-4 881:0.014285803772509098 882:0.02156682126224041 883:0.0 884:0.009248418733477592 885:0.0027695130556821823 886:3.1478129676543176E-4 887:0.009979650378227234 888:0.005617423914372921 889:0.0018156679579988122 890:0.01811526156961918 891:0.0073530287481844425 892:0.0 893:0.003082806244492531 894:0.0027414842043071985 895:9.443439776077867E-4 896:0.005793452262878418 897:0.002062710700556636 898:0.0 899:0.0011844923719763756 900:0.0016228000167757273 901:0.03298771008849144 902:8.630708325654268E-4 903:0.0028774773236364126 904:0.0017212226521223783 905:2.9121412080712616E-4 906:0.0 907:0.0 908:0.024765977635979652 909:0.1985429972410202 910:0.052466485649347305 911:1.0631175973685458E-4 912:9.591591660864651E-4 913:0.005163667723536491 914:0.0026198108680546284 915:0.005617423914372921 916:0.0018156679579988122 917:0.14949171245098114 918:0.30702492594718933 919:0.07150756567716599 920:0.01254730112850666 921:0.004877912811934948 922:9.443439776077867E-4 923:8.779707713983953E-4 924:0.0018724744440987706 925:0.005447003990411758 926:0.13788247108459473 927:0.30702492594718933 928:0.14408907294273376 929:0.00418243370950222 930:0.007080909796059132 931:0.0028330315835773945 932:0.0011797718470916152 933:6.875702529214323E-4 934:0.0 935:0.009694850072264671 936:0.13871535658836365 937:0.021362032741308212 938:0.0 939:0.0 940:0.0 941:0.0 942:0.0 943:0.0037540253251791 944:0.04932443052530289 945:0.1938227415084839 946:0.0953931212425232 947:0.0 948:0.0 949:0.0 950:0.0 951:0.0 952:0.0 953:0.13247644901275635 954:0.30702492594718933 955:0.30702492594718933 956:0.0 957:0.0 958:0.0 959:0.0 960:0.0 961:0.0 962:0.05836137384176254 963:0.30702492594718933 964:0.30702492594718933 965:0.0 966:0.0 967:0.0 968:0.0 969:0.0 970:0.0 971:0.002047124318778515 972:0.2689914405345917 973:0.020721476525068283 974:0.0013271264033392072 975:0.001511035836301744 976:0.0 977:2.971236244775355E-4 978:0.0 979:0.0012513417750597 980:0.008769082836806774 981:0.04957306757569313 982:0.04649690166115761 983:0.0026348168030381203 984:5.03678573295474E-4 985:0.0 986:0.0 987:0.0 988:0.0 989:0.02505183406174183 990:0.21173352003097534 991:0.11178089678287506 992:0.0 993:0.0 994:0.0 995:0.0 996:0.0 997:0.0 998:0.010418974794447422 999:0.2674872875213623 1000:0.07424687594175339 1001:0.0 1002:0.0 1003:0.0 1004:0.0 1005:0.0 1006:0.0 1007:0.005455516744405031 1008:0.11864470690488815 1009:0.002566406037658453 1010:0.0 1011:0.0 1012:0.0 1013:0.0016117844497784972 1014:0.0 1015:8.424972766079009E-4 1016:0.010795327834784985 1017:0.021728703752160072 1018:5.404573676059954E-5 1019:0.0 1020:0.0 1021:0.0 1022:0.0024374991189688444 1023:0.0 1024:0.013000638224184513 1025:0.0739915668964386 1026:0.007444517221301794 1027:0.0 1028:0.0 1029:0.0 1030:0.0 1031:0.004040943458676338 1032:0.003115658648312092 1033:0.006507345009595156 1034:0.03630644828081131 1035:0.002986303996294737 1036:0.0027536344714462757 1037:0.004396170377731323 1038:0.0 1039:0.0 1040:0.00545331509783864 1041:0.0035731566604226828 1042:4.366048669908196E-4 1043:0.0016612568870186806 1044:0.0 1045:0.01211159024387598 1046:0.0 1047:0.0 1048:0.0 1049:0.0 1050:0.0 1051:2.8083243523724377E-4 1052:0.023852789774537086 1053:0.1264345943927765 1054:0.003719753585755825 1055:0.0 1056:0.0 1057:0.0 1058:0.0 1059:0.0 1060:0.03062986396253109 1061:0.26642435789108276 1062:0.20159637928009033 1063:0.0 1064:0.0 1065:0.0 1066:0.0 1067:9.699080255813897E-4 1068:0.00463233282789588 1069:0.17195896804332733 1070:0.26642435789108276 1071:0.03025680035352707 1072:0.005140458233654499 1073:0.008692672476172447 1074:0.0 1075:0.0 1076:0.0029097236692905426 1077:0.004139073193073273 1078:0.0723341852426529 1079:0.04833223670721054 1080:0.009951967746019363 1081:0.03727459907531738 1082:0.04843201860785484 1083:0.0 1084:0.0 1085:0.0 1086:0.004045089706778526 1087:0.0019775780383497477 1088:0.014927866868674755 1089:0.20118169486522675 1090:0.03331722319126129 1091:0.24279700219631195 1092:0.17922057211399078 1093:0.0 1094:0.0 1095:0.012135270051658154 1096:0.03391753137111664 1097:0.11614635586738586 1098:0.26642435789108276 1099:0.04133165627717972 1100:0.12650564312934875 1101:0.26642435789108276 1102:0.0 1103:0.0017956128576770425 1104:0.016127146780490875 1105:0.2221084088087082 1106:0.1896052360534668 1107:0.05305152386426926 1108:0.002469155006110668 1109:0.030213594436645508 1110:0.04364001378417015 1111:0.0 1112:0.005386838689446449 1113:0.020214565098285675 1114:0.06697659939527512 1115:0.06330175697803497 1116:0.02985590510070324 1117:0.10722781717777252 1118:0.200258269906044 1119:0.018393684178590775 1120:0.0 1121:0.0 1122:0.0013483634684234858 1123:6.591926794499159E-4 1124:0.003920997027307749 1125:0.03192606195807457 1126:0.1010739803314209 1127:0.26642435789108276 1128:0.07647933810949326 1129:0.0 1130:0.0 1131:0.004045089706778526 1132:0.0059084901586174965 1133:0.04979470744729042 1134:0.045750562101602554 1135:0.20864848792552948 1136:0.26642435789108276 1137:0.18355078995227814 1138:0.0 1139:5.985375610180199E-4 1140:0.01603741943836212 1141:0.0758437067270279 1142:0.03311517834663391 1143:0.0 1144:0.059094879776239395 1145:0.17643025517463684 1146:0.032706547528505325 1147:0.0 1148:0.0017956128576770425 1149:0.048112258315086365 1150:0.03005140647292137 1151:0.0056508686393499374 1152:0.0 1153:0.004571225494146347 1154:0.0 1155:0.0 1156:5.128273041918874E-4 1157:0.010245990008115768 1158:0.011293403804302216 1159:0.012166338041424751 1160:0.04712030664086342 1161:0.03488059341907501 1162:0.006663951091468334 1163:0.0 1164:0.0 1165:0.0 1166:0.00309153669513762 1167:0.022402837872505188 1168:0.011888022534549236 1169:0.17135781049728394 1170:0.1472868174314499 1171:0.038650624454021454 1172:0.003055875189602375 1173:0.0 1174:5.735232844017446E-4 1175:0.0026343814097344875 1176:0.0 1177:0.02091171033680439 1178:0.26597434282302856 1179:0.09766940772533417 1180:0.021555108949542046 1181:0.001018625102005899 1182:0.0 1183:0.001720569678582251 1184:0.00790314469486475 1185:0.0 1186:0.023589402437210083 1187:0.08647914975881577 1188:0.05631494149565697 1189:0.03492531552910805 1190:9.714988846099004E-5 1191:2.907095185946673E-4 1192:0.0 1193:0.0 1194:0.0 1195:0.03465185686945915 1196:0.11587964743375778 1197:0.08697488903999329 1198:0.05194177106022835 1199:1.7458446382079273E-4 1200:5.224233609624207E-4 1201:0.0 1202:0.0 1203:0.0 1204:0.08293983340263367 1205:0.2817245125770569 1206:0.2817245125770569 1207:0.07293584942817688 1208:0.0 1209:0.0 1210:0.0 1211:0.0 1212:0.0 1213:0.23712876439094543 1214:0.2817245125770569 1215:0.2817245125770569 1216:0.055940985679626465 1217:0.0 1218:0.0 1219:0.0 1220:0.00768273277208209 1221:0.0 1222:0.07608217000961304 1223:0.2817245125770569 1224:0.2014666348695755 1225:0.011565607972443104 1226:2.9144968721084297E-4 1227:8.721285266801715E-4 1228:0.0 1229:2.911490446422249E-4 1230:0.0 1231:1.4140458370093256E-4 1232:4.7254925448214635E-5 1233:0.020715929567813873 1234:0.04657899960875511 1235:5.237534060142934E-4 1236:0.0015672699082642794 1237:0.0 1238:7.171055185608566E-4 1239:0.0 1240:0.02271038107573986 1241:0.06999354809522629 1242:0.11283576488494873 1243:0.07811205834150314 1244:0.0 1245:0.0 1246:0.0 1247:0.002151316497474909 1248:0.0 1249:0.07545752078294754 1250:0.23974594473838806 1251:0.2817245125770569 1252:0.06329239159822464 1253:0.0 1254:0.0 1255:0.0 1256:0.002560911001637578 1257:0.0 1258:0.002442125463858247 1259:0.2817245125770569 1260:0.2310195118188858 1261:2.4001181009225547E-4 1262:0.0 1263:0.0 1264:0.0 1265:9.704967669676989E-5 1266:5.078523536212742E-4 1267:0.0010466808453202248 1268:1.9844408961944282E-4 1269:2.4001181009225547E-4 1270:7.456407183781266E-4 1271:0.0 1272:0.0 1273:0.0 1274:2.3903517285361886E-4 1275:1.2862692528869957E-4 1276:5.717013264074922E-4 1277:1.7003800894599408E-4 1278:7.456407183781266E-4 1279:0.003108027158305049 1280:0.0 1281:0.0 1282:0.0 1283:7.171055185608566E-4 1284:0.0 1285:6.708047003485262E-4 1286:2.241711044916883E-4 1287:0.0022772441152483225 1288:0.017381111159920692 1289:0.0 1290:0.0 1291:0.0 1292:0.0 1293:0.0 1294:2.2360154252965003E-4 1295:7.472370634786785E-5 1296:0.00821289885789156 1297:0.0037821228615939617 1298:0.0025718172546476126 1299:0.003556678770110011 1300:0.00147001922596246 1301:0.0031836593989282846 1302:0.010550405830144882 1303:0.0 1304:0.002140372758731246 1305:0.002698248252272606 1306:0.05468729883432388 1307:0.008685644716024399 1308:0.001185559551231563 1309:4.900064086541533E-4 1310:0.0030585448257625103 1311:0.006309736520051956 1312:0.002258008113130927 1313:0.012196717783808708 1314:0.02303357794880867 1315:0.04608571156859398 1316:0.047266535460948944 1317:0.04122316837310791 1318:5.670306272804737E-4 1319:7.430865080095828E-4 1320:0.0013225331204012036 1321:0.031411513686180115 1322:0.02021372690796852 1323:0.015993885695934296 1324:0.023529931902885437 1325:0.041824810206890106 1326:0.04315263777971268 1327:0.001701091998256743 1328:0.0 1329:0.0 1330:0.008212496526539326 1331:9.623091900721192E-4 1332:0.029115380719304085 1333:0.020357877016067505 1334:0.10399646311998367 1335:0.10136011987924576 1336:0.0 1337:9.86614148132503E-4 1338:0.003516801865771413 1339:0.0 1340:0.006421118509024382 1341:0.005126297939568758 1342:0.14002814888954163 1343:0.280894935131073 1344:0.280894935131073 1345:0.0 1346:2.515598898753524E-4 1347:7.807125221006572E-4 1348:6.354256183840334E-4 1349:0.02839059568941593 1350:0.04822998866438866 1351:0.18284521996974945 1352:0.280894935131073 1353:0.18115754425525665 1354:0.0 1355:0.0 1356:0.0 1357:0.010118774138391018 1358:0.028344037011265755 1359:0.042542725801467896 1360:0.07744070887565613 1361:0.280894935131073 1362:0.22341784834861755 1363:0.0 1364:0.0 1365:0.0 1366:0.002737499075010419 1367:3.2076973002403975E-4 1368:0.014211690984666348 1369:0.04816995561122894 1370:0.23751074075698853 1371:0.09512161463499069 1372:0.0 1373:0.0 1374:0.0 1375:0.0 1376:0.0 1377:0.005445173010230064 1378:0.2309887558221817 1379:0.280894935131073 1380:0.15499785542488098 1381:0.0 1382:0.0 1383:0.0 1384:0.0 1385:0.0028222682885825634 1386:0.09705989807844162 1387:0.280894935131073 1388:0.280894935131073 1389:0.019932745024561882 1390:0.0 1391:0.0 1392:0.0 1393:8.698873571120203E-4 1394:0.008757505565881729 1395:0.10123901814222336 1396:0.21798090636730194 1397:0.14263352751731873 1398:0.03252609819173813 1399:0.0 1400:0.0 1401:7.503402302972972E-4 1402:0.0033951883669942617 1403:5.914446664974093E-4 1404:0.017613330855965614 1405:0.037515789270401 1406:0.04455248638987541 1407:0.014562665484845638 1408:0.0 1409:0.0 1410:0.0 1411:0.0 1412:0.0 1413:0.017507219687104225 1414:0.0885828509926796 1415:0.032547224313020706 1416:0.005026656668633223 1417:0.0 1418:0.0 1419:0.0 1420:0.0 1421:0.0 1422:0.053111858665943146 1423:0.07292231172323227 1424:4.941106890328228E-4 1425:0.0014785676030442119 1426:0.0 1427:0.0 1428:0.0 1429:0.0014498120872303843 1430:4.845017392653972E-4 1431:0.053885363042354584 1432:0.011871224269270897 1433:0.0 1434:0.0 1435:0.0 1436:0.0 1437:2.5011340039782226E-4 1438:0.006077256519347429 1439:0.001194417360238731 1440:0.0069513823837041855 1441:0.01566535234451294 1442:0.0 1443:0.0 1444:0.0 1445:0.0 1446:0.0 1447:0.0 1448:0.004451835993677378 1449:0.07942362874746323 1450:0.01591167226433754 1451:0.0 1452:0.0 1453:0.0 1454:0.0 1455:0.0 1456:0.0 1457:0.0631147176027298 1458:0.292062371969223 1459:0.03421206772327423 1460:0.0 1461:0.0 1462:0.0 1463:0.0 1464:0.0 1465:0.0 1466:0.11302811652421951 1467:0.292062371969223 1468:0.014255438931286335 1469:0.0 1470:0.0 1471:0.0 1472:0.0 1473:0.0 1474:0.0 1475:0.06997311860322952 1476:0.292062371969223 1477:0.005281359422951937 1478:0.0 1479:0.0 1480:0.0 1481:0.0 1482:0.0 1483:0.0 1484:0.013086131773889065 1485:0.07781442254781723 1486:0.0024481627624481916 1487:0.0 1488:0.0 1489:0.0 1490:0.0 1491:0.0 1492:0.0 1493:0.0873456597328186 1494:0.24167902767658234 1495:0.013659282587468624 1496:0.0 1497:0.0 1498:0.0 1499:0.0 1500:0.0 1501:0.0 1502:0.14500141143798828 1503:0.292062371969223 1504:0.01658438891172409 1505:0.0 1506:0.0 1507:0.0 1508:0.0 1509:0.0 1510:0.0 1511:0.03536219149827957 1512:0.28320300579071045 1513:0.02195119857788086 1514:0.0 1515:0.0 1516:0.0 1517:0.0 1518:0.0 1519:0.0 1520:0.00803577434271574 1521:0.13604512810707092 1522:0.026481643319129944 1523:0.0 1524:0.0 1525:0.0 1526:0.0 1527:0.0 1528:0.0 1529:0.07630361616611481 1530:0.292062371969223 1531:0.06570933014154434 1532:0.0 1533:0.0 1534:0.0 1535:0.0 1536:0.0 1537:0.0 1538:0.08251697570085526 1539:0.292062371969223 1540:0.040750112384557724 1541:0.0 1542:0.0 1543:0.0 1544:0.0 1545:0.0 1546:0.0 1547:0.029253333806991577 1548:0.21330149471759796 1549:0.0074903834611177444 1550:0.0013256423408165574 1551:0.0 1552:0.0 1553:0.0 1554:0.0 1555:0.0030725717078894377 1556:0.01426966954022646 1557:0.07700687646865845 1558:0.020005004480481148 1559:0.003976927138864994 1560:0.0 1561:0.0 1562:0.0 1563:0.0 1564:8.121205028146505E-4 1565:0.06955907493829727 1566:0.2357770800590515 1567:0.0721089169383049 1568:5.322173237800598E-4 1569:0.0 1570:0.0 1571:0.0 1572:0.0 1573:0.0 1574:0.05405617877840996 1575:0.292062371969223 1576:0.043973658233881 1577:1.774057891452685E-4 1578:0.0 1579:0.0 1580:0.0 1581:0.0 1582:0.0 1583:0.016647562384605408 1584:0.1810663491487503 1585:4.232749342918396E-4 1586:0.0 1587:0.0 1588:9.870629291981459E-4 1589:4.1923238313756883E-4 1590:0.0 1591:0.008335160091519356 1592:0.06309249252080917 1593:0.022578325122594833 1594:0.0 1595:0.0 1596:0.0 1597:0.0029611887875944376 1598:0.010428551584482193 1599:0.006432118825614452 1600:0.012378452345728874 1601:0.12391981482505798 1602:0.08867897093296051 1603:0.0011937684612348676 1604:4.423035716172308E-4 1605:0.00574099225923419 1606:0.0 1607:0.0030569511000066996 1608:0.019144244492053986 1609:0.050239693373441696 1610:0.07526438683271408 1611:0.06274310499429703 1612:0.0035813055001199245 1613:0.0022969564888626337 1614:0.020125724375247955 1615:0.0 1616:0.0 1617:0.004075672943145037 1618:0.009633840061724186 1619:0.01337197795510292 1620:0.03634530305862427 1621:0.0025106538087129593 1622:0.0 1623:0.0 1624:0.0 1625:0.0 1626:0.0 1627:0.0027783866971731186 1628:0.12032537162303925 1629:0.20607802271842957 1630:0.018045857548713684 1631:0.0 1632:0.0 1633:0.0 1634:0.02751256339251995 1635:0.012767596170306206 1636:0.0011397858615964651 1637:0.304500550031662 1638:0.304500550031662 1639:0.0379653237760067 1640:0.00969803798943758 1641:0.018595289438962936 1642:0.0 1643:0.009170854464173317 1644:0.007988153956830502 1645:0.004094323143362999 1646:0.304500550031662 1647:0.304500550031662 1648:0.01143986638635397 1649:0.029094111174345016 1650:0.06858137995004654 1651:0.044742729514837265 1652:0.0 1653:0.001358557608909905 1654:0.009696095250546932 1655:0.09771700203418732 1656:0.18907280266284943 1657:0.007886858657002449 1658:0.0 1659:0.0 1660:0.0 1661:0.0 1662:0.0 1663:0.0023339835461229086 1664:0.04087338224053383 1665:0.13092954456806183 1666:0.056472089141607285 1667:0.0 1668:0.0 1669:0.0 1670:0.0 1671:0.0 1672:0.0 1673:0.13498719036579132 1674:0.304500550031662 1675:0.026326607912778854 1676:0.0031835343688726425 1677:0.005560541059821844 1678:0.0 1679:0.0 1680:0.0 1681:0.0 1682:0.304500550031662 1683:0.304500550031662 1684:0.041217267513275146 1685:0.009550603106617928 1686:0.020946796983480453 1687:0.01491424161940813 1688:0.0 1689:0.0 1690:0.023147590458393097 1691:0.21952012181282043 1692:0.2587682604789734 1693:0.0033020491246134043 1694:0.0 1695:0.0 1696:0.0 1697:0.0 1698:0.0 1699:0.0010640524560585618 1700:0.01102280244231224 1701:0.022424545139074326 1702:0.006806151010096073 1703:0.0 1704:0.0 1705:0.0 1706:0.0 1707:0.0 1708:0.0 1709:0.025674736127257347 1710:0.0839219018816948 1711:0.005691012367606163 1712:0.0 1713:0.0 1714:0.0 1715:0.0 1716:0.0 1717:0.0 1718:0.05771873891353607 1719:0.1113419309258461 1720:0.03469046205282211 1721:0.0 1722:0.0 1723:0.0 1724:0.0 1725:0.0 1726:0.0 1727:0.006625628098845482 1728:0.08583112061023712 
0.09713185607954139 1:0.0 2:0.0 3:0.0 4:0.0 5:0.008397618308663368 6:0.0 7:0.042932040989398956 8:0.014347134158015251 9:0.0 10:0.0 11:0.0 12:0.0 13:0.0 14:0.0027992059476673603 15:0.0 16:0.036393675953149796 17:0.01216212660074234 18:0.0 19:0.0 20:0.0 21:0.0 22:0.0 23:0.0 24:0.0 25:0.0 26:0.0 27:0.0 28:0.0 29:0.0 30:0.0 31:0.0 32:0.0 33:0.0 34:0.0 35:0.0 36:0.0 37:0.04741537943482399 38:0.0 39:0.0 40:0.0 41:0.012880614958703518 42:0.0 43:0.12992526590824127 44:0.04341874271631241 45:0.04741537943482399 46:0.07596838474273682 47:0.0 48:0.0 49:0.0 50:0.03864184767007828 51:0.0 52:0.3637292981147766 53:0.12155193090438843 54:0.07596838474273682 55:0.25158917903900146 56:0.0 57:0.0 58:0.0 59:0.0 60:0.0 61:0.0525934100151062 62:0.017575791105628014 63:0.25158917903900146 64:0.1423734724521637 65:0.0 66:0.0 67:0.0 68:0.0 69:0.0 70:0.0 71:0.0 72:0.1423734724521637 73:0.050211101770401 74:0.0 75:0.0 76:0.0 77:0.18226183950901031 78:0.018840879201889038 79:0.0953136458992958 80:0.028773995116353035 81:0.050211101770401 82:0.15209390223026276 83:0.0 84:0.0 85:0.0 86:0.25473570823669434 87:0.006280293222516775 88:0.13857817649841309 89:0.045284342020750046 90:0.15209390223026276 91:0.3318977355957031 92:0.0 93:0.0 94:0.0 95:0.0 96:0.0 97:0.0175311341881752 98:0.005858596879988909 99:0.3318977355957031 100:0.17522138357162476 101:0.0 102:0.0 103:0.0 104:0.0 105:0.0 106:0.0 107:0.0 108:0.17522138357162476 109:0.003804515115916729 110:0.0 111:0.0 112:0.0 113:0.04787334054708481 114:0.056522633880376816 115:0.0871272161602974 116:0.019881945103406906 117:0.003804515115916729 118:0.10819429904222488 119:0.0 120:0.0 121:0.0 122:0.04627005383372307 123:0.018840879201889038 124:0.13075189292430878 125:0.04061684012413025 126:0.10819429904222488 127:0.21168819069862366 128:0.0 129:0.0 130:0.0 131:0.0 132:0.0 133:0.0 134:0.0 135:0.21168819069862366 136:0.09896892309188843 137:0.0 138:0.0 139:0.0 140:0.0 141:0.0 142:0.021353228017687798 143:0.007135874126106501 144:0.09896892309188843 145:0.0 146:0.0 147:0.0 148:0.0 149:0.0 150:0.0 151:0.0 152:0.0 153:0.0 154:0.0 155:0.0 156:0.0 157:0.0 158:0.013073299080133438 159:0.0 160:0.0 161:0.0 162:0.0 163:0.0 164:0.03645824268460274 165:0.10909653455018997 166:0.0 167:0.04452773183584213 168:0.0 169:0.0 170:0.0 171:0.0 172:0.0 173:0.024180324748158455 174:0.07235646992921829 175:0.0 176:0.036369696259498596 177:0.0 178:0.0 179:0.0 180:0.0 181:0.0 182:0.0 183:0.0 184:0.0 185:0.0 186:0.0 187:0.0 188:0.0 189:0.0 190:0.0 191:0.0 192:0.0 193:0.0 194:0.11783874779939651 195:0.0 196:0.0 197:0.0 198:0.0 199:0.0 200:0.04484708979725838 201:0.1341990828514099 202:0.0 203:0.5616588592529297 204:0.0 205:0.0 206:0.0 207:0.0 208:0.0 209:0.01895822212100029 210:0.056730013340711594 211:0.0 212:0.07619627565145493 213:0.0 214:0.0 215:0.0 216:0.0 217:0.06966426968574524 218:0.0 219:0.0 220:0.0 221:0.0 222:0.0 223:0.0 224:0.0 225:0.06966426968574524 226:0.17457780241966248 227:0.02021394670009613 228:0.06048760563135147 229:0.0 230:0.08368421345949173 231:0.0 232:0.0 233:0.0 234:0.17457780241966248 235:0.050558194518089294 236:0.06064184010028839 237:0.18146280944347382 238:0.0 239:0.6236838698387146 240:0.0 241:0.0 242:0.0 243:0.050558194518089294 244:0.0 245:0.0 246:0.0 247:0.0 248:0.1242104098200798 249:0.0 250:0.0 251:0.0 252:0.0 253:0.05784812942147255 254:0.0 255:0.0 256:0.0 257:0.0 258:0.0 259:0.0 260:0.0 261:0.05784812942147255 262:0.15914872288703918 263:0.006737981457263231 264:0.020162533968687057 265:0.0 266:0.0 267:0.0 268:0.0 269:0.0 270:0.15914872288703918 271:0.08452878892421722 272:0.02021394670009613 273:0.06048760563135147 274:0.0 275:0.050359345972537994 276:0.0 277:0.0 278:0.0 279:0.08452878892421722 280:0.0 281:0.0 282:0.0 283:0.0 284:0.016786448657512665 285:0.0 286:0.0 287:0.0 288:0.0 289:0.03874050825834274 290:0.0 291:0.0 292:0.0 293:0.0 294:0.0 295:0.0 296:0.0 297:0.03874050825834274 298:0.11295013129711151 299:0.0 300:0.0 301:0.0 302:0.0 303:0.0 304:0.0 305:0.0 306:0.11295013129711151 307:0.13917602598667145 308:0.0 309:0.0 310:0.0 311:0.0 312:0.0 313:0.0 314:0.0 315:0.13917602598667145 316:0.05269600823521614 317:0.0 318:0.0 319:0.0 320:0.14787915349006653 321:0.0 322:0.040266864001750946 323:0.013456477783620358 324:0.05269600823521614 325:0.0 326:0.0 327:0.0 328:0.0 329:0.0 330:0.0 331:0.0 332:0.0 333:0.0 334:0.0 335:0.0 336:0.0 337:0.0 338:0.0 339:0.0 340:0.0 341:0.0 342:0.0 343:0.0 344:0.0 345:0.0 346:0.0 347:0.0 348:0.0 349:0.0 350:0.0 351:0.0 352:0.0 353:0.0 354:0.0 355:0.0 356:0.5419065952301025 357:0.0 358:0.0 359:0.0 360:0.0 361:0.0 362:0.0 363:0.0 364:0.0 365:0.0 366:0.0 367:0.0 368:0.0 369:0.0 370:0.0 371:0.0 372:0.0 373:0.0 374:0.0 375:0.0 376:0.0 377:0.0 378:0.0 379:0.0 380:0.0 381:0.0 382:0.0 383:0.0 384:0.0 385:0.0 386:0.0 387:0.0 388:0.0 389:0.0 390:0.0 391:0.0 392:0.6677318811416626 393:0.0 394:0.0 395:0.0 396:0.0 397:0.0 398:0.0 399:0.0 400:0.0 401:0.0 402:0.0 403:0.0 404:0.0 405:0.0 406:0.0 407:0.0 408:0.0 409:0.0 410:0.0 411:0.0 412:0.0 413:0.0 414:0.0 415:0.0 416:0.0 417:0.0 418:0.0 419:0.0 420:0.0 421:0.0 422:0.0 423:0.0 424:0.0 425:0.0 426:0.0 427:0.0 428:0.3439510762691498 429:0.0 430:0.0 431:0.0 432:0.0 433:0.0 434:0.0 435:0.0 436:0.0 437:0.0 438:0.0 439:0.0 440:0.0 441:0.0 442:0.0 443:0.0022950205020606518 444:0.006867549382150173 445:0.0 446:0.10914600640535355 447:0.0 448:0.0 449:0.0 450:0.0 451:0.010541264899075031 452:0.006885060574859381 453:0.020602649077773094 454:0.0 455:0.10363783687353134 456:0.0 457:0.0 458:0.0 459:0.010541264899075031 460:0.01190839521586895 461:0.0 462:0.0 463:0.0 464:0.0 465:0.0 466:0.0 467:0.0 468:0.01190839521586895 469:0.0 470:0.0 471:0.0 472:0.0 473:0.0 474:0.0 475:0.0 476:0.0 477:0.0 478:0.0 479:0.0 480:0.0 481:0.0 482:0.3371109962463379 483:0.0 484:0.0 485:0.0 486:0.0 487:0.004839413799345493 488:0.0 489:0.0 490:0.0 491:0.35883089900016785 492:0.0 493:0.0 494:0.0 495:0.004839413799345493 496:0.022289296612143517 497:0.0 498:0.0 499:0.0 500:0.0 501:0.0 502:0.0 503:0.0 504:0.022289296612143517 505:0.0 506:0.0 507:0.0 508:0.0 509:0.0 510:0.0 511:0.0 512:0.0 513:0.0 514:0.0 515:0.0 516:0.0 517:0.0 518:0.4250636696815491 519:0.0 520:0.0 521:0.0 522:0.0 523:0.014518242329359055 524:0.05777474865317345 525:0.17288343608379364 526:0.0 527:0.4711843430995941 528:0.0 529:0.0 530:0.0 531:0.014518242329359055 532:0.08744168281555176 533:0.043463535606861115 534:0.13005895912647247 535:0.0 536:0.0 537:0.0 538:0.0 539:0.0 540:0.08744168281555176 541:0.0 542:0.0 543:0.0 544:0.0 545:0.0 546:0.0 547:0.0 548:0.0 549:0.0 550:0.0 551:0.0 552:0.0 553:0.0 554:0.25854477286338806 555:0.0 556:0.0 557:0.0 558:0.0 559:0.0 560:0.043463535606861115 561:0.13005895912647247 562:0.0 563:0.4026353061199188 564:0.0 565:0.0 566:0.0 567:0.0 568:0.0068579320795834064 569:0.022556273266673088 570:0.06749670952558517 571:0.0 572:0.013715864159166813 573:0.0 574:0.0 575:0.0 576:0.0068579320795834064 577:0.03332437574863434 578:0.0 579:0.0 580:0.0 581:0.0 582:0.0 583:0.0 584:0.0 585:0.03332437574863434 586:0.09715910255908966 587:0.0 588:0.0 589:0.0 590:0.0 591:0.0 592:0.0 593:0.0 594:0.09715910255908966 595:0.11971848458051682 596:0.0 597:0.0 598:0.0 599:0.0 600:0.0 601:0.0 602:0.0 603:0.11971848458051682 604:0.061667416244745255 605:0.0 606:0.0 607:0.0 608:0.0 609:0.0 610:0.0 611:0.0 612:0.061667416244745255 613:0.09592226147651672 614:0.0 615:0.0 616:0.0 617:0.0 618:0.0 619:0.0 620:0.0 621:0.09592226147651672 622:0.2796667516231537 623:0.0 624:0.0 625:0.0 626:0.0 627:0.0 628:0.0 629:0.0 630:0.2796667516231537 631:0.3446026146411896 632:0.0 633:0.0 634:0.0 635:0.0 636:0.0 637:0.0 638:0.0 639:0.3446026146411896 640:0.17750602960586548 641:0.0 642:0.0 643:0.0 644:0.0 645:0.0 646:0.0 647:0.0 648:0.17750602960586548 649:0.09375740587711334 650:0.0 651:0.0 652:0.0 653:0.0 654:0.0 655:0.0 656:0.0 657:0.09375740587711334 658:0.27335503697395325 659:0.0 660:0.0 661:0.0 662:0.0 663:0.0 664:0.0 665:0.0 666:0.27335503697395325 667:0.33682531118392944 668:0.0 669:0.0 670:0.0 671:0.0 672:0.0 673:0.0 674:0.0 675:0.33682531118392944 676:0.1734999418258667 677:0.0 678:0.0 679:0.0 680:0.0 681:0.0 682:0.0 683:0.0 684:0.1734999418258667 685:0.0 686:0.0 687:0.0 688:0.0 689:0.0 690:0.0 691:0.0 692:0.0 693:0.0 694:0.0 695:0.0 696:0.0 697:0.0 698:0.0 699:0.0 700:0.0 701:0.0 702:0.0 703:0.0 704:0.0 705:0.0 706:0.0 707:0.0 708:0.0 709:0.0 710:0.0 711:0.0 712:0.0 713:0.0 714:0.0 715:0.0 716:0.0 717:0.0 718:0.0 719:0.0 720:0.0 721:0.04075634106993675 722:0.0 723:0.0 724:0.0 725:0.0 726:0.0 727:0.0 728:0.0 729:0.04075634106993675 730:0.043992865830659866 731:0.0 732:0.0 733:0.0 734:0.06578356772661209 735:0.0 736:0.15864704549312592 737:0.05301704630255699 738:0.043992865830659866 739:0.06676185131072998 740:0.0 741:0.0 742:0.0 743:0.07002197206020355 744:0.0 745:0.16886858642101288 746:0.05643291398882866 747:0.06676185131072998 748:0.06954129785299301 749:0.0 750:0.0 751:0.0 752:0.0 753:0.0 754:0.0 755:0.021779322996735573 756:0.07405421882867813 757:0.11731474101543427 758:0.0 759:0.0 760:0.0 761:0.0 762:0.0 763:0.0 764:0.0 765:0.11731474101543427 766:0.16599267721176147 767:0.07382820546627045 768:0.22092215716838837 769:0.0 770:0.27607429027557373 771:0.0 772:0.037323564291000366 773:0.012472879141569138 774:0.16599267721176147 775:0.02882710099220276 776:0.02460940182209015 777:0.07364071905612946 778:0.0 779:0.4642719626426697 780:0.0 781:0.039728306233882904 782:0.01327650249004364 783:0.02882710099220276 784:0.05608024075627327 785:0.010258753784000874 786:0.030697988346219063 787:0.0 788:0.05410587787628174 789:0.0 790:0.0 791:0.0 792:0.05608024075627327 793:0.11466708779335022 794:0.0 795:0.0 796:0.0 797:0.0 798:0.0 799:0.0 800:0.0 801:0.11466708779335022 802:0.2418583482503891 803:0.02460940182209015 804:0.07364071905612946 805:0.0 806:0.02624119631946087 807:0.0 808:0.0 809:0.0 810:0.2418583482503891 811:0.03936179354786873 812:0.012078030966222286 813:0.036142028868198395 814:0.0 815:0.18057774007320404 816:0.0 817:0.0 818:0.0 819:0.03936179354786873 820:0.012778903357684612 821:0.04240095242857933 822:0.12687934935092926 823:0.0 824:0.39980146288871765 825:0.0 826:0.0 827:0.0 828:0.012778903357684612 829:0.0 830:0.0 831:0.0 832:0.0 833:0.0 834:0.0 835:0.0 836:0.0 837:0.0 838:0.0 839:0.0 840:0.0 841:0.0 842:0.0 843:0.0 844:0.0 845:0.0 846:0.0 847:0.0067418222315609455 848:0.07132071256637573 849:0.11605801433324814 850:0.0 851:0.015916090458631516 852:0.0 853:0.0 854:0.0 855:0.0 856:0.03432875871658325 857:0.14153560996055603 858:0.13144700229167938 859:0.0 860:0.12600290775299072 861:0.0 862:0.0 863:0.0 864:0.01410328783094883 865:0.0 866:0.0 867:0.0 868:0.0 869:0.0 870:0.0 871:0.0 872:0.0 873:0.0 874:0.0 875:0.0 876:0.0 877:0.0 878:0.013073299080133438 879:0.0 880:0.0 881:0.0 882:0.0 883:0.0 884:0.03645824268460274 885:0.10909653455018997 886:0.0 887:0.04452773183584213 888:0.0 889:0.0 890:0.0 891:0.0 892:0.0 893:0.024180324748158455 894:0.07235646992921829 895:0.0 896:0.036369696259498596 897:0.0 898:0.0 899:0.0 900:0.0 901:0.0 902:0.0 903:0.0 904:0.0 905:0.0 906:0.0 907:0.0 908:0.0 909:0.0 910:0.0 911:0.0 912:0.0 913:0.0 914:0.11783874779939651 915:0.0 916:0.0 917:0.0 918:0.0 919:0.0 920:0.04484708979725838 921:0.1341990828514099 922:0.0 923:0.5616588592529297 924:0.0 925:0.0 926:0.0 927:0.0 928:0.0 929:0.01895822212100029 930:0.056730013340711594 931:0.0 932:0.07619627565145493 933:0.0 934:0.0 935:0.0 936:0.0 937:0.06966426968574524 938:0.0 939:0.0 940:0.0 941:0.0 942:0.0 943:0.0 944:0.0 945:0.06966426968574524 946:0.17457780241966248 947:0.02021394670009613 948:0.06048760563135147 949:0.0 950:0.08368421345949173 951:0.0 952:0.0 953:0.0 954:0.17457780241966248 955:0.050558194518089294 956:0.06064184010028839 957:0.18146280944347382 958:0.0 959:0.6236838698387146 960:0.0 961:0.0 962:0.0 963:0.050558194518089294 964:0.0 965:0.0 966:0.0 967:0.0 968:0.1242104098200798 969:0.0 970:0.0 971:0.0 972:0.0 973:0.05784812942147255 974:0.0 975:0.0 976:0.0 977:0.0 978:0.0 979:0.0 980:0.0 981:0.05784812942147255 982:0.15914872288703918 983:0.006737981457263231 984:0.020162533968687057 985:0.0 986:0.0 987:0.0 988:0.0 989:0.0 990:0.15914872288703918 991:0.08452878892421722 992:0.02021394670009613 993:0.06048760563135147 994:0.0 995:0.050359345972537994 996:0.0 997:0.0 998:0.0 999:0.08452878892421722 1000:0.0 1001:0.0 1002:0.0 1003:0.0 1004:0.016786448657512665 1005:0.0 1006:0.0 1007:0.0 1008:0.0 1009:0.0121276481077075 1010:0.0 1011:0.0 1012:0.0 1013:0.0 1014:0.0 1015:0.0066046142019331455 1016:0.0022071460261940956 1017:0.0121276481077075 1018:0.04444205015897751 1019:0.0 1020:0.0 1021:0.0 1022:0.0 1023:0.0 1024:0.0 1025:0.0 1026:0.04444205015897751 1027:0.05476105213165283 1028:0.0 1029:0.0 1030:0.0 1031:0.0 1032:0.0 1033:0.0 1034:0.0 1035:0.05476105213165283 1036:0.02820761315524578 1037:0.0 1038:0.0 1039:0.0 1040:0.0 1041:0.0 1042:0.0 1043:0.0 1044:0.02820761315524578 1045:0.1029185876250267 1046:0.0 1047:0.0 1048:0.0 1049:0.0 1050:0.0 1051:0.019813843071460724 1052:0.0066214376129209995 1053:0.1029185876250267 1054:0.327314555644989 1055:0.0 1056:0.0 1057:0.0 1058:0.0 1059:0.0 1060:0.0 1061:0.0 1062:0.327314555644989 1063:0.4033137261867523 1064:0.0 1065:0.0 1066:0.0 1067:0.0 1068:0.0 1069:0.0 1070:0.0 1071:0.4033137261867523 1072:0.20774835348129272 1073:0.0 1074:0.0 1075:0.0 1076:0.0 1077:0.0 1078:0.0 1079:0.0 1080:0.20774835348129272 1081:0.03742162138223648 1082:0.0 1083:0.0 1084:0.0 1085:0.0 1086:0.0 1087:0.0 1088:0.0 1089:0.03742162138223648 1090:0.10910485684871674 1091:0.0 1092:0.0 1093:0.0 1094:0.0 1095:0.0 1096:0.0 1097:0.0 1098:0.10910485684871674 1099:0.1344379186630249 1100:0.0 1101:0.0 1102:0.0 1103:0.0 1104:0.0 1105:0.0 1106:0.0 1107:0.1344379186630249 1108:0.0692494586110115 1109:0.0 1110:0.0 1111:0.0 1112:0.0 1113:0.0 1114:0.0 1115:0.0 1116:0.0692494586110115 1117:0.07020632177591324 1118:0.0 1119:0.0 1120:0.0 1121:0.0 1122:0.0 1123:0.0 1124:0.0 1125:0.07020632177591324 1126:0.20469050109386444 1127:0.0 1128:0.0 1129:0.0 1130:0.0 1131:0.0 1132:0.0 1133:0.0 1134:0.20469050109386444 1135:0.2522175908088684 1136:0.0 1137:0.0 1138:0.0 1139:0.0 1140:0.0 1141:0.0 1142:0.0 1143:0.2522175908088684 1144:0.1299181878566742 1145:0.0 1146:0.0 1147:0.0 1148:0.0 1149:0.0 1150:0.0 1151:0.0 1152:0.1299181878566742 1153:0.0 1154:0.0 1155:0.0 1156:0.0 1157:0.0 1158:0.0 1159:0.0 1160:0.0 1161:0.0 1162:0.0 1163:0.0022950205020606518 1164:0.006867549382150173 1165:0.0 1166:0.10914600640535355 1167:0.0 1168:0.0 1169:0.0 1170:0.0 1171:0.010541264899075031 1172:0.006885060574859381 1173:0.020602649077773094 1174:0.0 1175:0.10363783687353134 1176:0.0 1177:0.0 1178:0.0 1179:0.010541264899075031 1180:0.01190839521586895 1181:0.0 1182:0.0 1183:0.0 1184:0.0 1185:0.0 1186:0.0 1187:0.0 1188:0.01190839521586895 1189:0.0 1190:0.0 1191:0.0 1192:0.0 1193:0.0 1194:0.0 1195:0.0 1196:0.0 1197:0.0 1198:0.0 1199:0.0 1200:0.0 1201:0.0 1202:0.3371109962463379 1203:0.0 1204:0.0 1205:0.0 1206:0.0 1207:0.004839413799345493 1208:0.0 1209:0.0 1210:0.0 1211:0.35883089900016785 1212:0.0 1213:0.0 1214:0.0 1215:0.004839413799345493 1216:0.022289296612143517 1217:0.0 1218:0.0 1219:0.0 1220:0.0 1221:0.0 1222:0.0 1223:0.0 1224:0.022289296612143517 1225:0.0 1226:0.0 1227:0.0 1228:0.0 1229:0.0 1230:0.0 1231:0.0 1232:0.0 1233:0.0 1234:0.0 1235:0.0 1236:0.0 1237:0.0 1238:0.4250636696815491 1239:0.0 1240:0.0 1241:0.0 1242:0.0 1243:0.014518242329359055 1244:0.05777474865317345 1245:0.17288343608379364 1246:0.0 1247:0.4711843430995941 1248:0.0 1249:0.0 1250:0.0 1251:0.014518242329359055 1252:0.08744168281555176 1253:0.043463535606861115 1254:0.13005895912647247 1255:0.0 1256:0.0 1257:0.0 1258:0.0 1259:0.0 1260:0.08744168281555176 1261:0.0 1262:0.0 1263:0.0 1264:0.0 1265:0.0 1266:0.0 1267:0.0 1268:0.0 1269:0.0 1270:0.0 1271:0.0 1272:0.0 1273:0.0 1274:0.25854477286338806 1275:0.0 1276:0.0 1277:0.0 1278:0.0 1279:0.0 1280:0.043463535606861115 1281:0.13005895912647247 1282:0.0 1283:0.4026353061199188 1284:0.0 1285:0.0 1286:0.0 1287:0.0 1288:0.0068579320795834064 1289:0.022556273266673088 1290:0.06749670952558517 1291:0.0 1292:0.013715864159166813 1293:0.0 1294:0.0 1295:0.0 1296:0.0068579320795834064 1297:0.009647402912378311 1298:0.0 1299:0.0 1300:0.0 1301:0.0 1302:0.0 1303:0.0 1304:0.0 1305:0.009647402912378311 1306:0.028127551078796387 1307:0.0 1308:0.0 1309:0.0 1310:0.0 1311:0.0 1312:0.0 1313:0.0 1314:0.028127551078796387 1315:0.034658484160900116 1316:0.0 1317:0.0 1318:0.0 1319:0.0 1320:0.0 1321:0.0 1322:0.0 1323:0.034658484160900116 1324:0.01785271055996418 1325:0.0 1326:0.0 1327:0.0 1328:0.0 1329:0.0 1330:0.0 1331:0.0 1332:0.01785271055996418 1333:0.02376173436641693 1334:0.0 1335:0.0 1336:0.0 1337:0.0 1338:0.0 1339:0.0 1340:0.0 1341:0.02376173436641693 1342:0.06927867978811264 1343:0.0 1344:0.0 1345:0.0 1346:0.0 1347:0.0 1348:0.0 1349:0.0 1350:0.06927867978811264 1351:0.08536449819803238 1352:0.0 1353:0.0 1354:0.0 1355:0.0 1356:0.0 1357:0.0 1358:0.0 1359:0.08536449819803238 1360:0.04397156089544296 1361:0.0 1362:0.0 1363:0.0 1364:0.0 1365:0.0 1366:0.0 1367:0.0 1368:0.04397156089544296 1369:0.13419418036937714 1370:0.0 1371:0.0 1372:0.0 1373:0.0 1374:0.0 1375:0.0 1376:0.0 1377:0.13419418036937714 1378:0.39125069975852966 1379:0.0 1380:0.0 1381:0.0 1382:0.0 1383:0.0 1384:0.0 1385:0.0 1386:0.39125069975852966 1387:0.48209521174430847 1388:0.0 1389:0.0 1390:0.0 1391:0.0 1392:0.0 1393:0.0 1394:0.0 1395:0.48209521174430847 1396:0.24832898378372192 1397:0.0 1398:0.0 1399:0.0 1400:0.0 1401:0.0 1402:0.0 1403:0.0 1404:0.24832898378372192 1405:0.020969657227396965 1406:0.0 1407:0.0 1408:0.0 1409:0.0 1410:0.0 1411:0.0 1412:0.0 1413:0.020969657227396965 1414:0.061138223856687546 1415:0.0 1416:0.0 1417:0.0 1418:0.0 1419:0.0 1420:0.0 1421:0.0 1422:0.061138223856687546 1423:0.07533390820026398 1424:0.0 1425:0.0 1426:0.0 1427:0.0 1428:0.0 1429:0.0 1430:0.0 1431:0.07533390820026398 1432:0.03880476951599121 1433:0.0 1434:0.0 1435:0.0 1436:0.0 1437:0.0 1438:0.0 1439:0.0 1440:0.03880476951599121 1441:0.04075634106993675 1442:0.0 1443:0.0 1444:0.0 1445:0.0 1446:0.0 1447:0.0 1448:0.0 1449:0.04075634106993675 1450:0.043992865830659866 1451:0.0 1452:0.0 1453:0.0 1454:0.06578356772661209 1455:0.0 1456:0.15864704549312592 1457:0.05301704630255699 1458:0.043992865830659866 1459:0.06676185131072998 1460:0.0 1461:0.0 1462:0.0 1463:0.07002197206020355 1464:0.0 1465:0.16886858642101288 1466:0.05643291398882866 1467:0.06676185131072998 1468:0.06954129785299301 1469:0.0 1470:0.0 1471:0.0 1472:0.0 1473:0.0 1474:0.0 1475:0.021779322996735573 1476:0.07405421882867813 1477:0.11731474101543427 1478:0.0 1479:0.0 1480:0.0 1481:0.0 1482:0.0 1483:0.0 1484:0.0 1485:0.11731474101543427 1486:0.16599267721176147 1487:0.07382820546627045 1488:0.22092215716838837 1489:0.0 1490:0.27607429027557373 1491:0.0 1492:0.037323564291000366 1493:0.012472879141569138 1494:0.16599267721176147 1495:0.02882710099220276 1496:0.02460940182209015 1497:0.07364071905612946 1498:0.0 1499:0.4642719626426697 1500:0.0 1501:0.039728306233882904 1502:0.01327650249004364 1503:0.02882710099220276 1504:0.05608024075627327 1505:0.010258753784000874 1506:0.030697988346219063 1507:0.0 1508:0.05410587787628174 1509:0.0 1510:0.0 1511:0.0 1512:0.05608024075627327 1513:0.11466708779335022 1514:0.0 1515:0.0 1516:0.0 1517:0.0 1518:0.0 1519:0.0 1520:0.0 1521:0.11466708779335022 1522:0.2418583482503891 1523:0.02460940182209015 1524:0.07364071905612946 1525:0.0 1526:0.02624119631946087 1527:0.0 1528:0.0 1529:0.0 1530:0.2418583482503891 1531:0.03936179354786873 1532:0.012078030966222286 1533:0.036142028868198395 1534:0.0 1535:0.18057774007320404 1536:0.0 1537:0.0 1538:0.0 1539:0.03936179354786873 1540:0.012778903357684612 1541:0.04240095242857933 1542:0.12687934935092926 1543:0.0 1544:0.39980146288871765 1545:0.0 1546:0.0 1547:0.0 1548:0.012778903357684612 1549:0.0 1550:0.0 1551:0.0 1552:0.0 1553:0.0 1554:0.0 1555:0.0 1556:0.0 1557:0.0 1558:0.0 1559:0.0 1560:0.0 1561:0.0 1562:0.0 1563:0.0 1564:0.0 1565:0.0 1566:0.0 1567:0.0067418222315609455 1568:0.07132071256637573 1569:0.11605801433324814 1570:0.0 1571:0.015916090458631516 1572:0.0 1573:0.0 1574:0.0 1575:0.0 1576:0.03432875871658325 1577:0.14153560996055603 1578:0.13144700229167938 1579:0.0 1580:0.12600290775299072 1581:0.0 1582:0.0 1583:0.0 1584:0.01410328783094883 1585:0.01933041214942932 1586:0.0035890284925699234 1587:0.010739699006080627 1588:0.0 1589:0.0063096522353589535 1590:0.0 1591:0.0 1592:0.0 1593:0.01933041214942932 1594:0.0040508764795959 1595:0.0011963427532464266 1596:0.003579899901524186 1597:0.0 1598:0.018928956240415573 1599:0.0 1600:0.0 1601:0.0 1602:0.0040508764795959 1603:0.0 1604:0.0 1605:0.0 1606:0.0 1607:0.0 1608:0.0 1609:0.0 1610:0.0 1611:0.0 1612:0.0 1613:0.0 1614:0.0 1615:0.0 1616:0.0 1617:0.0 1618:0.0 1619:0.0 1620:0.0 1621:0.09856599569320679 1622:0.0 1623:0.0 1624:0.0 1625:0.0 1626:0.0 1627:0.0 1628:0.0 1629:0.09856599569320679 1630:0.2719910740852356 1631:0.0 1632:0.0 1633:0.0 1634:0.0 1635:0.0 1636:0.0 1637:0.0 1638:0.2719910740852356 1639:0.33348092436790466 1640:0.0 1641:0.0 1642:0.0 1643:0.0 1644:0.0 1645:0.0 1646:0.0 1647:0.33348092436790466 1648:0.17177721858024597 1649:0.0 1650:0.0 1651:0.0 1652:0.0 1653:0.0 1654:0.0 1655:0.0 1656:0.17177721858024597 1657:0.09880722314119339 1658:0.0 1659:0.0 1660:0.0 1661:0.0 1662:0.0 1663:0.0 1664:0.0 1665:0.09880722314119339 1666:0.28807806968688965 1667:0.0 1668:0.0 1669:0.0 1670:0.0 1671:0.0 1672:0.0 1673:0.0 1674:0.28807806968688965 1675:0.3549669086933136 1676:0.0 1677:0.0 1678:0.0 1679:0.0 1680:0.0 1681:0.0 1682:0.0 1683:0.3549669086933136 1684:0.18284472823143005 1685:0.0 1686:0.0 1687:0.0 1688:0.0 1689:0.0 1690:0.0 1691:0.0 1692:0.18284472823143005 1693:0.024786634370684624 1694:0.0 1695:0.0 1696:0.0 1697:0.0 1698:0.0 1699:0.0 1700:0.0 1701:0.024786634370684624 1702:0.0722668394446373 1703:0.0 1704:0.0 1705:0.0 1706:0.0 1707:0.0 1708:0.0 1709:0.0 1710:0.0722668394446373 1711:0.08904647827148438 1712:0.0 1713:0.0 1714:0.0 1715:0.0 1716:0.0 1717:0.0 1718:0.0 1719:0.08904647827148438 1720:0.0458681583404541 1721:0.0 1722:0.0 1723:0.0 1724:0.0 1725:0.0 1726:0.0 1727:0.0 1728:0.0458681583404541 
